svm_type c_svc
kernel_type rbf
gamma 0.10000000000000001
nr_class 2
total_sv 1905
rho -140.67206874094487
label 0 1
nr_sv 953 952
SV
100 1:0.00619701 2:-0.0236073 
100 1:0.00718853 2:-0.0263726 
100 1:0.00771686 2:-0.0180396 
100 1:0.00463551 2:-0.0129384 
100 1:0.0151226 2:-0.00997788 
100 1:0.00563082 2:-0.0137416 
100 1:0.0141551 2:-0.0165652 
100 1:0.00863277 2:-0.0192312 
100 1:0.00821968 2:-0.0207162 
100 1:0.0130526 2:0.000510408 
100 1:0.0111622 2:-0.0177931 
100 1:0.00393187 2:-0.00887328 
100 1:0.00845404 2:-0.0265035 
100 1:0.00426042 2:-0.0143646 
100 1:0.0116151 2:-0.021594 
100 1:0.00864177 2:-0.0162171 
100 1:0.00750319 2:-0.0223242 
100 1:0.00608933 2:-0.0210424 
100 1:-0.00440589 2:-0.00473917 
100 1:0.0042525 2:-0.0174005 
100 1:0.00996894 2:-0.0236406 
100 1:0.00430613 2:-0.0258899 
100 1:0.0096773 2:-0.0217594 
100 1:0.0109757 2:-0.022551 
100 1:0.0100241 2:-0.0234728 
100 1:0.0104976 2:-0.0172042 
100 1:0.0104842 2:-0.0191998 
100 1:0.00943502 2:-0.0178783 
100 1:0.0126959 2:-0.00682632 
100 1:0.00594423 2:-0.0256679 
100 1:0.00433925 2:-0.0110931 
100 1:0.0125943 2:-0.0177215 
100 1:0.0133862 2:-0.0114887 
100 1:0.00589998 2:-0.0184575 
100 1:0.00944991 2:-0.0228134 
100 1:0.0105564 2:-0.0223329 
100 1:0.0102899 2:-0.0221596 
100 1:0.0096165 2:-0.0222545 
100 1:0.0100838 2:-0.016245 
100 1:0.0111451 2:-0.0100772 
100 1:0.0118157 2:-0.0145475 
100 1:0.00927468 2:-0.0239444 
100 1:0.0126748 2:-0.0100731 
100 1:0.00945313 2:-0.0158105 
100 1:0.00805476 2:-0.0247125 
100 1:0.00502608 2:-0.0235481 
100 1:0.0104976 2:-0.0155937 
100 1:0.011508 2:-0.0113529 
100 1:0.0168567 2:-0.0071251 
100 1:0.0146098 2:-0.013365 
100 1:0.0139354 2:-0.00806 
100 1:0.00917115 2:-0.0255187 
100 1:0.00857322 2:-0.0277623 
100 1:0.00958455 2:-0.0217026 
100 1:0.0146468 2:-0.0109628 
100 1:0.0100472 2:-0.0245687 
100 1:0.00872252 2:-0.0258392 
100 1:0.00602931 2:-0.0189096 
100 1:0.012442 2:-0.017538 
100 1:0.0128555 2:-0.0161948 
100 1:0.0113705 2:-0.0215547 
100 1:0.00407771 2:-0.0105428 
100 1:0.0092456 2:-0.0125075 
100 1:0.00491642 2:-0.0291412 
100 1:0.00202665 2:-0.0205443 
100 1:0.0124064 2:-0.00161202 
100 1:0.00948325 2:-0.0239758 
100 1:0.00857273 2:-0.0219056 
100 1:0.0137615 2:-0.00656196 
100 1:0.00554506 2:-0.0167268 
100 1:0.00984169 2:-0.0129469 
100 1:0.00747239 2:-0.0209251 
100 1:0.00124173 2:-0.00970004 
100 1:0.00884252 2:-0.0241166 
100 1:0.0133279 2:-0.00764988 
100 1:0.012313 2:-0.0147379 
100 1:0.0152175 2:-0.0109008 
100 1:0.0144483 2:-0.00597578 
100 1:0.00432145 2:-0.0216878 
100 1:-0.0541962 2:0.181761 
100 1:0.0106717 2:-0.0215366 
100 1:0.0081969 2:-0.0177057 
100 1:-0.000628666 2:-0.0160389 
100 1:0.00771168 2:-0.0187262 
100 1:0.00715086 2:-0.0223581 
100 1:0.00787745 2:-0.0266895 
100 1:0.00234657 2:-0.0278824 
100 1:0.00529307 2:-0.0261238 
100 1:0.00896045 2:-0.0124729 
100 1:0.00883576 2:-0.0140027 
100 1:-0.00581626 2:0.998973 
100 1:0.0137345 2:-0.01232 
100 1:0.00332013 2:-0.0175365 
100 1:0.00615698 2:-0.0219562 
100 1:0.0109891 2:-0.0207992 
100 1:0.000893925 2:-0.0202642 
100 1:0.0112019 2:-0.0101156 
100 1:0.00845203 2:-0.0125631 
100 1:0.0103883 2:-0.0122007 
100 1:0.0143223 2:-0.0146395 
100 1:-0.00564124 2:-0.0137182 
100 1:0.00780948 2:-0.0165292 
100 1:-0.00259765 2:-0.0208705 
100 1:0.0137828 2:-0.0145418 
100 1:0.00586521 2:-0.00818831 
100 1:0.0107746 2:-0.0230109 
100 1:0.0103116 2:-0.0144739 
100 1:0.00940397 2:-0.017509 
100 1:0.00718917 2:-0.0239762 
100 1:0.01041 2:-0.0142128 
100 1:0.0156588 2:-0.0104499 
100 1:0.00790823 2:-0.0243315 
100 1:-0.154848 2:0.981753 
100 1:0.0102168 2:-0.0212191 
100 1:0.00168359 2:-0.0125453 
100 1:0.00884006 2:-0.00819586 
100 1:0.00295176 2:-0.0265548 
100 1:0.00670847 2:-0.0232826 
100 1:0.010501 2:-0.0225191 
100 1:0.00409764 2:-0.0191788 
100 1:0.0111878 2:-0.0171196 
100 1:0.00708755 2:-0.0198942 
100 1:0.00195669 2:-0.0296085 
100 1:0.00726799 2:-0.0212182 
100 1:0.00504037 2:-0.0166419 
100 1:0.00919039 2:-0.0226336 
100 1:0.00815848 2:-0.0224371 
100 1:0.00928191 2:-0.00997127 
100 1:0.00515087 2:-0.0180443 
100 1:0.0115447 2:-0.0152226 
100 1:0.0120576 2:-0.0137196 
100 1:0.00545772 2:-0.0224473 
100 1:0.011922 2:-0.0102363 
100 1:0.00977269 2:-0.0220944 
100 1:0.0121228 2:-0.0173789 
100 1:0.00932921 2:-0.0215285 
100 1:0.00604437 2:-0.0230412 
100 1:0.0121187 2:-0.0122239 
100 1:0.0129107 2:-0.0154771 
100 1:0.00898791 2:-0.0192868 
100 1:0.00636808 2:-0.0242474 
100 1:0.0137239 2:-0.01105 
100 1:0.00650303 2:-0.0157758 
100 1:0.00620588 2:-0.0187223 
100 1:0.00933466 2:-0.0207025 
100 1:0.0113506 2:-0.021264 
100 1:0.00172452 2:-0.0251012 
100 1:0.00825572 2:-0.0132685 
100 1:0.00487447 2:-0.0294494 
100 1:0.0122405 2:-0.0163502 
100 1:0.0076044 2:-0.0241068 
100 1:0.00253752 2:-0.00739826 
100 1:0.00916313 2:-0.0226819 
100 1:0.0131133 2:-0.0126432 
100 1:0.00427344 2:-0.0265459 
100 1:-0.0050588 2:0.997756 
100 1:0.00829221 2:-0.0199154 
100 1:0.00725474 2:-0.0193001 
100 1:0.0081424 2:-0.019749 
100 1:0.00870765 2:-0.0201931 
100 1:0.00937648 2:-0.0258708 
100 1:0.0155455 2:-0.00918343 
100 1:0.0034734 2:-0.01394 
100 1:0.00454565 2:-0.0308731 
100 1:0.00833869 2:-0.0187012 
100 1:0.00661026 2:-0.0254974 
100 1:0.0131394 2:-0.0149608 
100 1:0.0128732 2:-0.011711 
100 1:0.0105377 2:-0.0233125 
100 1:0.0129987 2:-0.0171847 
100 1:0.0103324 2:-0.0107241 
100 1:0.0134948 2:-0.0117944 
100 1:0.00860969 2:-0.0162972 
100 1:0.0064436 2:-0.0163834 
100 1:0.00889999 2:-0.0168732 
100 1:0.00863602 2:-0.0183777 
100 1:0.00918072 2:-0.0169019 
100 1:0.00756007 2:-0.0184773 
100 1:0.0042285 2:-0.0105337 
100 1:0.00283489 2:-0.0270248 
100 1:0.00126268 2:-0.0157614 
100 1:-0.0135019 2:0.0351142 
100 1:0.00985328 2:-0.0208151 
100 1:0.0103492 2:-0.0181884 
100 1:0.0115954 2:-0.0126183 
100 1:0.00378971 2:-0.0184406 
100 1:0.00803779 2:-0.028195 
100 1:-0.000364795 2:-0.0170099 
100 1:0.0151439 2:-0.0144156 
100 1:0.00538287 2:-0.0262278 
100 1:0.0077202 2:-0.0205681 
100 1:0.00693052 2:-0.0165107 
100 1:-0.000223463 2:-0.026276 
100 1:0.00874352 2:-0.0271879 
100 1:0.0089402 2:-0.0227626 
100 1:0.00913542 2:-0.0227953 
100 1:0.00762444 2:-0.021184 
100 1:0.0111197 2:-0.0047184 
100 1:0.00885345 2:-0.0203239 
100 1:0.0076208 2:-0.0223332 
100 1:0.0104615 2:-0.0175769 
100 1:0.0142544 2:-0.0118945 
100 1:0.0121536 2:-0.0139182 
100 1:0.00979842 2:-0.0219876 
100 1:0.0139445 2:-0.0134016 
100 1:0.00995917 2:-0.0183423 
100 1:0.00983092 2:-0.0120932 
100 1:0.0104479 2:-0.0239617 
100 1:0.0116214 2:-0.0134518 
100 1:0.00370558 2:-0.00556478 
100 1:-0.0333695 2:0.170275 
100 1:0.0156614 2:-0.00727545 
100 1:0.00331355 2:-0.0119961 
100 1:0.0101605 2:-0.0199228 
100 1:0.011902 2:-0.0157863 
100 1:0.00990078 2:-0.0184551 
100 1:0.0138639 2:-0.0145854 
100 1:0.00627927 2:-0.0252773 
100 1:0.00577832 2:-0.0176889 
100 1:0.00648068 2:-0.0251096 
100 1:0.0130914 2:-0.0170513 
100 1:0.00649142 2:-0.0102177 
100 1:0.0108331 2:-0.0223613 
100 1:0.00576405 2:-0.0284633 
100 1:0.00201552 2:-0.0208472 
100 1:0.00895883 2:-0.0203174 
100 1:0.00141631 2:-0.0238478 
100 1:0.0094116 2:-0.023257 
100 1:0.0107273 2:-0.0200368 
100 1:0.00590711 2:-0.0162689 
100 1:0.0130497 2:-0.0161331 
100 1:0.0115484 2:-0.00457399 
100 1:0.0125964 2:-0.0039269 
100 1:0.0106315 2:-0.0187661 
100 1:0.00755972 2:-0.0215518 
100 1:0.00577337 2:-0.0191374 
100 1:0.0130854 2:-0.00505048 
100 1:0.0120329 2:-0.01672 
100 1:0.0100933 2:-0.0135982 
100 1:0.0036107 2:-0.0243344 
100 1:0.00868338 2:-0.0224722 
100 1:0.00946094 2:-0.0245293 
100 1:0.00706947 2:-0.00318306 
100 1:0.00981184 2:-0.0189377 
100 1:0.0129003 2:-0.0145768 
100 1:0.00511018 2:-0.019316 
100 1:0.00993109 2:-0.0191124 
100 1:0.00662239 2:-0.0219747 
100 1:0.00903053 2:-0.0182027 
100 1:0.0131105 2:-0.01631 
100 1:-0.135498 2:0.753035 
100 1:0.00991657 2:-0.0180923 
100 1:0.0174841 2:-0.00697829 
100 1:0.00747213 2:-0.0258919 
100 1:0.00983464 2:-0.0120942 
100 1:0.00938376 2:-0.0236031 
100 1:0.0075496 2:-0.0242851 
100 1:0.00550204 2:-0.0179752 
100 1:0.00929307 2:-0.0248354 
100 1:0.00934514 2:-0.0143284 
100 1:0.0142675 2:-0.0149596 
100 1:0.0128173 2:-0.0150987 
100 1:0.00803616 2:-0.0219404 
100 1:0.00778801 2:-0.0257913 
100 1:-0.034453 2:0.158476 
100 1:0.0070085 2:-0.0128869 
100 1:0.00740961 2:-0.0211955 
100 1:0.00887092 2:-0.0203275 
100 1:0.00801295 2:-0.017097 
100 1:0.00941835 2:-0.0214039 
100 1:0.0105243 2:-0.0231889 
100 1:0.00609259 2:-0.0127414 
100 1:0.00737753 2:-0.0246477 
100 1:0.0152582 2:-0.012636 
100 1:0.00800935 2:-0.0106968 
100 1:0.0111158 2:-0.0167107 
100 1:-0.207905 2:0.977851 
100 1:0.00164003 2:-0.0239275 
100 1:0.00910905 2:-0.0121964 
100 1:0.00989975 2:-0.0233376 
100 1:0.0103163 2:-0.0113778 
100 1:0.0170443 2:-0.00969438 
100 1:0.0129632 2:-0.0153315 
100 1:0.000947775 2:-0.00909927 
100 1:0.00335723 2:-0.0155807 
100 1:0.0119908 2:-0.0118616 
100 1:0.00494657 2:-0.0233606 
100 1:0.0109859 2:-0.0210167 
100 1:0.00699855 2:-0.0240269 
100 1:0.00984924 2:-0.0189113 
100 1:0.0113279 2:-0.0198588 
100 1:0.0102399 2:-0.0206326 
100 1:0.00963094 2:-0.0161382 
100 1:0.0113861 2:-0.0199556 
100 1:0.00599072 2:-0.0209221 
100 1:0.0123795 2:-0.0186326 
100 1:0.0167324 2:-0.00972387 
100 1:0.0107597 2:-0.0162716 
100 1:0.00994762 2:-0.0238997 
100 1:-0.00817702 2:-0.0193712 
100 1:0.00860289 2:-0.00418021 
100 1:0.00715875 2:-0.0212939 
100 1:0.00789071 2:-0.0169483 
100 1:-0.00171181 2:-0.0205858 
100 1:0.00991028 2:-0.0221718 
100 1:0.00489282 2:-0.0319616 
100 1:0.0104027 2:-0.016853 
100 1:0.0157582 2:-0.00704354 
100 1:0.0140212 2:-0.0164964 
100 1:0.00782666 2:-0.0176141 
100 1:0.00655674 2:-0.0280997 
100 1:0.0115412 2:-0.0183645 
100 1:0.0104183 2:-0.0174244 
100 1:0.0125925 2:-0.00986804 
100 1:0.0108516 2:-0.0200677 
100 1:0.00799575 2:-0.0284379 
100 1:0.010148 2:-0.0129042 
100 1:0.00602937 2:-0.0187626 
100 1:0.0147165 2:-0.0140051 
100 1:0.0108719 2:-0.0210878 
100 1:0.00556809 2:-0.0191637 
100 1:0.00239523 2:-0.0179346 
100 1:0.0116959 2:-0.0150546 
100 1:0.00534749 2:-0.021821 
100 1:0.00349264 2:-0.0347301 
100 1:0.0104368 2:-0.0224486 
100 1:0.00116765 2:-0.024878 
100 1:0.0113571 2:-0.0193334 
100 1:0.0101427 2:-0.0214336 
100 1:0.0131369 2:-0.00750655 
100 1:0.00976004 2:-0.0123177 
100 1:0.00928779 2:-0.022574 
100 1:0.000734292 2:-0.0109083 
100 1:0.0112386 2:-0.0202404 
100 1:0.0150296 2:-0.0131667 
100 1:0.00550111 2:-0.0144269 
100 1:0.00496083 2:-0.0312703 
100 1:0.0133377 2:-0.0146598 
100 1:0.00788883 2:-0.0133415 
100 1:0.00736112 2:-0.0173693 
100 1:0.0130496 2:-0.0139193 
100 1:0.00960651 2:-0.0179509 
100 1:0.00448697 2:-0.0145651 
100 1:0.00636399 2:-0.0193606 
100 1:0.00620263 2:-0.00933306 
100 1:0.00623807 2:-0.0257458 
100 1:0.00968798 2:-0.0214499 
100 1:0.000908159 2:-0.0251774 
100 1:0.0164224 2:-0.0115087 
100 1:0.0152417 2:-0.00735985 
100 1:0.012011 2:-0.00935197 
100 1:0.012781 2:-0.00509646 
100 1:0.00935731 2:-0.00886171 
100 1:0.00744096 2:-0.0185006 
100 1:0.00462685 2:-0.0298912 
100 1:0.0104294 2:-0.0131026 
100 1:0.0067486 2:-0.0250928 
100 1:0.0137632 2:-0.0136967 
100 1:0.00888566 2:-0.0245702 
100 1:0.0125568 2:-0.0145614 
100 1:0.0133324 2:-0.016928 
100 1:0.0130082 2:-0.0188254 
100 1:0.012658 2:-0.0194721 
100 1:0.00907967 2:-0.0200248 
100 1:0.0117615 2:-0.011385 
100 1:0.0140586 2:-0.0089925 
100 1:0.00743132 2:-0.023115 
100 1:0.0101277 2:-0.0229822 
100 1:0.0119418 2:-0.0185285 
100 1:0.00161721 2:-0.0261394 
100 1:0.0100216 2:-0.0229502 
100 1:0.0112649 2:-0.0186545 
100 1:0.0116088 2:-0.0211031 
100 1:0.00760548 2:-0.0149778 
100 1:0.0102862 2:-0.0213698 
100 1:0.010729 2:-0.0146756 
100 1:0.0125077 2:-0.019422 
100 1:0.00547709 2:-0.0310217 
100 1:0.0136014 2:-0.0138111 
100 1:0.0127891 2:-0.0173418 
100 1:0.0105516 2:-0.0200964 
100 1:0.00782956 2:-0.0291718 
100 1:-0.0789562 2:0.993268 
100 1:0.00893831 2:-0.00488757 
100 1:0.0123629 2:-0.018976 
100 1:0.0070328 2:-0.00924162 
100 1:0.0134181 2:-0.0134443 
100 1:0.00677726 2:-0.0221398 
100 1:0.0116855 2:-0.0166862 
100 1:0.00677987 2:-0.0192242 
100 1:-0.0396689 2:0.533117 
100 1:0.00831635 2:-0.0221418 
100 1:0.00741635 2:-0.0138006 
100 1:-0.000326292 2:-0.0176803 
100 1:0.00722985 2:-0.0215148 
100 1:0.0127796 2:-0.016722 
100 1:0.0141759 2:-0.0143157 
100 1:0.00447825 2:-0.0235451 
100 1:0.0116272 2:-0.0139176 
100 1:-0.890582 2:0.308446 
100 1:0.00720164 2:-0.0205777 
100 1:0.00265813 2:-0.030261 
100 1:0.0107783 2:-0.0144943 
100 1:0.0145716 2:-0.00551796 
100 1:0.0125247 2:-0.0184025 
100 1:0.00888273 2:-0.021588 
100 1:0.00908334 2:-0.0233437 
100 1:0.0113153 2:-0.00917599 
100 1:0.00916307 2:-0.0199993 
100 1:0.01538 2:-0.00687588 
100 1:0.00944014 2:-0.0219825 
100 1:0.0515879 2:0.707676 
100 1:0.0149063 2:0.00516379 
100 1:-0.00826228 2:0.983878 
100 1:0.00879138 2:-0.0235998 
100 1:0.00832447 2:-0.0197463 
100 1:0.0105503 2:-0.0210085 
100 1:0.0113663 2:-0.0151396 
100 1:0.00906652 2:-0.0252747 
100 1:0.00833078 2:-0.0176045 
100 1:0.00224197 2:-0.0225533 
100 1:0.00612867 2:-0.0222263 
100 1:0.0106431 2:-0.0202763 
100 1:0.0121084 2:-0.0177313 
100 1:0.00862447 2:-0.0217573 
100 1:0.00708635 2:-0.0300261 
100 1:0.00393698 2:-0.028093 
100 1:0.00701435 2:-0.0182731 
100 1:0.0126285 2:-0.0192304 
100 1:0.00845522 2:-0.0272451 
100 1:0.0112817 2:-0.017937 
100 1:0.0122689 2:-0.0138597 
100 1:0.00925457 2:-0.0134736 
100 1:0.0125611 2:-0.0117309 
100 1:-0.0529894 2:0.895709 
100 1:0.00812616 2:-0.0266035 
100 1:0.00855121 2:-0.0224991 
100 1:0.00930925 2:-0.0175764 
100 1:0.0069574 2:-0.0200435 
100 1:0.00877348 2:-0.0274366 
100 1:0.00724761 2:-0.0188152 
100 1:0.00991153 2:-0.0246116 
100 1:0.0142596 2:-0.0151111 
100 1:0.0136913 2:-0.014554 
100 1:0.0127037 2:-0.0169669 
100 1:0.00367141 2:-0.00653552 
100 1:0.0112362 2:-0.0218446 
100 1:0.000790587 2:-0.0271424 
100 1:0.0101577 2:-0.020023 
100 1:0.0123877 2:-0.01088 
100 1:0.00616815 2:-0.0222416 
100 1:0.0147577 2:-0.014615 
100 1:-0.000352462 2:-0.00940647 
100 1:0.0143396 2:-0.0138934 
100 1:0.0153637 2:-0.012368 
100 1:0.0104477 2:-0.0196153 
100 1:0.00378931 2:-0.0321653 
100 1:0.00873049 2:-0.0159174 
100 1:0.00962447 2:-0.0238038 
100 1:0.00645134 2:-0.0294689 
100 1:0.00831825 2:-0.017158 
100 1:-0.00208106 2:-0.0101983 
100 1:0.0317033 2:0.0631783 
100 1:0.00895546 2:-0.0186318 
100 1:0.00717897 2:-0.0222719 
100 1:0.0120829 2:-0.0204815 
100 1:0.0018391 2:-0.018865 
100 1:0.00981947 2:-0.0245723 
100 1:0.00635483 2:-0.0164879 
100 1:0.00570438 2:-0.0265825 
100 1:-0.354041 2:0.876375 
100 1:0.00273171 2:-0.0234863 
100 1:-0.00284492 2:-0.00430133 
100 1:0.00563469 2:-0.0249083 
100 1:0.000187032 2:-0.0252522 
100 1:0.00763249 2:-0.0194681 
100 1:0.00326536 2:-0.0242582 
100 1:-0.00171039 2:-0.0219245 
100 1:0.00863373 2:-0.019142 
100 1:0.00260974 2:-0.0211381 
100 1:0.0100918 2:-0.0199511 
100 1:0.0114856 2:-0.00860613 
100 1:0.00834627 2:-0.0253474 
100 1:0.0107533 2:-0.0123999 
100 1:-0.00145331 2:-0.0361201 
100 1:0.0156011 2:-0.012259 
100 1:0.0105098 2:-0.0207938 
100 1:0.00157663 2:-0.0165824 
100 1:0.00859822 2:-0.016478 
100 1:0.00546314 2:-0.0227387 
100 1:0.00311465 2:-0.0293133 
100 1:0.0141439 2:-0.0116678 
100 1:0.00844968 2:-0.0224994 
100 1:0.00384365 2:-0.0316198 
100 1:0.00652868 2:-0.0107382 
100 1:0.0045132 2:-0.0314801 
100 1:0.00700155 2:-0.0202477 
100 1:0.0125761 2:-0.0160398 
100 1:0.00980402 2:-0.0229795 
100 1:0.0159872 2:-0.0120591 
100 1:0.00733968 2:-0.00343818 
100 1:0.00249689 2:-0.0177594 
100 1:0.00875328 2:-0.0221506 
100 1:0.0128789 2:-0.0175818 
100 1:0.00784753 2:-0.0110187 
100 1:0.00776266 2:-0.00171505 
100 1:0.0146245 2:-0.0141909 
100 1:0.00177327 2:-0.0286521 
100 1:0.0110771 2:-0.0179757 
100 1:0.012461 2:-0.0181795 
100 1:0.00495761 2:-0.00722577 
100 1:0.00883429 2:-0.0258113 
100 1:0.00611122 2:-0.0130686 
100 1:0.00689764 2:-0.0270051 
100 1:0.00771636 2:-0.0178693 
100 1:-0.00123498 2:-0.0124218 
100 1:0.00693528 2:-0.0205006 
100 1:0.00657449 2:-0.0219525 
100 1:0.00823155 2:-0.0169026 
100 1:0.00820074 2:-0.0277392 
100 1:0.0117437 2:-0.0192851 
100 1:0.00219096 2:-0.0208495 
100 1:0.00643996 2:-0.0197457 
100 1:0.0147064 2:-0.0125382 
100 1:0.00917039 2:-0.0181279 
100 1:0.00744971 2:-0.0177165 
100 1:0.00764273 2:-0.0135343 
100 1:0.0127833 2:-0.0151888 
100 1:0.00798737 2:-0.0283344 
100 1:0.0073202 2:-0.0181575 
100 1:0.00740075 2:-0.0197744 
100 1:0.00915789 2:-0.0201857 
100 1:0.0100907 2:-0.0140751 
100 1:0.0113001 2:-0.0175671 
100 1:0.00752125 2:-0.0283713 
100 1:0.00962184 2:-0.0212916 
100 1:0.00992013 2:-0.0186638 
100 1:0.00935395 2:-0.0198286 
100 1:0.0129365 2:-0.0182317 
100 1:0.0117526 2:-0.0163062 
100 1:-7.0352e-05 2:-0.0281712 
100 1:0.0112045 2:-0.0219423 
100 1:0.0125007 2:-0.0156834 
100 1:0.0107164 2:-0.0210375 
100 1:0.00866655 2:-0.0242224 
100 1:0.0108806 2:-0.0180983 
100 1:0.00998747 2:-0.0153192 
100 1:0.0112279 2:-0.0166556 
100 1:0.00871685 2:-0.0274701 
100 1:0.00591231 2:-0.0131667 
100 1:-0.19422 2:0.960218 
100 1:0.0110628 2:-0.0211528 
100 1:0.0111099 2:-0.0136138 
100 1:0.00683257 2:-0.0131461 
100 1:0.0106346 2:-0.0188714 
100 1:0.0106793 2:-0.0168305 
100 1:0.00449976 2:-0.0132564 
100 1:0.0116931 2:-0.0209917 
100 1:0.00521268 2:-0.0281831 
100 1:8.58544e-05 2:-0.0348754 
100 1:0.0113268 2:-0.019676 
100 1:0.0117998 2:-0.0123014 
100 1:0.0123637 2:-0.0194004 
100 1:0.00934931 2:-0.0172457 
100 1:-0.002587 2:-0.025649 
100 1:-0.00389932 2:-0.0133676 
100 1:0.00724439 2:-0.0219102 
100 1:0.0094546 2:-0.0189232 
100 1:0.0132333 2:-0.0175161 
100 1:0.0094624 2:-0.00962546 
100 1:0.0112183 2:-0.0148516 
100 1:0.00339023 2:-0.0194941 
100 1:-0.00224095 2:-0.0301071 
100 1:0.0121456 2:-0.0147387 
100 1:0.0118766 2:-0.0211213 
100 1:0.00900034 2:-0.0208171 
100 1:0.00681512 2:-0.0166468 
100 1:0.0109218 2:-0.02315 
100 1:0.010638 2:-0.0149879 
100 1:0.00909462 2:-0.0236774 
100 1:0.00184191 2:-0.0174263 
100 1:-0.116312 2:0.988583 
100 1:0.0104252 2:-0.0169134 
100 1:0.0078678 2:-0.0212706 
100 1:0.0168468 2:-0.00714893 
100 1:0.0133035 2:-0.0173067 
100 1:0.00991505 2:-0.0100204 
100 1:0.0116602 2:-0.0192943 
100 1:0.0114207 2:-0.0208163 
100 1:0.00707985 2:-0.0179279 
100 1:0.0064403 2:-0.0145794 
100 1:0.00611838 2:-0.0244328 
100 1:0.0066768 2:-0.0142032 
100 1:0.0154506 2:-0.0083133 
100 1:0.00338873 2:-0.0057048 
100 1:0.0126047 2:-0.0176612 
100 1:0.0123536 2:-0.0178116 
100 1:0.00844966 2:-0.0212839 
100 1:0.0101732 2:-0.0174514 
100 1:0.0120405 2:-0.0139511 
100 1:0.00875689 2:-0.0181023 
100 1:0.0113762 2:-0.0172324 
100 1:0.00700732 2:-0.00672046 
100 1:0.00930184 2:-0.0125678 
100 1:0.0104762 2:-0.0140767 
100 1:0.00997382 2:-0.00581359 
100 1:0.00739755 2:-0.0222741 
100 1:-0.0355115 2:0.998198 
100 1:0.0112198 2:-0.0220843 
100 1:0.0072942 2:-0.0193196 
100 1:0.0106747 2:-0.0182114 
100 1:0.00565128 2:-0.0239464 
100 1:0.00787876 2:-0.0179358 
100 1:0.00854503 2:-0.0237193 
100 1:-0.0183096 2:0.0195139 
100 1:0.00149433 2:-0.0123413 
100 1:0.0142317 2:-0.0156561 
100 1:0.00854041 2:-0.0220788 
100 1:0.00462245 2:-0.0237109 
100 1:0.0133971 2:-0.0107151 
100 1:0.00943311 2:-0.0206898 
100 1:0.0100067 2:-0.0179923 
100 1:0.00958458 2:-0.0258643 
100 1:0.0111832 2:-0.0180494 
100 1:0.00516616 2:-0.00988743 
100 1:0.00650718 2:-0.0292631 
100 1:0.00500693 2:-0.00870307 
100 1:0.00514991 2:-0.0228659 
100 1:0.0100379 2:-0.0228585 
100 1:0.0112194 2:-0.0197034 
100 1:0.0039498 2:0.00161368 
100 1:0.00835516 2:-0.0142836 
100 1:-0.000391655 2:-0.0197076 
100 1:0.0114314 2:-0.021791 
100 1:0.00579337 2:-0.0105533 
100 1:0.0136291 2:-0.0162559 
100 1:0.00404764 2:-0.0182656 
100 1:0.00276581 2:-0.0171271 
100 1:0.00369439 2:-0.0187692 
100 1:0.00931854 2:-0.02202 
100 1:0.00674292 2:-0.0294899 
100 1:-0.000424288 2:-0.0183114 
100 1:0.00920878 2:-0.0238073 
100 1:0.0151537 2:-0.011893 
100 1:0.00884484 2:-0.0130323 
100 1:0.012651 2:-0.0173553 
100 1:0.0131812 2:-0.0129279 
100 1:0.0123417 2:-0.0201905 
100 1:0.00141612 2:-0.0193758 
100 1:0.0116163 2:-0.0175511 
100 1:0.00657308 2:-0.0100415 
100 1:0.0103305 2:-0.00523195 
100 1:0.00361128 2:-0.0253809 
100 1:-0.0059385 2:-0.00860614 
100 1:0.0103952 2:-0.0212138 
100 1:0.00485969 2:-0.0271855 
100 1:0.00311246 2:-0.0325025 
17.352499387446116 1:0.0168887 2:-0.0110712 
100 1:0.00925919 2:-0.019867 
100 1:0.0125726 2:-0.0123149 
100 1:-0.00149695 2:-0.0120927 
100 1:0.015552 2:-0.013615 
100 1:0.0163657 2:-0.011978 
100 1:0.00517823 2:-0.0130318 
100 1:0.0100064 2:-0.0200034 
100 1:0.00195888 2:-0.0313255 
100 1:0.0112267 2:-0.0104537 
100 1:0.0102472 2:-0.0158737 
100 1:0.00760451 2:-0.0118069 
100 1:0.0113904 2:-0.0174031 
100 1:0.00384639 2:-0.00839379 
100 1:0.0143901 2:-0.0046005 
100 1:0.0104383 2:-0.00792391 
100 1:0.00697042 2:-0.0185238 
100 1:0.00575765 2:-0.0165601 
100 1:0.00131398 2:-0.0244767 
100 1:0.0149353 2:-0.0147752 
100 1:0.00914453 2:-0.0199931 
100 1:0.0147521 2:-0.0135304 
100 1:0.0157579 2:-0.00888431 
100 1:0.00923503 2:-0.00808766 
100 1:0.0104847 2:-0.0220021 
100 1:0.00650865 2:-0.0218195 
100 1:-0.00699636 2:-0.0114313 
100 1:0.00924535 2:-0.0189361 
100 1:0.0114245 2:-0.0174055 
100 1:0.0124538 2:-0.0108677 
100 1:0.00918389 2:-0.0128215 
100 1:0.00318844 2:-0.01172 
100 1:0.000115917 2:-0.0195569 
100 1:0.00538172 2:-0.0222468 
100 1:0.00402382 2:-0.019401 
100 1:0.00488492 2:-0.0305385 
100 1:0.012957 2:-0.0173532 
100 1:0.00851065 2:-0.013859 
100 1:0.010989 2:-0.0226801 
100 1:0.00586666 2:-0.0185943 
100 1:0.0151557 2:-0.0092898 
100 1:0.000762639 2:-0.0285629 
100 1:0.00694275 2:-0.0208677 
100 1:0.0124626 2:0.0465478 
100 1:0.00397737 2:-0.026879 
100 1:0.007396 2:-0.0240493 
100 1:0.0104791 2:-0.0200843 
100 1:0.0101768 2:-0.0138708 
100 1:0.00971902 2:-0.0219642 
100 1:0.012136 2:-0.0156213 
100 1:0.0113434 2:-0.0143961 
100 1:0.00518757 2:-0.014537 
100 1:0.00617848 2:-0.023545 
100 1:0.0108466 2:-0.0145187 
100 1:0.010655 2:-0.0216897 
100 1:0.00553316 2:-0.020158 
100 1:0.0111913 2:-0.0199557 
100 1:0.00584351 2:-0.018801 
100 1:0.00877382 2:-0.0233334 
100 1:0.0124102 2:-0.0194917 
100 1:0.0143869 2:-0.00835279 
100 1:0.00904024 2:-0.0238511 
100 1:0.0993447 2:0.45678 
100 1:0.0126405 2:-0.0150371 
100 1:-0.307319 2:0.502472 
100 1:0.00559536 2:-0.0218242 
100 1:0.00856693 2:-0.00989684 
100 1:0.00887394 2:-0.0229646 
100 1:0.014462 2:-0.0158986 
100 1:0.0094112 2:-0.0175575 
100 1:0.0120046 2:-0.0158511 
100 1:0.0112327 2:-0.00919807 
100 1:0.00598202 2:-0.00982787 
100 1:0.0122815 2:-0.0198405 
100 1:0.0053441 2:-0.0134767 
100 1:0.00938858 2:-0.0186018 
100 1:0.00690375 2:-0.0261962 
100 1:0.00388946 2:-0.0235898 
100 1:0.0101398 2:-0.00977472 
100 1:0.00940636 2:-0.0166257 
100 1:0.00851133 2:-0.0117216 
100 1:0.00801245 2:-0.0268566 
100 1:0.0060069 2:-0.0220812 
100 1:0.010436 2:-0.0207426 
100 1:0.0112942 2:-0.0188108 
100 1:-0.00107481 2:-0.016503 
100 1:0.00268295 2:-0.0207813 
100 1:0.0111699 2:-0.0191571 
100 1:0.0154214 2:-0.0110052 
100 1:0.0111226 2:-0.0211845 
100 1:0.00960697 2:-0.0159815 
100 1:0.00598514 2:-0.0262048 
100 1:0.000640188 2:0.00214187 
100 1:0.00929374 2:-0.0205059 
100 1:0.00786203 2:-0.0240758 
100 1:0.0119946 2:-0.00516736 
100 1:0.00951611 2:-0.0254367 
100 1:0.0138694 2:-0.00951279 
100 1:0.0119043 2:-0.0152971 
100 1:0.00924345 2:-0.018155 
100 1:0.0121264 2:-0.0106365 
100 1:0.00857461 2:-0.0186991 
100 1:0.0111795 2:-0.0202709 
100 1:0.00863332 2:-0.0176144 
100 1:0.0103449 2:-0.0145002 
100 1:0.0118731 2:-0.0204968 
100 1:0.00467165 2:-0.0172025 
100 1:0.0111902 2:-0.013637 
100 1:0.00693453 2:-0.0237242 
100 1:0.000853649 2:-0.014981 
100 1:0.0122006 2:-0.0179439 
100 1:-0.000470705 2:-0.0189764 
100 1:0.0116414 2:-0.0202888 
100 1:0.0127302 2:-0.0163901 
100 1:0.00960477 2:-0.0234661 
100 1:0.0109372 2:-0.0116693 
100 1:0.0085569 2:-0.0120463 
100 1:0.00926003 2:-0.0180351 
100 1:0.00857562 2:-0.0214996 
100 1:0.00853737 2:-0.018804 
100 1:0.00200494 2:-0.0120804 
100 1:0.0103666 2:-0.0179502 
100 1:0.00321433 2:-0.0230303 
100 1:0.00838553 2:-0.0192753 
100 1:0.00689627 2:-0.014941 
100 1:0.0089457 2:-0.0241002 
100 1:0.0112516 2:-0.0178435 
100 1:0.0095578 2:-0.0206154 
100 1:0.00953235 2:-0.0227485 
100 1:0.00897473 2:-0.0197025 
100 1:0.00758505 2:-0.0207606 
100 1:0.00634703 2:-0.0322219 
100 1:0.00555956 2:-0.0258378 
100 1:0.00720833 2:-0.0234265 
100 1:0.00875359 2:-0.0187233 
100 1:0.00924671 2:-0.0214054 
100 1:0.0123129 2:-0.0188784 
100 1:0.00636087 2:-0.0192486 
100 1:-0.0027632 2:0.0429702 
100 1:0.012288 2:-0.0195315 
100 1:0.013869 2:-0.00886709 
100 1:0.0114285 2:-0.0182343 
100 1:0.00846073 2:-0.0171629 
100 1:0.00861425 2:-0.0179839 
100 1:0.0140633 2:-0.0115542 
100 1:0.0132715 2:-0.017565 
100 1:0.00829603 2:-0.0214816 
100 1:0.00506607 2:-0.0221154 
100 1:0.0118475 2:-0.0130618 
100 1:0.0102257 2:-0.0203243 
100 1:0.0093765 2:-0.00810398 
100 1:0.0128228 2:-0.0174625 
100 1:0.0103184 2:-0.0158681 
100 1:0.00823423 2:-0.0152669 
100 1:0.0111394 2:-0.0203993 
100 1:0.0131903 2:-0.018336 
100 1:0.0103105 2:-0.0241901 
100 1:0.00490528 2:-0.0214482 
100 1:0.0097954 2:-0.0167445 
100 1:0.0108959 2:-0.0168555 
100 1:0.00463497 2:-0.0169785 
100 1:0.0119844 2:-0.0112725 
100 1:0.0147214 2:-0.0116346 
100 1:0.00314673 2:-0.0198732 
100 1:-0.00250945 2:-0.0213411 
100 1:0.0132302 2:-0.0118242 
100 1:0.00701945 2:-0.018083 
100 1:0.0133772 2:-0.0123749 
100 1:0.00594335 2:-0.0186687 
100 1:0.0118161 2:-0.0192257 
100 1:0.0114988 2:-0.016626 
100 1:0.00617645 2:-0.0132985 
100 1:0.00563541 2:-0.0154077 
100 1:0.00970638 2:-0.0150902 
100 1:0.011803 2:-0.0170116 
100 1:0.00604604 2:-0.014296 
100 1:0.0101943 2:-0.0235951 
100 1:0.0111756 2:-0.0105085 
100 1:0.00470772 2:-0.0299328 
100 1:0.0098037 2:-0.0142291 
100 1:0.00337714 2:-0.0317236 
100 1:0.00982619 2:-0.0205556 
100 1:0.00799577 2:-0.0244932 
100 1:0.00791625 2:-0.0197587 
100 1:0.00863475 2:-0.0116251 
100 1:0.0095604 2:-0.0185145 
100 1:0.00870983 2:-0.0213891 
100 1:0.00633731 2:-0.0119206 
100 1:0.00508956 2:-0.0270605 
100 1:0.00160821 2:-0.022771 
100 1:0.00884712 2:-0.0271957 
100 1:0.0107791 2:-0.0117313 
100 1:0.00867118 2:-0.0211205 
100 1:0.0176417 2:-0.0064319 
100 1:0.00691089 2:-0.0176452 
100 1:0.00507437 2:0.00112592 
100 1:0.0129561 2:-0.0138108 
100 1:0.0101301 2:-0.0149947 
100 1:0.0080594 2:-0.016197 
100 1:0.00648286 2:-0.015825 
100 1:0.0111328 2:-0.0146237 
100 1:0.0100316 2:-0.0208139 
100 1:0.00580614 2:-0.0275925 
100 1:0.000235097 2:-0.0168338 
100 1:0.0083176 2:-0.0152133 
100 1:0.00943367 2:-0.00305733 
100 1:0.00610927 2:-0.0122088 
100 1:0.00418606 2:-0.0262854 
100 1:0.00932008 2:-0.0184437 
100 1:0.00833563 2:-0.00871872 
100 1:0.01026 2:-0.0115741 
100 1:0.00965781 2:-0.0244997 
100 1:0.0107123 2:-0.0154508 
100 1:0.0112495 2:-0.0116763 
100 1:0.00796902 2:-0.012573 
100 1:0.01269 2:-0.0185314 
100 1:0.00602027 2:-0.0199158 
100 1:0.00944844 2:-0.0247566 
100 1:0.0153176 2:-0.00918688 
100 1:0.0138424 2:-0.0150608 
100 1:0.0054526 2:-0.0278857 
100 1:-0.00138612 2:-0.0113334 
100 1:0.00891594 2:-0.0224345 
100 1:0.00901058 2:-0.0245507 
100 1:0.00919815 2:-0.0240101 
20.692770057157919 1:-0.00204881 2:0.997956 
100 1:0.0127168 2:-0.0171325 
100 1:0.00878265 2:-0.0154162 
100 1:0.0100985 2:-0.0153894 
100 1:0.0086323 2:-0.0225759 
100 1:0.00173301 2:-0.0214271 
100 1:0.00832041 2:-0.0212755 
100 1:0.0113408 2:-0.0195017 
100 1:0.00401263 2:-0.0161755 
100 1:0.0101681 2:-0.0202971 
100 1:-0.00508783 2:0.0459105 
100 1:0.014883 2:-0.0146825 
100 1:-0.00405112 2:-0.0129203 
100 1:0.00859386 2:-0.0234345 
100 1:0.00824125 2:-0.0236414 
100 1:0.00517558 2:-0.0179179 
100 1:0.00178067 2:-0.0161941 
100 1:0.0106971 2:-0.0149246 
100 1:0.00904856 2:-0.0251604 
100 1:0.00247594 2:-0.012302 
100 1:0.00915937 2:-0.0176493 
100 1:0.00610763 2:-0.0302743 
100 1:0.00904171 2:-0.016957 
100 1:0.0047232 2:-0.0121894 
100 1:0.00925759 2:-0.023596 
100 1:0.0117102 2:-0.0127648 
100 1:-0.00027779 2:-0.0149468 
100 1:0.0108917 2:-0.00140944 
100 1:0.0117696 2:-0.0137483 
100 1:0.0052977 2:-0.0175175 
100 1:0.0168879 2:-0.00123567 
100 1:0.0075227 2:-0.0247024 
100 1:0.0115539 2:-0.0118713 
100 1:0.00789545 2:-0.0173053 
100 1:0.0136242 2:-0.0116816 
100 1:0.0071964 2:-0.027572 
100 1:0.00586065 2:-0.0201942 
100 1:0.0044375 2:-0.0165734 
100 1:0.0130067 2:-0.00153183 
100 1:0.00852572 2:-0.0245436 
100 1:0.0112749 2:-0.0193716 
100 1:0.0107227 2:-0.0225231 
100 1:0.00702827 2:-0.0113921 
100 1:0.00995797 2:-0.0162551 
100 1:0.0121499 2:-0.0184972 
100 1:0.00577196 2:-0.0186994 
100 1:0.00926058 2:-0.0235232 
100 1:0.00419531 2:-0.0317527 
100 1:0.00996398 2:-0.0199274 
100 1:0.0066303 2:-0.0277648 
100 1:0.01748 2:-0.00700913 
100 1:0.0110829 2:-0.0190059 
100 1:0.0115921 2:-0.0212974 
100 1:0.00133839 2:-0.0325814 
100 1:0.00891285 2:-0.0183587 
100 1:0.000310547 2:-0.0241644 
100 1:0.00303863 2:-0.0271825 
100 1:0.00948668 2:-0.014124 
100 1:0.0122866 2:-0.0114804 
100 1:0.010806 2:-0.0163674 
100 1:0.00792849 2:-0.0106569 
100 1:0.00908312 2:-0.0261707 
100 1:0.00534888 2:-0.0255227 
100 1:0.00552067 2:-0.0167055 
100 1:0.00844578 2:-0.0188791 
100 1:0.00715152 2:-0.0244593 
100 1:0.00397511 2:-0.0227178 
100 1:0.00908392 2:-0.0229147 
100 1:-0.0932267 2:0.806887 
100 1:-9.39261e-05 2:-0.0091062 
100 1:0.00748114 2:-0.0236343 
-100 1:0.00252634 2:-0.000446735 
-38.04526944460406 1:-0.00610861 2:-0.00804702 
-100 1:0.00626969 2:-0.00188538 
-100 1:0.00176053 2:0.00507372 
-100 1:0.00220435 2:0.00864837 
-100 1:0.0084063 2:0.00359486 
-100 1:0.00564309 2:-0.0106686 
-100 1:-0.00122234 2:-0.00785081 
-100 1:0.00161226 2:-2.40945e-05 
-100 1:-0.000925453 2:-0.000886445 
-100 1:0.00141022 2:0.00364935 
-100 1:-0.00404575 2:-0.0085775 
-100 1:0.0033133 2:-0.00100694 
-100 1:-0.00223554 2:-0.000993404 
-100 1:-0.000292842 2:-0.00045893 
-100 1:-0.00225396 2:-0.0044636 
-100 1:0.0150135 2:0.00259693 
-100 1:-0.00392552 2:-0.00354077 
-100 1:0.000613757 2:-0.013805 
-100 1:0.00984287 2:-0.000391708 
-100 1:-0.00211378 2:-0.00490621 
-100 1:-0.00400856 2:-0.00498342 
-100 1:0.00364325 2:0.00189762 
-100 1:-0.00267501 2:-0.00158181 
-100 1:-0.0004479 2:0.000110571 
-100 1:-0.00277734 2:-0.00571317 
-100 1:-0.00492978 2:-0.00720327 
-100 1:-0.00107258 2:0.00180538 
-100 1:0.00627025 2:-0.00189711 
-100 1:-0.00323056 2:-0.00274747 
-100 1:-0.00269556 2:-0.00599268 
-100 1:0.00080537 2:0.00152171 
-100 1:0.0013405 2:-9.55711e-06 
-100 1:0.000265087 2:0.00303752 
-100 1:0.00253113 2:0.00738525 
-100 1:-0.000535911 2:0.000503631 
-100 1:0.000882867 2:-0.00242368 
-100 1:-0.000287305 2:-0.000977966 
-100 1:-0.00045698 2:-0.00198953 
-100 1:0.00129074 2:0.00529911 
-100 1:0.00518661 2:0.00486827 
-100 1:0.00749578 2:0.0102752 
-100 1:0.00290296 2:0.00702133 
-100 1:-0.000795056 2:4.89977e-05 
-100 1:0.00110182 2:0.00352949 
-100 1:-0.000286461 2:-0.00260957 
-100 1:0.0143556 2:0.00772315 
-100 1:0.00453567 2:-0.00475756 
-100 1:0.00538156 2:0.0131484 
-100 1:-5.53575e-05 2:0.00399935 
-100 1:-0.00360967 2:-0.00785461 
-100 1:-0.00126126 2:-0.000390292 
-100 1:0.000460076 2:0.00333333 
-100 1:0.00603353 2:0.00396782 
-100 1:-0.000923277 2:-0.0104069 
-100 1:-0.00526949 2:-0.00678504 
-100 1:0.0047538 2:0.00304 
-100 1:-0.00206562 2:-0.00241699 
-100 1:0.00650893 2:0.0122601 
-100 1:-0.00202588 2:-0.00490527 
-100 1:-0.000872889 2:0.00280381 
-100 1:-0.00129131 2:-0.00391515 
-100 1:0.0118427 2:-0.00150667 
-100 1:-0.00162804 2:-0.00295196 
-100 1:-0.000562477 2:-0.000307408 
-100 1:0.00540624 2:0.00717747 
-100 1:-0.000132601 2:0.00285689 
-100 1:0.011264 2:0.0028429 
-100 1:0.00549166 2:0.00133661 
-100 1:0.00429337 2:-0.0040673 
-100 1:-0.00693942 2:-0.0112992 
-100 1:-0.000428077 2:0.00168304 
-100 1:0.00781137 2:0.00264527 
-100 1:0.00217124 2:0.00219513 
-100 1:-0.00300746 2:-0.00258431 
-100 1:-0.00180165 2:0.000330414 
-100 1:0.0064081 2:0.00401842 
-100 1:-0.00327453 2:-0.00434995 
-100 1:0.0046372 2:0.00660272 
-100 1:0.00721408 2:0.00184227 
-100 1:-0.00309077 2:-0.00553228 
-100 1:0.00822109 2:-0.00247722 
-100 1:0.00117041 2:-0.0076062 
-100 1:0.00118768 2:-0.00616492 
-100 1:0.0016407 2:0.00206023 
-100 1:-0.00148473 2:0.000115631 
-100 1:0.00212485 2:0.000154973 
-100 1:0.00251772 2:0.00389361 
-100 1:0.00259176 2:-0.00693216 
-100 1:0.00693402 2:0.017039 
-100 1:0.00434055 2:0.00538524 
-100 1:-0.00233631 2:-0.00186867 
-100 1:-0.00370731 2:-0.00405939 
-100 1:0.00175463 2:0.00283017 
-100 1:0.00182661 2:0.00438641 
-100 1:-0.00417057 2:-0.00717837 
-100 1:0.0102433 2:0.000408659 
-100 1:-0.00284125 2:-0.0022621 
-100 1:0.00412314 2:0.010094 
-100 1:-0.000226761 2:0.00208485 
-100 1:0.00262592 2:0.00128651 
-100 1:-0.00354063 2:-0.00398936 
-100 1:0.00171009 2:-0.000156531 
-100 1:0.0028375 2:0.00337578 
-100 1:0.00195972 2:0.00763644 
-100 1:-0.00241732 2:-0.00445435 
-100 1:-0.00314065 2:-0.00207156 
-100 1:-0.00527461 2:-0.0100217 
-100 1:-0.00516754 2:-0.00624557 
-100 1:-0.00576739 2:-0.0123859 
-100 1:0.0164742 2:0.00746628 
-100 1:0.00332831 2:0.00703018 
-100 1:0.00182745 2:0.000147716 
-100 1:-0.000996214 2:-0.00572935 
-100 1:0.00132044 2:0.000732469 
-100 1:0.00672319 2:0.00662174 
-100 1:-0.000665024 2:0.000408278 
-100 1:-0.00580025 2:-0.0165878 
-100 1:0.0124358 2:-0.0019717 
-100 1:0.000457564 2:0.0055074 
-100 1:0.00614025 2:0.00670026 
-100 1:0.00878175 2:-0.00295038 
-100 1:0.00116023 2:-0.00393059 
-100 1:0.00935273 2:0.000663029 
-100 1:0.00142942 2:-0.005552 
-100 1:0.00368892 2:-0.00215961 
-100 1:-0.000774634 2:-0.00566828 
-100 1:-0.00388739 2:-0.00411763 
-100 1:-0.00430231 2:-0.00475462 
-100 1:0.00154339 2:0.00747942 
-100 1:-0.00160637 2:-0.00176456 
-100 1:0.00528675 2:0.00345152 
-100 1:0.00785251 2:0.00610765 
-100 1:-0.00278128 2:-0.0028034 
-100 1:0.00204007 2:0.00833863 
-100 1:-0.00229728 2:-0.00106466 
-100 1:0.000492263 2:0.00229166 
-100 1:0.00699421 2:0.000607994 
-100 1:-0.00327657 2:-0.00225136 
-100 1:0.00203775 2:-0.00158226 
-100 1:-0.00159952 2:-0.00298895 
-100 1:-0.00331035 2:-0.00501587 
-100 1:0.00815054 2:0.00828646 
-100 1:0.00252446 2:0.0009438 
-100 1:0.00364232 2:0.00453134 
-100 1:0.000901532 2:0.00376823 
-100 1:-0.00303933 2:-0.00226889 
-100 1:0.00351285 2:0.000951315 
-100 1:-0.00152521 2:-0.00323938 
-100 1:0.00506173 2:-0.00529163 
-100 1:-0.000267716 2:0.000410726 
-100 1:-0.00182698 2:0.000328302 
-100 1:0.00439946 2:0.000255141 
-100 1:-0.00150976 2:-0.00145328 
-100 1:-0.00317983 2:-0.00276289 
-100 1:-0.00141156 2:0.000663297 
-100 1:-0.00186491 2:-0.00345643 
-100 1:-0.0031791 2:-0.00407868 
-100 1:0.00377069 2:-0.00161841 
-100 1:-0.0014485 2:7.93832e-05 
-100 1:-0.00181283 2:0.000621991 
-100 1:-0.00476336 2:-0.00574338 
-100 1:0.00828054 2:0.00217818 
-100 1:0.00245765 2:0.00105629 
-100 1:0.017522 2:0.00495785 
-100 1:-0.000280235 2:-0.00671253 
-100 1:-0.00328598 2:-0.00386992 
-100 1:0.00924284 2:0.00427115 
-100 1:-0.00295667 2:-0.00197828 
-100 1:-0.00148776 2:-0.000917449 
-100 1:0.00178606 2:-0.00473757 
-100 1:0.00190881 2:-0.00407656 
-100 1:-0.00263106 2:-0.00515519 
-100 1:0.00499204 2:0.000546493 
-100 1:0.00273294 2:0.00929714 
-100 1:-0.00451791 2:-0.00983323 
-100 1:0.00442603 2:0.00192286 
-100 1:0.0025159 2:0.00340131 
-100 1:-0.00157237 2:-0.00551629 
-100 1:0.000115904 2:-0.00712653 
-100 1:0.00191713 2:0.00258937 
-100 1:0.00863389 2:-0.00548537 
-100 1:-0.00299085 2:-0.00177471 
-100 1:0.00153983 2:0.00157582 
-100 1:-0.00061051 2:0.0015409 
-100 1:0.00214391 2:0.00301053 
-100 1:-0.00159702 2:-0.0056878 
-100 1:0.0050779 2:0.0135628 
-100 1:0.00314914 2:0.00744295 
-100 1:0.00365674 2:0.00466803 
-100 1:-0.00469583 2:-0.00741739 
-100 1:0.00331588 2:0.00495035 
-100 1:0.00126215 2:0.00528985 
-100 1:-0.00186538 2:-0.00155214 
-100 1:0.00979597 2:-0.000995024 
-100 1:0.00632514 2:0.00496104 
-100 1:0.00600004 2:-0.00125051 
-100 1:0.0045775 2:-0.00490395 
-100 1:-0.000967337 2:8.15829e-05 
-100 1:0.0016043 2:-0.000296209 
-100 1:-0.000567849 2:-0.000610309 
-100 1:-0.00148135 2:-0.0028949 
-100 1:0.00650918 2:0.0017295 
-100 1:0.0101211 2:0.000587314 
-100 1:0.00378187 2:0.00646112 
-100 1:0.00356792 2:-0.000423284 
-100 1:0.00981972 2:-0.00648799 
-100 1:0.000272432 2:-0.00685156 
-100 1:-0.000377274 2:0.00320512 
-100 1:0.00341705 2:0.00393177 
-100 1:0.00465258 2:0.00553645 
-100 1:0.00197474 2:0.0019886 
-100 1:0.000754612 2:0.00354056 
-100 1:0.000893027 2:-0.000935002 
-100 1:-0.00272606 2:-0.00768039 
-100 1:-0.00249972 2:-0.00408088 
-100 1:-0.00207915 2:-0.000739277 
-100 1:0.00191289 2:0.00601046 
-100 1:0.00222229 2:0.00322524 
-100 1:0.00533298 2:0.00770463 
-100 1:0.000922241 2:0.0046115 
-100 1:0.00304653 2:0.00514377 
-100 1:0.00247828 2:0.0051567 
-100 1:-2.85481e-05 2:0.0029037 
-100 1:-0.000725695 2:0.00170151 
-100 1:0.00159243 2:0.0064286 
-100 1:0.00758129 2:0.00452943 
-100 1:-0.00162936 2:-0.00116921 
-100 1:0.0123465 2:0.00989596 
-100 1:-0.00121587 2:0.00101673 
-100 1:0.00872844 2:0.00767493 
-100 1:0.00221472 2:0.00519899 
-100 1:-0.00179495 2:-0.000660726 
-100 1:0.00180489 2:-0.00512395 
-100 1:0.00613671 2:0.00544602 
-100 1:0.00536024 2:0.0128709 
-100 1:0.00115903 2:0.00540982 
-100 1:0.00243084 2:0.00221703 
-100 1:0.00873241 2:-0.00642749 
-100 1:0.00428605 2:0.00654671 
-100 1:0.00199294 2:0.00461518 
-100 1:0.00154308 2:-0.0144626 
-100 1:0.00830777 2:0.00744637 
-100 1:0.00514834 2:0.0132813 
-100 1:0.00231191 2:0.0032415 
-100 1:0.00180622 2:0.000805054 
-100 1:0.00559246 2:0.00280359 
-100 1:-0.00187984 2:-0.00384644 
-100 1:-0.00454717 2:-0.00671613 
-100 1:9.85482e-05 2:-0.00123812 
-100 1:0.0010437 2:0.00119884 
-100 1:-0.00224446 2:-0.00328774 
-100 1:0.000623649 2:-0.00614154 
-100 1:0.00359163 2:0.0027578 
-100 1:0.00414156 2:0.00781097 
-100 1:-0.00373305 2:-0.00402731 
-100 1:-0.00214176 2:-0.00142159 
-100 1:0.00288924 2:0.00587833 
-100 1:-0.000750502 2:0.0027804 
-100 1:0.000959341 2:-0.00731807 
-100 1:0.0102639 2:0.00367253 
-100 1:0.0147235 2:6.86952e-05 
-100 1:-9.75408e-05 2:0.00059965 
-100 1:-0.00504507 2:-0.00619879 
-100 1:-0.00191381 2:-0.00186478 
-100 1:-0.0011095 2:-0.00888055 
-100 1:0.0008463 2:0.00440822 
-100 1:0.00273941 2:-0.00354734 
-100 1:0.00293828 2:0.0014494 
-100 1:0.00497288 2:0.0126402 
-100 1:0.000220922 2:0.00146791 
-100 1:-0.00242025 2:-0.00406497 
-100 1:0.000919245 2:0.00201892 
-100 1:0.00585867 2:0.00215718 
-100 1:0.000326709 2:0.00180185 
-100 1:0.000624495 2:-0.00183193 
-100 1:0.00524458 2:0.00242959 
-100 1:-0.00201087 2:-0.00301881 
-100 1:0.00226708 2:0.00544182 
-100 1:0.00313729 2:0.00727384 
-100 1:-0.00268049 2:-0.0059422 
-100 1:0.000316515 2:-0.000752565 
-100 1:0.00442964 2:0.0110826 
-100 1:0.00143708 2:0.00240726 
-100 1:-0.0056019 2:-0.0110805 
-100 1:-0.00282497 2:-0.00347586 
-100 1:0.000290171 2:-0.00133461 
-100 1:-0.000737933 2:0.000368662 
-100 1:-0.00124674 2:-0.00581319 
-100 1:-0.00183584 2:0.000566991 
-100 1:0.000323889 2:0.00281631 
-100 1:0.000759744 2:0.00167012 
-100 1:0.0128538 2:0.000935712 
-100 1:-0.00157991 2:-0.0108168 
-100 1:0.00283043 2:-0.00186758 
-100 1:-0.00597835 2:-0.00833828 
-100 1:0.00340755 2:0.00382198 
-100 1:-0.00348568 2:-0.00460084 
-100 1:1.41069e-05 2:0.00407253 
-100 1:-0.0037645 2:-0.00965301 
-100 1:0.00262307 2:0.000250239 
-100 1:-0.00243975 2:-0.00635515 
-100 1:-0.0027837 2:-0.00561217 
-100 1:-0.000263656 2:0.00402894 
-100 1:-0.000449859 2:0.00156366 
-100 1:-0.00226776 2:-0.00124297 
-100 1:-0.000368479 2:0.00286495 
-100 1:-0.00609614 2:-0.00950775 
-100 1:-8.42431e-05 2:0.00338601 
-100 1:0.00316235 2:0.00642266 
-100 1:-0.00200728 2:-0.00477335 
-100 1:0.00296953 2:-0.00921742 
-100 1:-0.000457572 2:-0.00153975 
-100 1:-0.00310959 2:-0.0032561 
-100 1:-0.00302915 2:-0.00847051 
-100 1:-0.00443201 2:-0.00483423 
-100 1:0.0045895 2:-0.00650652 
-100 1:-0.0047941 2:-0.00792197 
-100 1:0.00109751 2:0.00392558 
-100 1:-0.0020112 2:0.000101044 
-100 1:0.00245247 2:0.00657319 
-100 1:0.00540814 2:0.00269536 
-100 1:-0.00464533 2:-0.0077019 
-100 1:-0.000887739 2:0.00010448 
-100 1:-0.00305436 2:-0.0154426 
-100 1:0.000908291 2:0.00402047 
-100 1:0.00606283 2:0.0019783 
-100 1:0.0010297 2:0.000704526 
-100 1:-0.00193656 2:-0.00649943 
-100 1:-0.00291219 2:-0.00198523 
-100 1:0.00115991 2:0.00458247 
-100 1:0.00470116 2:0.00293004 
-100 1:0.0050105 2:-0.00295962 
-100 1:0.00155097 2:-0.00245202 
-100 1:-0.000727357 2:0.00183494 
-100 1:0.00103372 2:0.0023244 
-100 1:0.000805361 2:-0.00921106 
-100 1:0.0034407 2:-0.00496912 
-100 1:0.00241078 2:-0.00792635 
-100 1:0.000579711 2:0.00527612 
-100 1:0.00566923 2:0.00636588 
-100 1:-0.00101419 2:-0.00118066 
-100 1:0.000482769 2:-0.000997415 
-100 1:0.00168693 2:-0.0033875 
-100 1:0.000888496 2:-0.0046495 
-100 1:-0.00332827 2:-0.00586579 
-100 1:0.00558338 2:0.00111884 
-100 1:0.00230046 2:-0.00266955 
-100 1:0.00912176 2:0.00793295 
-100 1:-0.000365608 2:0.00236153 
-100 1:0.00172356 2:0.00377659 
-100 1:-0.00051549 2:-0.000459636 
-100 1:0.00263151 2:0.00666067 
-100 1:-0.00224717 2:-0.00339119 
-100 1:0.00100232 2:-0.00256664 
-100 1:0.000148084 2:0.00243518 
-100 1:-0.0136027 2:-0.0269291 
-100 1:0.00330021 2:-0.00408238 
-100 1:0.00157515 2:-0.00314926 
-100 1:0.0162486 2:-0.0113373 
-100 1:0.000459534 2:0.00257362 
-100 1:-0.00021236 2:0.00379356 
-100 1:0.00590916 2:0.000405877 
-100 1:-0.00131899 2:0.000214274 
-100 1:0.00473002 2:0.00410409 
-100 1:0.00632598 2:-0.00211554 
-100 1:0.00940424 2:-0.00307826 
-100 1:0.00189814 2:0.00532622 
-100 1:0.00318763 2:0.00214771 
-100 1:0.0080557 2:0.00387988 
-100 1:-0.000981779 2:-0.00465256 
-100 1:0.00883152 2:0.00406934 
-100 1:0.0013204 2:0.00672925 
-100 1:-0.00405032 2:-0.00430097 
-100 1:0.00726131 2:-0.00173082 
-100 1:0.00249414 2:-0.000112731 
-100 1:0.00260611 2:0.00428612 
-100 1:0.0112939 2:0.00589235 
-100 1:0.00329843 2:-0.00212213 
-100 1:0.00052111 2:-0.00302885 
-100 1:-0.00141013 2:-0.00106242 
-100 1:-4.65165e-05 2:0.000913291 
-100 1:0.00301389 2:0.00365211 
-100 1:-0.00599232 2:-0.00934496 
-100 1:0.00165266 2:-0.00724659 
-100 1:-0.000901145 2:-0.000686913 
-100 1:0.012516 2:0.00376754 
-100 1:0.000896243 2:-0.00171316 
-100 1:0.000295405 2:0.000620525 
-100 1:-0.00510361 2:-0.0068532 
-100 1:0.00210685 2:0.00515111 
-100 1:6.76693e-05 2:-0.0046578 
-100 1:0.00107558 2:0.00664006 
-100 1:0.00222345 2:0.00312844 
-100 1:-0.00359605 2:-0.00950074 
-100 1:0.00143948 2:0.00272459 
-100 1:-0.00233572 2:-0.00565349 
-100 1:0.00217318 2:0.00273656 
-100 1:-0.00210679 2:-0.00436813 
-100 1:0.000543911 2:-0.00187994 
-100 1:0.010995 2:0.00674801 
-100 1:0.00370978 2:-0.000600039 
-100 1:0.00391262 2:0.000380709 
-100 1:0.00887745 2:0.00735877 
-100 1:0.00199172 2:0.00823316 
-100 1:-0.00382263 2:-0.00368228 
-100 1:-0.000140168 2:0.00290262 
-100 1:0.00129464 2:0.00370652 
-100 1:-0.000955164 2:0.00146673 
-100 1:-0.00173493 2:2.00802e-05 
-100 1:0.0038942 2:0.00319766 
-100 1:0.000741014 2:0.00426303 
-100 1:-0.00108948 2:-0.00976877 
-100 1:0.00576733 2:0.0100173 
-100 1:-0.000528496 2:-0.00279061 
-100 1:-0.00178104 2:0.000838392 
-100 1:0.0054 2:0.0101329 
-100 1:-0.000275077 2:0.0034989 
-100 1:0.00600061 2:0.00704335 
-100 1:0.00933065 2:0.003294 
-100 1:-0.00158285 2:0.00129093 
-100 1:0.00193698 2:0.00390863 
-100 1:0.00195103 2:0.00571106 
-100 1:0.00357124 2:-0.00324531 
-100 1:-0.00133357 2:-0.00271002 
-100 1:0.00257817 2:0.00325803 
-100 1:0.000356066 2:0.00357153 
-100 1:-0.00378912 2:-0.00495571 
-100 1:-0.00283206 2:-0.00794447 
-100 1:-0.00194611 2:-0.000988361 
-100 1:-0.000308459 2:-0.00104011 
-100 1:-0.00489243 2:-0.0115322 
-100 1:-9.0235e-05 2:0.00384809 
-100 1:0.000444703 2:-0.00611658 
-100 1:0.0024563 2:-0.00315412 
-100 1:-0.000288766 2:0.00204787 
-100 1:0.00445078 2:0.00384629 
-100 1:-0.00167197 2:0.000548757 
-100 1:0.00530325 2:0.00581806 
-100 1:0.000827052 2:0.00431235 
-100 1:0.0016855 2:-0.000703324 
-100 1:0.00325583 2:0.00173374 
-100 1:0.00421868 2:-0.000339009 
-100 1:-0.00384927 2:-0.0049314 
-100 1:0.00631169 2:0.00814677 
-100 1:-0.00120975 2:0.00178918 
-100 1:0.0038971 2:0.00697392 
-100 1:-0.00255535 2:-0.00141159 
-100 1:0.0080802 2:0.0100806 
-100 1:0.00569959 2:0.00334096 
-100 1:0.00403524 2:0.003545 
-100 1:-0.0052955 2:-0.00817117 
-100 1:0.00202001 2:0.00705045 
-100 1:0.00554056 2:-0.000447182 
-100 1:-0.000221327 2:0.00202286 
-100 1:0.00217423 2:0.00900561 
-100 1:-0.00838582 2:-0.0148466 
-100 1:0.00426985 2:0.0019466 
-100 1:-0.00171816 2:-0.00147833 
-100 1:0.00020345 2:-0.00200328 
-100 1:0.00654555 2:0.00594643 
-100 1:-0.00218105 2:-0.00170985 
-100 1:0.00590667 2:0.0102709 
-100 1:-0.00222846 2:-0.00446373 
-100 1:-0.0016818 2:-0.00583484 
-100 1:0.00127615 2:0.00708647 
-100 1:-0.00246185 2:-0.00183105 
-100 1:0.00181993 2:0.00170825 
-100 1:0.0061323 2:0.0038804 
-100 1:0.00258428 2:0.0062939 
-100 1:0.00439051 2:0.000796216 
-100 1:0.0021084 2:0.00168557 
-100 1:0.00643645 2:-0.00218364 
-100 1:0.00328812 2:-0.00561613 
-100 1:0.0048963 2:0.00231608 
-100 1:0.0023849 2:-0.00407073 
-100 1:0.00561371 2:0.000919972 
-100 1:-0.00250165 2:-0.00368816 
-100 1:0.00821512 2:0.00494755 
-100 1:0.000454075 2:0.00534077 
-100 1:0.00296793 2:0.0014441 
-100 1:-0.00411671 2:-0.00476725 
-100 1:0.00450613 2:0.00597739 
-100 1:-0.00103212 2:-0.00152265 
-100 1:-0.000269224 2:-0.00327995 
-100 1:0.00198946 2:0.00538138 
-100 1:0.00131132 2:0.00410315 
-100 1:0.000983656 2:0.00441265 
-100 1:0.00031465 2:0.00529749 
-100 1:-0.00477888 2:-0.00798575 
-100 1:0.00017194 2:-0.00339713 
-100 1:0.0105356 2:-0.00799371 
-100 1:0.000500012 2:0.00407718 
-100 1:-0.00118389 2:-0.00557077 
-100 1:0.0130361 2:0.0138526 
-100 1:-0.00629102 2:-0.008992 
-100 1:0.00555882 2:-0.00418677 
-100 1:0.00140433 2:0.00234393 
-100 1:-0.00511807 2:-0.00805828 
-100 1:0.00563836 2:-0.00235488 
-100 1:0.00170614 2:0.00472229 
-100 1:-0.0019929 2:-0.00136005 
-100 1:-0.00476527 2:-0.00802285 
-100 1:-0.0020407 2:-0.00672469 
-100 1:0.000749242 2:-0.00441998 
-100 1:0.000154613 2:0.00121801 
-100 1:0.00970279 2:-0.00440565 
-100 1:-0.00581785 2:-0.0104516 
-100 1:0.00784632 2:-0.00096501 
-100 1:0.00174205 2:0.00501613 
-100 1:0.010051 2:0.00904392 
-100 1:-0.000843821 2:0.00258552 
-100 1:-0.00340982 2:-0.00309871 
-100 1:-0.000544932 2:0.000503248 
-100 1:-0.00445787 2:-0.0131026 
-100 1:0.000358273 2:0.0035632 
-100 1:-0.000643957 2:0.00128181 
-100 1:-0.0034843 2:-0.00276338 
-100 1:-0.00131764 2:-0.000395526 
-100 1:-0.00542289 2:-0.00831184 
-100 1:-0.00196589 2:-0.00314655 
-100 1:-2.80934e-05 2:-0.00030458 
-100 1:0.00424384 2:0.00259886 
-100 1:-0.003732 2:-0.00508948 
-100 1:0.000454707 2:0.0047705 
-100 1:0.00617275 2:0.0038228 
-100 1:0.00789325 2:-9.76406e-05 
-100 1:-0.00279146 2:-0.00130131 
-100 1:0.0043426 2:0.00243824 
-100 1:-0.000223572 2:0.00271993 
-100 1:0.000305392 2:0.000402431 
-100 1:-0.00249485 2:-0.0101723 
-100 1:0.00830753 2:0.0174607 
-100 1:-0.00080367 2:-0.00141796 
-100 1:0.00447947 2:0.00640711 
-100 1:-0.00622439 2:-0.0110202 
-100 1:0.0040368 2:0.000819949 
-100 1:-0.000489777 2:0.000446428 
-100 1:0.0132239 2:0.0153799 
-100 1:-0.000211148 2:0.00216711 
-100 1:-0.00143859 2:-1.85534e-06 
-100 1:-0.000834606 2:0.00233221 
-100 1:0.00101791 2:0.00355057 
-100 1:0.0028336 2:0.00772498 
-100 1:-0.00507316 2:-0.00841101 
-100 1:-0.000165949 2:-0.00244191 
-100 1:0.0040542 2:-0.00655716 
-100 1:-0.0025514 2:-0.00130233 
-100 1:-0.00447981 2:-0.00514495 
-100 1:-0.00127734 2:-0.00175665 
-100 1:-0.00407201 2:-0.00501641 
-100 1:0.00361035 2:0.0112978 
-100 1:0.00246577 2:0.000445856 
-100 1:-0.00170369 2:-0.00105621 
-100 1:-0.000300257 2:-0.000675261 
-100 1:0.00107824 2:-0.0012028 
-100 1:-0.000732051 2:-0.00986029 
-100 1:-0.00192982 2:-0.00031719 
-100 1:0.00573912 2:-0.00402673 
-100 1:0.015943 2:-0.000232396 
-100 1:-0.000101793 2:-0.00332066 
-100 1:0.00255143 2:0.00556282 
-100 1:-0.00123029 2:-0.0061662 
-100 1:0.0132567 2:0.0019394 
-100 1:-0.0034269 2:-0.0049268 
-100 1:0.00358313 2:0.00752211 
-100 1:0.0116456 2:0.00962161 
-100 1:-0.000954415 2:-0.00464427 
-100 1:0.000154457 2:-0.00228022 
-100 1:0.00142297 2:0.0019925 
-100 1:-0.00143869 2:-0.000470819 
-100 1:-0.001484 2:-0.01138 
-100 1:-0.00241037 2:-0.0025151 
-100 1:-0.00705203 2:-0.0113622 
-100 1:-0.00440161 2:-0.00531278 
-100 1:0.00193164 2:-0.00231085 
-100 1:-0.000590372 2:-0.00135077 
-100 1:0.000778114 2:0.00234527 
-100 1:0.000631642 2:0.00053538 
-100 1:0.000538313 2:0.00254378 
-100 1:0.000561678 2:0.00462281 
-100 1:0.00012404 2:0.00480861 
-100 1:0.00117966 2:-0.00668755 
-100 1:0.00596268 2:-0.00203789 
-100 1:0.000212712 2:0.00430475 
-100 1:0.00281412 2:0.00067004 
-100 1:0.00140767 2:0.00544505 
-100 1:0.0037681 2:0.00193202 
-100 1:-0.00338889 2:-0.00414681 
-100 1:0.00362633 2:-0.00126392 
-100 1:0.0080961 2:-0.00101138 
-100 1:0.00195049 2:0.00866746 
-100 1:0.000514083 2:-0.00777822 
-100 1:0.00258616 2:0.00375457 
-100 1:-0.00280441 2:-0.00635119 
-100 1:-0.00380405 2:-0.00335319 
-100 1:0.00118313 2:0.000402789 
-100 1:-0.00210988 2:2.90381e-05 
-100 1:0.000308925 2:0.00055547 
-100 1:0.00462813 2:-0.00953053 
-100 1:0.00110352 2:0.00649442 
-100 1:0.00160711 2:0.000949536 
-100 1:-0.00150235 2:-0.00267974 
-100 1:0.00529369 2:-0.000757271 
-100 1:0.00259096 2:-0.00232081 
-100 1:0.00411971 2:0.00169558 
-100 1:-0.000325949 2:0.00208189 
-100 1:0.00834011 2:-0.0040248 
-100 1:0.000542942 2:-0.00486345 
-100 1:-0.000673879 2:-0.000417542 
-100 1:0.0031329 2:0.0106347 
-100 1:0.0049424 2:-0.000635393 
-100 1:0.00138469 2:0.000537529 
-100 1:0.00541361 2:-0.000339839 
-100 1:0.00733019 2:-0.000721198 
-100 1:0.00306185 2:0.00398874 
-100 1:0.00222693 2:-0.00204988 
-100 1:0.00667363 2:0.0134552 
-100 1:-0.00138368 2:0.000662849 
-100 1:0.000254622 2:0.00403041 
-100 1:0.00148568 2:-0.00163146 
-100 1:0.0026109 2:-0.00273782 
-100 1:0.00808732 2:0.0054499 
-100 1:0.00374595 2:0.00127741 
-100 1:-0.00257432 2:-0.000785138 
-100 1:-0.00223175 2:-0.00210102 
-100 1:0.00270097 2:-0.00302416 
-100 1:0.00717806 2:0.0091676 
-100 1:-0.00505496 2:-0.00829231 
-100 1:0.00497922 2:-0.0130288 
-100 1:0.00137874 2:-0.00866781 
-100 1:0.00480505 2:0.00319565 
-100 1:0.00303777 2:-0.00358686 
-100 1:0.00213539 2:-0.00195254 
-100 1:0.00266758 2:-0.00241254 
-100 1:0.00380703 2:-0.00111276 
-100 1:0.00244972 2:0.00187359 
-100 1:0.00199475 2:0.00437473 
-100 1:0.00107691 2:0.0064133 
-100 1:0.00796848 2:-0.00550489 
-100 1:-0.00320871 2:-0.00845574 
-100 1:0.00355088 2:0.010321 
-100 1:-0.00212919 2:-0.000981333 
-100 1:-0.00305441 2:-0.00199897 
-100 1:0.00874676 2:0.0168246 
-100 1:-0.00306906 2:-0.00899628 
-100 1:-0.00354979 2:-0.00275629 
-100 1:0.00862726 2:0.00538774 
-100 1:-0.00324892 2:-0.0104168 
-100 1:-0.000587155 2:0.000268012 
-100 1:0.00191306 2:0.00283943 
-100 1:-0.00460476 2:-0.00816516 
-100 1:-0.00296226 2:-0.00397706 
-100 1:0.00209036 2:-0.00620757 
-100 1:0.000658682 2:-0.00093956 
-100 1:-0.00289062 2:-0.00330964 
-100 1:0.00300942 2:0.00327355 
-100 1:0.00312318 2:-0.00887285 
-100 1:-0.00743952 2:-0.0146307 
-100 1:-0.00215667 2:-0.00109098 
-100 1:0.0145337 2:0.0172822 
-100 1:0.00178471 2:0.00734997 
-100 1:-0.00368859 2:-0.00484078 
-100 1:-0.00115273 2:-0.000195386 
-100 1:0.0030513 2:-0.00340049 
-100 1:-0.00200262 2:9.60418e-05 
-100 1:-0.00288563 2:-0.00362243 
-100 1:-0.00167723 2:-0.000753884 
-100 1:-0.00219413 2:-0.00146855 
-100 1:-0.00599862 2:-0.00896863 
-100 1:-0.000605426 2:-0.000115842 
-100 1:0.00422761 2:0.0060333 
-100 1:0.00498955 2:-0.000403187 
-100 1:0.0155341 2:0.00504403 
-100 1:0.00343945 2:0.00375799 
-100 1:-0.000428977 2:0.000251676 
-100 1:0.00750466 2:-0.000711269 
-100 1:0.000233123 2:-0.00200345 
-100 1:-0.00858621 2:-0.0164373 
-100 1:0.00975808 2:0.00122425 
-100 1:-0.00197951 2:-0.000242049 
-100 1:-0.0030793 2:-0.00685331 
-100 1:0.000106184 2:-0.00356369 
-100 1:0.0117318 2:-0.00182698 
-100 1:0.0019517 2:0.00365149 
-100 1:-0.00538241 2:-0.0106236 
-100 1:-0.00594681 2:-0.0105913 
-100 1:-0.00681478 2:-0.0100962 
-100 1:-0.000230496 2:0.00124356 
-100 1:0.00520481 2:-8.61231e-05 
-100 1:0.0108652 2:0.00769644 
-100 1:0.00644769 2:0.0077773 
-100 1:0.00345569 2:0.0052545 
-100 1:-0.00348556 2:-0.00300774 
-100 1:-0.00211321 2:-0.00273478 
-100 1:-0.000562072 2:0.00344125 
-100 1:0.000987937 2:-0.00201236 
-100 1:0.00544764 2:0.00674444 
-100 1:0.000924801 2:0.00585135 
-100 1:0.00413479 2:-0.00745922 
-100 1:0.00291695 2:0.00603096 
-100 1:0.004084 2:0.00382818 
-100 1:0.000372548 2:0.00476286 
-100 1:0.0137739 2:0.0132346 
-100 1:0.00445011 2:0.00748825 
-100 1:-0.00466498 2:-0.0119082 
-100 1:-0.00528457 2:-0.0111969 
-100 1:-0.00525675 2:-0.00704762 
-100 1:0.00442818 2:0.00308377 
-100 1:0.01249 2:0.00695149 
-100 1:0.00414101 2:0.00805587 
-100 1:0.00611041 2:-0.00954884 
-100 1:-0.0043652 2:-0.00647201 
-100 1:-0.00171907 2:-0.00830166 
-100 1:0.00251588 2:0.00905894 
-100 1:0.0074074 2:0.00307166 
-100 1:0.00662671 2:0.00127632 
-100 1:0.000866602 2:-0.000402131 
-100 1:0.00516305 2:0.00411022 
-100 1:0.00450981 2:-6.19541e-05 
-100 1:0.000303545 2:0.00460296 
-100 1:0.00306254 2:0.00133979 
-100 1:0.00163664 2:0.00413276 
-100 1:0.00118598 2:0.00309042 
-100 1:-0.00154756 2:-0.00585929 
-100 1:0.00116138 2:-0.00508561 
-100 1:0.000508414 2:-0.00616344 
-100 1:-0.000314338 2:-0.000613554 
-100 1:0.00214059 2:-0.000493748 
-100 1:0.00834645 2:0.00955996 
-100 1:-0.000975973 2:0.00231859 
-100 1:-0.00714579 2:-0.012787 
-100 1:0.00993498 2:-0.00541466 
-100 1:-0.00541486 2:-0.00854998 
-100 1:0.000857234 2:-6.06704e-05 
-100 1:0.00100113 2:-0.00451572 
-100 1:0.00041764 2:0.00259858 
-100 1:0.0105712 2:0.0117154 
-100 1:0.000245165 2:0.00414169 
-100 1:0.00223465 2:0.00295655 
-100 1:0.00881675 2:0.00769159 
-100 1:-0.00120549 2:0.00151454 
-100 1:0.0129175 2:0.00144423 
-100 1:0.00253954 2:-0.00303564 
-100 1:0.00202309 2:0.00289039 
-100 1:-0.00499369 2:-0.00829426 
-100 1:0.0027825 2:0.00191537 
-100 1:0.000175396 2:-0.00381382 
-100 1:0.00118258 2:0.00293385 
-100 1:-0.000289972 2:0.00393197 
-100 1:0.00508442 2:-0.000728276 
-100 1:0.00474318 2:0.00339047 
-100 1:0.000226377 2:0.00326693 
-100 1:0.00669933 2:0.00816663 
-100 1:-0.00303687 2:-0.00597405 
-100 1:-0.00258807 2:-0.00218062 
-100 1:0.00319858 2:0.00626318 
-100 1:-0.00516264 2:-0.00682406 
-100 1:0.0158546 2:0.00278679 
-100 1:0.00303797 2:-0.00084559 
-100 1:0.000627737 2:-0.00744422 
-100 1:0.00149911 2:-0.000715404 
-100 1:0.0030449 2:0.000533297 
-100 1:0.000169339 2:-0.00647847 
-100 1:0.0104104 2:0.00289032 
-100 1:0.00893541 2:0.0137042 
-100 1:-0.000227678 2:-0.00893972 
-100 1:-0.0027625 2:-0.00198215 
-100 1:0.000446705 2:0.00549556 
-100 1:0.0029195 2:0.00402428 
-100 1:-0.0046078 2:-0.00517726 
-100 1:0.000872282 2:0.00373754 
-100 1:-0.00310014 2:-0.0111142 
-100 1:0.00781232 2:-0.00242385 
-100 1:0.00361997 2:0.00450579 
-100 1:-0.00156586 2:-0.00143209 
-100 1:0.00337312 2:-0.0119295 
-100 1:0.00697773 2:0.00364102 
-100 1:-0.0059358 2:-0.00810287 
-100 1:0.00225173 2:-0.00283536 
-100 1:0.00122503 2:0.00413601 
-100 1:0.00267883 2:0.00797857 
-100 1:-0.00150128 2:-0.00298577 
-100 1:0.00474702 2:0.00283185 
-100 1:0.00339355 2:-0.00176615 
-100 1:-7.4046e-05 2:-0.0054476 
-100 1:0.0115596 2:0.00246936 
-100 1:-0.00607876 2:-0.00903464 
-100 1:0.0157856 2:0.00670771 
-100 1:0.00566066 2:-0.00342804 
-100 1:-0.00308282 2:-0.00592047 
-100 1:-0.000674194 2:0.0014656 
-100 1:0.00636462 2:0.0133498 
-100 1:0.00681579 2:-0.00742578 
-100 1:0.00136543 2:0.00539796 
-100 1:0.000212458 2:-0.00328953 
-100 1:0.00678009 2:-0.00310915 
-100 1:-0.00104335 2:-0.000343582 
-100 1:3.33307e-05 2:0.00286399 
-100 1:-0.00226837 2:-0.00253276 
-100 1:-0.001191 2:-0.00269608 
-100 1:0.00290469 2:0.00813633 
-100 1:0.00405554 2:0.0049068 
-100 1:-0.00417402 2:-0.00502135 
-100 1:0.00356609 2:0.011204 
-100 1:0.00748668 2:0.00227803 
-100 1:-0.000282677 2:-0.00334228 
-100 1:-0.000191485 2:-0.00509566 
-100 1:0.0140056 2:0.00217388 
-100 1:0.00406406 2:-0.00568185 
-100 1:0.000560605 2:-0.00168932 
-100 1:0.00894936 2:-0.00600159 
-100 1:0.00133874 2:-0.000527986 
-100 1:0.00321163 2:0.00454522 
-100 1:0.000414179 2:-0.000843995 
-100 1:0.00653542 2:0.00363897 
-100 1:-0.000196539 2:-0.00106821 
-100 1:0.00285285 2:-0.00177035 
-100 1:-0.000649273 2:0.00196695 
-100 1:-0.000476987 2:0.000603318 
-100 1:0.00529101 2:-0.00254872 
-100 1:0.00239553 2:-0.00111464 
-100 1:0.00394175 2:0.00855818 
-100 1:0.0059055 2:0.00073853 
-100 1:0.00397621 2:-0.00324475 
-100 1:0.00101739 2:0.00156646 
-100 1:-0.000826649 2:0.000540797 
-100 1:0.00395619 2:0.0098254 
-100 1:0.00226741 2:-0.000382283 
-100 1:-0.000644328 2:0.0010375 
-100 1:0.00710191 2:0.00731024 
-100 1:0.00374192 2:-0.00137318 
-100 1:0.000692745 2:0.00151908 
-100 1:0.0053223 2:0.00517127 
-100 1:0.00545664 2:0.00297346 
-100 1:0.00183544 2:0.00593663 
-100 1:-0.00229731 2:-0.000669514 
-100 1:0.00161466 2:-0.00242769 
-100 1:0.00154129 2:-0.0014722 
-100 1:0.00594337 2:-0.00524302 
-100 1:-0.0028539 2:-0.0110623 
-100 1:0.00372527 2:0.00155886 
-100 1:-0.00376468 2:-0.00872557 
-100 1:0.00558658 2:0.00263991 
-100 1:0.00663419 2:-0.00399071 
-100 1:-0.00592247 2:-0.00795117 
-100 1:-0.0014153 2:-0.00553548 
-100 1:0.00335492 2:0.00130354 
-100 1:4.20696e-05 2:0.00213954 
-100 1:0.0136577 2:-2.42033e-05 
-100 1:-0.00070259 2:-0.000224732 
-100 1:-0.00153709 2:0.000564003 
-100 1:0.0020156 2:0.000318428 
-100 1:-0.00140517 2:-0.00119064 
-100 1:-0.00391517 2:-0.0090637 
-100 1:-0.0017617 2:-0.00231642 
-100 1:-0.00334971 2:-0.00254152 
-100 1:0.00070958 2:0.00149745 
-100 1:-0.000370721 2:-0.000187281 
-100 1:0.00425432 2:0.00296926 
-100 1:-9.7832e-05 2:-0.00739927 
-100 1:0.0069733 2:-0.00196962 
-100 1:-0.00494503 2:-0.00652146 
-100 1:0.00675159 2:0.00394558 
-100 1:0.0027862 2:-0.00344355 
-100 1:0.00468978 2:0.00906396 
-100 1:0.00222063 2:-0.00267323 
-100 1:0.000175965 2:-0.00744691 
-100 1:-0.00237253 2:-0.00814102 
-100 1:0.000455146 2:0.00257333 
-100 1:0.00304366 2:-0.00359708 
-100 1:0.00717876 2:0.00732481 
-100 1:0.00054107 2:0.00499422 
-100 1:-0.00324659 2:-0.00363906 
-100 1:0.00356615 2:0.0112036 
-100 1:0.000186245 2:0.00188199 
-100 1:-0.000215712 2:0.00202228 
-100 1:5.9212e-05 2:0.00269169 
-100 1:-0.00028636 2:-0.00600352 
-100 1:0.00273 2:0.000616665 
-100 1:-0.00369235 2:-0.00751541 
-100 1:0.0014876 2:0.00711992 
-100 1:0.0020453 2:-0.00726436 
-100 1:-0.00311673 2:-0.00371784 
-100 1:0.000954371 2:0.00149466 
-100 1:-0.00144987 2:2.87245e-05 
-100 1:0.00636565 2:0.0051628 
-100 1:0.00727083 2:0.00171489 
-100 1:0.00255724 2:0.00798553 
-100 1:-0.00440268 2:-0.0108439 
-100 1:0.0137112 2:0.0032314 
-100 1:-0.00444668 2:-0.0135717 
-100 1:-0.00281477 2:-0.00167426 
-100 1:-0.00184711 2:-0.00104396 
-100 1:0.00126224 2:-0.00700483 
-100 1:0.00325127 2:-0.000831677 
-100 1:0.00399082 2:0.00323753 
-100 1:-0.0040768 2:-0.00464275 
-100 1:-0.00437067 2:-0.0105609 
-100 1:-0.000324499 2:-0.00278449 
-100 1:0.000143433 2:0.00345987 
-100 1:-0.00865017 2:-0.0170681 
-100 1:-0.0028699 2:-0.00235988 
-100 1:0.00582798 2:0.00953905 
-100 1:0.00191278 2:-0.00351219 
-100 1:0.00828361 2:-0.00449901 
-100 1:-0.000715436 2:-0.000226257 
-100 1:0.000366516 2:-0.000789004 
-100 1:0.00241174 2:0.00446695 
-100 1:-0.00250664 2:-0.00279957 
-100 1:-0.00167524 2:-0.00158186 
-100 1:-0.00100069 2:-0.000884771 
-100 1:0.000262899 2:-0.00087992 
-100 1:0.00555946 2:-0.000168848 
-100 1:-5.90051e-05 2:0.00315037 
-100 1:-0.00442525 2:-0.00746141 
-100 1:0.00191248 2:-0.00166158 
-100 1:0.00103878 2:-0.00610154 
-100 1:-0.000700235 2:-0.000366397 
-100 1:-0.00322269 2:-0.00214586 
-100 1:0.00448044 2:0.00735035 
-100 1:0.00156407 2:0.00796195 
-100 1:-0.0052228 2:-0.00656061 
-100 1:0.00145616 2:0.0046409 
-100 1:0.0121952 2:0.00276023 
-100 1:0.00136381 2:0.00349453 
-100 1:0.00299129 2:-0.00761743 
-100 1:0.00454152 2:0.00058577 
-100 1:-0.000686682 2:0.000620111 
-100 1:0.0039135 2:-0.0041785 
-100 1:-0.0033977 2:-0.00395454 
-100 1:0.00447079 2:0.00256892 
-100 1:0.00294584 2:0.00657702 
-100 1:0.00274144 2:0.00580423 
-100 1:-0.00350668 2:-0.0040079 
-100 1:-0.00278872 2:-0.00148262 
-100 1:-0.000424795 2:0.00212538 
-100 1:0.000634407 2:0.00217115 
-100 1:0.00133667 2:0.00199063 
-100 1:0.0011217 2:-0.00516513 
-100 1:0.000881345 2:0.00521989 
-100 1:-0.000280293 2:0.00215655 
-100 1:0.00211677 2:-0.00512429 
-100 1:-0.000524017 2:0.00243774 
-100 1:-0.00152278 2:-0.000828136 
-100 1:0.0136504 2:0.00777905 
-100 1:-0.000224567 2:0.00365651 
-100 1:-0.00682637 2:-0.0113184 
-100 1:0.00392395 2:-0.00133321 
-100 1:0.00891422 2:-0.00417618 
-100 1:0.00688173 2:0.0180086 
-100 1:0.00320971 2:-0.00282219 
