svm_type c_svc
kernel_type linear
nr_class 2
total_sv 3771
rho -2.4772895306595326
label 1 0
nr_sv 1886 1885
SV
100 1:0.0167391 2:0.000285176 
100 1:0.00602137 2:-0.00319774 
100 1:-0.00341334 2:-0.0148784 
100 1:0.00106602 2:-0.00867623 
100 1:-0.00125819 2:-0.0116391 
100 1:-0.00389517 2:-0.0154592 
100 1:0.0127743 2:0.00152297 
100 1:0.0170675 2:0.00541547 
100 1:0.0152584 2:0.00449837 
100 1:0.00600306 2:-0.00507774 
100 1:0.00710841 2:-0.00271567 
100 1:-0.00253224 2:-0.010923 
100 1:0.00464903 2:-0.00726479 
100 1:0.00108379 2:-0.0121458 
100 1:0.00616415 2:-0.00659471 
100 1:0.00650991 2:-0.00211622 
100 1:0.00755265 2:-0.00260139 
100 1:-0.00146123 2:-0.00939244 
100 1:-0.0122897 2:-0.023537 
100 1:0.0120033 2:-0.00166061 
100 1:0.000502601 2:-0.0078977 
100 1:0.000387582 2:-0.00852229 
100 1:0.00940424 2:-0.00307826 
100 1:0.0031472 2:-0.0187303 
100 1:0.0101977 2:0.00114558 
100 1:-0.0039553 2:-0.0112832 
100 1:0.0030731 2:-0.00512307 
100 1:0.00657034 2:-0.00968985 
100 1:0.00290467 2:-0.00627528 
100 1:-0.00270106 2:-0.0125622 
100 1:0.00270455 2:-0.0112673 
100 1:3.79515e-05 2:-0.00881667 
100 1:0.0203743 2:0.00980381 
100 1:0.00772635 2:-0.00255484 
100 1:0.00390706 2:-0.00785423 
100 1:0.00594579 2:-0.00347122 
100 1:0.0129175 2:0.00144423 
100 1:0.00070057 2:-0.00996991 
100 1:-0.00414899 2:-0.0114951 
100 1:0.00564165 2:-0.00279232 
100 1:-0.00228684 2:-0.0120356 
100 1:0.0174431 2:-0.00070192 
100 1:0.0154051 2:0.00145634 
100 1:0.00754811 2:-0.00343226 
100 1:0.00701015 2:-0.00154331 
100 1:0.0101077 2:-0.00112419 
100 1:0.00962556 2:-0.00266427 
100 1:0.0012239 2:-0.00857546 
100 1:0.00914612 2:-0.00166021 
100 1:0.014272 2:0.00110252 
100 1:0.0153385 2:0.00443134 
100 1:-0.00374597 2:-0.0137905 
100 1:0.00210172 2:-0.00647643 
100 1:0.00327557 2:-0.00794766 
100 1:-0.0306138 2:-0.039152 
100 1:-0.0012708 2:-0.0110433 
100 1:0.00120054 2:-0.00768419 
100 1:0.00610438 2:-0.00237811 
100 1:0.00529901 2:-0.00741151 
100 1:0.00862741 2:-0.0012646 
100 1:-0.00513143 2:-0.0144201 
100 1:0.0069258 2:-0.00364579 
100 1:0.0138706 2:0.0034122 
100 1:0.0111689 2:-0.0115536 
100 1:0.00566005 2:-0.00257872 
100 1:-0.00107375 2:-0.0121941 
100 1:0.000308477 2:-0.00857153 
100 1:-0.00023559 2:-0.0133082 
100 1:-0.00345744 2:-0.0117082 
100 1:0.0147599 2:0.00406975 
100 1:0.0102433 2:0.000408659 
100 1:0.00140603 2:-0.00663468 
100 1:0.0040659 2:-0.00428251 
100 1:0.00227316 2:-0.0100687 
100 1:0.0223904 2:0.00373825 
100 1:0.00137874 2:-0.00866781 
100 1:0.00390696 2:-0.0098992 
100 1:0.0119974 2:-0.00283622 
100 1:0.00712256 2:-0.00341049 
100 1:0.00646684 2:-0.00513569 
100 1:0.00948364 2:-0.00244395 
100 1:0.00230611 2:-0.00741093 
100 1:-0.000858346 2:-0.00980495 
100 1:0.00651532 2:-0.00284741 
100 1:0.015263 2:-0.00121114 
100 1:0.00895287 2:-0.00104028 
100 1:0.00133679 2:-0.0106201 
100 1:0.00331554 2:-0.0105033 
100 1:0.00555219 2:-0.00418837 
100 1:0.0100102 2:-0.000971341 
100 1:0.00285792 2:-0.00616476 
100 1:-0.000115552 2:-0.00973411 
100 1:0.00727896 2:-0.00111733 
100 1:-2.3559e-05 2:-0.0139742 
100 1:0.00328812 2:-0.00561613 
100 1:-0.0040347 2:-0.0142247 
100 1:0.00291854 2:-0.00693585 
100 1:0.00130023 2:-0.00678753 
100 1:-0.017164 2:-0.0242524 
100 1:0.00465668 2:-0.00719173 
100 1:0.00134204 2:-0.00652298 
100 1:0.00330764 2:-0.00762259 
100 1:-0.000200442 2:-0.00889406 
100 1:0.00568835 2:-0.00581982 
100 1:-0.00363621 2:-0.0125705 
100 1:0.00356342 2:-0.00574433 
100 1:0.012844 2:-0.000396579 
100 1:0.00520377 2:-0.00605921 
100 1:0.00782809 2:-0.00301568 
100 1:0.0061093 2:-0.00777868 
100 1:0.00428203 2:-0.00684093 
100 1:0.00353386 2:-0.00627441 
100 1:0.00311694 2:-0.0121863 
100 1:0.00653838 2:-0.00321192 
100 1:-0.00223868 2:-0.01235 
100 1:0.00708741 2:-0.00240225 
100 1:-0.00404528 2:-0.0144561 
100 1:0.00712037 2:-0.00652811 
100 1:0.00568527 2:-0.00317436 
100 1:0.012063 2:0.000242989 
100 1:0.00625207 2:-0.0022673 
100 1:0.00861328 2:-0.00135499 
100 1:-0.00578989 2:-0.0148042 
100 1:-0.0647916 2:-0.0838129 
100 1:0.0104224 2:0.000752072 
100 1:0.00765642 2:-0.00196313 
100 1:-0.0107297 2:-0.0187185 
100 1:-0.00118802 2:-0.0106272 
100 1:0.00751333 2:-0.0045155 
100 1:0.00573425 2:-0.00481592 
100 1:0.00556542 2:-0.0029882 
100 1:0.00714957 2:-0.00246917 
100 1:0.0136577 2:-2.42033e-05 
100 1:0.00207706 2:-0.00702916 
100 1:0.0086111 2:-0.00149543 
100 1:-0.00107149 2:-0.0166646 
100 1:-0.001484 2:-0.01138 
100 1:-0.00558889 2:-0.0237506 
100 1:0.0147398 2:-0.00404649 
100 1:0.0107418 2:7.50112e-05 
100 1:-0.00304708 2:-0.0142504 
100 1:0.00112516 2:-0.00724803 
100 1:0.00225072 2:-0.00697183 
100 1:0.00839592 2:-0.00839906 
100 1:0.00993498 2:-0.00541466 
100 1:0.0034615 2:-0.00518621 
100 1:0.00682322 2:-0.00187631 
100 1:0.00873743 2:-0.0037192 
100 1:0.00672333 2:-0.00398107 
100 1:0.0172842 2:-0.00164473 
100 1:0.00548156 2:-0.00621812 
100 1:0.00869225 2:-0.0127391 
100 1:0.00329062 2:-0.00706494 
100 1:0.0175236 2:0.000991264 
100 1:0.00506962 2:-0.00368229 
100 1:-0.00251367 2:-0.0119856 
100 1:-0.0140318 2:-0.0204684 
100 1:-0.00539699 2:-0.0133011 
100 1:0.0132789 2:-0.00388406 
100 1:0.00194873 2:-0.0101619 
100 1:0.00384124 2:-0.0103433 
100 1:-0.0204013 2:-0.0378504 
100 1:0.00239834 2:-0.00789801 
100 1:0.0110096 2:0.000739545 
100 1:0.00635653 2:-0.00392143 
100 1:0.00147126 2:-0.00898894 
100 1:0.00596353 2:-0.00496615 
100 1:0.00940695 2:-0.00151587 
100 1:0.00732686 2:-0.004838 
100 1:0.00910991 2:-0.00279328 
100 1:0.000511435 2:-0.0072207 
100 1:0.00561767 2:-0.00512475 
100 1:0.00280408 2:-0.00641894 
100 1:0.0135756 2:-0.019108 
100 1:0.00448429 2:-0.0057048 
100 1:0.00527906 2:-0.00350793 
100 1:-0.00130606 2:-0.0134202 
100 1:0.00461381 2:-0.007842 
100 1:-0.00415308 2:-0.0114957 
100 1:0.00525916 2:-0.00582999 
100 1:0.0137461 2:0.00408267 
100 1:0.000358736 2:-0.0084579 
100 1:0.00790837 2:-0.0010967 
100 1:-0.00236201 2:-0.0118805 
100 1:-0.00236713 2:-0.00977863 
100 1:-0.0400968 2:-0.0520746 
100 1:0.038233 2:-0.00283498 
100 1:-0.0313634 2:-0.0456756 
100 1:0.00928019 2:0.000180789 
100 1:-0.00130069 2:-0.00869403 
100 1:0.00373718 2:-0.0042984 
100 1:0.00168119 2:-0.00629727 
100 1:0.00692133 2:-0.00203281 
100 1:-0.000913967 2:-0.00923532 
100 1:0.00952191 2:-0.00408135 
100 1:-0.000809174 2:-0.00855463 
100 1:0.00222345 2:-0.010482 
100 1:0.00257912 2:-0.00914037 
100 1:0.00646917 2:-0.0223422 
100 1:-0.022916 2:-0.0336286 
100 1:-0.0148655 2:-0.0217231 
100 1:0.00645119 2:-0.0110929 
100 1:0.00632598 2:-0.00211554 
100 1:-0.00235168 2:-0.0136155 
100 1:0.00259176 2:-0.00693216 
100 1:-0.0346743 2:-0.0468595 
100 1:-0.000474487 2:-0.00887952 
100 1:0.0058274 2:-0.00253662 
100 1:0.0226623 2:0.0036892 
100 1:0.00812369 2:-0.0164809 
100 1:0.00652456 2:-0.00721348 
100 1:0.0059289 2:-0.00618456 
100 1:0.0119921 2:-0.00712228 
100 1:-0.00497499 2:-0.0138971 
100 1:0.00639976 2:-0.00442241 
100 1:0.00880619 2:-0.0146885 
100 1:0.00687965 2:-0.00193777 
100 1:0.00380505 2:-0.00751383 
100 1:0.0105351 2:-0.000342727 
100 1:-0.00714162 2:-0.0183314 
100 1:0.00101443 2:-0.0122816 
100 1:0.00298797 2:-0.0056965 
100 1:0.00579375 2:-0.00659881 
100 1:-0.002931 2:-0.0109754 
100 1:-0.000456524 2:-0.0158689 
100 1:-0.0449214 2:-0.0521786 
100 1:0.00257985 2:-0.0056301 
100 1:-0.0145293 2:-0.0215665 
100 1:-0.00444668 2:-0.0135717 
100 1:0.00873812 2:-0.00688916 
100 1:0.00555882 2:-0.00418677 
100 1:0.0109213 2:-0.00228877 
100 1:-0.000426016 2:-0.0107901 
100 1:0.00295618 2:-0.00518929 
100 1:0.00643645 2:-0.00218364 
100 1:0.00471014 2:-0.00342767 
100 1:-0.0221959 2:-0.0276747 
100 1:0.00991959 2:0.000702252 
100 1:-0.00430341 2:-0.0163905 
100 1:0.00843572 2:-0.00332475 
100 1:-0.000923277 2:-0.0104069 
100 1:-0.0042117 2:-0.0114883 
100 1:-0.00073442 2:-0.0122511 
100 1:0.010931 2:-0.00320692 
100 1:-0.00745023 2:-0.0146707 
100 1:0.0120734 2:-0.0013021 
100 1:0.00555384 2:-0.00711138 
100 1:0.00187614 2:-0.00705153 
100 1:-0.00808108 2:-0.0168601 
100 1:0.00355451 2:-0.00507895 
100 1:0.00864939 2:-0.000722138 
100 1:0.00202885 2:-0.034176 
100 1:0.00611041 2:-0.00954884 
100 1:0.0224556 2:-0.00306435 
100 1:0.00103816 2:-0.00764328 
100 1:0.00454187 2:-0.00551662 
100 1:0.00565551 2:-0.0046537 
100 1:-0.00192755 2:-0.0103088 
100 1:0.00945828 2:-0.00270887 
100 1:0.0310482 2:-0.00167057 
100 1:0.00560603 2:-0.00423596 
100 1:-0.000538027 2:-0.0088174 
100 1:0.00423323 2:-0.00514826 
100 1:0.00644093 2:-0.00598313 
100 1:0.0123188 2:0.00144656 
100 1:0.00782753 2:-0.00055096 
100 1:0.00606299 2:-0.00459519 
100 1:-0.04173 2:-0.0489246 
100 1:-0.00902322 2:-0.0162919 
100 1:0.00589402 2:-0.00272717 
100 1:0.00567754 2:-0.00543788 
100 1:0.000850603 2:-0.010138 
100 1:0.0106055 2:-0.00409283 
100 1:-0.00283046 2:-0.0139768 
100 1:0.0203993 2:0.00185678 
100 1:0.00911469 2:-0.00431455 
100 1:-0.000499858 2:-0.0103605 
100 1:0.005598 2:-0.00356416 
100 1:0.00116093 2:-0.00793764 
100 1:0.00556284 2:-0.00600397 
100 1:0.00590984 2:-0.00284835 
100 1:0.0125721 2:0.00160049 
100 1:0.0089643 2:9.88346e-05 
100 1:0.00515138 2:-0.00509046 
100 1:0.00228113 2:-0.00976326 
100 1:-0.00392488 2:-0.0126434 
100 1:0.00739482 2:-0.00226073 
100 1:-0.00467324 2:-0.0119395 
100 1:0.0204652 2:0.0105463 
100 1:0.00171126 2:-0.0191648 
100 1:-0.00300893 2:-0.0156089 
100 1:0.00588265 2:-0.00244877 
100 1:0.00586437 2:-0.00315769 
100 1:0.00114436 2:-0.00820676 
100 1:0.000377477 2:-0.0104946 
100 1:0.00747211 2:-0.00101023 
100 1:0.0135544 2:0.00412491 
100 1:0.00317494 2:-0.00693988 
100 1:0.00613011 2:-0.00513031 
100 1:-0.00450824 2:-0.0143009 
100 1:0.00425519 2:-0.00642425 
100 1:0.0130335 2:-0.00308104 
100 1:0.0044988 2:-0.0120247 
100 1:0.00820277 2:-0.000745806 
100 1:0.00641455 2:-0.0160902 
100 1:-0.0065826 2:-0.0139698 
100 1:-0.00584968 2:-0.0180172 
100 1:0.00400008 2:-0.00420537 
100 1:-0.000249294 2:-0.0124224 
100 1:0.00182472 2:-0.0155585 
100 1:-0.0172617 2:-0.0246492 
100 1:-0.00521713 2:-0.0152134 
100 1:0.00963623 2:-0.00266738 
100 1:0.0110273 2:-0.0286937 
100 1:0.00069502 2:-0.00724956 
100 1:-0.000820241 2:-0.0108244 
100 1:-0.00455147 2:-0.0165277 
100 1:0.00958429 2:-0.00315435 
100 1:-0.00333595 2:-0.0201206 
100 1:0.00246614 2:-0.00855461 
100 1:0.00382187 2:-0.00459232 
100 1:0.0207266 2:0.000667963 
100 1:0.00401861 2:-0.00689233 
100 1:0.0135726 2:0.00261734 
100 1:0.0153219 2:-0.000848196 
100 1:0.00275011 2:-0.0061847 
100 1:0.00178411 2:-0.00966784 
100 1:0.00590956 2:-0.00284829 
100 1:0.00240525 2:-0.0103482 
100 1:0.00189302 2:-0.0104685 
100 1:0.00975808 2:0.00122425 
100 1:0.0058183 2:-0.00533776 
100 1:0.00298845 2:-0.00959681 
100 1:0.0118896 2:-0.0210303 
100 1:0.010725 2:0.000677222 
100 1:-0.00071907 2:-0.0127263 
100 1:-0.00153418 2:-0.00942128 
100 1:0.000627737 2:-0.00744422 
100 1:0.0024037 2:-0.00666497 
100 1:0.00636189 2:-0.00392225 
100 1:0.00770577 2:-0.00972419 
100 1:0.00125942 2:-0.00700503 
100 1:0.0104353 2:-0.0158111 
100 1:-0.00157991 2:-0.0108168 
100 1:-0.00147551 2:-0.0106226 
100 1:0.0117984 2:-0.00636206 
100 1:-0.000499823 2:-0.00823705 
100 1:0.00981972 2:-0.00648799 
100 1:0.00497922 2:-0.0130288 
100 1:0.00790551 2:-0.00109679 
100 1:-0.00271205 2:-0.0101035 
100 1:0.00583074 2:-0.00705644 
100 1:0.00169818 2:-0.00682354 
100 1:0.0115846 2:-0.000593006 
100 1:0.0123861 2:-0.00470284 
100 1:0.00530549 2:-0.00445298 
100 1:0.0256256 2:-0.00551065 
100 1:-0.0121629 2:-0.0190748 
100 1:0.00356769 2:-0.00691895 
100 1:0.00853852 2:0.000109757 
100 1:0.0101154 2:-0.00352478 
100 1:0.00726131 2:-0.00173082 
100 1:0.00717 2:-0.00108059 
100 1:0.00746425 2:-0.00399609 
100 1:0.0224395 2:-0.00644829 
100 1:0.0104184 2:-0.00637645 
100 1:0.00300168 2:-0.00590263 
100 1:0.00121791 2:-0.00767225 
100 1:0.00860974 2:-0.00135545 
100 1:0.0143189 2:-0.0020237 
100 1:-0.00371657 2:-0.0331413 
100 1:0.0166503 2:-0.00635659 
100 1:0.00387029 2:-0.00738198 
100 1:-0.0148172 2:-0.0213962 
100 1:-0.00113612 2:-0.0143963 
100 1:0.0110634 2:-0.00184664 
100 1:0.010862 2:0.00222206 
100 1:0.00407001 2:-0.00428112 
100 1:0.0117985 2:-0.00636202 
100 1:0.00587639 2:-0.0104059 
100 1:0.0067249 2:-0.00605855 
100 1:0.00734037 2:-0.00482449 
100 1:-0.00318596 2:-0.0106897 
100 1:0.0142279 2:0.00472745 
100 1:-0.0183759 2:-0.0250676 
100 1:-0.00397211 2:-0.0115518 
100 1:0.0165495 2:0.00546084 
100 1:0.0128241 2:-0.00306574 
100 1:-0.00592443 2:-0.018412 
100 1:-0.000553226 2:-0.00835065 
100 1:-0.00192715 2:-0.0191695 
100 1:-0.00269141 2:-0.0102856 
100 1:5.9371e-05 2:-0.00768556 
100 1:-0.0136027 2:-0.0269291 
100 1:0.00454192 2:-0.00551719 
100 1:-0.0346441 2:-0.0387585 
100 1:0.00527531 2:-0.00372722 
100 1:0.00936451 2:-0.00589629 
100 1:0.00164858 2:-0.00663433 
100 1:0.00774275 2:-0.00200694 
100 1:0.0172453 2:0.00271357 
100 1:0.00348881 2:-0.0117304 
100 1:-0.00485377 2:-0.0148178 
100 1:0.00562053 2:-0.00294465 
100 1:0.0103094 2:-0.000623697 
100 1:-0.00927231 2:-0.0163685 
100 1:0.00290438 2:-0.00776722 
100 1:0.00632354 2:-0.00442642 
100 1:0.00458262 2:-0.00667646 
100 1:0.00766315 2:-0.012228 
100 1:-0.00209126 2:-0.0102689 
100 1:0.00404692 2:-0.00432919 
100 1:0.00147913 2:-0.0128438 
100 1:0.00984287 2:-0.000391708 
100 1:0.000413935 2:-0.0106894 
100 1:0.00464681 2:-0.0100023 
100 1:-0.013146 2:-0.0217417 
100 1:0.00374153 2:-0.00665505 
100 1:0.00113988 2:-0.00962272 
100 1:0.0107831 2:-0.00172522 
100 1:0.00276922 2:-0.00839748 
100 1:0.00242835 2:-0.0141129 
100 1:0.00998469 2:0.000527948 
100 1:0.00452448 2:-0.00745284 
100 1:0.00518647 2:-0.00922509 
100 1:0.00746965 2:-0.00101058 
100 1:0.00560378 2:-0.00370621 
100 1:0.00326216 2:-0.00467046 
100 1:0.00483141 2:-0.00487438 
100 1:0.00243347 2:-0.0106563 
100 1:0.0110089 2:0.000739629 
100 1:0.00188462 2:-0.0097935 
100 1:-0.00664196 2:-0.0222147 
100 1:0.0106733 2:-0.00974086 
100 1:0.00148089 2:-0.00807175 
100 1:0.0140131 2:0.00125735 
100 1:0.0129554 2:0.00231248 
100 1:-0.00142251 2:-0.0100722 
100 1:0.00565875 2:-0.00253238 
100 1:0.0027745 2:-0.00839017 
100 1:-0.0171673 2:-0.026267 
100 1:0.0116905 2:-0.0273392 
100 1:0.000301604 2:-0.00961837 
100 1:-0.00169531 2:-0.0123383 
100 1:-0.0354925 2:-0.0421299 
100 1:0.00503862 2:-0.0149228 
100 1:0.0026943 2:-0.00841514 
100 1:0.000285589 2:-0.00912193 
100 1:0.00652164 2:-0.00195958 
100 1:0.0076966 2:-0.00373636 
100 1:0.0084809 2:-0.00776443 
100 1:0.00520073 2:-0.0115397 
100 1:0.00292271 2:-0.00773132 
100 1:0.00709976 2:-0.00537809 
100 1:-0.0017866 2:-0.00996718 
100 1:-0.00305407 2:-0.0142511 
100 1:-0.00270107 2:-0.0125622 
100 1:0.0115934 2:0.000280863 
100 1:0.00272744 2:-0.0261378 
100 1:0.000514083 2:-0.00777822 
100 1:0.0103358 2:-0.00565855 
100 1:-0.0188491 2:-0.0323879 
100 1:0.00251852 2:-0.0109712 
100 1:0.00461512 2:-0.00461299 
100 1:0.00486959 2:-0.0067223 
100 1:-0.00793565 2:-0.0150396 
100 1:-0.00584435 2:-0.0132621 
100 1:0.0115363 2:0.000449151 
100 1:0.0125437 2:-0.000583218 
100 1:0.00450688 2:-0.00488113 
100 1:-0.00149063 2:-0.0104316 
100 1:0.00750915 2:-0.00188845 
100 1:0.00850028 2:-0.00467693 
100 1:0.00386063 2:-0.011337 
100 1:-0.00401716 2:-0.0114112 
100 1:0.0103263 2:-0.00352085 
100 1:0.00807043 2:-0.0029548 
100 1:0.0115215 2:-0.00229864 
100 1:0.0143116 2:0.00275804 
100 1:-0.0143522 2:-0.0237753 
100 1:0.01709 2:-0.00639512 
100 1:0.00886776 2:-0.00165332 
100 1:0.00497914 2:-0.00406386 
100 1:0.00109356 2:-0.0111629 
100 1:0.00877989 2:-0.00122353 
100 1:-0.00445787 2:-0.0131026 
100 1:0.0088674 2:-0.00165323 
100 1:0.00353272 2:-0.00722233 
100 1:0.000410891 2:-0.0105729 
100 1:-0.00677853 2:-0.0159036 
100 1:0.00529789 2:-0.00415627 
100 1:0.000628933 2:-0.010069 
100 1:0.0056858 2:-0.00359577 
100 1:0.00936902 2:0.000208823 
100 1:0.0048332 2:-0.00401478 
100 1:0.000762421 2:-0.00727661 
100 1:0.00713561 2:-0.00353225 
100 1:0.00108036 2:-0.00735908 
100 1:0.0039135 2:-0.0041785 
100 1:0.00335664 2:-0.005374 
100 1:-0.0129111 2:-0.0217527 
100 1:0.00811126 2:-0.00455624 
100 1:0.00110801 2:-0.00990623 
100 1:0.00972324 2:-0.00261784 
100 1:0.0154008 2:0.0050457 
100 1:0.00939561 2:-0.00817365 
100 1:-0.00170939 2:-0.0100291 
100 1:0.00900231 2:-0.00526449 
100 1:0.00806331 2:-0.000545238 
100 1:0.00655347 2:-0.00211554 
100 1:0.00151674 2:-0.00705089 
100 1:0.00229909 2:-0.00807121 
100 1:-0.000464713 2:-0.00811476 
100 1:0.000524429 2:-0.0109868 
100 1:-0.00395865 2:-0.0112837 
100 1:-0.00130105 2:-0.00945973 
100 1:0.00503458 2:-0.00789663 
100 1:0.00738886 2:-0.00226092 
100 1:0.0128769 2:0.00116627 
100 1:0.00337735 2:-0.00866663 
100 1:0.00686347 2:-0.0103572 
100 1:0.0108679 2:0.000394215 
100 1:0.00253527 2:-0.00926018 
100 1:-0.00113085 2:-0.0138371 
100 1:0.00728064 2:-0.00111508 
100 1:0.0152968 2:-0.00461172 
100 1:0.00594337 2:-0.00524302 
100 1:0.00553167 2:-0.00469023 
100 1:0.0161679 2:0.00450389 
100 1:0.0170377 2:0.00629876 
100 1:0.00653649 2:-0.00168362 
100 1:0.00642691 2:-0.0160894 
100 1:0.00734458 2:-0.00884559 
100 1:0.0015654 2:-0.00973739 
100 1:0.00398114 2:-0.00689334 
100 1:0.00299313 2:-0.00532491 
100 1:0.0107927 2:-0.000138828 
100 1:0.00593603 2:-0.00445445 
100 1:0.0067207 2:-0.00605899 
100 1:0.00560593 2:-0.0146753 
100 1:-0.000548253 2:-0.00978354 
100 1:0.0101211 2:0.000587314 
100 1:0.00778813 2:-0.00331461 
100 1:0.00648691 2:-0.00182336 
100 1:0.00240677 2:-0.00666437 
100 1:0.00042299 2:-0.0103952 
100 1:0.00112454 2:-0.0084501 
100 1:-0.00397002 2:-0.0129563 
100 1:-0.00198588 2:-0.0141355 
100 1:-0.0113179 2:-0.0190228 
100 1:0.020348 2:0.00443582 
100 1:0.00842875 2:-0.00620815 
100 1:-0.000249237 2:-0.0124222 
100 1:0.00429337 2:-0.0040673 
100 1:0.00734784 2:-0.00948803 
100 1:-0.0156754 2:-0.0222368 
100 1:0.00592459 2:-0.00520249 
100 1:0.0170628 2:0.00541534 
100 1:0.0119682 2:0.000897988 
100 1:0.0110062 2:0.000740069 
100 1:-0.0159134 2:-0.0280639 
100 1:-0.00124627 2:-0.0110795 
100 1:-0.0011095 2:-0.00888055 
100 1:0.00302803 2:-0.00588149 
100 1:0.0138532 2:0.00341291 
100 1:0.000351052 2:-0.00946438 
100 1:0.00599884 2:-0.00346731 
100 1:0.00628935 2:-0.00274352 
100 1:0.0117925 2:-0.00524114 
100 1:-0.0178317 2:-0.0267858 
100 1:0.00782005 2:-0.00578788 
100 1:0.00605227 2:-0.00490718 
100 1:0.00199745 2:-0.00693302 
100 1:0.00292283 2:-0.00693526 
100 1:0.00042382 2:-0.0233259 
100 1:-0.00350405 2:-0.0126072 
100 1:0.0128538 2:0.000935712 
100 1:0.00174479 2:-0.00816254 
100 1:0.0154958 2:-0.00470281 
100 1:0.00260904 2:-0.0098276 
100 1:0.00687038 2:-0.00184907 
100 1:-0.052288 2:-0.0628509 
100 1:0.00261251 2:-0.00569719 
100 1:0.00352554 2:-0.00465797 
100 1:-0.00486951 2:-0.0141651 
100 1:0.00865577 2:-0.00201261 
100 1:0.0215787 2:0.00198944 
100 1:0.00878175 2:-0.00295038 
100 1:0.00134589 2:-0.00862539 
100 1:0.00665829 2:-0.00232839 
100 1:0.00635655 2:-0.00392145 
100 1:-0.00152234 2:-0.0106129 
100 1:-0.00677465 2:-0.0159027 
100 1:0.00203151 2:-0.00797074 
100 1:-0.00402502 2:-0.0126245 
100 1:0.00399761 2:-0.00420362 
100 1:0.00938912 2:-0.00335157 
100 1:0.00292661 2:-0.00773103 
100 1:0.00966041 2:-0.00276319 
100 1:0.00600965 2:-0.00270866 
100 1:0.00979417 2:-0.00743731 
100 1:-0.00333768 2:-0.0107159 
100 1:0.00782523 2:-0.00660052 
100 1:0.00736853 2:-0.00203914 
100 1:0.00820822 2:-0.000828182 
100 1:0.00428225 2:-0.00489877 
100 1:-0.00587622 2:-0.0157638 
100 1:-0.000106809 2:-0.0124523 
100 1:0.00483297 2:-0.00576779 
100 1:0.00821927 2:-0.0173843 
100 1:-0.00114857 2:-0.00862067 
100 1:0.00451696 2:-0.0066525 
100 1:0.00209542 2:-0.0063015 
100 1:0.00776084 2:-0.00167527 
100 1:0.00462813 2:-0.00953053 
100 1:-0.019088 2:-0.0254597 
100 1:0.0184111 2:-0.0183058 
100 1:0.00655107 2:-0.00236525 
100 1:0.0112595 2:-0.00170892 
100 1:0.0119798 2:0.000897805 
100 1:0.0185972 2:0.00504887 
100 1:0.00368921 2:-0.00955332 
100 1:0.00412855 2:-0.00393671 
100 1:0.0069678 2:-0.00496725 
100 1:-0.00156767 2:-0.012124 
100 1:0.00787182 2:-0.000513481 
100 1:-0.00528672 2:-0.0140781 
100 1:-0.00335155 2:-0.0123806 
100 1:0.00856377 2:-0.00265129 
100 1:0.011035 2:-0.00710171 
100 1:0.00261453 2:-0.00952289 
100 1:-0.00287094 2:-0.012121 
100 1:0.00274614 2:-0.00618503 
100 1:-0.00018464 2:-0.0117928 
100 1:0.00552667 2:-0.00397043 
100 1:-0.00694619 2:-0.014288 
100 1:-0.00494547 2:-0.0173341 
100 1:0.00326508 2:-0.00611423 
100 1:-0.000191397 2:-0.00913942 
100 1:0.00482973 2:-0.00771374 
100 1:-0.0066038 2:-0.0138314 
100 1:0.00188231 2:-0.0104684 
100 1:0.00985396 2:0.000878461 
100 1:0.00398474 2:-0.00726861 
100 1:-0.0017853 2:-0.0113389 
100 1:0.00122644 2:-0.00907066 
100 1:-0.00792384 2:-0.0152197 
100 1:-0.000732051 2:-0.00986029 
100 1:0.0162486 2:-0.0113373 
100 1:-0.000462362 2:-0.0106584 
100 1:0.00535504 2:-0.00272834 
100 1:0.00166852 2:-0.00713247 
100 1:0.000505015 2:-0.0102455 
100 1:0.0231389 2:0.00449569 
100 1:-0.00116839 2:-0.0115549 
100 1:0.00702887 2:-0.0144217 
100 1:0.00227316 2:-0.0100688 
100 1:-0.000483772 2:-0.0145124 
100 1:0.0101427 2:0.00111966 
100 1:0.0058675 2:-0.00482593 
100 1:-0.00423702 2:-0.0136464 
100 1:0.00253891 2:-0.0060386 
100 1:0.0143091 2:0.00135504 
100 1:0.0097948 2:-0.00382899 
100 1:-0.0143426 2:-0.0236105 
100 1:0.0103653 2:0.00111941 
100 1:0.00404584 2:-0.00611542 
100 1:0.00757544 2:-0.00183461 
100 1:0.0106732 2:-0.009741 
100 1:0.00313798 2:-0.018604 
100 1:0.0165421 2:0.00221319 
100 1:-0.00140564 2:-0.00889378 
100 1:0.00230541 2:-0.00912286 
100 1:-0.0169231 2:-0.0276005 
100 1:-0.018417 2:-0.0269022 
100 1:-0.000705218 2:-0.00833393 
100 1:0.012338 2:-0.00160518 
100 1:0.0133871 2:-0.00532311 
100 1:0.0109721 2:-0.00159436 
100 1:0.00724196 2:-0.00580958 
100 1:0.00606535 2:-0.00674877 
100 1:-0.00411184 2:-0.011982 
100 1:-0.000783205 2:-0.0134109 
100 1:0.0078872 2:-0.000821013 
100 1:0.00997883 2:-0.000463873 
100 1:0.0021683 2:-0.00691925 
100 1:0.0187148 2:0.00475058 
100 1:0.000389256 2:-0.00852301 
100 1:0.00618339 2:-0.00343552 
100 1:0.00246616 2:-0.0100646 
100 1:0.00781567 2:-0.00764909 
100 1:0.00762214 2:-0.00467384 
100 1:0.00115922 2:-0.00793862 
100 1:0.00047911 2:-0.00978436 
100 1:0.00415101 2:-0.011993 
100 1:0.0260479 2:-0.00584891 
100 1:0.00827857 2:-0.000676598 
100 1:-0.00287637 2:-0.011909 
100 1:-0.00389197 2:-0.0130611 
100 1:0.00674322 2:-0.00301696 
100 1:0.00510415 2:-0.00418106 
100 1:0.0024661 2:-0.00855473 
100 1:0.0077946 2:-0.00224112 
100 1:-0.00286711 2:-0.0126617 
100 1:0.000802779 2:-0.00759758 
100 1:0.00128873 2:-0.00900797 
100 1:0.0105217 2:-0.0065721 
100 1:-0.00610321 2:-0.0145644 
100 1:-0.0037798 2:-0.0121124 
100 1:0.000952923 2:-0.00674751 
100 1:0.00236028 2:-0.00743621 
100 1:-0.00573668 2:-0.0130419 
100 1:0.0137112 2:0.0032314 
100 1:0.00560381 2:-0.00370608 
100 1:-0.00228149 2:-0.0146131 
100 1:0.00912929 2:-0.000184932 
100 1:0.011422 2:-2.6147e-05 
100 1:0.0110111 2:0.000739314 
100 1:0.00302448 2:-0.0105888 
100 1:-0.0145691 2:-0.026906 
100 1:0.0121661 2:0.0024467 
100 1:0.00188258 2:-0.00610031 
100 1:0.000952922 2:-0.00674741 
100 1:0.00863389 2:-0.00548537 
100 1:-0.00566817 2:-0.0136907 
100 1:0.013153 2:-0.00544961 
100 1:0.00912122 2:-0.000702089 
100 1:0.00221075 2:-0.0080349 
100 1:0.00869718 2:-0.00340626 
100 1:0.00176131 2:-0.00788716 
100 1:0.00834011 2:-0.0040248 
100 1:0.000633132 2:-0.00771626 
100 1:0.00120786 2:-0.00666016 
100 1:0.000480574 2:-0.00785882 
100 1:0.0034982 2:-0.00747388 
100 1:0.00232663 2:-0.0110179 
100 1:0.014424 2:-0.0078102 
100 1:0.0059211 2:-0.0029658 
100 1:-0.0019988 2:-0.0121656 
100 1:0.0211955 2:-0.00781348 
100 1:-0.00439687 2:-0.0120799 
100 1:0.0132287 2:-0.000261789 
100 1:0.0130823 2:0.00122676 
100 1:-0.00669864 2:-0.0146942 
100 1:0.00210476 2:-0.00980856 
100 1:0.00402354 2:-0.00467857 
100 1:0.0160045 2:0.00523138 
100 1:-0.00162095 2:-0.0115765 
100 1:0.000315419 2:-0.0107378 
100 1:0.0125013 2:-0.00348676 
100 1:0.00403911 2:-0.0058312 
100 1:0.00411761 2:-0.00522544 
100 1:0.0020453 2:-0.00726436 
100 1:0.0067705 2:-0.00425869 
100 1:-0.00237701 2:-0.0129119 
100 1:0.000338008 2:-0.0121349 
100 1:0.00498228 2:-0.00749199 
100 1:-0.000293838 2:-0.010258 
100 1:-0.00222138 2:-0.0115953 
100 1:-0.0546219 2:-0.0612825 
100 1:0.00887499 2:-0.00165528 
100 1:0.00859766 2:-0.000676429 
100 1:0.00766177 2:-0.00127648 
100 1:-0.00133353 2:-0.00947554 
100 1:0.00831471 2:-0.001634 
100 1:0.00210445 2:-0.00632474 
100 1:0.00351306 2:-0.00520561 
100 1:0.0021011 2:-0.00718899 
100 1:-0.00141119 2:-0.0140324 
100 1:0.00207886 2:-0.00783633 
100 1:0.0117318 2:-0.00182698 
100 1:1.21105e-06 2:-0.012312 
100 1:0.0041037 2:-0.00592082 
100 1:0.00791688 2:-0.00193742 
100 1:0.00252776 2:-0.00923309 
100 1:0.00681183 2:-0.00742585 
100 1:0.0106997 2:-0.000611226 
100 1:-0.00559892 2:-0.0145116 
100 1:0.0045895 2:-0.00650652 
100 1:0.0143795 2:0.00423998 
100 1:0.0122022 2:-0.00177223 
100 1:0.0151695 2:0.000940476 
100 1:-0.000590569 2:-0.0082482 
100 1:0.00564309 2:-0.0106686 
100 1:0.00412448 2:-0.00538275 
100 1:0.00413479 2:-0.00745922 
100 1:0.00516156 2:-0.0202881 
100 1:-0.0306307 2:-0.0444844 
100 1:0.0179905 2:4.27978e-05 
100 1:0.0188016 2:0.00297769 
100 1:0.00515873 2:-0.00409831 
100 1:0.00553916 2:-0.0253874 
100 1:-0.016801 2:-0.0256798 
100 1:0.00267606 2:-0.00625684 
100 1:0.0138516 2:0.00476256 
100 1:0.0163429 2:0.00145808 
100 1:0.00825464 2:-0.0032878 
100 1:0.00243065 2:-0.00757565 
100 1:0.0135529 2:0.00033429 
100 1:0.00453567 2:-0.00475756 
100 1:0.0125117 2:0.00256242 
100 1:-8.77356e-05 2:-0.010356 
100 1:0.00857775 2:-0.00409064 
100 1:0.000738385 2:-0.0124532 
100 1:-0.00305436 2:-0.0154426 
100 1:-0.0165899 2:-0.0238443 
100 1:0.0132567 2:0.0019394 
100 1:-0.0025273 2:-0.0111985 
100 1:0.00606357 2:-0.00736995 
100 1:-0.00566436 2:-0.0136905 
100 1:-0.0319573 2:-0.0395128 
100 1:-0.000150447 2:-0.0244168 
100 1:0.0181877 2:-0.00604271 
100 1:0.00713498 2:-0.00403612 
100 1:0.00941843 2:-0.00151586 
100 1:0.00841909 2:-0.00181231 
100 1:0.0139984 2:0.00142422 
100 1:0.0107537 2:-0.0102943 
100 1:0.00703931 2:-0.0021966 
100 1:0.00904411 2:-0.00483881 
100 1:0.00796848 2:-0.00550489 
100 1:0.000615678 2:-0.0073346 
100 1:-0.0028539 2:-0.0110623 
100 1:0.00761748 2:-0.00387557 
100 1:0.0147235 2:6.86952e-05 
100 1:0.0106318 2:-0.00918688 
100 1:-0.00468124 2:-0.0136603 
100 1:-8.42115e-05 2:-0.0103556 
100 1:0.0298573 2:-0.00062189 
100 1:0.0028445 2:-0.00549194 
100 1:0.00598546 2:-0.00598775 
100 1:-0.000905617 2:-0.0104331 
100 1:0.00366837 2:-0.00764843 
100 1:0.0067369 2:-0.00168373 
100 1:0.00559855 2:-0.00309717 
100 1:0.00327787 2:-0.00680957 
100 1:0.0060213 2:-0.00256772 
100 1:0.0176267 2:-0.000250271 
100 1:0.0125494 2:-0.000476938 
100 1:-0.00240663 2:-0.00982137 
100 1:0.0108888 2:0.000678515 
100 1:-0.00420974 2:-0.0144721 
100 1:0.00401416 2:-0.00610873 
100 1:0.00362683 2:-0.00459773 
100 1:-0.000699817 2:-0.0128226 
100 1:0.0099555 2:0.000945892 
100 1:0.00973004 2:-0.00056646 
100 1:0.0128538 2:0.000935711 
100 1:0.00166526 2:-0.0114948 
100 1:0.00573936 2:-0.0161158 
100 1:0.00117021 2:-0.00979831 
100 1:0.00132181 2:-0.00722702 
100 1:0.0144776 2:-0.00345006 
100 1:0.00667257 2:-0.00371072 
100 1:0.00592349 2:-0.00254831 
100 1:0.0109659 2:-0.00592948 
100 1:-0.006115 2:-0.0142073 
100 1:-0.00125738 2:-0.0113148 
100 1:0.00403628 2:-0.00613504 
100 1:0.000762409 2:-0.00727661 
100 1:0.0184081 2:0.000862891 
100 1:0.00951527 2:-0.0012815 
100 1:0.0132517 2:0.00371436 
100 1:0.000538791 2:-0.00861595 
100 1:0.0046751 2:-0.00516247 
100 1:0.0069558 2:-0.0106611 
100 1:0.00567872 2:-0.00582112 
100 1:0.0148395 2:-0.00588392 
100 1:0.00211305 2:-0.00724969 
100 1:0.00465707 2:-0.010616 
100 1:0.00676891 2:-0.00627162 
100 1:0.000611089 2:-0.00751896 
100 1:-0.0167783 2:-0.0231543 
100 1:0.00627025 2:-0.00189711 
100 1:0.00809659 2:-0.00177944 
100 1:0.00678009 2:-0.00310915 
100 1:0.00663348 2:-0.00236686 
100 1:0.00161493 2:-0.00841154 
100 1:0.010356 2:0.000137963 
100 1:0.00897834 2:-0.00893857 
100 1:0.000198576 2:-0.0075643 
100 1:0.0105356 2:-0.00799371 
100 1:0.00472953 2:-0.00622333 
100 1:0.00430623 2:-0.00470253 
100 1:0.010912 2:-0.00111527 
100 1:0.0172656 2:0.00652706 
100 1:0.0152138 2:0.00601399 
100 1:0.00824115 2:-0.0024008 
100 1:0.000994553 2:-0.00706244 
100 1:0.00168537 2:-0.00629723 
100 1:0.00257394 2:-0.0081456 
100 1:-0.00228528 2:-0.0178169 
100 1:-0.00337409 2:-0.0107758 
100 1:0.00811932 2:-0.00455664 
100 1:0.0034407 2:-0.00496912 
100 1:-0.000908218 2:-0.0141207 
100 1:0.00325008 2:-0.00737463 
100 1:0.00154308 2:-0.0144626 
100 1:-0.0104274 2:-0.019823 
100 1:0.00688607 2:-0.00410065 
100 1:0.0050866 2:-0.0239822 
100 1:-0.00108948 2:-0.00976877 
100 1:0.00681579 2:-0.00742578 
100 1:0.00272728 2:-0.0261384 
100 1:0.00507513 2:-0.00860578 
100 1:0.0187346 2:0.0050463 
100 1:0.00669738 2:-0.00259274 
100 1:-0.00202361 2:-0.0110772 
100 1:-0.0105782 2:-0.0197205 
100 1:0.00189277 2:-0.00773526 
100 1:-0.0132408 2:-0.0194387 
100 1:0.00762217 2:-0.00467388 
100 1:0.00522506 2:-0.0105875 
100 1:0.0078748 2:-0.00323888 
100 1:0.00676968 2:-0.00331295 
100 1:0.014879 2:0.00429318 
100 1:-0.0241181 2:-0.0296381 
100 1:0.0166079 2:-0.00387905 
100 1:0.00519473 2:-0.00312996 
100 1:-0.00284812 2:-0.0101798 
100 1:0.00305585 2:-0.00508709 
100 1:-0.00103351 2:-0.0102609 
100 1:0.0129761 2:0.000627116 
100 1:0.00835159 2:-0.00596586 
100 1:0.000867961 2:-0.00740449 
100 1:-0.0103202 2:-0.0198182 
100 1:0.00807213 2:-0.0038308 
100 1:0.005806 2:-0.00361794 
100 1:0.0069733 2:-0.00196962 
100 1:0.00566919 2:-0.00342965 
100 1:0.0155341 2:0.00504403 
100 1:-0.022957 2:-0.0321333 
100 1:4.58475e-05 2:-0.00815421 
100 1:0.00713498 2:-0.00403612 
100 1:-0.000279805 2:-0.0164518 
100 1:0.00407932 2:-0.00433963 
100 1:0.00631823 2:-0.00222154 
100 1:0.000255841 2:-0.0075395 
100 1:0.0174374 2:-0.000701726 
100 1:0.00757646 2:-0.00220769 
100 1:0.0132175 2:-0.00487702 
100 1:0.0135043 2:0.00430229 
100 1:-0.0284069 2:-0.0363799 
100 1:0.00228846 2:-0.0107838 
100 1:0.00448839 2:-0.00385161 
100 1:0.00573501 2:-0.0161163 
100 1:-0.00335135 2:-0.0178649 
100 1:0.0131352 2:-0.0038792 
100 1:0.00942069 2:-0.00937023 
100 1:0.00460012 2:-0.00650861 
100 1:0.0137115 2:-0.00122923 
100 1:0.00447078 2:-0.00413744 
100 1:0.00155901 2:-0.00694379 
100 1:0.00317341 2:-0.00909107 
100 1:-0.00390175 2:-0.0118508 
100 1:0.00359412 2:-0.00700881 
100 1:0.009675 2:-0.00812471 
100 1:-0.000848514 2:-0.0122212 
100 1:0.00131899 2:-0.00647104 
100 1:-0.00254073 2:-0.0108558 
100 1:0.00776354 2:-0.00796023 
100 1:0.00151871 2:-0.00784671 
100 1:-0.00137922 2:-0.00966166 
100 1:0.00734784 2:-0.00948803 
100 1:-0.003924 2:-0.01306 
100 1:-0.021653 2:-0.0274973 
100 1:0.00872701 2:-0.00642712 
100 1:0.00140735 2:-0.00718027 
100 1:-0.000478094 2:-0.00888031 
100 1:0.00381789 2:-0.00459241 
100 1:-0.00114345 2:-0.00875082 
100 1:0.005368 2:-0.00356202 
100 1:0.0132628 2:-0.00254362 
100 1:0.00766922 2:-0.00261466 
100 1:-0.00026138 2:-0.00918191 
100 1:-0.00709898 2:-0.0175686 
100 1:0.0076624 2:-0.00187497 
100 1:0.00654837 2:-0.00321279 
100 1:0.00771593 2:-0.00434915 
100 1:0.00731644 2:-0.00132104 
100 1:0.00567814 2:-0.00359547 
100 1:0.0107096 2:0.00130459 
100 1:0.0191536 2:-0.0191385 
100 1:0.00423325 2:-0.00514816 
100 1:0.0137391 2:0.00408241 
100 1:-0.00461625 2:-0.0134161 
100 1:0.0144184 2:-0.00781005 
100 1:-0.000236866 2:-0.0101739 
100 1:0.0146354 2:-0.00309482 
100 1:0.0076014 2:-0.00223258 
100 1:0.0100511 2:-0.00264121 
100 1:-0.0130515 2:-0.0204613 
100 1:0.0151214 2:0.00136124 
100 1:-0.0184973 2:-0.0279528 
100 1:-0.019597 2:-0.0335577 
100 1:-0.00565107 2:-0.0181606 
100 1:-0.0180606 2:-0.0298785 
100 1:0.0152853 2:0.00617734 
100 1:0.00374711 2:-0.00525992 
100 1:-0.00100203 2:-0.0109728 
100 1:0.00168578 2:-0.00765131 
100 1:0.00278704 2:-0.00564004 
100 1:0.00867425 2:-0.00124608 
100 1:-0.000232216 2:-0.0133078 
100 1:0.00694193 2:-0.00345386 
100 1:0.0195938 2:0.0042858 
100 1:0.00210102 2:-0.00718838 
100 1:0.00399995 2:-0.00420401 
100 1:-0.0260574 2:-0.0330129 
100 1:0.0107368 2:-0.000117112 
100 1:0.0189911 2:0.00244928 
100 1:-0.00858621 2:-0.0164373 
100 1:0.00892921 2:-0.00417637 
100 1:-0.00238599 2:-0.0110051 
100 1:0.00713305 2:-0.00353083 
100 1:-0.00143203 2:-0.0109884 
100 1:0.0111869 2:-0.00162917 
100 1:0.00225108 2:-0.00676885 
100 1:0.00479896 2:-0.0124074 
100 1:0.000175965 2:-0.00744691 
100 1:0.00164964 2:-0.00610405 
100 1:0.00974749 2:-0.000761268 
100 1:-0.0332292 2:-0.0438075 
100 1:-0.00301036 2:-0.0117829 
100 1:-0.00260062 2:-0.0113617 
100 1:-0.00345328 2:-0.0122069 
100 1:0.00722494 2:-0.00255839 
100 1:-0.00249485 2:-0.0101723 
100 1:0.0171997 2:-0.00467107 
100 1:0.00930372 2:-0.0119979 
100 1:0.00753119 2:-0.00436994 
65.352692738774493 1:0.00626969 2:-0.00188538 
100 1:0.00369036 2:-0.00883856 
100 1:0.00683066 2:-0.00246948 
100 1:0.000632105 2:-0.0100686 
100 1:0.00745177 2:-0.0137967 
100 1:0.00325537 2:-0.00874378 
100 1:-0.0220474 2:-0.029596 
100 1:0.00202593 2:-0.0106598 
100 1:0.00999399 2:-0.0094154 
100 1:0.0180401 2:0.00265401 
100 1:0.00677761 2:-0.00913227 
100 1:-0.00263131 2:-0.0133977 
100 1:0.00758018 2:-0.00436549 
100 1:-0.00334974 2:-0.0115284 
100 1:0.000391632 2:-0.00782739 
100 1:0.0109253 2:-0.00488328 
100 1:0.00752677 2:-0.00331036 
100 1:0.0129343 2:-0.0101527 
100 1:0.0016091 2:-0.00716096 
100 1:0.0073682 2:-0.00263446 
100 1:-0.0283165 2:-0.0329776 
100 1:-0.00446906 2:-0.011669 
100 1:0.00336246 2:-0.00941419 
100 1:0.0159253 2:0.00652453 
100 1:0.00812861 2:-0.00212635 
100 1:0.00976625 2:-0.0166908 
100 1:0.00349088 2:-0.00458576 
100 1:-0.00748422 2:-0.0192354 
100 1:0.00966255 2:-0.00681498 
100 1:-0.0107079 2:-0.0172113 
100 1:0.00593648 2:-0.0210845 
100 1:0.0206787 2:-0.000647935 
100 1:0.000316779 2:-0.0145683 
100 1:0.0104683 2:-0.00362949 
100 1:0.00387408 2:-0.00718325 
100 1:0.00244 2:-0.00696519 
100 1:0.0046861 2:-0.00776872 
100 1:0.00290683 2:-0.0059672 
100 1:0.00103457 2:-0.00764363 
100 1:0.0105582 2:-0.00960775 
100 1:0.0115596 2:0.00246936 
100 1:0.00841721 2:-0.00618945 
100 1:-0.00437016 2:-0.0123024 
100 1:0.00873241 2:-0.00642749 
100 1:0.000592769 2:-0.0117015 
100 1:-0.019278 2:-0.0252137 
100 1:0.00492453 2:-0.00407067 
100 1:-0.0310802 2:-0.0404936 
100 1:0.00369819 2:-0.0051305 
100 1:0.00400536 2:-0.00420629 
100 1:0.00778839 2:-0.00181742 
100 1:0.010632 2:-0.00488179 
100 1:-0.0104638 2:-0.0204312 
100 1:0.0127587 2:0.00313357 
100 1:0.00216395 2:-0.00680572 
100 1:-0.00602625 2:-0.0162806 
100 1:0.00819158 2:-0.00377472 
100 1:0.00822109 2:-0.00247722 
100 1:-0.0191701 2:-0.0250272 
100 1:-0.042609 2:-0.0459143 
100 1:0.00926617 2:-0.00314863 
100 1:0.00406406 2:-0.00568185 
100 1:0.00584909 2:-0.00753884 
100 1:-0.00132845 2:-0.0113113 
100 1:-7.3677e-05 2:-0.00881233 
100 1:-0.000278829 2:-0.00864161 
100 1:0.0132765 2:-0.0023421 
100 1:-0.00136898 2:-0.0111668 
100 1:0.0022353 2:-0.00946089 
100 1:-0.00465429 2:-0.0145925 
100 1:-0.0205318 2:-0.030479 
100 1:0.0105504 2:-0.00263555 
100 1:0.0129105 2:0.00144378 
100 1:0.00381625 2:-0.0050416 
100 1:-0.00231432 2:-0.0113701 
100 1:0.00759789 2:-0.0130962 
100 1:-0.0342623 2:-0.038695 
100 1:0.00974401 2:-0.0181904 
100 1:-0.00859299 2:-0.0154012 
100 1:0.0112536 2:-0.00789696 
100 1:0.00997485 2:-0.00278947 
100 1:0.00317713 2:-0.0059186 
100 1:-0.00224329 2:-0.0109192 
100 1:0.00124177 2:-0.00683158 
100 1:0.000734263 2:-0.00807549 
100 1:-0.00118856 2:-0.0131633 
100 1:0.00275574 2:-0.00740813 
100 1:0.00464214 2:-0.00388595 
100 1:-0.0019518 2:-0.0138417 
100 1:0.00885679 2:-0.00169303 
100 1:0.000257835 2:-0.0107224 
100 1:0.0113409 2:-0.00293615 
100 1:0.00483586 2:-0.0120275 
100 1:0.00710835 2:-0.00271583 
100 1:0.00301466 2:-0.00681393 
100 1:0.00376884 2:-0.0100882 
100 1:0.00236929 2:-0.00554929 
100 1:0.00580331 2:-0.00533813 
100 1:0.00628266 2:-0.00323947 
100 1:0.0144953 2:-0.00380639 
100 1:0.0151193 2:0.00306506 
100 1:0.00977876 2:-0.00361579 
100 1:0.00117188 2:-0.0089567 
100 1:-0.00758944 2:-0.0144303 
100 1:0.000888246 2:-0.0069705 
100 1:0.015522 2:0.00415242 
100 1:0.00356947 2:-0.00494038 
100 1:0.000424391 2:-0.0115531 
100 1:0.00226512 2:-0.00761008 
100 1:0.00843245 2:-0.00433498 
100 1:-0.0035512 2:-0.0151712 
100 1:-0.00796535 2:-0.0165743 
100 1:0.00801474 2:-0.00416648 
100 1:0.0106175 2:-0.00917308 
100 1:0.0111555 2:0.00170054 
100 1:-0.00124318 2:-0.00991022 
100 1:0.00584214 2:-0.00384684 
100 1:0.00198605 2:-0.00680532 
100 1:0.00206984 2:-0.00948556 
100 1:0.004889 2:-0.00602328 
100 1:0.00463769 2:-0.0124187 
100 1:0.00330551 2:-0.0118471 
100 1:0.0143939 2:-0.00219597 
100 1:0.00521076 2:-0.00294535 
100 1:0.00882155 2:-0.00224899 
100 1:0.00220116 2:-0.00776925 
100 1:0.00767202 2:-0.00269601 
100 1:0.0312392 2:-0.00326735 
100 1:0.00666173 2:-0.00592402 
100 1:0.0104725 2:0.00180971 
100 1:-0.000971984 2:-0.0103723 
100 1:0.00622704 2:-0.00750388 
100 1:0.00590011 2:-0.00786123 
100 1:-3.56463e-07 2:-0.0161564 
100 1:0.00605909 2:-0.00259292 
100 1:0.000898891 2:-0.0116594 
100 1:0.0137516 2:-0.00462615 
100 1:0.00155775 2:-0.00615228 
100 1:0.0179276 2:0.00522238 
100 1:0.00856845 2:-0.000686572 
100 1:0.0109009 2:0.000520423 
100 1:-0.00694829 2:-0.0142881 
100 1:0.0097498 2:-0.00407185 
100 1:0.0103335 2:-0.00133501 
100 1:0.0114961 2:-0.0301231 
100 1:0.00562886 2:-0.00563355 
100 1:0.00450687 2:-0.00488118 
100 1:-0.000645138 2:-0.0285854 
100 1:0.0167858 2:-0.00237457 
100 1:0.00126224 2:-0.00700483 
100 1:0.00211305 2:-0.00724969 
100 1:0.0149319 2:0.00411895 
100 1:0.00844994 2:-0.00453709 
100 1:0.00751246 2:-0.00189381 
100 1:0.000613757 2:-0.013805 
100 1:0.00110902 2:-0.00821222 
100 1:0.010821 2:-0.00273834 
100 1:0.0108161 2:-0.000408612 
100 1:-0.00466955 2:-0.0173538 
100 1:0.0257799 2:-0.0255391 
100 1:0.00318574 2:-0.0090758 
100 1:0.00383395 2:-0.00491476 
100 1:0.00770953 2:-0.00435128 
100 1:0.00555106 2:-0.00467965 
100 1:-0.00285675 2:-0.0103011 
21.562829818081497 1:-0.0035013 2:-0.0106674 
100 1:-0.00073202 2:-0.00986022 
100 1:-0.00446442 2:-0.0150592 
100 1:0.0064819 2:-0.00607079 
100 1:0.0102702 2:-0.00262592 
100 1:0.00293084 2:-0.0165344 
100 1:0.00885215 2:-0.00454142 
100 1:0.00697174 2:-0.00872444 
100 1:0.00244679 2:-0.00802868 
100 1:0.00677428 2:-0.00331372 
100 1:0.0208483 2:0.00620597 
100 1:0.0103024 2:-0.00560378 
100 1:0.000471437 2:-0.00746848 
100 1:0.00372173 2:-0.0043659 
100 1:-0.00444413 2:-0.0170179 
100 1:0.00480593 2:-0.00493128 
100 1:0.0062376 2:-0.00769508 
100 1:0.000635682 2:-0.00744244 
100 1:0.00777375 2:-0.00122521 
100 1:0.00342774 2:-0.00557963 
100 1:0.0048303 2:-0.00621997 
100 1:0.00715438 2:-0.00127633 
100 1:0.000305724 2:-0.00847565 
100 1:0.00295751 2:-0.00982772 
100 1:0.00351536 2:-0.0123 
100 1:0.000497446 2:-0.00843566 
100 1:0.00565712 2:-0.00375827 
100 1:0.00419299 2:-0.00418441 
100 1:-0.00220148 2:-0.0123071 
100 1:0.00585838 2:-0.00358945 
100 1:0.0019909 2:-0.00703592 
100 1:-0.00159019 2:-0.0121098 
100 1:-0.021403 2:-0.0267716 
100 1:-0.00443646 2:-0.011843 
100 1:0.0145583 2:-0.000301083 
100 1:0.00529641 2:-0.00556145 
100 1:0.00299129 2:-0.00761743 
100 1:0.00505766 2:-0.00647693 
100 1:0.00727804 2:-0.00714456 
100 1:-0.00716422 2:-0.0146418 
100 1:-0.00587502 2:-0.0243691 
100 1:0.00325066 2:-0.00705248 
100 1:-0.00419594 2:-0.013836 
100 1:0.00620566 2:-0.00247129 
100 1:-0.00300372 2:-0.0359272 
100 1:0.00727116 2:-0.00173089 
100 1:0.00229708 2:-0.00912345 
100 1:0.00363822 2:-0.00705917 
100 1:0.0120766 2:0.00186915 
100 1:-0.00149262 2:-0.0152135 
100 1:0.00658901 2:-0.00220757 
100 1:0.000465691 2:-0.00782716 
100 1:0.0039618 2:-0.0064684 
100 1:0.00550339 2:-0.0026728 
100 1:0.0123204 2:0.00144591 
100 1:-0.00429546 2:-0.0118104 
100 1:0.008987 2:-0.00499602 
100 1:-0.000563904 2:-0.00809115 
100 1:-0.00464993 2:-0.0120861 
100 1:-0.00438132 2:-0.0140244 
100 1:0.0136727 2:0.00323338 
100 1:-0.00316613 2:-0.0141143 
100 1:0.00835436 2:-0.00502674 
100 1:0.00585431 2:-0.0233425 
100 1:0.0106866 2:-0.00624337 
100 1:0.00784121 2:-0.00211505 
100 1:-0.000614864 2:-0.0145761 
100 1:0.00746779 2:-0.00973322 
100 1:0.00935292 2:0.000662965 
100 1:0.00761481 2:-0.00125401 
100 1:0.00188243 2:-0.00908974 
100 1:0.0128371 2:0.00388928 
100 1:-0.00803639 2:-0.0191002 
100 1:0.00399229 2:-0.00689339 
100 1:0.00820789 2:-0.00296403 
100 1:0.005582 2:-0.0032369 
100 1:0.00355839 2:-0.00679504 
100 1:0.00109751 2:-0.009573 
100 1:0.0055811 2:-0.00467954 
100 1:0.017522 2:0.00495785 
100 1:0.0121952 2:0.00276023 
100 1:0.00219292 2:-0.0088667 
100 1:-0.0450411 2:-0.048284 
100 1:0.0119778 2:0.00135457 
100 1:0.00962546 2:-0.00266364 
100 1:-0.00196948 2:-0.0114791 
100 1:0.00997312 2:-0.00675288 
100 1:0.0100459 2:-5.68294e-05 
100 1:0.00834683 2:-0.00267949 
100 1:-0.00128885 2:-0.0111441 
100 1:0.00506173 2:-0.00529163 
100 1:0.00399995 2:-0.00420401 
100 1:-0.0353609 2:-0.0543722 
100 1:-0.00916678 2:-0.016209 
100 1:0.00363596 2:-0.00576524 
100 1:-0.0147571 2:-0.0246352 
100 1:-0.0247771 2:-0.0324246 
100 1:0.0122546 2:-0.00210874 
100 1:0.00751341 2:-0.00668659 
100 1:0.0131439 2:-0.00544935 
100 1:0.00628333 2:-0.00578874 
100 1:0.0138479 2:0.00321119 
100 1:-0.00979239 2:-0.0176455 
100 1:0.0013484 2:-0.0102325 
100 1:0.0023827 2:-0.00928393 
100 1:0.00234285 2:-0.0219656 
100 1:-0.000163975 2:-0.0086226 
100 1:0.00995847 2:-7.79585e-06 
100 1:0.00537555 2:-0.00789946 
100 1:0.0061893 2:-0.0174034 
100 1:0.00573863 2:-0.00411052 
100 1:0.00588202 2:-0.00342474 
100 1:0.00700375 2:-0.00183268 
100 1:0.00241078 2:-0.00792635 
100 1:0.00663419 2:-0.00399071 
100 1:0.00844859 2:-0.000422782 
100 1:0.00748541 2:-0.0054946 
100 1:0.00151865 2:-0.00784686 
100 1:-0.00252488 2:-0.0109258 
100 1:0.0042138 2:-0.0106374 
100 1:-0.000118755 2:-0.00973393 
100 1:-0.00048744 2:-0.00878248 
100 1:0.013569 2:-0.00758392 
100 1:0.00587326 2:-0.00277761 
100 1:-0.00580025 2:-0.0165878 
100 1:0.00296399 2:-0.00784584 
100 1:0.00208684 2:-0.00607061 
100 1:0.00591225 2:-0.00371071 
100 1:0.0198589 2:-0.000572588 
100 1:-0.00341574 2:-0.0120601 
100 1:0.00339088 2:-0.00492385 
100 1:0.00817703 2:-0.000529495 
100 1:0.00840881 2:-0.00618982 
100 1:0.0151991 2:0.00252508 
100 1:0.00390249 2:-0.00989917 
100 1:0.00868866 2:-0.00652295 
100 1:0.0119634 2:-0.000598257 
100 1:0.0048362 2:-0.00703255 
100 1:-0.000213715 2:-0.0140236 
100 1:0.00338315 2:-0.00651161 
100 1:-0.0260855 2:-0.0371161 
100 1:0.0120452 2:0.00255902 
100 1:0.00880619 2:-0.0146885 
100 1:-0.000236866 2:-0.0101739 
100 1:-0.00500902 2:-0.0173758 
100 1:0.00562384 2:-0.00756925 
100 1:-0.00148643 2:-0.0152149 
100 1:-0.000422207 2:-0.00797645 
100 1:0.0109041 2:-0.000197 
100 1:0.00532075 2:-0.00422181 
100 1:0.00510415 2:-0.00418106 
100 1:-0.000614864 2:-0.0145761 
100 1:-0.0180735 2:-0.0251666 
100 1:-0.00123463 2:-0.00901282 
100 1:0.015943 2:-0.000232396 
100 1:0.0110892 2:0.00212313 
100 1:0.00289905 2:-0.00868058 
100 1:-0.00387859 2:-0.0286364 
100 1:0.0059098 2:-0.0028483 
100 1:0.00586234 2:-0.00270727 
100 1:0.00239547 2:-0.00731742 
100 1:-0.00153162 2:-0.00964657 
100 1:-0.0355419 2:-0.0442525 
100 1:-0.00209127 2:-0.0102689 
100 1:0.015086 2:0.00425825 
100 1:-0.00400565 2:-0.0131483 
100 1:-0.00714162 2:-0.0183314 
100 1:-0.000666985 2:-0.0100414 
100 1:0.00150321 2:-0.0142301 
100 1:0.00364966 2:-0.0132817 
100 1:-0.00740173 2:-0.0154113 
100 1:0.00483402 2:-0.00622076 
100 1:-0.0155319 2:-0.0252085 
100 1:-0.00328447 2:-0.0115486 
100 1:-0.00154124 2:-0.00942096 
100 1:-0.000586605 2:-0.0097112 
100 1:0.000883761 2:-0.0124013 
100 1:-0.000468608 2:-0.00827763 
100 1:-0.00330088 2:-0.0119554 
100 1:0.00696603 2:-0.00196974 
100 1:-0.00466498 2:-0.0119082 
100 1:0.00879296 2:-0.00924267 
100 1:0.00517218 2:-0.00338058 
100 1:0.0113656 2:0.00166064 
100 1:0.00310511 2:-0.00673338 
100 1:0.00388771 2:-0.00427193 
100 1:0.0156963 2:0.00223967 
100 1:0.00214644 2:-0.00759158 
100 1:0.016565 2:0.00303759 
100 1:0.00513435 2:-0.00575157 
100 1:-0.00350434 2:-0.0107603 
100 1:-0.0374156 2:-0.0428904 
100 1:0.00275181 2:-0.00740819 
100 1:0.00113861 2:-0.00948058 
100 1:0.0040077 2:-0.0154307 
100 1:-0.00155064 2:-0.00912061 
100 1:0.00610966 2:-0.00214156 
100 1:0.00573912 2:-0.00402673 
100 1:0.00356395 2:-0.00576469 
100 1:0.0108165 2:-0.00273867 
100 1:0.00676747 2:-0.00913471 
100 1:0.00995927 2:-0.0121897 
100 1:0.00289423 2:-0.0136892 
100 1:-0.000137617 2:-0.0122079 
100 1:0.0109445 2:0.000370668 
100 1:-0.0294602 2:-0.037599 
100 1:0.00979597 2:-0.000995024 
100 1:0.00379419 2:-0.00512715 
100 1:0.0103613 2:-0.00345622 
100 1:0.0132628 2:-0.0025436 
100 1:0.00279054 2:-0.00576955 
100 1:0.00342644 2:-0.00452834 
100 1:-0.0361872 2:-0.0419628 
100 1:0.000103204 2:-0.0173719 
100 1:-0.00273151 2:-0.0146427 
100 1:-0.0129141 2:-0.0217525 
100 1:0.00726664 2:-0.00345446 
100 1:0.00209036 2:-0.00620757 
100 1:-0.00155417 2:-0.00899774 
100 1:-0.00196486 2:-0.0095921 
100 1:0.00757419 2:-0.00542405 
100 1:-0.00316726 2:-0.0115119 
100 1:0.00385859 2:-0.0114234 
100 1:0.0104746 2:-0.00588766 
100 1:0.0123161 2:-0.00863748 
100 1:-0.00301295 2:-0.0161771 
100 1:0.0170346 2:0.00629912 
100 1:0.00109028 2:-0.00942309 
100 1:0.00314739 2:-0.0139005 
100 1:0.00503638 2:-0.00526596 
100 1:0.0161084 2:0.000547346 
100 1:-0.00327058 2:-0.0108208 
100 1:0.00938912 2:-0.00335157 
100 1:0.00872498 2:-0.00642539 
100 1:0.00647404 2:-0.00478921 
100 1:0.0110089 2:0.000739655 
100 1:-0.00537499 2:-0.0127584 
100 1:0.0053645 2:-0.00821698 
100 1:0.00283587 2:-0.00551896 
100 1:-0.00655143 2:-0.0146964 
100 1:0.0051934 2:-0.00457606 
100 1:-0.000756109 2:-0.0132545 
100 1:-0.00228598 2:-0.0106133 
100 1:-0.0166388 2:-0.0235498 
100 1:-0.000727804 2:-0.00885501 
100 1:0.0015984 2:-0.00868681 
100 1:-0.00184669 2:-0.00985176 
100 1:0.00901517 2:0.000262173 
100 1:0.00948801 2:-0.0154482 
100 1:0.00367169 2:-0.00796513 
100 1:0.00566162 2:-0.00338886 
100 1:0.00110317 2:-0.012944 
100 1:0.0135456 2:0.000333989 
100 1:0.0115286 2:0.000118046 
100 1:0.00900075 2:-0.00526551 
100 1:-0.0241371 2:-0.0296239 
100 1:0.00294253 2:-0.0052678 
100 1:0.012766 2:0.00260317 
100 1:0.0106611 2:-0.00480455 
100 1:-0.0420179 2:-0.048604 
100 1:0.0054084 2:-0.0103639 
100 1:-0.00109457 2:-0.00910816 
100 1:0.0104387 2:-0.000234286 
100 1:0.0158283 2:-0.0028534 
100 1:0.00751367 2:-0.0084833 
100 1:-0.00250551 2:-0.0153937 
100 1:-0.000784211 2:-0.0113348 
100 1:0.0113596 2:0.00254204 
100 1:-0.0141544 2:-0.0213138 
100 1:-0.00743952 2:-0.0146307 
100 1:0.000726104 2:-0.00842143 
100 1:0.00646373 2:-0.00345869 
100 1:-0.00371178 2:-0.0109708 
100 1:-0.00372936 2:-0.0113662 
100 1:0.0141592 2:-0.00201226 
100 1:0.00331554 2:-0.0105033 
100 1:0.00414833 2:-0.00412158 
100 1:0.00970279 2:-0.00440565 
100 1:0.00346331 2:-0.0223561 
100 1:0.0017408 2:-0.00816286 
100 1:0.00471567 2:-0.00465618 
100 1:-0.000281871 2:-0.00938858 
100 1:0.00482641 2:-0.00576911 
100 1:0.0108238 2:-0.00089795 
100 1:0.00751247 2:-0.00714628 
100 1:0.0171079 2:-0.00171743 
100 1:0.00520636 2:-0.00854 
100 1:0.0122943 2:0.00124934 
100 1:0.00904943 2:-0.000818336 
100 1:0.00422961 2:-0.0283665 
100 1:0.0157714 2:0.000768051 
100 1:0.0045775 2:-0.00490395 
100 1:0.000984532 2:-0.00982233 
100 1:0.000890571 2:-0.00708211 
100 1:-0.0157942 2:-0.0234492 
100 1:-0.00420393 2:-0.0130094 
100 1:-0.00528436 2:-0.0140784 
100 1:0.00165266 2:-0.00724659 
100 1:0.00223515 2:-0.00557309 
100 1:0.00117041 2:-0.0076062 
100 1:-0.0169915 2:-0.0248244 
100 1:0.00113285 2:-0.00962387 
100 1:0.00861836 2:-0.00043471 
100 1:0.00956701 2:-0.00530901 
100 1:0.00291583 2:-0.00853558 
100 1:-0.00963151 2:-0.0170484 
100 1:0.00717052 2:-0.00222746 
100 1:0.00173582 2:-0.00623973 
100 1:-0.00494203 2:-0.0173339 
100 1:0.0024088 2:-0.0073158 
100 1:0.0112697 2:-0.0015163 
100 1:0.0124296 2:0.000610502 
100 1:0.00665436 2:-0.0041723 
100 1:-0.00310014 2:-0.0111142 
100 1:0.00935203 2:0.000446244 
100 1:-0.0114329 2:-0.0251666 
100 1:0.0088083 2:-0.00290779 
100 1:-0.000904461 2:-0.0141198 
100 1:0.00947707 2:-0.00304333 
100 1:0.0101925 2:-0.00162586 
100 1:0.00721638 2:-0.00540572 
100 1:0.00137591 2:-0.00641154 
100 1:0.00812637 2:-0.00105776 
100 1:-0.000121404 2:-0.0131241 
100 1:0.0010876 2:-0.00716755 
100 1:0.0033856 2:-0.0113922 
100 1:0.00102873 2:-0.00851107 
100 1:0.00190288 2:-0.00737084 
100 1:0.00625414 2:-0.00662633 
100 1:0.00863454 2:-0.0072585 
100 1:0.0116212 2:-0.00392393 
100 1:0.00212448 2:-0.00672514 
100 1:0.0107883 2:-0.00306563 
100 1:0.00617954 2:-0.00285 
100 1:0.0106318 2:-0.00918688 
100 1:0.00337312 2:-0.0119295 
100 1:0.00248772 2:-0.00708602 
100 1:0.0104119 2:0.000510595 
100 1:0.00186367 2:-0.010383 
100 1:-0.00458636 2:-0.013739 
100 1:0.00562717 2:-0.00756898 
100 1:0.00843364 2:-0.00332442 
100 1:0.000276267 2:-0.0138572 
100 1:0.0183454 2:0.0062939 
100 1:0.0130215 2:-0.00597854 
100 1:0.00555612 2:-0.00467929 
100 1:0.00488924 2:-0.00606131 
100 1:-0.0168422 2:-0.0231899 
100 1:0.0191315 2:0.00617403 
100 1:-0.00524186 2:-0.0149853 
100 1:-0.000581648 2:-0.0103939 
100 1:-0.00132459 2:-0.00886761 
100 1:0.00782034 2:-0.00332096 
100 1:0.00522465 2:-0.00633087 
100 1:0.00885679 2:-0.00169303 
100 1:0.00745177 2:-0.0137967 
100 1:0.00740446 2:-0.00330091 
100 1:0.00247374 2:-0.00703267 
100 1:0.00998809 2:-0.00466249 
100 1:0.00842651 2:-0.00980042 
100 1:0.00676196 2:-0.010805 
100 1:0.00784632 2:-0.00096501 
100 1:0.00638933 2:-0.00220952 
100 1:-0.00579758 2:-0.0165875 
100 1:-6.87186e-05 2:-0.00937698 
100 1:0.000337127 2:-0.00985744 
100 1:0.0101727 2:-0.00555967 
100 1:0.00471797 2:-0.00454912 
100 1:0.00777331 2:-0.00122484 
100 1:-0.00329556 2:-0.0191492 
100 1:0.00969126 2:-0.00455808 
100 1:-0.00333835 2:-0.0127207 
100 1:-7.41849e-05 2:-0.0123277 
100 1:-0.0021848 2:-0.00981302 
100 1:-0.00792401 2:-0.0152201 
100 1:0.0158546 2:0.00278679 
100 1:0.00581723 2:-0.0150954 
100 1:0.00678676 2:-0.00508487 
100 1:0.0055169 2:-0.014038 
100 1:0.00232419 2:-0.00611799 
100 1:0.0109323 2:-0.0103472 
100 1:-0.00839197 2:-0.0183529 
100 1:0.0059638 2:-0.00496615 
100 1:0.00628828 2:-0.00323969 
100 1:0.00341348 2:-0.00724133 
100 1:0.011174 2:-0.0128712 
100 1:0.000393847 2:-0.0142613 
100 1:0.0123755 2:0.00118638 
100 1:-0.00328867 2:-0.0115489 
100 1:-0.00309811 2:-0.0106957 
100 1:0.00860815 2:-0.00135511 
100 1:0.0038939 2:-0.00625377 
100 1:0.00783347 2:-0.00141036 
100 1:0.00445216 2:-0.00504002 
100 1:0.00857185 2:-0.00195773 
100 1:0.00312318 2:-0.00887285 
100 1:0.00602241 2:-0.00427664 
100 1:0.00591488 2:-0.00351649 
100 1:0.00728059 2:-0.00714439 
100 1:0.00404955 2:-0.00583094 
100 1:0.0080961 2:-0.00101138 
100 1:0.00999532 2:-0.00097085 
100 1:0.0109931 2:-0.0101682 
100 1:0.00786103 2:-0.00133293 
100 1:0.0102704 2:-0.00282413 
100 1:0.00424232 2:-0.00539514 
100 1:0.00656239 2:-0.00773512 
100 1:-0.0151795 2:-0.0212767 
100 1:0.0248841 2:0.00683912 
100 1:-0.00204922 2:-0.0145312 
100 1:0.00464541 2:-0.0039281 
100 1:-0.00803398 2:-0.0190995 
100 1:0.00459455 2:-0.00650724 
100 1:0.00792316 2:-0.0031991 
100 1:0.00453188 2:-0.00475843 
100 1:0.00076135 2:-0.00723325 
100 1:-0.00153754 2:-0.0103116 
100 1:0.00296953 2:-0.00921742 
100 1:0.00177276 2:-0.00669998 
100 1:0.00485661 2:-0.00522732 
100 1:0.00898483 2:0.000217818 
100 1:-0.00299897 2:-0.0109038 
100 1:0.00242434 2:-0.0063369 
100 1:0.0116691 2:0.000654439 
100 1:-0.000267205 2:-0.0104785 
100 1:0.00171099 2:-0.0191639 
100 1:0.00042439 2:-0.0115531 
100 1:0.0031757 2:-0.00956785 
100 1:-0.00562687 2:-0.0172368 
100 1:0.0130222 2:-0.00597848 
100 1:0.0058386 2:-0.0100393 
100 1:0.0111045 2:0.00188577 
100 1:0.00891422 2:-0.00417618 
100 1:0.0177831 2:-0.00175954 
100 1:0.0123121 2:0.00315708 
100 1:0.0118427 2:-0.00150667 
100 1:-0.0353632 2:-0.0543722 
100 1:0.010638 2:-0.00918719 
100 1:0.000765561 2:-0.00723284 
100 1:0.0108905 2:-0.00766325 
100 1:0.00920579 2:-0.000170114 
100 1:0.000457143 2:-0.00842112 
100 1:0.00841498 2:-0.00310844 
100 1:0.00481862 2:-0.00368702 
100 1:0.00584496 2:-0.00249033 
100 1:0.0137045 2:-0.00325412 
100 1:0.00253581 2:-0.00603826 
100 1:-0.000267254 2:-0.0104787 
100 1:0.00745284 2:-0.00350801 
100 1:0.00746506 2:-0.00613723 
100 1:0.00612344 2:-0.00279786 
100 1:-0.00100009 2:-0.0197737 
100 1:0.00614383 2:-0.0175507 
100 1:0.00166561 2:-0.00886632 
100 1:0.00117966 2:-0.00668755 
100 1:0.00312814 2:-0.00831355 
100 1:0.00448124 2:-0.0059845 
100 1:0.0140177 2:-0.000839769 
100 1:0.0017801 2:-0.00966845 
100 1:0.014091 2:-0.00552508 
100 1:0.00582037 2:-0.00705616 
100 1:0.0147363 2:-0.00496544 
100 1:-0.00397492 2:-0.0227115 
100 1:-9.75046e-05 2:-0.00778247 
100 1:-0.0113723 2:-0.0214815 
100 1:0.00675124 2:-0.00301815 
100 1:-0.0111307 2:-0.0191329 
100 1:0.00996696 2:0.000689086 
100 1:0.00641516 2:-0.00558205 
100 1:-0.000118597 2:-0.0141786 
100 1:0.0101577 2:-0.0208713 
100 1:0.0145333 2:-8.73516e-05 
100 1:-0.0273033 2:-0.0333613 
100 1:0.0119367 2:-0.000184896 
100 1:0.00367229 2:-0.00764815 
100 1:0.000262254 2:-0.00879529 
100 1:0.00710392 2:-0.00481297 
100 1:0.0157547 2:0.00619978 
100 1:-0.00875661 2:-0.0159646 
100 1:0.015193 2:-0.00169504 
100 1:-0.00120613 2:-0.0098324 
100 1:0.00428449 2:-0.00559521 
100 1:0.00117021 2:-0.00979832 
100 1:-0.00201426 2:-0.0186521 
100 1:-0.00115995 2:-0.00910354 
100 1:0.0140608 2:0.00462315 
100 1:0.0174712 2:0.00435027 
100 1:0.00366521 2:-0.00565836 
100 1:0.00356775 2:-0.00691884 
100 1:-0.000830101 2:-0.0106024 
100 1:0.00331057 2:-0.00662581 
100 1:0.0124358 2:-0.0019717 
100 1:-0.0104689 2:-0.0246585 
100 1:-0.00241442 2:-0.0110482 
100 1:0.00126052 2:-0.00960815 
100 1:0.00997037 2:-0.000316024 
100 1:0.00620238 2:-0.00247029 
100 1:0.010791 2:-0.00577402 
100 1:0.0110143 2:0.000738233 
100 1:0.00228338 2:-0.0055276 
100 1:0.0140056 2:0.00217388 
100 1:0.00558234 2:-0.00435686 
100 1:-0.00127958 2:-0.0109541 
100 1:0.00242046 2:-0.00961475 
100 1:0.0040542 2:-0.00655716 
100 1:0.0108425 2:0.00192615 
100 1:0.00818424 2:-0.00377498 
100 1:0.0044988 2:-0.0120247 
100 1:0.0142528 2:-0.014167 
100 1:0.0191716 2:0.00265061 
100 1:0.00580225 2:-0.00389955 
100 1:0.0371597 2:-0.00153723 
100 1:0.0126769 2:0.000730889 
100 1:0.012384 2:0.00118633 
100 1:-0.00423403 2:-0.0126739 
100 1:0.00934363 2:-0.00359836 
100 1:0.00384002 2:-0.0112964 
100 1:0.00966565 2:-0.0103994 
100 1:0.0135544 2:0.00412491 
100 1:-0.00468109 2:-0.01366 
100 1:0.00366138 2:-0.00506024 
100 1:-0.000663049 2:-0.0100412 
100 1:0.00632453 2:-0.0020933 
100 1:0.00610644 2:-0.00954856 
100 1:-0.0163345 2:-0.0275069 
100 1:0.0298546 2:-0.000621829 
100 1:0.0035672 2:-0.00536016 
100 1:0.00843919 2:-0.000933264 
100 1:-0.0017851 2:-0.0201018 
100 1:0.0135845 2:-0.00325442 
100 1:0.0120684 2:-0.00319953 
100 1:0.0101207 2:0.000930963 
100 1:0.0107038 2:-0.00196362 
100 1:0.0106715 2:0.000368634 
100 1:-0.000227678 2:-0.00893972 
100 1:0.00566066 2:-0.00342804 
100 1:0.00515473 2:-0.00521737 
100 1:0.00445196 2:-0.00407077 
100 1:0.00714668 2:-0.00246912 
100 1:-0.00116149 2:-0.00910481 
100 1:0.00536543 2:-0.00286983 
100 1:0.00225777 2:-0.00941575 
100 1:0.00614775 2:-0.00365656 
100 1:0.00857112 2:-0.00942193 
100 1:-0.0139116 2:-0.0245786 
100 1:0.00205734 2:-0.0076367 
100 1:0.00222206 2:-0.00557406 
100 1:0.00120918 2:-0.00837338 
100 1:0.00152443 2:-0.00682105 
100 1:0.00128871 2:-0.00900792 
100 1:0.00715439 2:-0.00127635 
100 1:0.00436588 2:-0.00483048 
100 1:0.000959341 2:-0.00731807 
100 1:0.00926557 2:-0.000350212 
100 1:0.0118996 2:0.00129622 
100 1:0.00461191 2:-0.00447331 
100 1:0.0145526 2:-0.00317644 
100 1:0.000641578 2:-0.00753278 
100 1:0.0153006 2:0.00152507 
100 1:0.00163493 2:-0.0101675 
100 1:0.0218059 2:0.01048 
100 1:0.0104968 2:-0.0188348 
100 1:0.00602695 2:-0.00586503 
100 1:0.00454412 2:-0.00413185 
100 1:0.0158282 2:0.00592005 
100 1:-0.00300588 2:-0.0116004 
100 1:0.00834022 2:-0.00596247 
100 1:0.00249104 2:-0.0060025 
100 1:0.00104129 2:-0.0133281 
100 1:0.0106944 2:-0.0165256 
100 1:0.00563082 2:-0.00345463 
100 1:0.00502101 2:-0.00585096 
100 1:0.00461025 2:-0.00787133 
100 1:0.00471008 2:-0.00342744 
100 1:0.00784721 2:-0.0124153 
100 1:0.00290468 2:-0.00627528 
100 1:0.003869 2:-0.0099006 
100 1:-0.00226749 2:-0.0108203 
100 1:0.0119282 2:-0.00824346 
100 1:0.0150135 2:0.00259693 
100 1:-0.00865017 2:-0.0170681 
100 1:-0.0116252 2:-0.0254107 
100 1:0.00894936 2:-0.00600159 
100 1:0.00557038 2:-0.00600507 
100 1:0.00242791 2:-0.00633608 
100 1:0.00775636 2:-0.00359778 
100 1:-0.00184807 2:-0.00920238 
100 1:0.00530879 2:-0.0226476 
100 1:0.00811441 2:-0.00258381 
100 1:-0.00446649 2:-0.0127815 
100 1:0.001963 2:-0.0107688 
100 1:0.007488 2:-0.00120452 
100 1:0.0143885 2:-0.000152966 
100 1:0.00197405 2:-0.00740511 
100 1:0.000788662 2:-0.00819956 
100 1:0.00837894 2:-0.00395695 
100 1:0.00566349 2:-0.00342842 
100 1:0.00465703 2:-0.00719167 
100 1:0.00210476 2:-0.00980861 
100 1:0.0067364 2:-0.00168375 
100 1:0.00369083 2:-0.00449187 
100 1:0.00992853 2:-0.00859164 
100 1:0.00646807 2:-0.00672208 
100 1:-0.00289919 2:-0.0102808 
100 1:0.00269508 2:-0.00857695 
100 1:0.00810484 2:-0.00221262 
100 1:0.00836933 2:-0.00069819 
100 1:0.000192007 2:-0.00838581 
100 1:0.00505699 2:-0.00656694 
100 1:0.0022754 2:-0.00619409 
100 1:0.00872302 2:-0.000997999 
100 1:0.00596207 2:-0.00269193 
100 1:0.0185384 2:0.000681766 
100 1:0.000895472 2:-0.00734473 
100 1:0.00133247 2:-0.00999981 
100 1:0.0019641 2:-0.00665351 
100 1:0.00973834 2:-0.0181909 
100 1:0.00643412 2:-0.00557949 
100 1:0.00283184 2:-0.00727536 
100 1:0.00600077 2:-0.00346826 
100 1:0.00570855 2:-0.00599968 
100 1:-0.00426159 2:-0.0209397 
100 1:-0.000907823 2:-0.0106211 
100 1:-0.00714331 2:-0.0158653 
100 1:0.0111771 2:0.00171302 
100 1:-0.00152582 2:-0.019307 
100 1:0.015945 2:0.0067155 
100 1:0.00856682 2:-0.0026508 
100 1:0.00289345 2:-0.00511811 
100 1:0.00773025 2:-0.00858102 
100 1:0.00364215 2:-0.00705884 
100 1:0.00867836 2:-0.0137302 
100 1:0.000740392 2:-0.0163119 
100 1:0.0109319 2:-0.00488386 
100 1:0.00293942 2:-0.00930118 
100 1:0.00935203 2:0.000446244 
100 1:0.00402473 2:-0.00744563 
100 1:-0.00358502 2:-0.0131731 
100 1:-0.00218696 2:-0.0105089 
100 1:-0.00565054 2:-0.0136898 
100 1:-0.00663344 2:-0.0178377 
100 1:0.00828361 2:-0.00449901 
100 1:0.00390862 2:-0.00552482 
100 1:0.0136429 2:-0.018211 
100 1:5.04684e-06 2:-0.00964328 
100 1:0.000258909 2:-0.0102546 
100 1:-0.0137206 2:-0.0305196 
100 1:0.000805361 2:-0.00921106 
100 1:-0.0142125 2:-0.0213218 
100 1:0.0152745 2:0.0047435 
100 1:0.00195483 2:-0.00999218 
100 1:1.44258e-05 2:-0.00789092 
100 1:0.0038679 2:-0.00789225 
100 1:0.0102281 2:0.00134688 
100 1:-0.00104098 2:-0.0102799 
100 1:0.0106862 2:-0.000609537 
100 1:0.0107612 2:-0.00270238 
100 1:-0.00548997 2:-0.0187661 
100 1:0.00609995 2:-0.00742792 
100 1:0.00393831 2:-0.00738479 
100 1:0.0029863 2:-0.00508747 
100 1:-0.00342587 2:-0.0172529 
100 1:0.00319277 2:-0.00569709 
100 1:0.00269112 2:-0.00857705 
100 1:0.00260483 2:-0.00569623 
100 1:0.00604864 2:-0.00241782 
100 1:0.00109143 2:-0.00716722 
100 1:-0.00192618 2:-0.00943616 
100 1:0.00318793 2:-0.00474354 
100 1:0.00488925 2:-0.00606125 
100 1:-0.01999 2:-0.0269948 
100 1:-0.00577839 2:-0.0143367 
100 1:0.013433 2:-0.00161178 
100 1:-0.00148709 2:-0.0099182 
100 1:0.00781232 2:-0.00242385 
100 1:0.0207999 2:0.00317103 
100 1:-0.00099786 2:-0.0362418 
100 1:0.00455785 2:-0.00541021 
100 1:0.00454804 2:-0.00384834 
100 1:-0.00737002 2:-0.0189631 
100 1:0.00214734 2:-0.00866502 
100 1:0.00709207 2:-0.0021256 
100 1:0.00494431 2:-0.00963792 
100 1:-0.00562215 2:-0.0275272 
100 1:0.00571498 2:-0.00387613 
100 1:0.00935273 2:0.000663029 
100 1:-0.00274919 2:-0.0143016 
100 1:0.0126622 2:0.000881637 
100 1:0.00438066 2:-0.00449945 
100 1:-0.00349171 2:-0.014406 
-100 1:0.00465792 2:-0.00200027 
-100 1:0.00175209 2:-0.0148436 
-100 1:0.00178396 2:-0.0118646 
-100 1:0.00813609 2:-0.00825908 
-100 1:0.00267801 2:-0.00656175 
-100 1:-0.00326281 2:-0.0184998 
-100 1:0.00116586 2:-0.0108452 
-100 1:0.0101568 2:-0.00414543 
-100 1:0.00299716 2:0.00387025 
-100 1:0.00791983 2:-0.00793174 
-100 1:0.0125436 2:-0.00617646 
-100 1:-0.00146308 2:-0.0130146 
-100 1:0.000356282 2:-0.0127403 
-100 1:0.00867301 2:-0.00670197 
-100 1:-0.00639789 2:-0.00843637 
-100 1:0.000763403 2:-0.0121393 
-100 1:0.00704175 2:-0.010278 
-100 1:0.00249643 2:-0.012838 
-100 1:0.00451144 2:-0.012645 
-100 1:0.00897951 2:-0.00600977 
-100 1:0.00466021 2:-0.0110081 
-100 1:0.00823396 2:-0.00317701 
-100 1:0.0040193 2:-0.0100843 
-100 1:0.00176456 2:-0.0149422 
-100 1:0.0113804 2:-0.00610073 
-100 1:-0.00319484 2:-0.0165045 
-100 1:0.00509314 2:-0.0106314 
-100 1:-0.00298524 2:-0.0197879 
-100 1:0.00298625 2:-0.0116684 
-100 1:0.00405786 2:-0.011484 
-100 1:0.007587 2:-0.0078148 
-100 1:0.00355884 2:-0.0113519 
-100 1:-0.00249622 2:-0.0124746 
-100 1:0.00777367 2:-0.00941542 
-100 1:0.0066913 2:-0.0109623 
-100 1:0.00697394 2:-0.0111378 
-100 1:0.00456254 2:-0.00908639 
-100 1:-0.000420309 2:-0.0153117 
-100 1:0.0125365 2:-0.00051899 
-100 1:0.00651837 2:-0.0112766 
-100 1:0.00752522 2:-0.008355 
-100 1:-0.00325624 2:-0.0184998 
-100 1:0.00249 2:-0.0113252 
-100 1:0.0105072 2:-0.00190169 
-100 1:0.00711441 2:-0.00645781 
-100 1:0.0109851 2:-0.00587702 
-100 1:0.00660415 2:-0.0100818 
-100 1:-0.00182482 2:-0.014565 
-100 1:0.000858433 2:-0.00995295 
-100 1:0.00548018 2:-0.0081966 
-100 1:0.00871744 2:-0.00953994 
-100 1:0.0149783 2:-0.00348619 
-100 1:0.00288374 2:-0.0145705 
-100 1:-0.00126392 2:-0.00936959 
-100 1:0.00610555 2:-0.00904801 
-100 1:0.00386563 2:-0.00750799 
-100 1:0.0039498 2:0.00161368 
-100 1:0.00398451 2:-0.00792504 
-100 1:0.00538743 2:-0.0109053 
-100 1:0.0034734 2:-0.01394 
-100 1:0.0109517 2:-0.00665448 
-100 1:0.00813606 2:-0.00825816 
-100 1:0.00459415 2:-0.00799224 
-100 1:0.00029938 2:-0.0104409 
-100 1:-0.00086468 2:-0.00956045 
-100 1:-0.00121098 2:-0.0161125 
-100 1:-0.000231334 2:-0.00824533 
-100 1:0.00926171 2:-0.00258491 
-100 1:0.0128327 2:-0.0045087 
-100 1:0.00547616 2:-0.00754821 
-100 1:0.001517 2:-0.0124822 
-100 1:0.000963181 2:-0.0156149 
-100 1:0.00857041 2:-0.00986214 
-100 1:0.00215079 2:-0.0148495 
-100 1:0.00971669 2:-0.00638158 
-100 1:0.00243643 2:-0.00296301 
-100 1:0.0100095 2:-0.00277401 
-100 1:-0.00566593 2:-0.00309303 
-100 1:0.0125964 2:-0.0039269 
-100 1:0.00188541 2:-0.0151958 
-100 1:0.00267505 2:-0.0133305 
-100 1:0.0080166 2:-0.00281849 
-100 1:0.00679923 2:-0.00731448 
-100 1:0.00942322 2:-0.00545476 
-100 1:0.00481837 2:-0.00161335 
-100 1:0.0131937 2:-0.00490054 
-100 1:-0.00116197 2:-0.00805062 
-100 1:-0.00473468 2:-0.0138566 
-100 1:0.00111999 2:-0.00568548 
-100 1:0.00574985 2:-0.0121452 
-100 1:0.00500096 2:-0.00445184 
-100 1:-0.00244946 2:-0.0134719 
-100 1:0.00354349 2:-0.00511644 
-100 1:0.00807839 2:-0.00841724 
-100 1:0.00344104 2:-0.00519958 
-100 1:0.0117381 2:0.00239926 
-100 1:0.0107907 2:-0.00722422 
-100 1:0.0317935 2:0.0125932 
-100 1:-0.00173941 2:-0.0122695 
-100 1:0.0033904 2:-0.0123815 
-100 1:-0.000546721 2:-0.016728 
-100 1:0.00529548 2:-0.003642 
-100 1:0.00444093 2:-0.0108603 
-100 1:0.00804334 2:-0.00983851 
-100 1:0.0118441 2:-0.0057094 
-100 1:0.00308334 2:-0.0142834 
-100 1:0.00313347 2:-0.0146978 
-100 1:0.00383778 2:-0.0119054 
-100 1:0.00395955 2:0.0016097 
-100 1:0.00795012 2:-0.00954855 
-100 1:0.00148621 2:-0.0157215 
-100 1:0.00552869 2:-0.00740818 
-100 1:0.0100043 2:-0.00735374 
-86.91552255685599 1:0.00937671 2:-0.00927693 
-100 1:0.017319 2:0.0079039 
-100 1:0.00293069 2:-0.01201 
-100 1:0.00241702 2:-0.0117039 
-100 1:0.00560948 2:-0.0104752 
-100 1:0.00235689 2:-0.0133678 
-100 1:0.00904309 2:-0.00784607 
-100 1:0.00645807 2:-0.0110132 
-100 1:0.00452202 2:-0.0115331 
-100 1:0.0107106 2:-0.00773378 
-100 1:0.016001 2:-0.00286404 
-100 1:0.0063721 2:-0.00470641 
-100 1:0.000776972 2:-0.0167755 
-100 1:0.0084743 2:-0.00973017 
-100 1:0.00498952 2:-0.00376843 
-100 1:0.00040675 2:-0.00823412 
-100 1:0.00586649 2:-0.0114422 
-100 1:0.0136881 2:-0.00499538 
-100 1:-0.00774196 2:-0.0169527 
-100 1:-0.000690146 2:-0.0124284 
-100 1:0.00991559 2:-0.00343973 
-100 1:0.0111363 2:-0.00725715 
-100 1:0.0178078 2:0.00248071 
-100 1:0.0055651 2:-0.00827928 
-100 1:-0.0019724 2:-0.00417684 
-100 1:0.00301765 2:-0.014023 
-100 1:0.00469227 2:-0.0121745 
-100 1:0.00808445 2:-0.0102655 
-100 1:0.00183481 2:-0.012979 
-100 1:0.00752565 2:-0.00352523 
-100 1:0.0112489 2:-0.00112843 
-100 1:0.00414411 2:-0.0122445 
-100 1:-0.000224975 2:-0.0145175 
-100 1:0.00141678 2:-0.0151084 
-100 1:0.00180327 2:-0.0139527 
-100 1:0.000563733 2:-0.0154379 
-100 1:-0.000543434 2:-0.0151893 
-100 1:-0.00373836 2:-0.0200453 
-100 1:0.000146302 2:-0.0146652 
-100 1:0.00573121 2:-0.00941417 
-100 1:-0.0015055 2:-0.00608611 
-100 1:0.00143362 2:-0.0137604 
-100 1:0.00796458 2:-0.0081656 
-100 1:0.0115447 2:-0.00712123 
-100 1:0.003418 2:-0.00852568 
-100 1:0.00482624 2:-0.0072609 
-100 1:0.0076149 2:-0.00644324 
-100 1:0.00826841 2:-0.00367344 
-100 1:0.00613054 2:-0.00487344 
-100 1:0.00673665 2:-0.00916159 
-100 1:-0.000269144 2:-0.0121601 
-100 1:0.0040291 2:-0.0137108 
-100 1:0.00903549 2:-0.0092381 
-100 1:0.00520186 2:-0.00280934 
-100 1:0.000385575 2:-0.00940438 
-100 1:0.00402817 2:-0.010965 
-100 1:0.00597215 2:-0.0100283 
-100 1:0.00853303 2:-0.00794365 
-100 1:-0.0107024 2:-0.0133919 
-100 1:0.00606744 2:-0.00421797 
-100 1:0.00735989 2:0.000964658 
-100 1:0.0070796 2:-0.00928559 
-100 1:0.0132915 2:-0.0022462 
-100 1:-0.000490534 2:-0.00950338 
-100 1:-0.00168928 2:-0.0166292 
-100 1:0.0051727 2:-0.0111054 
-100 1:0.00283548 2:-0.0121099 
-100 1:0.00875383 2:-0.00917299 
-100 1:0.00630379 2:-0.00532715 
-100 1:0.00640062 2:-0.0107514 
-100 1:0.00593685 2:-0.00965281 
-100 1:-0.00098247 2:-0.00763244 
-100 1:0.00270725 2:-0.0143743 
-100 1:0.00628209 2:-0.00551464 
-100 1:0.00659194 2:-0.010267 
-100 1:0.0121908 2:-0.00578656 
-100 1:0.00954374 2:-0.00569644 
-100 1:-0.00138612 2:-0.0113334 
-100 1:-0.000483231 2:-0.00409541 
-100 1:0.0105504 2:-0.00706448 
-100 1:0.0113378 2:-0.00699317 
-100 1:-0.00552539 2:-0.0116131 
-100 1:0.00297965 2:-0.0119567 
-100 1:0.00898139 2:0.00480384 
-100 1:0.00524841 2:-0.00678062 
-100 1:0.0127873 2:-0.00545633 
-100 1:0.000943554 2:-0.0131833 
-100 1:0.00500068 2:-0.0113412 
-100 1:-0.00123498 2:-0.0124218 
-100 1:-0.000571153 2:-0.00789527 
-100 1:0.00123666 2:-0.0154783 
-100 1:0.00412174 2:-0.0122435 
-100 1:0.00991816 2:-0.00662577 
-100 1:0.0026814 2:-0.00401734 
-100 1:0.0113914 2:-0.00354369 
-100 1:-0.000375472 2:-0.0152187 
-100 1:0.00166001 2:-0.0141804 
-100 1:0.00216418 2:-0.000708734 
-100 1:0.001916 2:-0.0137283 
-100 1:-0.000348174 2:-0.0159688 
-100 1:0.0124803 2:-0.0048071 
-100 1:0.00634283 2:-0.0115126 
-100 1:0.0112253 2:-0.00674762 
-100 1:-0.00139342 2:-0.00881041 
-100 1:0.0140243 2:-0.00468679 
-100 1:0.00102703 2:-0.0162674 
-100 1:0.0104053 2:-0.00671888 
-100 1:0.005517 2:-0.0118002 
-100 1:-0.00186497 2:-0.018078 
-100 1:0.0085377 2:-0.00979041 
-100 1:0.00770459 2:-0.00736545 
-100 1:0.0148621 2:-0.00365282 
-100 1:-0.000163376 2:-0.0153329 
-100 1:0.0110759 2:-0.0064547 
-100 1:0.0108156 2:-0.00386023 
-100 1:0.000453175 2:-0.00552026 
-100 1:0.00285321 2:-0.0124539 
-100 1:0.00957985 2:-0.0081934 
-100 1:0.00649972 2:-0.0118455 
-100 1:0.000459096 2:-0.0133783 
-100 1:0.00579301 2:-0.00850419 
-100 1:-0.00197742 2:-0.010242 
-100 1:0.0146022 2:-0.000553789 
-100 1:0.00723857 2:-0.00883138 
-100 1:0.00263855 2:-0.00129703 
-100 1:0.00521248 2:-0.0122633 
-100 1:0.0070887 2:-0.00224899 
-100 1:0.00884676 2:-0.00520852 
-100 1:0.00299578 2:-0.0105418 
-100 1:-0.00330074 2:-0.0100676 
-100 1:0.0032894 2:-0.0141917 
-100 1:0.00495574 2:-0.0077921 
-100 1:0.00836459 2:-0.00791853 
-100 1:0.000871719 2:-0.0162347 
-100 1:0.00559469 2:0.0045637 
-100 1:0.0056202 2:0.000294243 
-100 1:0.00661485 2:-0.011167 
-100 1:0.00843986 2:-0.0074915 
-100 1:0.00459754 2:-4.05234e-05 
-100 1:0.00960916 2:-0.00786827 
-100 1:0.00366635 2:-0.00738434 
-100 1:0.0110041 2:-0.00688372 
-100 1:0.00529322 2:-0.0126677 
-100 1:0.0037877 2:-0.011095 
-100 1:0.00522214 2:0.00118438 
-100 1:-0.00155639 2:-0.014668 
-100 1:-0.0051954 2:-0.0109155 
-100 1:-0.00332251 2:-0.00132444 
-100 1:0.00988979 2:-0.00659021 
-100 1:0.00811257 2:-0.00057454 
-100 1:0.00768298 2:0.000502519 
-100 1:0.00608197 2:-0.00691434 
-100 1:0.000221507 2:-0.0141633 
-100 1:0.00823833 2:-0.00978376 
-100 1:0.00366063 2:-0.0131817 
-100 1:0.00106614 2:-0.0159823 
-100 1:0.00159058 2:-0.0153058 
-100 1:0.00901622 2:-0.00701144 
-100 1:0.00477976 2:-0.011327 
-100 1:0.00776288 2:-0.00909876 
-100 1:0.00975783 2:-0.0064281 
-100 1:0.0050993 2:-0.0125259 
-100 1:0.00240251 2:-0.0116044 
-100 1:0.00449976 2:-0.0132564 
-100 1:0.00841679 2:-0.00803643 
-100 1:0.00862012 2:-0.00863566 
-100 1:0.00384639 2:-0.00839379 
-100 1:0.00164337 2:-0.014339 
-100 1:0.00191537 2:-0.0115774 
-100 1:0.00338905 2:-0.0144597 
-100 1:0.00737281 2:-0.0100845 
-100 1:-0.000855954 2:-0.0183671 
-100 1:0.00544641 2:-0.0122273 
-100 1:0.000124184 2:-0.0166943 
-100 1:0.00697005 2:0.00401244 
-100 1:0.00559262 2:-0.0124277 
-100 1:-0.00348499 2:-0.0148949 
-100 1:0.00650081 2:-0.00653836 
-100 1:0.00280277 2:0.00174939 
-100 1:0.000923842 2:-0.0118117 
-100 1:0.00242149 2:-0.0127478 
-100 1:0.00848298 2:-0.00986826 
-100 1:-0.000386938 2:-0.0103245 
-100 1:0.00042923 2:-0.0111813 
-100 1:-0.00176014 2:-0.0174369 
-100 1:0.00875552 2:-0.00624081 
-100 1:0.012781 2:-0.00509646 
-100 1:0.00449911 2:-0.0132672 
-100 1:0.0130559 2:0.000511727 
-100 1:0.000597502 2:-0.0060567 
-100 1:0.004159 2:-0.00806146 
-100 1:0.0137529 2:-0.0043634 
-100 1:0.00298807 2:-0.012712 
-100 1:0.000452142 2:-0.0166414 
-100 1:0.00446117 2:-0.0099935 
-100 1:0.00818648 2:-0.00341517 
-100 1:0.00342902 2:-0.00587161 
-100 1:0.00334189 2:-0.00502167 
-100 1:0.00438652 2:-0.0035362 
-100 1:0.00200494 2:-0.0120804 
-100 1:0.0047232 2:-0.0121894 
-100 1:0.00546076 2:-0.0113524 
-100 1:0.00105859 2:-0.0108478 
-100 1:0.00901341 2:-0.00626457 
-100 1:-0.000126666 2:-0.00351076 
-100 1:0.0223875 2:0.00918519 
-100 1:0.00845221 2:-0.0086557 
-100 1:0.00317352 2:-0.00969311 
-100 1:-0.00212129 2:-0.0161872 
-100 1:0.00892072 2:-0.0052373 
-100 1:0.0101046 2:-0.00562918 
-100 1:0.00678788 2:-0.00781975 
-100 1:0.00588959 2:-0.00733606 
-100 1:-0.000726844 2:-0.0169309 
-100 1:0.0127439 2:-0.00589247 
-100 1:-0.000506196 2:-0.0179772 
-100 1:0.00543768 2:-0.0122953 
-100 1:0.00619361 2:-0.00628386 
-100 1:-0.000489748 2:-0.0156383 
-100 1:0.0106763 2:0.00116999 
-100 1:0.00156666 2:-0.0116502 
-100 1:0.00267721 2:-0.0120247 
-100 1:-0.00803331 2:-0.0127258 
-100 1:0.00124173 2:-0.00970004 
-100 1:0.00779528 2:-0.00886105 
-100 1:0.00782645 2:-0.0103003 
-100 1:0.0060675 2:-0.00727137 
-100 1:0.00563179 2:-0.0105284 
-100 1:0.00631343 2:-0.00893304 
-100 1:0.0103755 2:-0.00706631 
-100 1:0.00605821 2:-0.0119932 
-100 1:0.0105436 2:-0.00696901 
-100 1:0.00245279 2:-0.0108442 
-100 1:0.00637669 2:-0.0115821 
-100 1:-6.32267e-05 2:-0.0160425 
-100 1:0.00821837 2:-0.0101199 
-100 1:0.00866447 2:-0.0038269 
-100 1:0.00870104 2:-0.00852191 
-100 1:0.00339206 2:-0.0083493 
-100 1:0.00822481 2:-0.00802288 
-100 1:0.0098337 2:-0.00645061 
-100 1:0.00579098 2:-0.0102906 
-100 1:0.00101202 2:-0.0102325 
-100 1:0.00506775 2:-0.0126966 
-100 1:0.00709651 2:-0.0091731 
-100 1:0.00386115 2:0.00038169 
-100 1:0.0325339 2:0.0203723 
-100 1:0.00495016 2:-0.00824394 
-100 1:0.00671939 2:-0.00539654 
-100 1:0.000721432 2:-0.0113942 
-100 1:0.00244106 2:-0.00404104 
-100 1:0.000261872 2:-0.0101722 
-100 1:-0.00131609 2:-8.06077e-05 
-100 1:0.0052686 2:-0.0112301 
-100 1:0.0103814 2:-0.00494687 
-100 1:0.00719182 2:-0.0096327 
-100 1:0.00359984 2:-0.00814061 
-100 1:0.00244307 2:-0.00778758 
-100 1:0.0115484 2:-0.00457399 
-100 1:0.00253752 2:-0.00739826 
-100 1:0.0100807 2:-0.00732614 
-100 1:0.00859229 2:-0.00979924 
-100 1:-0.00152012 2:-0.0107511 
-100 1:0.0042285 2:-0.0105337 
-100 1:-0.000200866 2:-0.00353384 
-100 1:0.00378006 2:-0.0115389 
-100 1:0.0171905 2:-0.00155978 
-100 1:3.60582e-05 2:-0.0143486 
-100 1:0.0124064 2:-0.00161202 
-100 1:0.00517925 2:-0.0124094 
-100 1:0.0021393 2:-0.0147966 
-100 1:-0.0020924 2:-0.0112766 
-100 1:-0.000730296 2:-0.0125883 
-100 1:0.00903194 2:-0.00679564 
-100 1:0.00311271 2:-0.0140322 
-100 1:0.0132044 2:-0.00554579 
-100 1:0.00268752 2:-0.0129498 
-100 1:-0.00386813 2:-0.0122993 
-100 1:0.0110975 2:-0.00604788 
-100 1:0.00916759 2:-0.00800175 
-100 1:-0.00176242 2:-0.014126 
-100 1:0.00624054 2:-0.00304539 
-100 1:0.000345078 2:-0.0119516 
-100 1:5.83773e-05 2:-0.00474581 
-100 1:0.00139926 2:-0.0127409 
-100 1:0.016533 2:-7.5066e-05 
-100 1:-0.000885938 2:-0.0171996 
-100 1:-0.00704975 2:-0.0185822 
-100 1:0.00421716 2:-0.0128074 
-100 1:0.0143901 2:-0.0046005 
-100 1:0.000246896 2:-0.0128911 
-100 1:0.0199177 2:0.00109848 
-100 1:0.010213 2:-0.00534629 
-100 1:-0.00652812 2:-0.0177469 
-100 1:0.00992235 2:-0.00467002 
-100 1:0.00139244 2:-0.0154622 
-100 1:0.00462 2:-0.012554 
-100 1:0.00761438 2:-0.00928764 
-100 1:0.00218551 2:-0.014639 
-100 1:0.00457776 2:-0.0124077 
-100 1:0.0067597 2:-0.00964766 
-100 1:0.00258898 2:-0.0126994 
-100 1:0.0121122 2:-0.00663329 
-100 1:0.00741633 2:-0.00993519 
-100 1:0.0121418 2:-0.000944652 
-100 1:0.0111063 2:-0.00502056 
-100 1:0.00267149 2:-0.0141609 
-100 1:0.00515523 2:-0.0108982 
-100 1:0.000555644 2:-0.0119551 
-100 1:0.00304046 2:-0.0129028 
-100 1:0.000228619 2:-0.0157195 
-100 1:0.00267847 2:-0.0141094 
-100 1:0.00903213 2:-0.00679546 
-100 1:0.0045646 2:-0.0122347 
-100 1:-0.00401576 2:-0.0206674 
-100 1:-0.00027779 2:-0.0149468 
-100 1:-0.0021473 2:-0.0110588 
-100 1:0.00035953 2:-0.0125296 
-100 1:0.0112857 2:-0.00682043 
-100 1:0.00390682 2:-0.00977114 
-100 1:0.0115006 2:-0.00557725 
-100 1:-0.0034348 2:-0.0176268 
-100 1:0.0141525 2:-0.00373685 
-100 1:0.00887937 2:-0.00884104 
-100 1:0.00894314 2:-0.00488771 
-100 1:0.0149018 2:-0.00395746 
-100 1:0.0118749 2:-0.00392604 
-100 1:0.00554768 2:-0.0117632 
-100 1:0.0140043 2:0.00163746 
-100 1:0.000115658 2:-0.0166912 
-100 1:0.000847439 2:-0.0101748 
-100 1:-0.00121129 2:-0.0136969 
-100 1:0.0127835 2:-0.00615291 
-100 1:-0.00485065 2:-0.0217698 
-100 1:-0.0128312 2:-0.00898127 
-100 1:0.0165272 2:0.00385025 
-100 1:-0.00631593 2:-0.0121151 
-100 1:-0.00647884 2:-0.0054705 
-100 1:0.0041193 2:-0.00239396 
-100 1:0.00663815 2:-0.00537486 
-100 1:-0.00191431 2:-0.0124022 
-100 1:0.00804314 2:-0.0103867 
-100 1:0.0123734 2:-0.00648176 
-100 1:-0.00518007 2:-0.0117288 
-100 1:0.00815492 2:-0.00945055 
-100 1:0.00607307 2:-0.00484828 
-100 1:0.00697648 2:-0.00877199 
-100 1:-0.00177075 2:-0.00795615 
-100 1:0.00322064 2:-0.0111353 
-100 1:0.00543342 2:-0.00797682 
-100 1:0.00200702 2:-0.0154603 
-100 1:-0.00323013 2:-0.00484648 
-100 1:0.00508348 2:-0.00729134 
-100 1:0.00387153 2:-0.0104456 
-100 1:0.00565021 2:-0.00616141 
-100 1:-0.00105583 2:0.000962661 
-100 1:0.0019173 2:-0.0146413 
-100 1:-0.00165006 2:-0.01867 
-100 1:0.000613025 2:-0.0112952 
-100 1:0.01027 2:-0.00714038 
-100 1:0.0045409 2:-0.00966181 
-100 1:0.000242274 2:-0.0101211 
-100 1:0.00663119 2:-0.0116412 
-100 1:0.000633544 2:-0.0145113 
-100 1:0.00715983 2:-0.00198785 
-100 1:0.000982055 2:-0.0104017 
-100 1:-0.00775365 2:-0.0196929 
-100 1:0.010151 2:-0.00220776 
-100 1:0.00521399 2:-0.00949936 
-100 1:0.00412343 2:-0.00619124 
-100 1:0.00949995 2:-0.00105608 
-100 1:0.0113744 2:-0.00724831 
-100 1:0.00193236 2:-0.00649452 
-100 1:0.00687443 2:-0.0113577 
-100 1:0.00242994 2:-0.0104641 
-100 1:8.73226e-05 2:0.000751619 
-100 1:0.0111529 2:-0.00562567 
-100 1:-5.56433e-06 2:-0.0176947 
-100 1:0.00853747 2:-0.00436471 
-100 1:0.00836578 2:-0.0041644 
-100 1:0.00556917 2:-0.010225 
-100 1:0.00884006 2:-0.00819586 
-100 1:0.0049925 2:-0.00957234 
-100 1:0.0037484 2:-0.0133474 
-100 1:0.00771545 2:-0.00590072 
-100 1:-0.000793427 2:-0.00977257 
-100 1:-0.00401797 2:-0.0148625 
-100 1:0.00074967 2:-0.00990188 
-100 1:-0.00172684 2:-0.015993 
-100 1:0.00238076 2:-0.0105057 
-100 1:0.00115413 2:-0.0162551 
-100 1:0.00126587 2:-0.015484 
-100 1:0.00798665 2:0.000481444 
-100 1:-0.000923494 2:-0.00742539 
-100 1:0.00354476 2:-0.013198 
-100 1:0.0104976 2:-0.00652288 
-100 1:0.00668681 2:-0.00897597 
-100 1:0.000376264 2:-0.0133712 
-100 1:0.00792883 2:-0.00701831 
-100 1:0.0118662 2:-0.00669054 
-100 1:0.00587327 2:-0.0114431 
-100 1:0.000911214 2:-0.012835 
-100 1:-0.000498201 2:-0.0140101 
-100 1:-0.00198983 2:-0.0151987 
-100 1:0.0108886 2:-0.0074587 
-100 1:0.00278494 2:-0.0117094 
-100 1:0.0101664 2:-0.00483718 
-100 1:-4.48857e-05 2:-0.017005 
-100 1:0.00607849 2:-0.00422002 
-100 1:0.00523587 2:-0.00863563 
-100 1:0.00470134 2:-0.0116112 
-100 1:-0.00381965 2:-0.0181429 
-100 1:0.00894535 2:-0.00931802 
-100 1:0.0106301 2:-0.00746034 
-100 1:0.00696896 2:-0.0107165 
-100 1:-0.000482485 2:-0.0142674 
-100 1:0.0047547 2:-0.0107713 
-100 1:0.00296868 2:-0.0149172 
-100 1:0.0029868 2:-0.00778826 
-100 1:0.0012514 2:-0.00583171 
-100 1:0.0054993 2:-0.0121207 
-100 1:-0.00282823 2:-0.0139114 
-100 1:0.00554112 2:-0.012273 
-100 1:0.00667633 2:-0.00837433 
-100 1:-0.000956013 2:-0.0159221 
-100 1:0.00473889 2:-0.0115567 
-100 1:0.00189393 2:-0.00952795 
-100 1:0.00231918 2:-0.0148175 
-100 1:0.0100951 2:-0.00584139 
-100 1:0.0112635 2:0.000103262 
-100 1:0.00734951 2:-0.00910229 
-100 1:0.000927796 2:-0.00857958 
-100 1:0.00530657 2:-0.0094031 
-100 1:-0.00035167 2:-0.0143625 
-100 1:0.0108917 2:-0.00140944 
-100 1:0.00997382 2:-0.00581359 
-100 1:0.00826382 2:-0.00863133 
-100 1:0.00580649 2:-0.01166 
-100 1:0.000548191 2:-0.00666777 
-100 1:0.00872259 2:-0.00857027 
-100 1:0.0036096 2:-0.0140058 
-100 1:0.00514564 2:-0.00983461 
-100 1:0.0130854 2:-0.00505048 
-100 1:0.010873 2:-0.00786725 
-100 1:0.00448746 2:-0.012357 
-100 1:0.0091222 2:-0.00915769 
-100 1:-0.00135946 2:-0.011065 
-100 1:0.00340067 2:-0.0143865 
-100 1:0.00565632 2:-0.0100172 
-100 1:0.00680908 2:-0.00967621 
-100 1:0.00305976 2:-0.0010048 
-100 1:0.00815046 2:-0.00954669 
-100 1:-0.0033597 2:-0.0147481 
-100 1:0.00021361 2:-0.0159332 
-100 1:0.00542735 2:-0.0114671 
-100 1:0.00425247 2:-0.0121549 
-100 1:0.0084353 2:-0.00994952 
-100 1:0.00810098 2:-0.00545038 
-100 1:0.0107948 2:-0.00459197 
-100 1:0.00833563 2:-0.00871872 
-100 1:0.00103092 2:-0.00880483 
-100 1:0.000577236 2:-0.0148028 
-100 1:0.00784451 2:-0.0062192 
-100 1:0.00581413 2:-0.00344325 
-100 1:0.00249014 2:-0.0138963 
-100 1:0.00864904 2:-0.00906965 
-100 1:0.00433296 2:-0.00823231 
-100 1:0.00976106 2:-0.00472488 
-100 1:0.00333078 2:-0.0128412 
-100 1:0.00528984 2:-0.00928803 
-100 1:0.00193232 2:-0.00649452 
-100 1:0.0070131 2:-0.0107323 
-100 1:0.00482575 2:-0.0108153 
-100 1:0.00173612 2:-0.0127818 
-100 1:0.0039966 2:-0.0124925 
-100 1:0.00520713 2:-0.0127642 
-100 1:0.00261767 2:-0.0145538 
-100 1:0.00680226 2:-0.0114071 
-100 1:-0.0103415 2:-0.0115857 
-100 1:0.00318424 2:-0.0118987 
-100 1:0.00998507 2:-0.00784544 
-100 1:0.00258661 2:-0.014106 
-100 1:0.000506226 2:-0.00850555 
-100 1:0.00725185 2:-0.00685722 
-100 1:0.00907467 2:-0.00801859 
-100 1:0.00963109 2:-0.00726413 
-100 1:0.00437009 2:-0.01217 
-100 1:0.00856693 2:-0.00989684 
-100 1:0.00734457 2:-0.00971723 
-100 1:-0.00272494 2:-0.0138315 
-100 1:0.000820297 2:-0.00909532 
-100 1:5.55096e-05 2:-0.0173063 
-100 1:-0.00519864 2:-0.000487852 
-100 1:-0.0082647 2:-0.0232178 
-100 1:-0.00604342 2:-0.015059 
-100 1:0.00352529 2:-0.00629104 
-100 1:0.0130526 2:0.000510408 
-100 1:0.0101844 2:-0.00790074 
-100 1:0.0055004 2:-0.0105115 
-100 1:0.00665989 2:-0.0116425 
-100 1:-0.000320703 2:-0.015241 
-100 1:0.00801703 2:-0.00376139 
-100 1:0.00977815 2:-0.00679169 
-100 1:-8.61611e-05 2:-0.0162008 
-100 1:-0.00405112 2:-0.0129203 
-100 1:-0.00437862 2:-0.010177 
-100 1:0.00326668 2:-0.0123079 
-100 1:0.00516616 2:-0.00988743 
-100 1:0.0149063 2:0.00516379 
-100 1:-0.00519731 2:-0.0175698 
-100 1:0.00326242 2:-0.014 
-100 1:0.00754128 2:-0.00369521 
-100 1:-0.00112481 2:-0.0145403 
-100 1:0.00677525 2:-0.00299917 
-100 1:0.00517823 2:-0.0130318 
-100 1:0.0144584 2:-0.00414211 
-100 1:0.00126268 2:-0.0157614 
-100 1:0.00166231 2:-0.00618699 
-100 1:0.00726421 2:-0.00901512 
-100 1:-0.00422993 2:-0.0162102 
-100 1:-0.00440589 2:-0.00473917 
-100 1:0.0105864 2:-0.00373364 
-100 1:0.00213179 2:-0.0109905 
-100 1:0.000440992 2:-0.0128943 
-100 1:0.00308353 2:-0.0132576 
-100 1:0.014768 2:-0.00413024 
-100 1:0.000830706 2:-0.0126514 
-100 1:-0.00222329 2:-0.0177433 
-100 1:0.0064985 2:-0.00970572 
-100 1:0.010443 2:-0.00779678 
-100 1:0.00906921 2:-0.0053307 
-100 1:0.00869285 2:-0.000261474 
-100 1:0.0110128 2:-0.0026924 
-100 1:0.00785625 2:-0.0103223 
-100 1:0.0101641 2:-0.00320735 
-100 1:0.0128154 2:-0.00168566 
-100 1:0.00993921 2:-0.0069731 
-100 1:0.00668539 2:-0.00844789 
-100 1:0.00540472 2:-0.0103544 
-100 1:0.00574603 2:-0.012519 
-100 1:0.00559716 2:-0.0101146 
-100 1:0.00401689 2:-0.0119818 
-100 1:0.00817152 2:-0.00232978 
-100 1:0.00946495 2:0.00244096 
-100 1:-0.00981957 2:-0.0254603 
-100 1:0.00787436 2:-0.00914081 
-100 1:0.000838499 2:-0.0150822 
-100 1:0.00265483 2:-0.00921466 
-100 1:0.00475408 2:-0.00857814 
-100 1:0.00365173 2:-0.0106555 
-100 1:-0.000344422 2:-0.00893449 
-100 1:0.00435304 2:-0.00890668 
-100 1:0.0105192 2:-0.000721244 
-100 1:0.00203022 2:-0.0148132 
-100 1:0.00715156 2:-0.00777502 
-100 1:0.000853649 2:-0.014981 
-100 1:0.00279593 2:-0.00962637 
-100 1:0.00959248 2:-0.00352448 
-100 1:0.00626529 2:-0.0109116 
-100 1:0.00667755 2:-0.0111221 
-100 1:0.00396452 2:-0.0138595 
-100 1:0.00654974 2:-0.0117411 
-100 1:0.00809341 2:-0.00948841 
-100 1:0.0100622 2:-0.00345934 
-100 1:0.0139992 2:-0.00338508 
-100 1:-0.00406067 2:-0.0197207 
-100 1:0.00832397 2:-0.0102012 
-100 1:-0.00258561 2:-0.0149023 
-100 1:0.00777594 2:-0.0021944 
-100 1:0.0106081 2:-0.000669986 
-100 1:0.00267225 2:-0.00720515 
-100 1:0.00678798 2:-0.00736078 
-100 1:-0.00514887 2:-0.0041371 
-100 1:0.0028742 2:-0.0145698 
-100 1:0.0153219 2:-0.00340004 
-100 1:0.00763306 2:-0.00465725 
-100 1:0.0145485 2:-0.000908604 
-100 1:0.00222618 2:-0.0114535 
-100 1:-0.00410982 2:-0.00598157 
-100 1:-0.0105131 2:-0.0111066 
-100 1:-0.00176493 2:-0.00789853 
-100 1:0.00491583 2:-0.0113516 
-100 1:0.00644416 2:-0.00833871 
-100 1:0.00955646 2:-0.00202076 
-100 1:0.00983373 2:-0.00600263 
-100 1:0.00584234 2:-0.00447897 
-100 1:0.000756158 2:-0.0144126 
-100 1:0.00350917 2:-0.0142208 
-100 1:0.00610927 2:-0.0122088 
-100 1:0.000567616 2:-0.0156891 
-100 1:-0.00409535 2:-0.00197301 
-100 1:0.00111463 2:-0.0102104 
-100 1:0.00458519 2:-0.00539821 
-100 1:-0.000508918 2:-0.00984064 
-100 1:0.000338161 2:-0.0155208 
-100 1:0.00324674 2:-0.00686565 
-100 1:-0.000748218 2:-0.0151154 
-100 1:0.00441887 2:-0.00722918 
-100 1:0.00695033 2:-0.0104712 
-100 1:0.00720681 2:-0.00742262 
-100 1:0.0111504 2:-0.00669186 
-100 1:0.0139943 2:-0.00338215 
-100 1:0.00943367 2:-0.00305733 
-100 1:0.00860289 2:-0.00418021 
-100 1:-0.00337201 2:-0.0157473 
-100 1:0.00434868 2:-0.00664676 
-100 1:0.0039682 2:-0.0114644 
-100 1:-0.000750967 2:-0.0158845 
-100 1:-0.00192834 2:-0.0159291 
-100 1:0.00495761 2:-0.00722577 
-100 1:-0.000732018 2:-0.00807657 
-100 1:-9.56421e-05 2:-0.0161996 
-100 1:0.0015083 2:0.00223738 
-100 1:0.0121573 2:-0.00631944 
-100 1:0.00254406 2:-0.0112158 
-100 1:0.0105037 2:-0.00519289 
-100 1:0.00474355 2:-0.00718126 
-100 1:0.00129139 2:-0.00786655 
-100 1:-0.00817702 2:-0.0193712 
-100 1:0.0105912 2:-0.0079225 
-100 1:0.00283232 2:-0.00862865 
-100 1:0.0105074 2:-0.00190148 
-100 1:0.000734292 2:-0.0109083 
-100 1:0.0115745 2:-0.00383295 
-100 1:0.0018047 2:-0.0141375 
-100 1:0.0134218 2:-0.00424723 
-100 1:0.0039383 2:-0.00954014 
-100 1:0.00356184 2:-0.0116153 
-100 1:0.00601935 2:-0.0122195 
-100 1:-0.00365647 2:-0.0136103 
-100 1:-0.00270611 2:-0.0163834 
-100 1:0.00473603 2:-0.0037807 
-100 1:0.00330576 2:-0.0140878 
-100 1:0.00370558 2:-0.00556478 
-100 1:0.000728315 2:-0.0136099 
-100 1:0.00154298 2:-0.00824151 
-100 1:0.00643289 2:-0.0113289 
-100 1:0.00918032 2:-0.00703401 
-100 1:0.0112504 2:-0.00470258 
-100 1:0.00295329 2:-0.0119744 
-100 1:0.0111825 2:-0.00602641 
-100 1:0.0121557 2:-0.00129454 
-100 1:5.38818e-05 2:-0.0152246 
-100 1:-0.000806885 2:-0.0105546 
-100 1:0.00547881 2:-0.0120971 
-100 1:0.01078 2:-0.00635257 
-100 1:0.0127012 2:-0.00536069 
-100 1:0.0124523 2:-0.0060204 
-100 1:0.00990009 2:-0.00816909 
-100 1:0.00526862 2:-0.012518 
-100 1:0.00875375 2:-0.00821313 
-100 1:-0.00232234 2:0.00779904 
-100 1:0.000271036 2:-0.0134034 
-100 1:-0.00217077 2:-0.0166666 
-100 1:0.00536038 2:-0.00882857 
-100 1:0.00539892 2:-0.0120108 
-100 1:-0.000574881 2:-0.0158879 
-100 1:0.00219873 2:-0.0148777 
-100 1:0.00480668 2:-0.0088108 
-100 1:-0.0153839 2:-0.0120191 
-100 1:0.00600271 2:-0.01164 
-100 1:0.016522 2:-0.000444904 
-100 1:0.00261207 2:-0.0126201 
-100 1:0.00730049 2:-0.00836721 
-100 1:0.00639301 2:-0.00742793 
-100 1:-0.00037303 2:-0.0119867 
-100 1:-0.00116085 2:-0.0168497 
-100 1:-0.00242996 2:-0.0188241 
-100 1:0.00935731 2:-0.00886171 
-100 1:0.0105038 2:-0.000281017 
-100 1:0.00472244 2:-0.0131973 
-100 1:0.00602098 2:-0.00938052 
-100 1:0.00770771 2:0.000742893 
-100 1:0.00420639 2:-0.0110693 
-100 1:-0.000930571 2:-0.0136743 
-100 1:0.0115894 2:-0.00500167 
-100 1:0.00294043 2:-0.0088117 
-100 1:0.00398531 2:-0.0101234 
-100 1:0.00374836 2:-0.00800085 
-100 1:0.00162925 2:-0.0108808 
-100 1:-0.00372191 2:-0.0195135 
-100 1:0.0060424 2:-0.00142197 
-100 1:0.00775936 2:-0.00777385 
-100 1:0.00336286 2:-0.00502293 
-100 1:0.00555639 2:-0.00337646 
-100 1:-0.0070987 2:-0.00423674 
-100 1:0.0128478 2:-0.00287508 
-100 1:0.00948423 2:-0.00797943 
-100 1:0.00140937 2:-0.0112313 
-100 1:0.005245 2:-0.0080991 
-100 1:0.0079879 2:-0.00928805 
-100 1:0.00592189 2:-0.00787554 
-100 1:0.00870886 2:-0.00729345 
-100 1:0.0014643 2:-0.0118887 
-100 1:0.0115921 2:-0.00683981 
-100 1:0.00724381 2:-0.00281834 
-100 1:-0.00426293 2:-0.00703852 
-100 1:0.00562852 2:-0.00989698 
-100 1:0.00862303 2:-0.00579385 
-100 1:-0.00196587 2:-0.00483226 
-100 1:0.0093765 2:-0.00810398 
-100 1:0.00328671 2:-0.0130422 
-100 1:0.0132759 2:0.00050043 
-100 1:0.00520301 2:-0.00853568 
-100 1:0.00589359 2:-0.0101968 
-100 1:0.00716738 2:-0.00843736 
-100 1:0.00498471 2:-0.0113425 
-100 1:-0.00327551 2:-0.0179957 
-100 1:0.00803677 2:-0.0100076 
-100 1:0.00237979 2:-0.00255463 
-100 1:0.0130981 2:-0.00500902 
-100 1:0.00253803 2:-0.0123603 
-100 1:-0.00410109 2:0.00158566 
-100 1:-0.000100945 2:-0.0157979 
-100 1:-0.00115587 2:-0.0149958 
-100 1:0.00989504 2:-0.00816804 
-100 1:0.0133474 2:-0.00536373 
-100 1:0.00873595 2:-0.00771532 
-100 1:0.000737025 2:-0.0113112 
-100 1:0.00682967 2:-0.0107114 
-100 1:0.00587261 2:-0.00838794 
-100 1:-0.000401495 2:-0.00687287 
-100 1:-0.00183387 2:-0.0069692 
-100 1:0.000827555 2:-0.00235428 
-100 1:0.00208298 2:-0.00397654 
-100 1:-0.00381721 2:-0.00446195 
-100 1:0.00784332 2:-0.0102165 
-100 1:0.00482909 2:-0.00332871 
-100 1:0.0126806 2:-0.0038869 
-100 1:0.00769548 2:-0.0106579 
-100 1:0.00670692 2:-0.00106848 
-100 1:0.00378229 2:-0.0088097 
-100 1:0.000451773 2:-0.0154893 
-100 1:0.00180245 2:-0.00603757 
-100 1:0.00288006 2:-0.0135855 
-100 1:0.00334504 2:-0.0122709 
-100 1:0.00780603 2:-0.0103283 
-100 1:0.0115516 2:-0.00712143 
-100 1:0.010563 2:-0.0056078 
-100 1:0.00944373 2:-0.00128527 
-100 1:0.0158635 2:-0.00132956 
-100 1:-0.00343826 2:-0.0171153 
-100 1:0.00944209 2:-0.00546193 
-100 1:0.00620625 2:-0.00499158 
-100 1:0.00163233 2:-0.0144202 
-100 1:0.00946047 2:-0.00427033 
-100 1:-0.00224252 2:-0.016041 
-100 1:0.00805467 2:-0.00997481 
-100 1:-0.000371955 2:-0.0164069 
-100 1:-0.00110551 2:-0.00850789 
-100 1:0.00605414 2:-0.0106587 
-100 1:0.00123791 2:-0.0150085 
-100 1:0.00825257 2:-0.00838835 
-100 1:0.00168486 2:-0.0112401 
-100 1:0.000232226 2:-0.0142093 
-100 1:-0.00382376 2:-0.0184677 
-100 1:0.00165109 2:-0.0158462 
-100 1:-0.00197201 2:-0.000656436 
-100 1:0.00656935 2:-0.00879815 
-100 1:0.000236035 2:-0.0141743 
-100 1:0.00754927 2:-0.0093915 
-100 1:0.00494044 2:-0.0120277 
-100 1:0.00420839 2:-0.0123112 
-100 1:-0.00803565 2:-0.0249147 
-100 1:0.00560599 2:-0.0108643 
-100 1:0.00690105 2:-0.00431889 
-100 1:0.00165356 2:-0.013853 
-100 1:0.00148689 2:-0.0150746 
-100 1:0.00301321 2:-0.0140207 
-100 1:0.0168879 2:-0.00123567 
-100 1:0.00526398 2:-0.0115922 
-100 1:0.00352609 2:-0.0115011 
-100 1:0.00353819 2:-0.000532759 
-100 1:0.0155586 2:-0.000243388 
-100 1:0.0118898 2:0.00139944 
-100 1:0.00741491 2:-0.00732634 
-100 1:0.011045 2:-0.000563822 
-100 1:-0.00096825 2:-0.0183599 
-100 1:0.0152439 2:-0.00299175 
-100 1:0.00276388 2:-0.0135622 
-100 1:0.0118745 2:-0.00669268 
-100 1:0.000558938 2:-0.0137553 
-100 1:0.00344535 2:-0.0127632 
-100 1:0.00808438 2:-0.00561627 
-100 1:0.00649142 2:-0.0102177 
-100 1:0.00484723 2:-0.00417108 
-100 1:0.0044536 2:-0.0013298 
-100 1:-0.001468 2:-0.0114484 
-100 1:0.0023327 2:-0.0137049 
-100 1:0.00513837 2:-0.0108858 
-100 1:0.0121122 2:-0.0066331 
-100 1:0.00013155 2:-0.0142211 
-100 1:-0.00211601 2:-0.0174066 
-100 1:0.0149771 2:-0.000986101 
-100 1:0.00154904 2:-0.0123681 
-100 1:0.010794 2:-0.00358222 
-100 1:0.00657308 2:-0.0100415 
-100 1:0.00632144 2:-0.0106872 
-100 1:0.00984972 2:-0.00798287 
-100 1:0.00284497 2:-0.011223 
-100 1:0.00660949 2:-0.00875723 
-100 1:0.00178659 2:-0.0118539 
-100 1:-0.000256549 2:-0.0116032 
-100 1:0.0103375 2:-0.00693184 
-100 1:0.0142488 2:-0.00431068 
-100 1:0.00554828 2:-0.00387452 
-100 1:0.000388858 2:-0.00826557 
-100 1:0.00381557 2:-0.0136094 
-100 1:0.00687718 2:-0.0100996 
-100 1:0.0083224 2:-0.00926211 
-100 1:-0.000579029 2:-0.0117568 
-100 1:0.0033608 2:-0.00892791 
-100 1:0.000178341 2:-0.0123934 
-100 1:0.0056564 2:-0.00424552 
-100 1:0.00236681 2:-0.00877128 
-100 1:0.00371789 2:-0.00778142 
-100 1:0.0008968 2:-0.0141446 
-100 1:0.00434123 2:-0.00789927 
-100 1:0.0120812 2:-0.00331175 
-100 1:0.00644392 2:-0.00995488 
-100 1:0.00789175 2:-0.0102821 
-100 1:0.00565949 2:-0.00616442 
-100 1:0.00459172 2:-0.011204 
-100 1:0.00507945 2:-0.0122566 
-100 1:0.00540173 2:-0.0113241 
-100 1:0.00275466 2:-0.00849406 
-100 1:0.00419482 2:-0.0133473 
-100 1:-0.00973283 2:-0.017274 
-100 1:0.00815063 2:-0.0095467 
-100 1:0.0107659 2:-0.00762757 
-100 1:0.00215643 2:-0.0100504 
-100 1:-0.00550046 2:-0.0162094 
-100 1:0.00463551 2:-0.0129384 
-100 1:-0.00190819 2:-0.0100404 
-100 1:0.00235696 2:-0.0133682 
-100 1:0.00709292 2:-0.000795763 
-100 1:0.00736796 2:-0.0100838 
-100 1:0.00413377 2:-0.0122416 
-100 1:-0.00439277 2:-0.00271277 
-100 1:0.00218996 2:-0.00896398 
-100 1:0.0130731 2:0.00238085 
-100 1:0.00500693 2:-0.00870307 
-100 1:0.000235097 2:-0.0168338 
-100 1:-0.00196501 2:-0.0193921 
-100 1:0.00462979 2:-0.00949881 
-100 1:-0.003365 2:-0.0147464 
-100 1:0.0120966 2:-0.00310484 
-100 1:0.000459123 2:-0.005825 
-100 1:0.00390134 2:-0.00694904 
-100 1:-0.00323289 2:-0.00623896 
-100 1:0.00633731 2:-0.0119206 
-100 1:0.010716 2:-0.00792406 
-100 1:0.0117528 2:-0.00511216 
-100 1:0.00741178 2:-0.0109792 
-100 1:0.00753906 2:-0.0104519 
-100 1:0.00806808 2:-0.00715062 
-100 1:0.0038215 2:-0.0130359 
-100 1:0.00498978 2:-0.0130721 
-100 1:-0.00593164 2:0.0088233 
-100 1:0.00499174 2:-0.00903422 
-100 1:-9.39261e-05 2:-0.0091062 
-100 1:0.00582279 2:-0.00958783 
-100 1:0.00256104 2:-0.0087221 
-100 1:0.00724459 2:-0.00615598 
-100 1:0.00413456 2:-0.0114561 
-100 1:0.0115205 2:-0.00107897 
-100 1:0.00700127 2:-0.010039 
-100 1:0.00199248 2:-0.0120582 
-100 1:0.00102656 2:-0.0166743 
-100 1:0.00544881 2:-0.00629848 
-100 1:-3.30607e-05 2:-0.0160186 
-100 1:0.00752484 2:-0.0092322 
-100 1:0.00131962 2:-0.0153553 
-100 1:0.00290974 2:-0.0120278 
-100 1:0.0155803 2:0.00101261 
-100 1:0.00588539 2:-0.0106139 
-100 1:0.00163081 2:-0.00602991 
-100 1:0.0111826 2:-0.00352855 
-100 1:0.0130067 2:-0.00153183 
-100 1:-0.000918347 2:-0.0179982 
-100 1:0.00782897 2:-0.0090109 
-100 1:0.0101034 2:-0.00529561 
-100 1:-0.00127314 2:-0.0151926 
-100 1:0.010906 2:-0.00238075 
-100 1:-0.000362942 2:-0.0161867 
-100 1:0.0074825 2:-0.00900335 
-100 1:0.00188362 2:-0.0148079 
-100 1:0.00462102 2:-0.0108437 
-100 1:0.0035183 2:-0.00880968 
-100 1:0.0133839 2:-0.00386748 
-100 1:0.00896404 2:-0.00626178 
-100 1:0.00473114 2:-0.0129602 
-100 1:-0.00704054 2:-0.00163488 
-100 1:0.0049926 2:-0.0113418 
-100 1:-0.000518145 2:-0.0158095 
-100 1:0.00525002 2:-0.0119065 
-100 1:0.00845367 2:-0.00997998 
-100 1:-0.00156811 2:-0.0172607 
-100 1:0.00617263 2:0.00275251 
-100 1:-0.00140533 2:-0.0130491 
-100 1:-0.00392011 2:-0.0143762 
-100 1:0.00364563 2:-0.00843818 
-100 1:-0.00114281 2:-0.0157094 
-100 1:0.00102127 2:-0.00893741 
-100 1:0.00323244 2:-0.0134019 
-100 1:-0.00268707 2:-0.00512162 
-100 1:0.00609617 2:-0.00151501 
-100 1:0.00434392 2:-0.0108253 
-100 1:0.00318282 2:-0.0139333 
-100 1:0.00819076 2:-0.00789007 
-100 1:0.00311917 2:-0.00772888 
-100 1:0.00463347 2:-0.0103493 
-100 1:0.000505662 2:-0.0100937 
-100 1:0.000379671 2:-0.01657 
-100 1:0.000806206 2:-0.0108602 
-100 1:-0.0019045 2:-0.0187352 
-100 1:0.0056583 2:-0.0121905 
-100 1:0.000607738 2:-0.0165952 
-100 1:0.0105056 2:-0.00662737 
-100 1:0.00313806 2:-0.00861665 
-100 1:0.00444158 2:-0.0109411 
-100 1:0.00248573 2:-0.00652456 
-100 1:-0.00115319 2:-0.0147997 
-100 1:-0.00146869 2:-0.0187487 
-100 1:0.00927693 2:-0.0088847 
-100 1:-0.00275287 2:-0.0199697 
-100 1:0.00501258 2:-0.0131891 
-100 1:0.00713415 2:-0.00920527 
-100 1:-0.00284492 2:-0.00430133 
-100 1:0.00075641 2:-0.00942537 
-100 1:0.000759029 2:-0.014444 
-100 1:0.0078925 2:-0.00887839 
-100 1:0.00389943 2:-0.0119486 
-100 1:-0.00191776 2:-0.0193986 
-100 1:0.00328324 2:-0.0124548 
-100 1:0.0107939 2:-0.00458204 
-100 1:0.0183464 2:0.00537253 
-100 1:0.000548835 2:-0.0165336 
-100 1:0.00402407 2:-0.00597805 
-100 1:0.00433973 2:-0.0135416 
-100 1:0.00889474 2:-0.00901911 
-100 1:0.000295125 2:-0.00912967 
-100 1:-7.15357e-05 2:-0.0110182 
-100 1:0.0130199 2:-0.00152704 
-100 1:-0.00177306 2:-0.0174155 
-100 1:0.0107107 2:-0.00792297 
-100 1:0.000176146 2:-0.0126404 
-100 1:0.00192561 2:-0.0105469 
-100 1:-0.00208837 2:-0.0116241 
-100 1:0.00951564 2:-0.00798184 
-100 1:-0.00165705 2:-0.0133866 
-100 1:0.00100402 2:-0.0147344 
-100 1:0.00117951 2:-0.0150067 
-100 1:0.000505609 2:-0.00435589 
-100 1:-0.000424325 2:-0.00456034 
-100 1:-0.000906168 2:-0.0146753 
-100 1:0.00306853 2:-0.00734608 
-100 1:0.00374151 2:-0.0126044 
-100 1:0.00796441 2:-0.00834384 
-100 1:-0.000744343 2:-0.00876885 
-100 1:0.00725424 2:-0.00951666 
-100 1:0.0114541 2:-0.00343226 
-100 1:0.0060341 2:-0.00800621 
-100 1:0.00533851 2:-0.0100683 
-100 1:0.00331242 2:-0.0120368 
-100 1:0.00287431 2:-0.0121451 
-100 1:0.00713908 2:0.00793899 
-100 1:-0.00139631 2:-0.014189 
-100 1:0.00013438 2:-0.0154974 
-100 1:0.00207708 2:-0.0105014 
-100 1:0.00868937 2:-0.00608678 
-100 1:0.00121881 2:-0.0161875 
-100 1:0.0021726 2:-0.014084 
-100 1:0.00488217 2:-0.00364797 
-100 1:0.0151203 2:-0.00311783 
-100 1:0.00686012 2:-0.0101888 
-100 1:0.00732989 2:-0.00802502 
-100 1:0.00848154 2:-0.00867718 
-100 1:0.0108283 2:-0.00631555 
-100 1:0.00139186 2:-0.0153217 
-100 1:-0.00103895 2:-0.0175017 
-100 1:0.00353704 2:-0.00967617 
-100 1:0.00247608 2:-0.0109615 
-100 1:0.00424105 2:-0.0136168 
-100 1:0.00825052 2:-0.00312592 
-100 1:0.00295616 2:-0.0125625 
-100 1:0.000624026 2:-0.00978236 
-100 1:0.0114101 2:0.00106089 
-100 1:0.00257207 2:-0.0148089 
-100 1:0.000467209 2:-0.00395712 
-100 1:0.0045806 2:0.00203077 
-100 1:0.0103117 2:-0.00764274 
-100 1:0.00419287 2:-0.0133158 
-100 1:-0.0018373 2:-0.0109139 
-100 1:0.00135126 2:-0.0150099 
-100 1:0.00145116 2:-0.012953 
-100 1:0.00987291 2:-0.00708593 
-100 1:0.00436376 2:-0.0125484 
-100 1:0.00357698 2:-0.0093894 
-100 1:0.0141526 2:0.000878871 
-100 1:0.00861995 2:-0.0044726 
-100 1:0.0135933 2:-0.00431224 
-100 1:0.00936883 2:-0.00652685 
-100 1:0.00569319 2:-0.0112396 
-100 1:-0.00178255 2:-0.0174148 
-100 1:0.00552086 2:-0.00378551 
-100 1:-0.000310238 2:-0.0161483 
-100 1:0.0103124 2:-0.0036718 
-100 1:0.00558528 2:-0.0074536 
-100 1:0.00541478 2:-0.00478136 
-100 1:0.00149433 2:-0.0123413 
-100 1:0.011264 2:-0.00518967 
-100 1:0.00303497 2:-0.0115575 
-100 1:0.00785451 2:-0.00921221 
-100 1:0.00359604 2:-0.00344856 
-100 1:0.00328886 2:-0.00560123 
-100 1:-0.00578115 2:-0.00908661 
-100 1:0.00930708 2:-0.00759474 
-100 1:0.0159777 2:-0.00305228 
-100 1:0.00790897 2:-0.00992844 
-100 1:0.0115786 2:-0.00139438 
-100 1:0.00117209 2:-0.0108463 
-100 1:0.00737688 2:-0.00983712 
-100 1:-0.00420408 2:-0.0197298 
-100 1:-0.0006155 2:-0.0143863 
-100 1:-0.00261169 2:-0.0118959 
-100 1:0.000517829 2:-0.00986707 
-100 1:0.00483132 2:-0.00696636 
-100 1:0.00579337 2:-0.0105533 
-100 1:0.00112709 2:-0.0157828 
-100 1:-0.00415346 2:-0.00986146 
-100 1:-0.00337562 2:-0.0124649 
-100 1:0.0137946 2:-0.00120646 
-100 1:0.00581923 2:-0.0100763 
-100 1:0.00207881 2:-0.0146499 
-100 1:-0.00403257 2:-0.0154591 
-100 1:4.7425e-05 2:-0.013902 
-100 1:-0.00628767 2:-0.00206473 
-100 1:0.00931986 2:-0.00448497 
-100 1:0.00343661 2:-0.014222 
-100 1:0.0105672 2:-0.00500887 
-100 1:0.0028931 2:-0.0104242 
-100 1:0.00848318 2:-0.00646462 
-100 1:0.00752524 2:-0.00835512 
-100 1:0.00141396 2:-0.0125263 
-100 1:0.00511889 2:-0.0124015 
-100 1:0.00555629 2:-0.0118673 
-100 1:0.00689223 2:-0.0053173 
-100 1:0.00739941 2:-0.00889482 
-100 1:0.0062353 2:-0.0100298 
-100 1:0.00436128 2:-0.012965 
-100 1:0.0024902 2:-0.0140099 
-100 1:0.00531913 2:-0.0120092 
-100 1:0.00203796 2:-0.0143898 
-100 1:0.00102647 2:-0.00945222 
-100 1:-3.34826e-05 2:-0.0162884 
-100 1:0.00296757 2:-0.0145184 
-100 1:-0.00204769 2:-0.0191617 
-100 1:-0.00410107 2:0.00158547 
-100 1:0.00109633 2:-0.012549 
-100 1:0.00733347 2:-0.00961572 
-100 1:0.00508588 2:-0.0105691 
-100 1:0.00747654 2:-0.00274647 
-100 1:0.0112399 2:-0.00516179 
-100 1:0.00795733 2:-0.00570839 
-100 1:0.000372415 2:0.0010203 
-100 1:0.00586521 2:-0.00818831 
-100 1:-0.000636618 2:-0.00579252 
-100 1:-0.00180216 2:-0.0136329 
-100 1:0.00176987 2:-0.0108084 
-100 1:0.00197517 2:-0.00636053 
-100 1:0.00730982 2:-0.0110135 
-100 1:0.0123952 2:-7.19589e-05 
-100 1:0.00846698 2:-0.00740726 
-100 1:0.0146573 2:-0.00408376 
-100 1:-0.00399279 2:-0.0138898 
-100 1:8.61814e-05 2:-0.0122306 
-100 1:0.000295489 2:-0.0170967 
-100 1:0.00417146 2:-0.0123248 
-100 1:0.0073012 2:-0.00976515 
-100 1:-0.000352462 2:-0.00940647 
-100 1:0.00461111 2:-0.0105174 
-100 1:0.00236794 2:-0.0145134 
-100 1:0.00447827 2:-0.0130608 
-100 1:-0.000737711 2:-0.0125897 
-100 1:0.0107246 2:-0.00672579 
-100 1:0.00493589 2:-0.0119336 
-100 1:0.00144083 2:-0.0129533 
-100 1:0.00782812 2:-0.00870818 
-100 1:0.0148165 2:-0.00351234 
-100 1:0.0102807 2:-0.00620122 
-100 1:0.0100012 2:-0.00406487 
-100 1:-0.00176373 2:-0.00868318 
-100 1:0.00248802 2:-0.0137803 
-100 1:0.00753973 2:-0.0103049 
-100 1:0.00386915 2:-0.0104432 
-100 1:0.00943417 2:-0.00652339 
-100 1:0.00910385 2:-0.00749959 
-100 1:0.00965689 2:-0.00379299 
-100 1:-0.00114757 2:-0.0139904 
-100 1:0.00792238 2:0.0029424 
-100 1:0.00280267 2:-0.00696605 
-100 1:0.0015077 2:-0.00922089 
-100 1:0.00395601 2:-0.0139165 
-100 1:0.00229894 2:-0.0116871 
-100 1:0.00529198 2:-0.0126367 
-100 1:0.00852464 2:-0.00910018 
-100 1:0.00430919 2:-0.00736388 
-100 1:-0.00298837 2:-0.0129535 
-100 1:0.0063855 2:-0.00960597 
-100 1:0.00419859 2:-0.0123119 
-100 1:0.00834213 2:-0.00899524 
-100 1:0.003138 2:-0.012043 
-100 1:0.0102673 2:-0.00522553 
-100 1:0.00173136 2:-0.0130408 
-100 1:0.0106071 2:-0.00564538 
-100 1:0.00742918 2:-0.00762167 
-100 1:0.00187004 2:-0.0158316 
-100 1:0.00184527 2:-0.0145381 
-100 1:0.00801627 2:-0.00917865 
-100 1:0.00462609 2:-0.0112002 
-100 1:0.00856712 2:-0.00986235 
-100 1:0.000137174 2:-0.0101816 
-100 1:0.00402685 2:-0.0121412 
-100 1:0.0136552 2:-0.00170246 
-100 1:0.00399373 2:-0.00986516 
-100 1:0.000714152 2:-0.0129703 
-100 1:0.0013925 2:-0.0122653 
-100 1:0.0183478 2:0.0042626 
-100 1:0.00424577 2:-0.0081 
-100 1:0.00479239 2:-0.0113722 
