svm_type c_svc
kernel_type rbf
gamma 0.10000000000000001
nr_class 2
total_sv 109530
rho 64.707854657355412
label 0 1
nr_sv 54764 54766
SV
100 1:-0.521779 2:0.0608593 
100 1:-0.520193 2:0.0201935 
100 1:-0.498049 2:-0.00749331 
100 1:-0.449897 2:-0.0758728 
100 1:-0.456563 2:-0.0977352 
100 1:-0.440816 2:-0.0454413 
100 1:-0.444831 2:-0.0794292 
100 1:-0.493775 2:0.0247311 
100 1:-0.478122 2:-0.0352373 
100 1:-0.424855 2:-0.0748859 
100 1:-0.440842 2:-0.0562852 
100 1:-0.406169 2:-0.0891104 
100 1:-0.436434 2:-0.0644096 
100 1:-0.520498 2:0.0829594 
100 1:-0.540772 2:0.0535632 
100 1:-0.551282 2:0.0248827 
100 1:-0.52567 2:0.00605757 
100 1:-0.561059 2:-0.0287035 
100 1:-0.531275 2:-0.0531907 
100 1:-0.473386 2:-0.0458945 
100 1:-0.481809 2:-0.0375981 
100 1:-0.484979 2:0.0249811 
100 1:-0.500825 2:-0.00289553 
100 1:-0.484359 2:0.0243996 
100 1:-0.499168 2:-0.00580581 
100 1:-0.487403 2:0.0155939 
100 1:-0.478156 2:-0.0352237 
100 1:-0.447851 2:-0.0580814 
100 1:-0.493542 2:-0.060335 
100 1:-0.497634 2:-0.0395271 
100 1:-0.420664 2:-0.0721233 
100 1:-0.473222 2:-0.0803131 
100 1:-0.472967 2:-0.0866087 
100 1:-0.425607 2:-0.0768732 
100 1:-0.422405 2:-0.0765823 
100 1:-0.446233 2:-0.0609567 
100 1:-0.453451 2:-0.0576079 
100 1:-0.501874 2:0.0277131 
100 1:-0.514212 2:-0.0158735 
100 1:-0.525288 2:0.0464206 
100 1:-0.511078 2:0.0269306 
100 1:-0.574493 2:0.0349314 
100 1:-0.517017 2:0.0499488 
100 1:-0.566384 2:-0.00265693 
100 1:-0.486394 2:0.0175269 
100 1:-0.510312 2:-0.00151608 
100 1:-0.49786 2:-0.00155951 
100 1:-0.468967 2:-0.00323768 
100 1:-0.477685 2:0.0337806 
100 1:-0.465354 2:-0.0226597 
100 1:-0.476455 2:-0.0165616 
100 1:-0.516097 2:-0.020306 
100 1:-0.515565 2:-0.0386626 
100 1:-0.512794 2:0.0060521 
100 1:-0.512574 2:-0.0126985 
100 1:-0.536603 2:-0.00875311 
100 1:-0.534736 2:-0.00449438 
100 1:-0.528036 2:0.00242884 
100 1:-0.471258 2:-0.0452839 
100 1:-0.455599 2:-0.0177316 
100 1:-0.459955 2:-0.0430101 
100 1:-0.484241 2:-0.0202513 
100 1:-0.465928 2:-0.0536521 
100 1:-0.521723 2:-0.0118492 
100 1:-0.492299 2:-0.0173881 
100 1:-0.523623 2:-0.014311 
100 1:-0.489886 2:-0.0167063 
100 1:-0.515798 2:0.0125163 
100 1:-0.483358 2:-0.0130218 
100 1:0.424882 2:0.0121159 
100 1:-0.461537 2:-0.0252724 
100 1:-0.459563 2:-0.0258828 
100 1:-0.4638 2:-0.0228998 
100 1:-0.460984 2:-0.0262555 
100 1:-0.443351 2:-0.0152607 
100 1:-0.444407 2:-0.0157267 
100 1:-0.45767 2:-0.0165792 
100 1:-0.451407 2:-0.0182554 
100 1:-0.452119 2:-0.0189436 
100 1:-0.457057 2:-0.0222516 
100 1:-0.445905 2:-0.0170192 
100 1:-0.449748 2:-0.0265013 
100 1:-0.447309 2:-0.0249647 
100 1:-0.440254 2:-0.0271293 
100 1:-0.443106 2:-0.0256258 
100 1:-0.451068 2:-0.021441 
100 1:-0.44836 2:-0.0201436 
100 1:-0.447159 2:-0.0421386 
100 1:-0.449496 2:-0.0282594 
100 1:-0.453591 2:-0.0536398 
100 1:-0.465595 2:-0.0434324 
100 1:-0.449749 2:-0.0325673 
100 1:-0.45255 2:-0.0399564 
100 1:-0.437044 2:-0.031553 
100 1:-0.446487 2:-0.0267364 
100 1:-0.453535 2:-0.0289792 
100 1:-0.454982 2:-0.0291382 
100 1:-0.443711 2:-0.036728 
100 1:-0.454819 2:-0.0239612 
100 1:-0.468182 2:-0.0390363 
100 1:-0.461258 2:-0.00980143 
100 1:-0.470966 2:-0.0185304 
100 1:-0.473395 2:-0.0166815 
100 1:-0.479834 2:-0.0263264 
100 1:-0.457579 2:-0.00750294 
100 1:-0.475054 2:-0.00342263 
100 1:-0.475844 2:-0.00701851 
100 1:-0.472083 2:-0.00224982 
100 1:-0.454615 2:-0.00943297 
100 1:-0.46695 2:0.00390484 
100 1:-0.435515 2:-0.0330166 
100 1:-0.435624 2:-0.0336771 
100 1:-0.437443 2:-0.0315077 
100 1:-0.456307 2:-0.0147847 
100 1:-0.43424 2:-0.0315693 
100 1:-0.459812 2:-0.0199852 
100 1:-0.447545 2:-0.027767 
100 1:-0.462938 2:-0.0171139 
100 1:-0.460267 2:-0.013256 
100 1:-0.462936 2:-0.0171164 
100 1:-0.462203 2:-0.0263841 
100 1:-0.474744 2:-0.0297581 
100 1:-0.481606 2:-0.0345587 
100 1:-0.459564 2:-0.0258823 
100 1:-0.482868 2:-0.0332927 
100 1:-0.462946 2:-0.021578 
100 1:-0.472958 2:-0.0301966 
100 1:-0.457595 2:-0.022325 
100 1:-0.470212 2:-0.0256872 
100 1:-0.456997 2:-0.022955 
100 1:-0.478475 2:-0.0325893 
100 1:-0.460525 2:-0.0182745 
100 1:-0.484156 2:-0.0199737 
100 1:-0.458485 2:-0.0193612 
100 1:-0.490603 2:-0.0294005 
100 1:-0.446557 2:-0.0348918 
100 1:-0.457319 2:-0.0307992 
100 1:-0.465975 2:-0.0308945 
100 1:-0.502768 2:-0.0378837 
100 1:-0.461203 2:-0.0482615 
100 1:-0.473602 2:-0.0429222 
100 1:-0.492251 2:-0.0578669 
100 1:-0.465324 2:-0.0517433 
100 1:-0.473081 2:-0.0538971 
100 1:-0.494768 2:-0.0627345 
100 1:-0.477187 2:-0.031822 
100 1:-0.491463 2:-0.0228977 
100 1:-0.485613 2:-0.0491047 
100 1:-0.469784 2:-0.0281091 
100 1:-0.499784 2:-0.0355139 
100 1:-0.458846 2:-0.0286167 
100 1:-0.458857 2:-0.0288997 
100 1:-0.475226 2:-0.0343924 
100 1:-0.475343 2:-0.0420965 
100 1:-0.488017 2:-0.0468762 
100 1:-0.488504 2:-0.0297788 
100 1:-0.468402 2:-0.0143321 
100 1:-0.463059 2:0.00130081 
100 1:-0.477677 2:0.00861274 
100 1:-0.466859 2:0.00137568 
100 1:-0.465412 2:0.00951787 
100 1:-0.46583 2:0.0104497 
100 1:-0.477367 2:0.0156452 
100 1:-0.458293 2:-0.000560272 
100 1:-0.453057 2:-0.0227651 
100 1:-0.482494 2:-0.0186228 
100 1:-0.439637 2:-0.029868 
100 1:-0.487113 2:-0.0197133 
100 1:-0.441895 2:-0.0316448 
100 1:-0.463829 2:-0.0170824 
100 1:-0.480959 2:-0.00796483 
100 1:-0.456319 2:-0.0147785 
100 1:-0.46827 2:-0.0186523 
100 1:-0.474055 2:-0.022154 
100 1:-0.47068 2:-0.0183949 
100 1:-0.465782 2:-0.0160224 
100 1:-0.473026 2:-0.0213505 
100 1:-0.477231 2:-0.0255684 
100 1:-0.46399 2:-0.0192063 
100 1:-0.461455 2:-0.0194042 
100 1:-0.472883 2:-0.0219817 
100 1:-0.481625 2:-0.0335336 
100 1:-0.492149 2:-0.036643 
100 1:-0.498727 2:-0.0530514 
100 1:-0.514038 2:-0.0556135 
100 1:-0.498875 2:-0.048047 
100 1:-0.501138 2:-0.0508009 
100 1:-0.487436 2:-0.0399022 
100 1:-0.510433 2:-0.0446353 
100 1:-0.512927 2:-0.048941 
100 1:-0.486453 2:-0.0354049 
100 1:-0.516908 2:-0.0458548 
100 1:-0.51842 2:-0.0478516 
100 1:-0.482114 2:-0.028605 
100 1:-0.500237 2:-0.0258034 
100 1:-0.528728 2:-0.0233477 
100 1:-0.512182 2:-0.0208902 
100 1:-0.493427 2:-0.0294087 
100 1:-0.517312 2:-0.0461161 
100 1:-0.500253 2:-0.0335431 
100 1:-0.534893 2:-0.0444182 
100 1:-0.508649 2:-0.0621785 
100 1:-0.50852 2:-0.0662373 
100 1:-0.534895 2:-0.0710185 
100 1:-0.509126 2:-0.0414589 
100 1:-0.5312 2:-0.0433602 
100 1:-0.519674 2:-0.031422 
100 1:-0.494739 2:-0.0290524 
100 1:-0.513139 2:-0.0144404 
100 1:-0.491256 2:-0.0452166 
100 1:-0.484707 2:-0.0280117 
100 1:-0.486652 2:-0.018106 
100 1:-0.475468 2:0.0079252 
100 1:-0.462239 2:0.0132977 
100 1:-0.477976 2:0.00786336 
100 1:-0.496533 2:-0.00132199 
100 1:-0.483638 2:0.00524024 
100 1:-0.502855 2:0.00591306 
100 1:-0.458998 2:-0.0126272 
100 1:-0.46322 2:-0.00299037 
100 1:-0.46184 2:-0.0180891 
100 1:-0.481854 2:-0.0178571 
100 1:-0.513852 2:-0.0150479 
100 1:-0.495809 2:-0.0327919 
100 1:-0.494575 2:-0.0172832 
100 1:-0.480956 2:-0.00796016 
100 1:-0.500959 2:-0.0167639 
100 1:-0.480792 2:-0.0187644 
100 1:-0.499411 2:-0.0257002 
100 1:-0.483956 2:-0.0166188 
100 1:-0.490233 2:-0.0307008 
100 1:-0.479259 2:-0.0333941 
100 1:-0.482297 2:-0.0218685 
100 1:-0.492604 2:-0.0223407 
100 1:-0.508946 2:-0.0494943 
100 1:-0.512205 2:-0.0604965 
100 1:-0.513615 2:-0.0577587 
100 1:-0.511542 2:-0.0528164 
100 1:-0.512578 2:-0.0522415 
100 1:-0.519389 2:-0.045357 
100 1:-0.522178 2:-0.0666313 
100 1:-0.537113 2:-0.0331422 
100 1:-0.539852 2:-0.0545031 
100 1:-0.541185 2:-0.0278005 
100 1:-0.554459 2:-0.0432996 
100 1:-0.540348 2:-0.0442156 
100 1:-0.559534 2:-0.042133 
100 1:-0.539792 2:-0.0525211 
100 1:-0.555375 2:-0.0578981 
100 1:-0.535167 2:-0.0738486 
100 1:-0.52705 2:-0.0408332 
100 1:-0.532576 2:-0.0575919 
100 1:-0.535756 2:-0.0379096 
100 1:-0.494733 2:-0.0226437 
100 1:-0.517539 2:-0.0138348 
100 1:-0.50201 2:-0.00421166 
100 1:-0.502999 2:-0.00540388 
100 1:-0.500633 2:-0.0222999 
100 1:-0.514985 2:-0.00243416 
100 1:-0.495559 2:-0.00259633 
100 1:-0.500325 2:0.00568189 
100 1:-0.506364 2:-0.000484303 
100 1:-0.499956 2:-0.0313623 
100 1:-0.494536 2:-0.00654294 
100 1:-0.512589 2:-0.0243255 
100 1:-0.511613 2:-0.0156335 
100 1:-0.50863 2:-0.00544814 
100 1:-0.504278 2:-0.0164777 
100 1:-0.513491 2:-0.0151892 
100 1:-0.515667 2:-0.0185562 
100 1:-0.507109 2:-0.0194812 
100 1:-0.492119 2:-0.0226605 
100 1:-0.501278 2:-0.0023212 
100 1:-0.525744 2:-0.0157929 
100 1:-0.507547 2:-0.00771725 
100 1:-0.519375 2:-0.016138 
100 1:-0.511263 2:-0.0195566 
100 1:-0.495088 2:-0.0253509 
100 1:-0.514284 2:-0.0245898 
100 1:-0.512005 2:-0.0250347 
100 1:-0.496336 2:-0.0371055 
100 1:-0.52493 2:-0.0379429 
100 1:-0.510291 2:-0.0620745 
100 1:-0.509025 2:-0.0625826 
100 1:-0.512377 2:-0.0633656 
100 1:-0.514942 2:-0.0551627 
100 1:-0.518822 2:-0.0639782 
100 1:-0.516649 2:-0.0564461 
100 1:-0.524743 2:-0.065008 
100 1:-0.519369 2:-0.0645055 
100 1:-0.538305 2:-0.0565424 
100 1:-0.539502 2:-0.0573283 
100 1:-0.523533 2:-0.0706036 
100 1:-0.547397 2:-0.0422396 
100 1:-0.526438 2:-0.047033 
100 1:-0.557391 2:-0.0492481 
100 1:-0.513787 2:-0.0348052 
100 1:-0.55424 2:-0.0435002 
100 1:-0.50302 2:-0.00580443 
100 1:-0.528153 2:-0.0250577 
100 1:-0.490222 2:-0.00146047 
100 1:-0.486824 2:-0.000445131 
100 1:-0.478518 2:-0.00842748 
100 1:-0.475422 2:-0.0150022 
100 1:-0.489616 2:-0.00810728 
100 1:-0.489588 2:-0.00552768 
100 1:-0.479219 2:-0.0167039 
100 1:-0.498467 2:0.00459789 
100 1:-0.483245 2:-0.00976615 
100 1:-0.507587 2:-0.0271294 
100 1:-0.496474 2:-0.02012 
100 1:-0.498139 2:-0.0291597 
100 1:-0.500322 2:-0.0239613 
100 1:-0.514347 2:-0.0229969 
100 1:-0.524508 2:-0.0479482 
100 1:-0.523545 2:-0.018331 
100 1:-0.526606 2:-0.0337621 
100 1:-0.539177 2:-0.0199727 
100 1:-0.531979 2:-0.0163547 
100 1:-0.555966 2:-0.0480074 
100 1:-0.531414 2:-0.0201576 
100 1:-0.546928 2:-0.0504408 
100 1:-0.501074 2:-0.0590752 
100 1:-0.507953 2:-0.048665 
100 1:-0.510453 2:-0.0517962 
100 1:-0.513916 2:-0.0611632 
100 1:-0.527055 2:-0.0700068 
100 1:-0.519919 2:-0.0674204 
100 1:-0.506632 2:-0.0579644 
100 1:-0.509688 2:-0.044213 
100 1:-0.498455 2:-0.0125111 
100 1:-0.485505 2:0.0120402 
100 1:-0.495311 2:0.0191705 
100 1:-0.488052 2:0.00740667 
100 1:-0.491944 2:-0.0142942 
100 1:-0.473114 2:-0.0162591 
100 1:-0.500399 2:-0.0179847 
100 1:-0.488596 2:-0.0232589 
100 1:-0.493859 2:-0.0134857 
100 1:-0.494888 2:-0.0183575 
100 1:-0.497844 2:-0.0242194 
100 1:-0.489226 2:-0.0280728 
100 1:-0.501853 2:-0.0197408 
100 1:-0.513735 2:-0.0641156 
100 1:-0.519419 2:-0.0564038 
100 1:-0.534284 2:-0.0634382 
100 1:-0.548258 2:-0.0418117 
100 1:-0.536395 2:-0.053029 
100 1:-0.555219 2:-0.0209124 
100 1:-0.53098 2:-0.0580225 
100 1:-0.551748 2:-0.0288413 
100 1:-0.537582 2:-0.04873 
100 1:-0.547782 2:-0.0346558 
100 1:-0.505864 2:-0.051495 
100 1:-0.509231 2:-0.0563491 
100 1:-0.508656 2:-0.0572678 
100 1:-0.507505 2:-0.0570764 
100 1:-0.50054 2:-0.043463 
100 1:-0.508088 2:-0.0565692 
100 1:-0.495226 2:-0.0532463 
100 1:-0.503043 2:-0.0686304 
100 1:-0.48539 2:-0.0423698 
100 1:-0.497536 2:-0.0550154 
100 1:-0.491583 2:-0.0403723 
100 1:-0.491186 2:-0.0189745 
100 1:-0.468549 2:-0.0145574 
100 1:-0.470671 2:-0.00587461 
100 1:-0.464007 2:-0.00548534 
100 1:-0.466649 2:0.010941 
100 1:-0.465423 2:0.00101692 
100 1:-0.484335 2:0.00527137 
100 1:-0.473602 2:-0.00406754 
100 1:-0.484675 2:-0.00407099 
100 1:-0.482458 2:-0.0141262 
100 1:-0.487337 2:-0.00494635 
100 1:-0.48223 2:-0.0197102 
100 1:-0.498226 2:-0.0167263 
100 1:-0.48919 2:-0.0310514 
100 1:-0.495648 2:-0.0221294 
100 1:-0.499213 2:-0.0255542 
100 1:-0.49604 2:-0.0150763 
100 1:-0.516185 2:-0.0446907 
100 1:-0.513618 2:-0.0526803 
100 1:-0.535883 2:-0.0698843 
100 1:-0.539554 2:-0.0696968 
100 1:-0.52715 2:-0.0697729 
100 1:-0.542008 2:-0.0666888 
100 1:-0.522398 2:-0.0641863 
100 1:-0.532991 2:-0.0650169 
100 1:-0.525196 2:-0.0539009 
100 1:-0.528554 2:-0.0569528 
100 1:-0.530763 2:-0.0467844 
100 1:-0.525734 2:-0.0463471 
100 1:-0.526683 2:-0.0524077 
100 1:-0.468438 2:-0.0352194 
100 1:-0.483064 2:-0.0395796 
100 1:-0.467542 2:-0.0255996 
100 1:-0.465414 2:-0.020507 
100 1:-0.466292 2:-0.0159962 
100 1:-0.46006 2:-0.00503925 
100 1:-0.472844 2:-0.0148896 
100 1:-0.477557 2:-0.0146237 
100 1:-0.4918 2:-0.0226189 
100 1:-0.509204 2:-0.0184061 
100 1:-0.496315 2:-0.0304 
100 1:-0.511207 2:-0.0490977 
100 1:-0.508365 2:-0.0726633 
100 1:-0.52269 2:-0.0747046 
100 1:-0.530851 2:-0.0652127 
100 1:-0.530508 2:-0.0681506 
100 1:-0.529569 2:-0.0629395 
100 1:-0.529764 2:-0.0652772 
100 1:-0.52738 2:-0.0534361 
100 1:-0.532191 2:-0.0499124 
100 1:-0.532558 2:-0.0399462 
100 1:-0.527975 2:-0.0417967 
100 1:-0.529475 2:-0.041261 
100 1:-0.493168 2:-0.0337455 
100 1:-0.474616 2:-0.0401245 
100 1:-0.468059 2:-0.0256217 
100 1:-0.467391 2:-0.0192852 
100 1:-0.466432 2:-0.013345 
100 1:-0.491057 2:-0.0225038 
100 1:-0.507933 2:-0.0239095 
100 1:-0.501909 2:-0.0228031 
100 1:-0.503618 2:-0.0189682 
100 1:-0.496964 2:-0.031787 
100 1:-0.508068 2:-0.0481439 
100 1:-0.514418 2:-0.0653233 
100 1:-0.516454 2:-0.0675685 
100 1:-0.525948 2:-0.0708957 
100 1:-0.53063 2:-0.0660139 
100 1:-0.52758 2:-0.0663195 
100 1:-0.531628 2:-0.0488418 
100 1:-0.523648 2:-0.0585738 
100 1:-0.531495 2:-0.0463916 
100 1:-0.530679 2:-0.0472149 
100 1:-0.527606 2:-0.0423739 
100 1:-0.525367 2:-0.0678988 
100 1:-0.522225 2:-0.0599388 
100 1:-0.523239 2:-0.0687305 
100 1:0.454058 2:-0.00227601 
100 1:-0.451418 2:-0.0016777 
100 1:-0.457929 2:-0.0150512 
100 1:-0.438206 2:-0.0269117 
100 1:-0.436283 2:-0.0305991 
100 1:-0.451732 2:-0.023971 
100 1:-0.463611 2:-0.00726714 
100 1:-0.455106 2:-0.0217213 
100 1:-0.448843 2:-0.0301111 
100 1:-0.457476 2:-0.0212538 
100 1:-0.436729 2:-0.0266256 
100 1:-0.45587 2:-0.0255917 
100 1:-0.439149 2:-0.0360656 
100 1:-0.450627 2:-0.0369609 
100 1:-0.480114 2:-0.0318056 
100 1:-0.478842 2:-0.0221327 
100 1:-0.459873 2:-0.0386557 
100 1:-0.467075 2:-0.0352686 
100 1:-0.435833 2:-0.0437706 
100 1:-0.443237 2:-0.0453761 
100 1:-0.447757 2:-0.00721462 
100 1:-0.476944 2:0.029698 
100 1:-0.477496 2:-0.013543 
100 1:-0.497977 2:-0.027185 
100 1:-0.470055 2:-0.0148234 
100 1:-0.475828 2:-0.0115422 
100 1:-0.497975 2:-0.0271842 
100 1:-0.50471 2:-0.0392012 
100 1:-0.476948 2:-0.00813747 
100 1:-0.506019 2:-0.0337312 
100 1:-0.488114 2:-0.0327752 
100 1:-0.479267 2:-0.0343323 
100 1:-0.487307 2:-0.0326389 
100 1:-0.486046 2:-0.0262694 
100 1:-0.507043 2:-0.0231038 
100 1:-0.482736 2:-0.0347966 
100 1:-0.506079 2:-0.033861 
100 1:-0.475218 2:-0.0338139 
100 1:-0.492604 2:-0.0257064 
100 1:-0.473915 2:-0.0235061 
100 1:-0.4782 2:-0.0173729 
100 1:-0.458732 2:-0.02496 
100 1:-0.491985 2:-0.0124105 
100 1:-0.445362 2:-0.0414885 
100 1:-0.445024 2:-0.0133524 
100 1:-0.443941 2:-0.0388326 
100 1:-0.435062 2:-0.0336098 
100 1:-0.449571 2:-0.0270878 
100 1:-0.438317 2:-0.0262182 
100 1:-0.488778 2:0.0520763 
100 1:-0.503065 2:-0.0276267 
100 1:-0.509695 2:-0.0216045 
100 1:-0.504127 2:-0.0274116 
100 1:-0.510038 2:-0.0250383 
100 1:-0.505743 2:-0.0312631 
100 1:-0.511587 2:-0.0231944 
100 1:-0.504632 2:-0.0318035 
100 1:-0.50529 2:-0.0286469 
100 1:-0.509046 2:-0.0272605 
100 1:-0.524102 2:-0.032748 
100 1:-0.506446 2:-0.0339646 
100 1:-0.514915 2:-0.0207944 
100 1:-0.531389 2:-0.0408148 
100 1:-0.516373 2:-0.0331416 
100 1:-0.522751 2:-0.0254442 
100 1:-0.513672 2:-0.0110313 
100 1:-0.491069 2:-0.0143355 
100 1:-0.517308 2:0.00792128 
100 1:-0.477097 2:0.00639916 
100 1:-0.49168 2:0.00862977 
100 1:-0.471795 2:0.0231972 
100 1:-0.50139 2:0.0114967 
100 1:-0.471901 2:0.0196762 
100 1:-0.493562 2:0.0243047 
100 1:-0.473612 2:0.00260429 
100 1:-0.493309 2:0.0294581 
100 1:-0.448407 2:-0.0362679 
100 1:-0.480302 2:-0.0049312 
100 1:-0.446224 2:-0.0269289 
100 1:-0.464038 2:-0.00421591 
100 1:-0.459413 2:-0.0390322 
100 1:-0.47727 2:-0.033442 
100 1:-0.45307 2:-0.0298626 
100 1:-0.463902 2:-0.0357075 
100 1:-0.460048 2:-0.0125134 
100 1:-0.450383 2:-0.00680788 
100 1:-0.454088 2:-0.0187662 
100 1:-0.480245 2:0.0434328 
100 1:-0.466788 2:0.0110645 
100 1:-0.501346 2:0.0237655 
100 1:-0.491191 2:0.056985 
100 1:-0.481484 2:0.0321971 
100 1:-0.485166 2:0.0145388 
100 1:-0.489224 2:0.0491586 
100 1:-0.485025 2:0.045219 
100 1:-0.506149 2:-0.019576 
100 1:-0.492583 2:0.00239665 
100 1:-0.507765 2:-0.0225825 
100 1:-0.490843 2:-0.00464218 
100 1:-0.50468 2:-0.00956028 
100 1:-0.519463 2:-0.032066 
100 1:-0.50371 2:-0.024442 
100 1:-0.505834 2:-0.0285983 
100 1:-0.532828 2:-0.0338496 
100 1:-0.499574 2:-0.0117287 
100 1:-0.516773 2:-0.0180467 
100 1:-0.47807 2:0.00493462 
100 1:-0.503378 2:0.0116216 
100 1:-0.502803 2:0.0173706 
100 1:-0.486341 2:0.00903428 
100 1:-0.495847 2:0.0158549 
100 1:-0.455739 2:0.00239483 
100 1:-0.482584 2:0.00538097 
100 1:-0.461909 2:0.00243223 
100 1:-0.463896 2:0.00860539 
100 1:-0.483086 2:0.0247919 
100 1:-0.479243 2:0.0121669 
100 1:-0.483615 2:0.00428067 
100 1:-0.47404 2:0.0224473 
100 1:-0.474352 2:0.0128009 
100 1:-0.474856 2:0.0128005 
100 1:-0.469649 2:-0.0115312 
100 1:-0.470622 2:-0.0473458 
100 1:-0.483175 2:-0.0322665 
100 1:-0.477025 2:-0.0209014 
100 1:-0.50278 2:-0.0334888 
100 1:-0.4836 2:-0.0181296 
100 1:-0.512068 2:-0.0252657 
100 1:-0.489059 2:-0.006223 
100 1:-0.517802 2:-0.0265539 
100 1:-0.485047 2:0.00441407 
100 1:-0.506688 2:-0.0111735 
100 1:-0.512516 2:0.0188376 
100 1:-0.522622 2:-0.0128085 
100 1:-0.506834 2:0.0225241 
100 1:-0.523447 2:-0.00845962 
100 1:-0.511652 2:0.0225065 
100 1:-0.521476 2:0.00429168 
100 1:-0.491472 2:0.001344 
100 1:-0.481823 2:-0.00847791 
100 1:-0.48143 2:-0.0126152 
100 1:-0.480467 2:-0.0272618 
100 1:-0.481476 2:-0.0234243 
100 1:-0.45739 2:-0.0104908 
100 1:-0.460105 2:-0.0118543 
100 1:-0.458386 2:-0.00158659 
100 1:-0.466295 2:0.0210152 
100 1:-0.467346 2:0.0147105 
100 1:-0.482963 2:0.0114982 
100 1:-0.480138 2:-0.0176465 
100 1:-0.479353 2:-0.037687 
100 1:-0.492616 2:-0.0538382 
100 1:-0.500857 2:-0.0447556 
100 1:-0.503096 2:-0.0381807 
100 1:-0.461061 2:-0.0350362 
100 1:-0.503816 2:-0.0376966 
100 1:-0.509705 2:-0.0167903 
100 1:-0.514123 2:-0.012551 
100 1:-0.518282 2:-0.00674033 
100 1:-0.513822 2:0.0165857 
100 1:-0.511737 2:0.0119736 
100 1:-0.506136 2:-0.0391761 
100 1:-0.483029 2:-0.00126574 
100 1:-0.474494 2:-0.0228001 
100 1:-0.466384 2:-0.0157104 
100 1:-0.470542 2:-0.0239515 
100 1:-0.457148 2:-0.00763914 
100 1:-0.466896 2:-0.0137798 
100 1:-0.45026 2:-0.00955057 
100 1:-0.462364 2:0.00626772 
100 1:-0.471815 2:-0.00625718 
100 1:-0.451198 2:-0.0275166 
100 1:-0.463357 2:-0.0639731 
100 1:-0.493248 2:-0.0581269 
100 1:-0.483623 2:-0.0489279 
100 1:-0.464452 2:-0.0443164 
100 1:-0.495587 2:-0.0245475 
100 1:-0.463397 2:-0.0346899 
100 1:-0.491248 2:-0.0286491 
100 1:-0.464365 2:-0.0332448 
100 1:-0.494235 2:-0.0368574 
100 1:-0.462884 2:-0.0314481 
100 1:-0.465965 2:-0.030855 
100 1:-0.513622 2:-0.0303311 
100 1:-0.47945 2:-0.0378957 
100 1:-0.477153 2:-0.0384217 
100 1:-0.471614 2:-0.0246605 
100 1:-0.439445 2:-0.0300321 
100 1:-0.445276 2:-0.0543264 
100 1:-0.447816 2:-0.0471092 
100 1:-0.453672 2:-0.0347251 
100 1:-0.463578 2:-0.0362158 
100 1:-0.464189 2:-0.0319995 
100 1:-0.437298 2:-0.0328392 
100 1:-0.445409 2:-0.0534093 
100 1:-0.43856 2:-0.0470907 
100 1:-0.439033 2:-0.0380399 
100 1:-0.444926 2:-0.0347497 
100 1:-0.446876 2:-0.0337398 
100 1:-0.447697 2:-0.0348265 
100 1:-0.463678 2:-0.0294754 
100 1:-0.466778 2:-0.0316855 
100 1:0.446079 2:-0.00385167 
100 1:-0.450611 2:-0.0067272 
100 1:-0.461149 2:-0.00464453 
100 1:-0.451869 2:-0.00745457 
100 1:-0.463254 2:-0.00199417 
100 1:-0.457633 2:-0.00679665 
100 1:-0.453352 2:-0.00749161 
100 1:-0.462664 2:-0.000170348 
100 1:-0.461547 2:-0.00857916 
100 1:-0.459168 2:-0.0137952 
100 1:-0.460298 2:-0.0103812 
100 1:-0.462213 2:-0.0162992 
100 1:-0.457268 2:-0.0158968 
100 1:-0.468048 2:-0.0151573 
100 1:-0.470249 2:-0.0130171 
100 1:-0.463359 2:-0.0213659 
100 1:-0.470912 2:-0.0155577 
100 1:-0.465748 2:-0.0204512 
100 1:-0.445236 2:-0.0272893 
100 1:-0.450541 2:-0.0128578 
100 1:-0.447134 2:-0.0165474 
100 1:-0.461148 2:-0.0046452 
100 1:-0.462797 2:-0.0127046 
100 1:-0.461154 2:-0.00464364 
100 1:-0.464787 2:-0.00889082 
100 1:-0.465639 2:-0.00964014 
100 1:-0.467376 2:-0.0100165 
100 1:-0.467417 2:-0.0122955 
100 1:-0.473097 2:-0.0166278 
100 1:-0.480916 2:-0.0184067 
100 1:-0.463257 2:-0.022282 
100 1:-0.495013 2:-0.0338645 
100 1:-0.474841 2:-0.0292113 
100 1:-0.472083 2:-0.00557119 
100 1:-0.500799 2:0.00236164 
100 1:-0.459768 2:-0.00322495 
100 1:-0.475711 2:-0.00222663 
100 1:-0.494267 2:0.0119231 
100 1:-0.486216 2:0.00400961 
100 1:-0.473663 2:0.032866 
100 1:-0.474027 2:0.00178912 
100 1:-0.468374 2:0.0196581 
100 1:-0.472241 2:0.0304025 
100 1:-0.473651 2:0.0204171 
100 1:-0.461965 2:-0.00639639 
100 1:-0.460207 2:-0.00925805 
100 1:-0.458324 2:-0.0265046 
100 1:-0.464 2:-0.0106484 
100 1:-0.457488 2:-0.0110167 
100 1:-0.458789 2:-0.0213133 
100 1:-0.465984 2:-0.0344594 
100 1:-0.465775 2:-0.0103161 
100 1:-0.461801 2:-0.0226941 
100 1:-0.463293 2:-0.0284227 
100 1:-0.470764 2:-0.0323746 
100 1:-0.469183 2:-0.0426265 
100 1:-0.475985 2:-0.0275668 
100 1:-0.476081 2:-0.0475423 
100 1:-0.484191 2:-0.0408514 
100 1:-0.466649 2:-0.0418541 
100 1:-0.49237 2:-0.0297139 
100 1:-0.48875 2:-0.0349115 
100 1:-0.479367 2:-0.0463593 
100 1:-0.491285 2:-0.00140183 
100 1:-0.475122 2:-0.0130528 
100 1:-0.488258 2:0.013601 
100 1:-0.483635 2:0.0147115 
100 1:-0.482185 2:0.0377707 
100 1:-0.461186 2:-0.00986606 
100 1:-0.494612 2:-0.0243427 
100 1:-0.462667 2:-0.0117808 
100 1:-0.467306 2:-0.0181341 
100 1:-0.462047 2:0.0113733 
100 1:-0.475085 2:0.0288443 
100 1:-0.498857 2:-0.000902995 
100 1:-0.471265 2:0.021632 
100 1:-0.485152 2:0.00882099 
100 1:-0.498952 2:-0.00862513 
100 1:-0.480698 2:0.0146715 
100 1:-0.461009 2:-0.0293611 
100 1:-0.49855 2:-0.0200925 
100 1:-0.471255 2:-0.0365122 
100 1:-0.495053 2:-0.0253435 
100 1:-0.471324 2:-0.042912 
100 1:-0.499351 2:-0.0278323 
100 1:-0.464162 2:-0.0386592 
100 1:-0.493688 2:-0.0299425 
100 1:-0.460905 2:-0.04846 
100 1:-0.458755 2:-0.0362807 
100 1:-0.465814 2:-0.0473399 
100 1:-0.473579 2:-0.0460378 
100 1:-0.457382 2:-0.0302355 
100 1:-0.481702 2:-0.032988 
100 1:-0.468922 2:-0.00627144 
100 1:-0.46856 2:-0.00709038 
100 1:-0.489364 2:0.0137094 
100 1:-0.471756 2:0.017483 
100 1:-0.476399 2:0.0138791 
100 1:-0.469471 2:0.0211892 
100 1:-0.467258 2:-0.00346662 
100 1:-0.490844 2:0.00329901 
100 1:-0.472262 2:0.0174162 
100 1:-0.487604 2:-0.00575239 
100 1:-0.488469 2:-0.0131161 
100 1:-0.489783 2:-0.0188721 
100 1:-0.484222 2:-0.00966602 
100 1:-0.493523 2:-0.02281 
100 1:-0.49062 2:-0.00547876 
100 1:-0.500556 2:-0.0196242 
100 1:-0.4962 2:0.00540611 
100 1:-0.504471 2:-0.0156061 
100 1:-0.490371 2:0.00341868 
100 1:-0.495874 2:-0.0148164 
100 1:-0.488858 2:0.00820933 
100 1:-0.497538 2:-0.0286903 
100 1:-0.50221 2:-0.028911 
100 1:-0.494304 2:-0.0146208 
100 1:-0.501001 2:-0.0321959 
100 1:-0.492704 2:-0.0088193 
100 1:-0.497956 2:-0.0220444 
100 1:-0.505714 2:-0.00928006 
100 1:-0.505145 2:-0.0212782 
100 1:-0.508284 2:-0.0157187 
100 1:-0.492422 2:-0.0424938 
100 1:-0.514288 2:-0.013705 
100 1:-0.485771 2:-0.049316 
100 1:-0.503963 2:-0.0330888 
100 1:-0.475158 2:-0.0380556 
100 1:-0.501851 2:-0.0233899 
100 1:-0.481479 2:-0.00221521 
100 1:-0.489652 2:0.00545062 
100 1:-0.474398 2:0.00925017 
100 1:-0.481549 2:0.0375813 
100 1:-0.47731 2:-0.00645013 
100 1:-0.490286 2:-0.0161476 
100 1:-0.49299 2:-0.0310273 
100 1:-0.511041 2:-0.0053925 
100 1:-0.505098 2:-0.0148993 
100 1:-0.512146 2:-0.00179641 
100 1:-0.508319 2:-0.010698 
100 1:-0.487584 2:-0.0224347 
100 1:-0.510131 2:-0.0239773 
100 1:-0.491835 2:-0.0215357 
100 1:-0.494267 2:-0.0353208 
100 1:-0.491413 2:-0.0283383 
100 1:-0.49216 2:-0.0223319 
100 1:-0.49831 2:-0.0287177 
100 1:-0.496112 2:-0.0257801 
100 1:-0.49623 2:-0.03177 
100 1:-0.494058 2:-0.0117885 
100 1:-0.486342 2:-0.0097071 
100 1:-0.501513 2:-0.00948468 
100 1:-0.504754 2:-0.0109394 
100 1:-0.514999 2:-0.0044307 
100 1:-0.521649 2:-0.0182654 
100 1:-0.51658 2:-0.0194342 
100 1:-0.495636 2:-0.0117637 
100 1:-0.486752 2:0.0449173 
100 1:-0.468802 2:0.0245507 
100 1:-0.463758 2:0.00773745 
100 1:-0.46412 2:0.0117953 
100 1:-0.46554 2:0.011163 
100 1:-0.47663 2:0.0180738 
100 1:-0.492381 2:-0.016161 
100 1:-0.486198 2:-0.0382139 
100 1:-0.502129 2:-0.0234612 
100 1:-0.488707 2:-0.020114 
100 1:-0.505591 2:-0.0190031 
100 1:-0.472158 2:-0.0152772 
100 1:-0.495073 2:-0.0118499 
100 1:-0.493647 2:-0.0227166 
100 1:-0.504375 2:-0.0176763 
100 1:-0.493199 2:-0.0293266 
100 1:-0.485121 2:-0.0116523 
100 1:-0.4936 2:-0.0267743 
100 1:-0.481324 2:-0.0131768 
100 1:-0.494654 2:-0.0349509 
100 1:-0.493413 2:-0.0284357 
100 1:-0.483745 2:-0.00653693 
100 1:-0.507354 2:-0.0182213 
100 1:-0.506324 2:-0.00923336 
100 1:-0.508871 2:-0.0109431 
100 1:-0.506693 2:-0.0156935 
100 1:-0.495163 2:0.0182806 
100 1:-0.488352 2:0.0368407 
100 1:-0.479978 2:0.0147287 
100 1:-0.469474 2:0.0225196 
100 1:-0.471188 2:0.0030257 
100 1:-0.47952 2:0.00130882 
100 1:-0.467212 2:0.00680702 
100 1:-0.488777 2:-0.0146543 
100 1:-0.477375 2:-0.019139 
100 1:-0.492755 2:-0.0319173 
100 1:-0.474491 2:-0.0247987 
100 1:-0.472104 2:-0.0203918 
100 1:-0.477459 2:-0.0204488 
100 1:-0.470905 2:-0.0177924 
100 1:-0.48107 2:-0.0122583 
100 1:-0.476516 2:-0.0102318 
100 1:-0.487085 2:-0.00562382 
100 1:-0.4793 2:-0.0117846 
100 1:-0.484774 2:0.00103522 
100 1:-0.486121 2:0.00437672 
100 1:-0.4822 2:0.000512353 
100 1:-0.499634 2:-0.0163903 
100 1:-0.506346 2:-0.00922012 
100 1:-0.508892 2:-0.0109332 
100 1:-0.499317 2:0.0015413 
100 1:-0.483907 2:0.00914905 
100 1:-0.465834 2:0.0189348 
100 1:-0.464577 2:0.00184456 
100 1:-0.46456 2:-0.0143464 
100 1:-0.46443 2:-0.0259377 
100 1:-0.469121 2:-0.0233765 
100 1:-0.464356 2:-0.0164113 
100 1:-0.483199 2:0.0407896 
100 1:-0.467322 2:0.0126006 
100 1:-0.474384 2:-0.00964317 
100 1:-0.468491 2:-0.0195967 
100 1:-0.460835 2:-0.0233197 
100 1:-0.455528 2:-0.026428 
100 1:-0.46296 2:-0.019389 
100 1:-0.463419 2:-0.0123111 
100 1:-0.469484 2:-0.0084424 
100 1:-0.440056 2:-0.0485514 
100 1:-0.437932 2:-0.0294565 
100 1:-0.43498 2:-0.0561337 
100 1:-0.438634 2:-0.0554133 
100 1:-0.438263 2:-0.0514008 
100 1:-0.435705 2:-0.0522756 
100 1:-0.431588 2:-0.0604724 
100 1:-0.436733 2:-0.083528 
100 1:-0.450546 2:-0.0601397 
100 1:-0.451869 2:-0.0251908 
100 1:-0.465958 2:-0.0629722 
100 1:-0.468634 2:-0.0572005 
100 1:-0.472428 2:-0.0327115 
100 1:-0.448485 2:-0.0524955 
100 1:-0.417731 2:-0.0885888 
100 1:-0.424101 2:-0.0937501 
100 1:-0.445965 2:-0.0903287 
100 1:-0.412265 2:-0.0887559 
100 1:-0.430337 2:-0.0867602 
100 1:-0.445658 2:-0.0863701 
100 1:-0.462569 2:-0.0535353 
100 1:-0.457877 2:-0.0553323 
100 1:-0.456285 2:-0.0413753 
100 1:-0.447918 2:-0.0256635 
100 1:-0.439472 2:-0.0318876 
100 1:-0.448034 2:-0.0129832 
100 1:-0.453153 2:-0.0240943 
100 1:-0.4185 2:-0.0617859 
100 1:-0.460761 2:-0.0661179 
100 1:-0.462546 2:-0.0535392 
100 1:-0.438266 2:-0.0719378 
100 1:-0.458215 2:-0.0533429 
100 1:-0.475505 2:-0.00964191 
100 1:-0.475844 2:0.0270796 
100 1:-0.452789 2:0.000148179 
100 1:-0.445169 2:-0.0230942 
100 1:-0.448159 2:-0.0197267 
100 1:-0.442003 2:-0.0310392 
100 1:-0.429714 2:-0.096218 
100 1:-0.440895 2:-0.078551 
100 1:-0.458796 2:-0.00971779 
100 1:-0.456993 2:0.00201413 
100 1:-0.460398 2:0.010552 
100 1:0.399167 2:0.0283305 
100 1:-0.402235 2:-0.125118 
100 1:-0.396742 2:-0.123003 
100 1:-0.397123 2:-0.115333 
100 1:-0.405075 2:-0.110207 
100 1:-0.39168 2:-0.128055 
100 1:-0.393418 2:-0.123524 
100 1:-0.397069 2:-0.115331 
100 1:-0.409584 2:-0.119357 
100 1:-0.443379 2:-0.110999 
100 1:-0.420971 2:-0.0631219 
100 1:-0.401293 2:-0.12067 
100 1:-0.410956 2:-0.103331 
100 1:-0.434753 2:-0.114082 
100 1:-0.451538 2:-0.10064 
100 1:-0.438472 2:-0.0599676 
100 1:-0.43161 2:-0.0486169 
100 1:-0.401932 2:-0.101238 
100 1:-0.426517 2:-0.0462928 
100 1:-0.409603 2:-0.0916402 
100 1:-0.444877 2:-0.0638081 
100 1:0.389718 2:-0.000537024 
100 1:-0.419341 2:-0.0700757 
100 1:-0.437754 2:-0.0379629 
100 1:-0.441412 2:-0.0654695 
100 1:-0.427575 2:-0.0940186 
100 1:-0.454529 2:-0.0767473 
100 1:-0.433949 2:-0.119982 
100 1:-0.426637 2:-0.0728381 
100 1:-0.466379 2:-0.0123275 
100 1:-0.413016 2:-0.0852509 
100 1:-0.442399 2:-0.08085 
100 1:-0.445117 2:-0.0691896 
100 1:-0.43885 2:-0.0755545 
100 1:-0.450933 2:-0.0583773 
100 1:-0.463944 2:-0.0805175 
100 1:-0.446734 2:-0.105882 
100 1:-0.465638 2:-0.1179 
100 1:-0.455258 2:-0.0598843 
100 1:-0.441821 2:-0.079383 
100 1:-0.478422 2:-0.0619405 
100 1:-0.472146 2:-0.0421978 
100 1:-0.503538 2:0.0226573 
100 1:-0.48915 2:-0.00557988 
100 1:-0.489131 2:0.00702449 
100 1:-0.485298 2:0.0144797 
100 1:-0.485309 2:0.0144687 
100 1:-0.42155 2:-0.0795489 
100 1:-0.445274 2:-0.079495 
100 1:-0.460012 2:-0.0881328 
100 1:-0.458242 2:-0.0747055 
100 1:-0.488144 2:0.00736076 
100 1:0.378574 2:0.0164176 
100 1:-0.42504 2:-0.0937112 
100 1:-0.448253 2:-0.105632 
100 1:-0.423462 2:-0.055299 
100 1:-0.449094 2:-0.0529209 
100 1:-0.421925 2:-0.0640329 
100 1:-0.428225 2:-0.0456925 
100 1:-0.442655 2:-0.0943442 
100 1:-0.413726 2:-0.131869 
100 1:-0.454962 2:-0.123304 
100 1:-0.424802 2:-0.105569 
100 1:-0.433303 2:-0.152063 
100 1:-0.44256 2:-0.103603 
100 1:-0.428158 2:-0.0831531 
100 1:-0.442279 2:-0.0645293 
100 1:-0.443725 2:-0.075197 
100 1:-0.431773 2:-0.0586335 
100 1:-0.433045 2:-0.0467345 
100 1:-0.44526 2:-0.0474113 
100 1:-0.447419 2:-0.0448233 
100 1:-0.434756 2:-0.0474455 
100 1:-0.451995 2:-0.0686563 
100 1:-0.462863 2:-0.0791506 
100 1:-0.466643 2:-0.0816656 
100 1:-0.458051 2:-0.108503 
100 1:-0.459334 2:-0.107864 
100 1:-0.448057 2:-0.115056 
100 1:-0.442339 2:-0.0850878 
100 1:-0.441308 2:-0.12369 
100 1:-0.41875 2:-0.0671662 
100 1:-0.424908 2:-0.083218 
100 1:-0.438256 2:-0.0920154 
100 1:-0.439989 2:-0.0620509 
100 1:-0.429648 2:-0.0466157 
100 1:-0.448098 2:-0.0617422 
100 1:-0.451874 2:-0.0569325 
100 1:-0.447434 2:-0.0448175 
100 1:-0.428558 2:-0.0418316 
100 1:-0.44316 2:-0.0471232 
100 1:-0.443124 2:-0.0471428 
100 1:-0.441279 2:-0.0659621 
100 1:-0.447919 2:-0.0705806 
100 1:-0.46416 2:-0.0874263 
100 1:-0.469622 2:-0.100197 
100 1:-0.452409 2:-0.0867013 
100 1:-0.423861 2:-0.0536977 
100 1:-0.435451 2:-0.0460314 
100 1:-0.428055 2:-0.050023 
100 1:-0.427622 2:-0.0851074 
100 1:-0.431316 2:-0.0885086 
100 1:-0.448304 2:-0.0883928 
100 1:-0.427512 2:-0.106806 
100 1:-0.44232 2:-0.0628384 
100 1:-0.445667 2:-0.0800333 
100 1:-0.439195 2:-0.0409202 
100 1:-0.445491 2:-0.0599729 
100 1:-0.429002 2:-0.0602705 
100 1:-0.434722 2:-0.0694201 
100 1:-0.424453 2:-0.0612685 
100 1:-0.467861 2:-0.0966038 
100 1:-0.400735 2:-0.103108 
100 1:0.390372 2:0.0402981 
100 1:-0.450161 2:-0.0904788 
100 1:-0.422178 2:-0.0701275 
100 1:-0.452024 2:-0.0801448 
100 1:-0.444829 2:-0.100306 
100 1:-0.423773 2:-0.102583 
100 1:-0.422437 2:-0.0637447 
100 1:-0.436398 2:-0.0435767 
100 1:-0.431748 2:-0.0650867 
100 1:-0.441201 2:-0.0453691 
100 1:-0.460267 2:-0.068732 
100 1:-0.448628 2:-0.0362465 
100 1:-0.429697 2:-0.0556984 
100 1:-0.468379 2:-0.0866326 
100 1:-0.45378 2:-0.0869493 
100 1:-0.463767 2:-0.0964141 
100 1:-0.457793 2:-0.0832314 
100 1:-0.475319 2:-0.0698789 
100 1:-0.448963 2:-0.0569327 
100 1:-0.447599 2:-0.024163 
100 1:-0.416162 2:-0.0691692 
100 1:-0.404271 2:-0.121409 
100 1:-0.433616 2:-0.069691 
100 1:-0.417909 2:-0.0744671 
100 1:-0.454243 2:-0.049259 
100 1:-0.46822 2:-0.0672677 
100 1:-0.483446 2:-0.0920922 
100 1:-0.506177 2:-0.0969978 
100 1:-0.491798 2:-0.108421 
100 1:-0.425166 2:-0.110489 
100 1:-0.498336 2:-0.076711 
100 1:-0.489726 2:-0.0682766 
100 1:-0.450949 2:-0.0418509 
100 1:-0.476644 2:-0.0399642 
100 1:-0.449061 2:-0.0220028 
100 1:-0.427253 2:-0.0812361 
100 1:-0.414098 2:-0.107271 
100 1:-0.403566 2:-0.114655 
100 1:-0.404577 2:-0.119869 
100 1:-0.431992 2:-0.0886194 
100 1:-0.39502 2:-0.116524 
100 1:-0.426478 2:-0.0881338 
100 1:-0.454074 2:-0.0364325 
100 1:-0.438753 2:-0.0746171 
100 1:-0.444026 2:-0.105298 
100 1:-0.407988 2:-0.0861147 
100 1:-0.401657 2:-0.123155 
100 1:-0.438121 2:-0.120024 
100 1:-0.446137 2:-0.0963947 
100 1:-0.424845 2:-0.0994445 
100 1:-0.428218 2:-0.0861452 
100 1:-0.426495 2:-0.104004 
100 1:-0.427085 2:-0.0716953 
100 1:-0.43008 2:-0.0517235 
100 1:0.388201 2:-0.0149527 
100 1:-0.415234 2:-0.0849396 
100 1:-0.425002 2:-0.0756962 
100 1:-0.427407 2:-0.0847179 
100 1:-0.406726 2:-0.0882464 
100 1:-0.419065 2:-0.0971362 
100 1:-0.412382 2:-0.0768899 
100 1:-0.436053 2:-0.0701024 
100 1:-0.431279 2:-0.0570133 
100 1:-0.439667 2:-0.0402381 
100 1:-0.433746 2:-0.0447033 
100 1:-0.426613 2:-0.069637 
100 1:-0.423258 2:-0.0857485 
100 1:-0.426359 2:-0.0775462 
100 1:-0.432549 2:-0.0407668 
100 1:-0.436621 2:-0.0379015 
100 1:-0.433816 2:-0.0325424 
100 1:-0.407969 2:-0.10618 
100 1:-0.399055 2:-0.147617 
100 1:-0.404048 2:-0.0976421 
100 1:-0.416458 2:-0.107406 
100 1:-0.426766 2:-0.0727953 
100 1:-0.408835 2:-0.0937882 
100 1:-0.41736 2:-0.0724969 
100 1:-0.415162 2:-0.0818298 
100 1:-0.407655 2:-0.0853613 
100 1:-0.439699 2:-0.0437877 
100 1:-0.439462 2:-0.056591 
100 1:-0.417658 2:-0.0654858 
100 1:-0.393619 2:-0.155506 
100 1:-0.426029 2:-0.0944375 
100 1:-0.428689 2:-0.103918 
100 1:-0.394304 2:-0.160817 
100 1:-0.397536 2:-0.163919 
100 1:-0.40335 2:-0.153161 
100 1:-0.417172 2:-0.129428 
100 1:-0.405436 2:-0.124109 
100 1:-0.412283 2:-0.10486 
100 1:-0.420173 2:-0.125906 
100 1:-0.413249 2:-0.0862959 
100 1:-0.408817 2:-0.0937841 
100 1:-0.415217 2:-0.0835519 
100 1:-0.400352 2:-0.103244 
100 1:-0.424716 2:-0.070108 
100 1:-0.420987 2:-0.064936 
100 1:-0.437602 2:-0.0494764 
100 1:-0.429078 2:-0.0499181 
100 1:-0.444293 2:-0.0615796 
100 1:-0.424886 2:-0.057758 
100 1:-0.441431 2:-0.120428 
100 1:-0.425571 2:-0.118786 
100 1:-0.428059 2:-0.149487 
100 1:-0.410376 2:-0.122865 
100 1:-0.413277 2:-0.0929625 
100 1:-0.413292 2:-0.107173 
100 1:-0.412316 2:-0.0946481 
100 1:-0.408253 2:-0.100399 
100 1:0.38536 2:0.00249519 
100 1:-0.446775 2:-0.0101688 
100 1:-0.447048 2:-0.0193939 
100 1:-0.434227 2:-0.0438296 
100 1:-0.447047 2:-0.0251259 
100 1:-0.441465 2:-0.0372877 
100 1:-0.427861 2:-0.0530867 
100 1:-0.440971 2:-0.0520467 
100 1:-0.427224 2:-0.0505793 
100 1:-0.437071 2:-0.0511182 
100 1:-0.442703 2:-0.0184002 
100 1:-0.447058 2:-0.0193977 
100 1:-0.44896 2:-0.0135566 
100 1:-0.44883 2:-0.0170592 
100 1:-0.44991 2:-0.00642468 
100 1:-0.445437 2:-0.0393022 
100 1:-0.446254 2:-0.0398573 
100 1:-0.451115 2:-0.00886814 
100 1:-0.450031 2:-0.0414353 
100 1:-0.449486 2:-0.0381263 
100 1:-0.444247 2:-0.0308032 
100 1:-0.440138 2:-0.04641 
100 1:-0.457089 2:-0.0467765 
100 1:-0.427681 2:-0.0556751 
100 1:-0.442953 2:-0.0581257 
100 1:-0.439919 2:-0.0470055 
100 1:-0.451737 2:-0.0589371 
100 1:-0.432863 2:-0.0368531 
100 1:-0.434659 2:-0.0344268 
100 1:-0.437253 2:-0.0331474 
100 1:-0.447333 2:-0.0106477 
100 1:-0.432328 2:-0.0366867 
100 1:-0.413019 2:-0.078321 
100 1:-0.442516 2:-0.0284784 
100 1:-0.449601 2:-0.00540205 
100 1:-0.451711 2:-0.0101785 
100 1:-0.45657 2:-0.00351929 
100 1:-0.452083 2:-0.00744517 
100 1:-0.455096 2:-0.0362383 
100 1:-0.440387 2:-0.0328032 
100 1:-0.439261 2:-0.0241806 
100 1:-0.460248 2:-0.0493175 
100 1:-0.446032 2:-0.0627725 
100 1:-0.465474 2:-0.0526915 
100 1:-0.458575 2:-0.0615901 
100 1:-0.462558 2:-0.056499 
100 1:-0.469893 2:-0.0503767 
100 1:-0.456996 2:-0.0299017 
100 1:-0.457138 2:-0.0277009 
100 1:-0.451909 2:-0.0253953 
100 1:-0.460535 2:-0.0161719 
100 1:-0.452992 2:-0.00911551 
100 1:-0.461476 2:0.00953151 
100 1:-0.457286 2:0.00804858 
100 1:-0.438459 2:-0.0409529 
100 1:-0.445643 2:-0.0183725 
100 1:-0.425138 2:-0.0648775 
100 1:-0.4126 2:-0.0936866 
100 1:-0.426278 2:-0.0785932 
100 1:-0.424109 2:-0.0810798 
100 1:-0.423819 2:-0.0872149 
100 1:-0.431232 2:-0.0684405 
100 1:-0.420778 2:-0.0851039 
100 1:-0.428291 2:-0.0638984 
100 1:-0.43209 2:-0.0778984 
100 1:-0.447529 2:-0.0752503 
100 1:-0.435667 2:-0.0439283 
100 1:-0.427724 2:-0.055031 
100 1:-0.450721 2:-0.008091 
100 1:-0.469662 2:-0.0330672 
100 1:-0.463977 2:-0.0478867 
100 1:-0.456324 2:-0.00887133 
100 1:-0.455915 2:-0.00559656 
100 1:-0.459753 2:-0.0161946 
100 1:-0.450397 2:-0.00452436 
100 1:-0.459276 2:-0.00835285 
100 1:-0.457563 2:-0.0105852 
100 1:-0.452779 2:-0.00393956 
100 1:-0.450765 2:-0.0217024 
100 1:-0.455304 2:-0.0394118 
100 1:-0.445881 2:-0.0416622 
100 1:-0.445752 2:-0.0832911 
100 1:-0.442287 2:-0.0705624 
100 1:-0.455276 2:-0.0638504 
100 1:-0.437367 2:-0.0771399 
100 1:-0.459421 2:-0.0451328 
100 1:-0.449744 2:-0.0354141 
100 1:-0.454908 2:-0.0291084 
100 1:-0.44186 2:-0.0335423 
100 1:-0.45729 2:-0.0178126 
100 1:-0.458001 2:0.00146538 
100 1:-0.425193 2:-0.0563028 
100 1:-0.434658 2:-0.0316183 
100 1:-0.432228 2:-0.0795449 
100 1:-0.420823 2:-0.0969186 
100 1:-0.451225 2:-0.104122 
100 1:-0.432227 2:-0.0740461 
100 1:-0.447406 2:-0.107271 
100 1:-0.423623 2:-0.0767988 
100 1:-0.438431 2:-0.0836923 
100 1:-0.447255 2:-0.10438 
100 1:-0.455641 2:-0.0763663 
100 1:-0.455536 2:-0.097069 
100 1:-0.432419 2:-0.0482977 
100 1:-0.470518 2:-0.0653588 
100 1:-0.451322 2:-0.0583944 
100 1:-0.463863 2:-0.024906 
100 1:-0.456273 2:-0.0584711 
100 1:-0.463465 2:-0.0277512 
100 1:-0.455864 2:-0.0409122 
100 1:-0.456213 2:-0.0283099 
100 1:-0.46369 2:-0.027587 
100 1:-0.452744 2:-0.0468234 
100 1:-0.437495 2:-0.0423742 
100 1:-0.432287 2:-0.0592479 
100 1:-0.431806 2:-0.0495386 
100 1:-0.454153 2:-0.0506722 
100 1:-0.431471 2:-0.0445007 
100 1:-0.441637 2:-0.0632667 
100 1:-0.447801 2:-0.0967912 
100 1:-0.448561 2:-0.119019 
100 1:-0.441772 2:-0.116296 
100 1:-0.457523 2:-0.109732 
100 1:-0.452329 2:-0.110248 
100 1:-0.455711 2:-0.111248 
100 1:-0.446839 2:-0.0989612 
100 1:-0.443097 2:-0.0881693 
100 1:-0.465582 2:-0.0785467 
100 1:-0.458237 2:-0.0860068 
100 1:-0.455907 2:-0.0917668 
100 1:-0.474279 2:-0.0584712 
100 1:-0.453494 2:-0.0761654 
100 1:-0.463793 2:-0.0487791 
100 1:-0.461872 2:-0.0535483 
100 1:-0.451386 2:-0.066473 
100 1:-0.462154 2:-0.0497476 
100 1:-0.451201 2:-0.0481718 
100 1:-0.452291 2:-0.045124 
100 1:-0.442406 2:-0.0407503 
100 1:-0.460516 2:-0.0532763 
100 1:-0.468779 2:-0.0623211 
100 1:-0.457878 2:-0.0390271 
100 1:-0.467982 2:-0.0537757 
100 1:-0.464881 2:-0.0592434 
100 1:-0.472 2:-0.0686212 
100 1:-0.484549 2:-0.0932174 
100 1:-0.475788 2:-0.0968023 
100 1:-0.451749 2:-0.113319 
100 1:-0.477079 2:-0.106989 
100 1:-0.433142 2:-0.0883202 
100 1:-0.44307 2:-0.0877437 
100 1:-0.451909 2:-0.0705166 
100 1:-0.438831 2:-0.0780134 
100 1:-0.434588 2:-0.0783315 
100 1:-0.457671 2:-0.0541783 
100 1:-0.443904 2:-0.0767346 
100 1:-0.437628 2:-0.0654741 
100 1:-0.455413 2:-0.0469909 
100 1:-0.448209 2:-0.0551718 
100 1:-0.442129 2:-0.066478 
100 1:-0.44999 2:-0.0478073 
100 1:-0.449525 2:-0.0453938 
100 1:-0.439792 2:-0.0317946 
100 1:-0.442184 2:-0.040795 
100 1:-0.450914 2:-0.049349 
100 1:-0.462287 2:-0.0513861 
100 1:-0.463036 2:-0.057959 
100 1:-0.463696 2:-0.054789 
100 1:-0.464021 2:-0.0667661 
100 1:-0.474013 2:-0.0872072 
100 1:-0.479446 2:-0.0954527 
100 1:-0.467918 2:-0.0861313 
100 1:-0.465022 2:-0.0953537 
100 1:-0.465747 2:-0.0709042 
100 1:-0.437709 2:-0.0750396 
100 1:-0.451906 2:-0.0705144 
100 1:-0.440257 2:-0.0767392 
100 1:-0.438452 2:-0.0671952 
100 1:-0.436743 2:-0.0635191 
100 1:-0.43792 2:-0.0553123 
100 1:-0.439981 2:-0.058248 
100 1:-0.437037 2:-0.0608147 
100 1:-0.444925 2:-0.0591728 
100 1:-0.43825 2:-0.0387295 
100 1:-0.447594 2:-0.0484995 
100 1:-0.448569 2:-0.0451113 
100 1:-0.461829 2:-0.0524673 
100 1:-0.462085 2:-0.0630246 
100 1:-0.465315 2:-0.0572471 
100 1:-0.464769 2:-0.0618537 
100 1:-0.462075 2:-0.071565 
100 1:-0.446399 2:-0.0661974 
100 1:-0.445595 2:-0.0422058 
100 1:-0.44367 2:-0.0434832 
100 1:-0.452617 2:-0.0477107 
100 1:-0.463228 2:-0.0518715 
100 1:-0.45984 2:-0.0594794 
100 1:-0.463132 2:-0.0571219 
100 1:-0.472137 2:-0.0595738 
100 1:-0.460935 2:-0.0610656 
100 1:-0.462921 2:-0.0628938 
100 1:-0.454981 2:-0.066467 
100 1:-0.447151 2:-0.0727671 
100 1:-0.432372 2:-0.0657703 
100 1:-0.440767 2:-0.0592599 
100 1:-0.461399 2:-0.062574 
100 1:0.398711 2:8.93535e-05 
100 1:-0.460154 2:-0.020852 
100 1:-0.459388 2:-0.0182719 
100 1:-0.461588 2:-0.018666 
100 1:-0.45935 2:-0.0174575 
100 1:-0.458303 2:-0.0181031 
100 1:-0.452546 2:-0.0159522 
100 1:-0.457186 2:-0.0209905 
100 1:-0.463771 2:-0.0156665 
100 1:-0.441303 2:-0.0218348 
100 1:-0.457607 2:-0.0124176 
100 1:-0.445777 2:-0.012066 
100 1:-0.460545 2:-0.0215363 
100 1:-0.46606 2:-0.0198209 
100 1:-0.464153 2:-0.0171894 
100 1:-0.463728 2:-0.0178766 
100 1:-0.465336 2:-0.018442 
100 1:-0.453453 2:-0.0157702 
100 1:-0.448261 2:-0.0170201 
100 1:-0.461633 2:-0.019012 
100 1:-0.454365 2:-0.0219582 
100 1:-0.448517 2:-0.0365006 
100 1:-0.450862 2:-0.0222128 
100 1:-0.462558 2:-0.00945818 
100 1:-0.466044 2:-0.0152409 
100 1:-0.471682 2:-0.00963308 
100 1:-0.471512 2:-0.0176437 
100 1:-0.460556 2:-0.0150486 
100 1:-0.472539 2:-0.0102815 
100 1:-0.456036 2:-0.0154303 
100 1:-0.471964 2:-0.0155296 
100 1:-0.461642 2:-0.0190139 
100 1:-0.459557 2:-0.0171021 
100 1:-0.469519 2:-0.0171418 
100 1:-0.448719 2:-0.0158636 
100 1:-0.461927 2:-0.0177257 
100 1:-0.473272 2:0.0141885 
100 1:-0.458598 2:-0.00665575 
100 1:-0.45791 2:-0.0142447 
100 1:-0.441554 2:-0.020366 
100 1:-0.447994 2:-0.0395317 
100 1:-0.482861 2:-0.0308151 
100 1:-0.457721 2:-0.0281874 
100 1:-0.455448 2:-0.0285166 
100 1:-0.460065 2:-0.0236976 
100 1:-0.458802 2:-0.0311252 
100 1:-0.460448 2:-0.0380198 
100 1:-0.459399 2:-0.00136685 
100 1:-0.470231 2:0.00726438 
100 1:-0.480879 2:0.00648457 
100 1:-0.486859 2:-0.0111995 
100 1:-0.480992 2:0.00676723 
100 1:-0.481564 2:-0.024005 
100 1:-0.491435 2:-0.0155311 
100 1:-0.486939 2:-0.0184826 
100 1:-0.478307 2:-0.0197033 
100 1:-0.485659 2:0.00444775 
100 1:-0.472069 2:-0.00810741 
100 1:-0.480396 2:0.00335029 
100 1:-0.463826 2:0.0162236 
100 1:-0.505692 2:0.016135 
100 1:-0.461183 2:0.0124708 
100 1:-0.504345 2:0.00594683 
100 1:-0.485794 2:0.0312652 
100 1:-0.497378 2:0.0309521 
100 1:-0.490518 2:0.044135 
100 1:-0.495099 2:0.0376746 
100 1:-0.501887 2:0.0327836 
100 1:-0.50015 2:0.00508294 
100 1:-0.497971 2:0.0317995 
100 1:-0.474744 2:-0.00461613 
100 1:-0.476618 2:0.000242812 
100 1:-0.497619 2:-0.0113775 
100 1:-0.481739 2:-0.00566293 
100 1:-0.500726 2:-0.0126944 
100 1:-0.486584 2:-0.0290035 
100 1:-0.497382 2:-0.0235333 
100 1:-0.480744 2:-0.0342216 
100 1:-0.495346 2:-0.0335876 
100 1:-0.4735 2:-0.0341404 
100 1:-0.490297 2:-0.0115558 
100 1:-0.472037 2:-0.0368402 
100 1:-0.485156 2:-0.0269292 
100 1:-0.465241 2:-0.0258176 
100 1:-0.455702 2:-0.0274186 
100 1:-0.492793 2:-0.0214615 
100 1:-0.464904 2:-0.00486487 
100 1:-0.498694 2:-0.00095559 
100 1:-0.490294 2:0.0023255 
100 1:-0.489728 2:0.00576873 
100 1:-0.48037 2:0.0059392 
100 1:-0.485994 2:-0.00460296 
100 1:-0.474823 2:0.0130964 
100 1:-0.49386 2:0.00419596 
100 1:-0.488738 2:-0.00226129 
100 1:-0.492582 2:0.00277924 
100 1:-0.485666 2:0.00345356 
100 1:-0.490932 2:-0.0126821 
100 1:-0.492054 2:-0.0133764 
100 1:-0.483914 2:0.0204702 
100 1:-0.487071 2:-0.0144124 
100 1:-0.488118 2:-0.01727 
100 1:-0.499605 2:-0.0053269 
100 1:-0.495977 2:0.0015417 
100 1:-0.478792 2:-0.022341 
100 1:-0.500283 2:0.002776 
100 1:-0.496868 2:0.00760661 
100 1:-0.518967 2:0.0151096 
100 1:-0.505584 2:0.00593589 
100 1:-0.521103 2:0.0233566 
100 1:-0.497509 2:0.0312973 
100 1:-0.503451 2:0.0452158 
100 1:-0.493847 2:0.0526412 
100 1:-0.492683 2:0.0381969 
100 1:-0.494587 2:0.0333154 
100 1:-0.496954 2:0.0204404 
100 1:-0.489092 2:0.0153651 
100 1:-0.498429 2:-0.00364146 
100 1:-0.484724 2:0.0168702 
100 1:-0.488414 2:0.0019303 
100 1:-0.474523 2:-0.0057281 
100 1:-0.488284 2:-0.023923 
100 1:-0.483013 2:-0.0282465 
100 1:-0.497222 2:-0.0280261 
100 1:-0.48139 2:-0.0181789 
100 1:-0.475588 2:-0.0257585 
100 1:-0.495097 2:-0.000768624 
100 1:-0.486817 2:-0.0150882 
100 1:-0.481507 2:-0.0229254 
100 1:-0.483277 2:-0.0322587 
100 1:-0.478225 2:-0.0247874 
100 1:-0.480204 2:-0.0154039 
100 1:-0.48697 2:-0.00619689 
100 1:-0.465614 2:0.00120513 
100 1:-0.486558 2:0.00887604 
100 1:-0.492935 2:-0.0160478 
100 1:-0.488887 2:-0.0012807 
100 1:-0.49727 2:-0.0060609 
100 1:-0.490324 2:-0.00807329 
100 1:-0.494133 2:0.00245839 
100 1:-0.511512 2:-0.0173762 
100 1:-0.498652 2:-0.00690063 
100 1:-0.500831 2:-0.020082 
100 1:-0.508428 2:-0.0162243 
100 1:-0.498499 2:0.00023454 
100 1:-0.502928 2:-0.00170761 
100 1:-0.502507 2:0.000164198 
100 1:-0.504028 2:0.00295628 
100 1:-0.514207 2:-0.00204783 
100 1:-0.509457 2:0.0005034 
100 1:-0.514962 2:0.0227 
100 1:-0.493904 2:0.0218852 
100 1:-0.506696 2:0.0415038 
100 1:-0.493885 2:0.0351562 
100 1:-0.498546 2:0.0605991 
100 1:-0.485732 2:0.02902 
100 1:-0.473914 2:0.0148249 
100 1:-0.491817 2:0.0055126 
100 1:-0.493291 2:0.0161473 
100 1:-0.482947 2:-0.0116705 
100 1:-0.487971 2:-0.0184538 
100 1:-0.49209 2:-0.0211163 
100 1:-0.487929 2:-0.015415 
100 1:-0.486765 2:-0.013175 
100 1:-0.490469 2:-0.0236901 
100 1:-0.459502 2:-0.0121491 
100 1:-0.477734 2:-0.00345144 
100 1:-0.492447 2:-0.0306963 
100 1:-0.486935 2:-0.0190376 
100 1:-0.504491 2:-0.00366548 
100 1:-0.491962 2:-0.0225441 
100 1:-0.509535 2:-0.0148092 
100 1:-0.503708 2:-0.0267841 
100 1:-0.508326 2:-0.0319782 
100 1:-0.507311 2:-0.00780644 
100 1:-0.505644 2:-0.0159481 
100 1:-0.506752 2:-0.020554 
100 1:-0.499507 2:-0.010408 
100 1:-0.493717 2:0.0129976 
100 1:-0.497131 2:0.00829932 
100 1:-0.501646 2:0.00784763 
100 1:-0.494427 2:0.013501 
100 1:-0.485094 2:0.0250902 
100 1:-0.479485 2:0.0258684 
100 1:-0.488276 2:0.0234447 
100 1:-0.493806 2:0.0474397 
100 1:-0.500027 2:0.0510033 
100 1:-0.5002 2:0.0292255 
100 1:-0.499504 2:0.0303674 
100 1:-0.496483 2:0.0128595 
100 1:-0.498997 2:0.0187252 
100 1:-0.496098 2:0.0201005 
100 1:-0.493181 2:-0.0130418 
100 1:-0.490772 2:-0.00117638 
100 1:-0.490591 2:-0.0185053 
100 1:-0.48427 2:-0.00119971 
100 1:-0.485303 2:-0.0133401 
100 1:-0.481781 2:-0.0138897 
100 1:-0.485195 2:-0.0170251 
100 1:-0.475637 2:-0.0217359 
100 1:-0.489092 2:-0.0367536 
100 1:-0.491144 2:-0.0182597 
100 1:-0.493741 2:-0.0235133 
100 1:-0.501735 2:-0.0204974 
100 1:-0.50162 2:-0.0186264 
100 1:-0.49971 2:-0.0335309 
100 1:-0.495628 2:-0.0309891 
100 1:-0.502784 2:-0.0390613 
100 1:-0.493417 2:-0.0187736 
100 1:-0.504281 2:-0.0376094 
100 1:-0.49456 2:-0.0230241 
100 1:-0.508651 2:-0.0381251 
100 1:-0.500299 2:-0.0301625 
100 1:-0.500474 2:-0.0352137 
100 1:-0.512553 2:-0.0308415 
100 1:-0.503516 2:-0.0264904 
100 1:-0.493603 2:0.00912081 
100 1:-0.489821 2:0.0148684 
100 1:-0.490786 2:0.0223487 
100 1:-0.4893 2:0.027971 
100 1:-0.493417 2:0.0151033 
100 1:-0.489182 2:0.0238026 
100 1:-0.487463 2:0.0203103 
100 1:-0.494466 2:0.0112992 
100 1:-0.500409 2:0.0127242 
100 1:-0.498624 2:0.00253374 
100 1:-0.48849 2:-0.013089 
100 1:-0.488952 2:-0.0367128 
100 1:-0.491864 2:-0.0377912 
100 1:-0.497687 2:-0.0355062 
100 1:-0.491567 2:-0.0187655 
100 1:-0.484463 2:-0.0164163 
100 1:-0.486055 2:-0.0182698 
100 1:-0.493512 2:-0.0238674 
100 1:-0.490866 2:0.00933536 
100 1:-0.480556 2:0.0176985 
100 1:-0.482733 2:0.0245352 
100 1:-0.488936 2:0.0229806 
100 1:-0.494889 2:0.00786413 
100 1:-0.501635 2:0.00911824 
100 1:-0.499404 2:0.00578061 
100 1:-0.494344 2:-0.00604212 
100 1:-0.500979 2:-0.0286615 
100 1:-0.496991 2:-0.0391212 
100 1:-0.490949 2:-0.030535 
100 1:-0.493993 2:-0.0236573 
100 1:-0.49275 2:-0.0229935 
100 1:-0.485907 2:-0.0155571 
100 1:-0.494552 2:-0.0180862 
100 1:-0.496242 2:-0.0245778 
100 1:-0.49958 2:-0.0189194 
100 1:-0.492169 2:0.00987049 
100 1:-0.493961 2:-0.0234119 
100 1:-0.493994 2:-0.0297593 
100 1:-0.4919 2:-0.0298659 
100 1:0.394484 2:0.00607586 
100 1:-0.467846 2:0.0150683 
100 1:-0.458879 2:-0.0130158 
100 1:-0.460563 2:-0.0199045 
100 1:-0.454246 2:-0.00847876 
100 1:-0.459813 2:-0.0285059 
100 1:-0.44443 2:-0.0186288 
100 1:-0.470847 2:-0.00506294 
100 1:-0.449633 2:-0.00957147 
100 1:-0.474381 2:-0.00431045 
100 1:-0.462509 2:0.0112473 
100 1:-0.47327 2:0.0305596 
100 1:-0.470249 2:0.00311999 
100 1:-0.473417 2:0.000660128 
100 1:-0.484815 2:0.00768835 
100 1:-0.461549 2:-0.00641158 
100 1:-0.472831 2:-8.70132e-05 
100 1:-0.456879 2:-0.00975582 
100 1:-0.464732 2:-0.0159868 
100 1:-0.475426 2:-0.0199231 
100 1:-0.471025 2:-0.0244897 
100 1:-0.461825 2:-0.0231138 
100 1:-0.461715 2:0.0012902 
100 1:-0.461879 2:0.0116238 
100 1:-0.458362 2:0.00620564 
100 1:-0.454623 2:7.54985e-05 
100 1:-0.467462 2:-0.00580327 
100 1:-0.463328 2:0.0121883 
100 1:-0.483629 2:-0.00455735 
100 1:-0.477338 2:0.00414151 
100 1:-0.458713 2:0.000757863 
100 1:-0.463008 2:0.0125643 
100 1:-0.473484 2:0.0243099 
100 1:-0.472885 2:0.0253039 
100 1:-0.487681 2:0.024843 
100 1:-0.47657 2:0.0212973 
100 1:-0.480668 2:0.0270672 
100 1:-0.474593 2:0.031323 
100 1:-0.477713 2:0.0251966 
100 1:-0.481715 2:0.00621239 
100 1:-0.514604 2:0.00884858 
100 1:-0.483528 2:-0.00382841 
100 1:-0.496393 2:-0.0149034 
100 1:-0.508922 2:0.00630095 
100 1:-0.484588 2:-0.0148783 
100 1:-0.490089 2:-0.00579804 
100 1:-0.475403 2:0.00405343 
100 1:-0.473048 2:0.00584536 
100 1:-0.52217 2:0.0160022 
100 1:-0.468478 2:0.00442927 
100 1:-0.481329 2:0.00169316 
100 1:-0.506357 2:0.0159045 
100 1:-0.481513 2:-0.00569276 
100 1:-0.480506 2:-0.0165008 
100 1:-0.480871 2:-0.0134966 
100 1:-0.480785 2:-0.00770244 
100 1:-0.490094 2:0.00859741 
100 1:-0.476797 2:0.00123681 
100 1:-0.46677 2:0.0155594 
100 1:-0.463917 2:0.0105021 
100 1:-0.494171 2:-0.00550506 
100 1:-0.466961 2:0.0087342 
100 1:-0.500018 2:0.0115455 
100 1:-0.497292 2:0.0191177 
100 1:-0.462136 2:0.0121763 
100 1:-0.474987 2:0.0265105 
100 1:-0.50223 2:0.0282149 
100 1:-0.487389 2:0.0170173 
100 1:-0.487392 2:0.0209655 
100 1:-0.479921 2:0.0255572 
100 1:-0.482365 2:0.0325976 
100 1:-0.479186 2:0.0271881 
100 1:-0.503187 2:0.00866724 
100 1:-0.519051 2:0.000104592 
100 1:-0.512383 2:-0.00185068 
100 1:-0.517723 2:0.00639406 
100 1:-0.520476 2:0.013365 
100 1:-0.527496 2:0.0342583 
100 1:-0.504536 2:0.00879072 
100 1:-0.524264 2:0.0216352 
100 1:-0.529171 2:0.0185717 
100 1:-0.505801 2:-0.00547175 
100 1:-0.504862 2:-0.00944463 
100 1:-0.478888 2:0.0250771 
100 1:-0.461571 2:-0.00262498 
100 1:-0.468443 2:0.00280284 
100 1:-0.465948 2:-0.00806029 
100 1:-0.470394 2:-0.00583006 
100 1:-0.47581 2:-0.00586719 
100 1:-0.484684 2:0.00421659 
100 1:-0.475971 2:0.0215062 
100 1:-0.478146 2:0.00229914 
100 1:-0.490883 2:-0.0160069 
100 1:-0.488594 2:-0.0236601 
100 1:-0.492068 2:-0.0163434 
100 1:-0.509225 2:-0.00140084 
100 1:-0.497135 2:-0.0125286 
100 1:-0.508098 2:0.0102797 
100 1:-0.498611 2:0.00471815 
100 1:-0.504205 2:0.0317483 
100 1:-0.51681 2:0.0236532 
100 1:-0.490579 2:0.017742 
100 1:-0.486538 2:0.0490097 
100 1:-0.499733 2:0.000960576 
100 1:-0.488436 2:0.0424278 
100 1:-0.494065 2:0.015076 
100 1:-0.483409 2:0.021973 
100 1:-0.521157 2:0.0072884 
100 1:-0.519286 2:0.0154193 
100 1:-0.524695 2:0.0283129 
100 1:-0.527494 2:0.0446987 
100 1:-0.52171 2:0.0260903 
100 1:-0.52738 2:0.0423218 
100 1:-0.525592 2:0.0302436 
100 1:-0.517569 2:0.0390773 
100 1:-0.510382 2:0.0319365 
100 1:-0.508247 2:0.0291567 
100 1:-0.501538 2:0.0279162 
100 1:-0.498603 2:0.0431496 
100 1:-0.469793 2:-0.00792955 
100 1:-0.479736 2:-0.0176322 
100 1:-0.472947 2:-0.00841371 
100 1:-0.483469 2:0.00978816 
100 1:-0.476784 2:0.00129649 
100 1:-0.488298 2:-0.0189142 
100 1:-0.491888 2:-0.0256741 
100 1:-0.469962 2:-0.0112644 
100 1:-0.497901 2:0.00463455 
100 1:-0.488191 2:0.0309092 
100 1:-0.484315 2:0.0375153 
100 1:-0.488034 2:0.0298579 
100 1:-0.489188 2:0.0423898 
100 1:-0.486957 2:0.015528 
100 1:-0.480864 2:0.0261409 
100 1:-0.481352 2:0.0206241 
100 1:-0.481416 2:0.0273189 
100 1:-0.521159 2:0.00729627 
100 1:-0.530334 2:0.0425781 
100 1:-0.522151 2:0.0429999 
100 1:-0.519235 2:0.0410694 
100 1:-0.511196 2:0.0544543 
100 1:-0.510288 2:0.0585651 
100 1:-0.500791 2:0.0552612 
100 1:-0.496852 2:0.0660971 
100 1:-0.489432 2:0.030855 
100 1:-0.492608 2:0.0335225 
100 1:-0.492314 2:0.0102774 
100 1:-0.481916 2:-0.00653124 
100 1:-0.482992 2:0.0105384 
100 1:-0.480382 2:-0.00694153 
100 1:-0.464769 2:0.00571264 
100 1:-0.482255 2:-0.0136799 
100 1:-0.45848 2:0.00137429 
100 1:-0.490166 2:-0.0256504 
100 1:-0.481843 2:-0.00799982 
100 1:-0.482051 2:-0.0192914 
100 1:-0.45711 2:-0.00022774 
100 1:-0.470866 2:0.00487975 
100 1:-0.46782 2:0.0245588 
100 1:-0.466488 2:0.0178508 
100 1:-0.467521 2:0.0241622 
100 1:-0.474398 2:0.0216961 
100 1:-0.478105 2:0.0356065 
100 1:-0.472329 2:0.0257634 
100 1:-0.478169 2:0.0358746 
100 1:-0.521467 2:0.0531433 
100 1:-0.516886 2:0.0395477 
100 1:-0.514093 2:0.0578454 
100 1:-0.508061 2:0.0562542 
100 1:-0.514411 2:0.0588847 
100 1:-0.499534 2:0.0581366 
100 1:-0.508049 2:0.0760566 
100 1:-0.501693 2:0.0659809 
100 1:-0.493982 2:0.0589081 
100 1:-0.489171 2:0.0335382 
100 1:-0.482639 2:0.039732 
100 1:-0.487682 2:0.0246091 
100 1:-0.469617 2:0.0127044 
100 1:-0.465003 2:0.00914091 
100 1:-0.474915 2:-0.0188265 
100 1:-0.465644 2:-0.0135505 
100 1:-0.473275 2:-0.0184314 
100 1:-0.467493 2:-0.0118161 
100 1:-0.461356 2:-0.00489515 
100 1:-0.457171 2:0.0021152 
100 1:-0.45662 2:0.00722264 
100 1:-0.50868 2:0.0703778 
100 1:-0.510778 2:0.0761949 
100 1:-0.500862 2:0.0714213 
100 1:-0.50628 2:0.0650394 
100 1:-0.502025 2:0.064175 
100 1:-0.496482 2:0.0652756 
100 1:-0.49057 2:0.0330964 
100 1:-0.484575 2:0.0391182 
100 1:-0.484876 2:0.0276624 
100 1:-0.469583 2:0.0182177 
100 1:-0.461664 2:-0.0037295 
100 1:-0.458509 2:-0.00136697 
100 1:-0.465317 2:0.00204646 
100 1:-0.466421 2:0.00526515 
100 1:-0.461593 2:0.00132395 
100 1:-0.467527 2:0.0241647 
100 1:-0.475295 2:0.0146899 
100 1:-0.469104 2:0.00844311 
100 1:-0.462897 2:0.00611039 
100 1:-0.460651 2:0.00914838 
100 1:-0.460124 2:0.00526105 
100 1:0.394262 2:-0.0167779 
100 1:-0.474463 2:0.0240964 
100 1:-0.464373 2:0.0193186 
100 1:-0.469801 2:0.0264707 
100 1:-0.459893 2:0.0106507 
100 1:-0.471731 2:0.0228522 
100 1:-0.454124 2:0.00257909 
100 1:-0.459447 2:0.00585187 
100 1:-0.45989 2:0.0106479 
100 1:-0.470821 2:0.0162786 
100 1:-0.442597 2:-0.0187968 
100 1:-0.44787 2:-0.00879117 
100 1:-0.454715 2:-0.0192721 
100 1:-0.465443 2:-0.0126628 
100 1:-0.462179 2:-0.020519 
100 1:-0.470865 2:-0.00594696 
100 1:-0.462039 2:-0.0163252 
100 1:-0.467384 2:-0.0108422 
100 1:-0.467658 2:-0.00625535 
100 1:-0.46887 2:-0.0138466 
100 1:-0.460019 2:-0.00118939 
100 1:-0.473426 2:0.0310161 
100 1:-0.477447 2:0.0232483 
100 1:-0.481028 2:0.0210652 
100 1:-0.493783 2:0.0267229 
100 1:-0.465411 2:0.0128288 
100 1:-0.471385 2:0.0210281 
100 1:-0.492763 2:0.0246015 
100 1:-0.502059 2:0.012604 
100 1:-0.478717 2:0.0133279 
100 1:-0.486354 2:0.0213033 
100 1:-0.454136 2:-0.00833515 
100 1:-0.475987 2:-0.00357721 
100 1:-0.511391 2:0.00310337 
100 1:-0.480039 2:-0.0173434 
100 1:-0.471325 2:-0.0239762 
100 1:-0.447293 2:-0.0193914 
100 1:-0.471022 2:-0.0290896 
100 1:-0.451324 2:-0.0142117 
100 1:-0.445236 2:-0.0235618 
100 1:-0.456608 2:-0.0214718 
100 1:-0.493244 2:-0.0252352 
100 1:-0.461296 2:-0.00564998 
100 1:-0.471534 2:0.0163495 
100 1:-0.495168 2:-0.0113421 
100 1:-0.474421 2:0.025376 
100 1:-0.493696 2:0.0215615 
100 1:-0.481949 2:0.0405733 
100 1:-0.511367 2:0.0337479 
100 1:-0.466206 2:0.0152727 
100 1:-0.47458 2:0.0215784 
100 1:-0.503437 2:0.0144435 
100 1:-0.482579 2:0.00440226 
100 1:-0.488511 2:0.0194856 
100 1:-0.471065 2:0.00775531 
100 1:-0.472205 2:0.0136033 
100 1:-0.479609 2:0.0145349 
100 1:-0.4497 2:-0.00874487 
100 1:-0.449475 2:-0.0193657 
100 1:-0.460336 2:-0.0154058 
100 1:-0.457456 2:-0.00792337 
100 1:-0.484883 2:-0.0170999 
100 1:-0.465446 2:-0.0126609 
100 1:-0.456105 2:-0.0201342 
100 1:-0.470823 2:-0.0118952 
100 1:-0.470859 2:-0.00594704 
100 1:-0.472752 2:-0.0132248 
100 1:-0.468104 2:-0.00181575 
100 1:-0.462334 2:-0.00316345 
100 1:-0.465582 2:-0.00773193 
100 1:-0.461092 2:-0.00642083 
100 1:-0.464984 2:-0.00673361 
100 1:-0.491075 2:0.0308266 
100 1:-0.494598 2:0.0413267 
100 1:-0.494598 2:0.0413278 
100 1:-0.494901 2:0.030539 
100 1:-0.50022 2:0.0088506 
100 1:-0.475252 2:0.0230321 
100 1:-0.485418 2:0.0263591 
100 1:-0.496104 2:0.0255681 
100 1:-0.497764 2:0.00737312 
100 1:-0.511143 2:0.0213226 
100 1:-0.510691 2:0.0200676 
100 1:-0.505533 2:0.0210177 
100 1:-0.509057 2:0.018274 
100 1:-0.515541 2:-0.0042681 
100 1:-0.50691 2:-0.00904997 
100 1:-0.509017 2:-0.0107527 
100 1:-0.507573 2:-0.00901194 
100 1:-0.523451 2:-0.0174087 
100 1:-0.499809 2:-0.0169258 
100 1:-0.503082 2:-0.0261262 
100 1:-0.500129 2:0.00052368 
100 1:-0.49911 2:-0.0133348 
100 1:-0.506441 2:0.00562227 
100 1:-0.508112 2:0.0291816 
100 1:-0.501243 2:0.0154625 
100 1:-0.49463 2:0.0172304 
100 1:-0.488931 2:0.0415041 
100 1:-0.482252 2:0.0354464 
100 1:-0.477902 2:0.0311132 
100 1:-0.476625 2:0.0199474 
100 1:-0.487089 2:0.011397 
100 1:-0.487771 2:0.00248384 
100 1:-0.452996 2:4.84653e-05 
100 1:-0.4581 2:-0.00247642 
100 1:-0.469854 2:-0.00797416 
100 1:-0.486923 2:-0.00835492 
100 1:-0.464897 2:-0.0132281 
100 1:-0.47766 2:-0.0176845 
100 1:-0.470248 2:-0.00931178 
100 1:-0.489024 2:-0.0122557 
100 1:-0.477161 2:0.00317285 
100 1:-0.474832 2:-0.00729885 
100 1:-0.474273 2:-0.00795807 
100 1:-0.464196 2:0.00324298 
100 1:-0.463483 2:0.00934137 
100 1:-0.469896 2:0.0219971 
100 1:-0.460651 2:-0.00555627 
100 1:-0.461324 2:-0.00286833 
100 1:-0.462064 2:0.00493266 
100 1:-0.455115 2:-0.00322215 
100 1:-0.461213 2:0.00755917 
100 1:-0.487751 2:0.0429853 
100 1:-0.488949 2:0.00982255 
100 1:-0.480775 2:0.00542218 
100 1:-0.49577 2:0.0202023 
100 1:-0.503689 2:0.000125328 
100 1:-0.486133 2:0.00151115 
100 1:-0.505841 2:0.0154552 
100 1:-0.505424 2:0.0034255 
100 1:-0.470342 2:0.015024 
100 1:-0.511954 2:0.00562558 
100 1:-0.508624 2:0.00606261 
100 1:-0.502686 2:0.0124277 
100 1:-0.503244 2:0.000325688 
100 1:-0.515384 2:-0.0210365 
100 1:-0.512388 2:-0.0140346 
100 1:-0.524283 2:-0.00611116 
100 1:-0.511641 2:-0.019095 
100 1:-0.508808 2:-0.00765262 
100 1:-0.504066 2:0.00609093 
100 1:-0.50967 2:0.0040852 
100 1:-0.502774 2:0.00788917 
100 1:-0.499391 2:0.00784452 
100 1:-0.490244 2:0.0282432 
100 1:-0.500771 2:0.0154039 
100 1:-0.498313 2:0.0102657 
100 1:-0.501423 2:0.0187148 
100 1:-0.496697 2:0.0344149 
100 1:-0.478146 2:0.0295953 
100 1:-0.495885 2:0.030501 
100 1:-0.503304 2:0.0305871 
100 1:-0.478243 2:0.036082 
100 1:-0.483553 2:0.0182006 
100 1:-0.479754 2:-0.00332839 
100 1:-0.496585 2:0.00822195 
100 1:-0.483812 2:-0.00241709 
100 1:-0.478811 2:0.000744968 
100 1:-0.48214 2:-0.00628039 
100 1:-0.486376 2:0.000821319 
100 1:-0.465244 2:0.000634823 
100 1:-0.473775 2:0.0180172 
100 1:-0.470242 2:-0.0174643 
100 1:-0.462554 2:0.00983685 
100 1:-0.466827 2:0.0226018 
100 1:-0.469861 2:0.0220621 
100 1:-0.480183 2:-0.0204704 
100 1:-0.483595 2:0.00525313 
100 1:-0.469659 2:0.0101543 
100 1:-0.487602 2:0.00896989 
100 1:-0.497969 2:0.000261348 
100 1:-0.481363 2:0.019775 
100 1:-0.486447 2:-0.00221614 
100 1:-0.490883 2:0.0181623 
100 1:-0.487041 2:-0.00402906 
100 1:-0.508202 2:-0.012662 
100 1:-0.513347 2:-0.0220296 
100 1:-0.511891 2:-0.008033 
100 1:-0.495519 2:-0.00672687 
100 1:-0.472094 2:-0.00426576 
100 1:-0.487868 2:0.00913784 
100 1:-0.495674 2:0.0163878 
100 1:-0.506933 2:-0.0151494 
100 1:-0.504414 2:-0.00414128 
100 1:-0.483738 2:0.0200514 
100 1:-0.483248 2:0.0233724 
100 1:-0.480705 2:0.0429618 
100 1:-0.486504 2:0.0381591 
100 1:-0.482742 2:0.0432825 
100 1:-0.473679 2:0.00410264 
100 1:-0.479015 2:0.0124771 
100 1:-0.480713 2:-0.00530332 
100 1:-0.482371 2:0.00682704 
100 1:-0.469483 2:-0.00415442 
100 1:-0.47442 2:0.0190575 
100 1:-0.491674 2:0.000400174 
100 1:-0.461068 2:0.00741655 
100 1:-0.475883 2:0.0124298 
100 1:-0.46139 2:0.00989394 
100 1:-0.459546 2:-0.00356292 
100 1:-0.471247 2:0.00783231 
100 1:-0.486025 2:0.00358769 
100 1:-0.464063 2:-0.0166518 
100 1:-0.484706 2:-0.0217167 
100 1:-0.485907 2:0.00226756 
100 1:-0.480332 2:-0.0306523 
100 1:-0.480245 2:-0.0295641 
100 1:-0.489137 2:-0.0185441 
100 1:-0.486939 2:0.0128139 
100 1:-0.489131 2:0.0110879 
100 1:-0.493242 2:-0.000829855 
100 1:-0.501088 2:-0.00480681 
100 1:-0.503588 2:-0.00392667 
100 1:-0.496562 2:-0.0130823 
100 1:-0.495268 2:-0.0198417 
100 1:-0.488384 2:-0.0221413 
100 1:-0.490847 2:-0.0211364 
100 1:-0.488435 2:-0.0234809 
100 1:-0.484751 2:-0.00861594 
100 1:-0.4797 2:-0.013403 
100 1:-0.483758 2:-0.0113019 
100 1:-0.485611 2:0.010905 
100 1:-0.480587 2:0.0308925 
100 1:-0.472325 2:0.0233419 
100 1:-0.482483 2:0.0173472 
100 1:-0.48804 2:0.0178333 
100 1:-0.473976 2:0.0238525 
100 1:-0.489104 2:0.0340416 
100 1:-0.488894 2:0.0245651 
100 1:-0.463968 2:-0.00987213 
100 1:-0.485441 2:-0.0164823 
100 1:-0.491669 2:0.00551987 
100 1:-0.497864 2:0.00970358 
100 1:-0.488649 2:0.00287861 
100 1:-0.488065 2:-0.0014387 
100 1:-0.495169 2:0.000910997 
100 1:-0.488442 2:-0.0092474 
100 1:-0.490346 2:-0.0183596 
100 1:-0.479906 2:-0.0332657 
100 1:-0.487912 2:-0.0229874 
100 1:-0.487364 2:0.013404 
100 1:-0.481392 2:-0.0123516 
100 1:-0.490109 2:-0.0115899 
100 1:-0.472005 2:-0.00957344 
100 1:-0.486939 2:-0.00788208 
100 1:-0.475725 2:-0.0110272 
100 1:-0.468815 2:-0.00825786 
100 1:-0.477961 2:-0.0130956 
100 1:-0.469559 2:-0.00467333 
100 1:-0.471057 2:-0.000902836 
100 1:-0.475863 2:0.0116864 
100 1:-0.476305 2:0.0304153 
100 1:-0.489888 2:0.0117289 
100 1:-0.481326 2:0.0157575 
100 1:-0.470505 2:0.0209461 
100 1:-0.479055 2:0.0327429 
100 1:-0.472889 2:0.0302829 
100 1:-0.480853 2:0.0379534 
100 1:-0.472354 2:0.0219793 
100 1:-0.483793 2:0.0339739 
100 1:-0.486461 2:-0.00531715 
100 1:-0.490298 2:-0.00725718 
100 1:-0.497763 2:-0.0134437 
100 1:-0.495085 2:0.00037758 
100 1:-0.49535 2:0.00412651 
100 1:-0.492987 2:-0.0030192 
100 1:-0.494325 2:-0.00561226 
100 1:-0.496509 2:0.000460476 
100 1:-0.488716 2:-0.00455261 
100 1:-0.500372 2:-0.000541492 
100 1:-0.493096 2:0.00391014 
100 1:-0.491776 2:0.00155231 
100 1:-0.488216 2:-0.00481143 
100 1:-0.490661 2:-0.00226979 
100 1:-0.490416 2:0.00240872 
100 1:-0.472484 2:-0.00444786 
100 1:-0.468412 2:-0.0113232 
100 1:-0.475303 2:-0.00357184 
100 1:-0.470312 2:0.000434416 
100 1:-0.480677 2:-0.00453561 
100 1:-0.473511 2:-0.000726367 
100 1:-0.481501 2:-0.00273552 
100 1:-0.477377 2:0.00109678 
100 1:-0.483732 2:0.00322888 
100 1:-0.476055 2:0.0187229 
100 1:-0.481167 2:0.0133808 
100 1:-0.477234 2:0.0149053 
100 1:-0.488915 2:0.0166231 
100 1:-0.479226 2:0.0283568 
100 1:-0.47864 2:0.0255925 
100 1:-0.478718 2:0.0307394 
100 1:-0.487637 2:0.00987768 
100 1:-0.484141 2:0.00248434 
100 1:-0.477945 2:-0.00932708 
100 1:-0.488775 2:-0.0106357 
100 1:-0.487346 2:0.00151286 
100 1:-0.493422 2:0.00461041 
100 1:-0.484812 2:0.00313907 
100 1:-0.497981 2:-0.00025138 
100 1:-0.480333 2:0.00617364 
100 1:-0.493905 2:-0.00758723 
100 1:-0.479178 2:-0.00188619 
100 1:-0.474417 2:-0.0109504 
100 1:-0.47303 2:-0.0109532 
100 1:-0.473403 2:-0.00418555 
100 1:-0.487444 2:-0.00125873 
100 1:-0.475253 2:0.00854672 
100 1:-0.47042 2:0.0140673 
100 1:-0.481732 2:0.0204838 
100 1:-0.479305 2:0.0169894 
100 1:-0.488105 2:0.0165595 
100 1:-0.489665 2:0.0340373 
100 1:-0.479967 2:0.0313959 
100 1:-0.490702 2:0.00711487 
100 1:-0.490726 2:-0.00094318 
100 1:-0.488191 2:0.00612062 
100 1:-0.491559 2:0.00376566 
100 1:-0.488221 2:0.00152442 
100 1:-0.488421 2:0.00513374 
100 1:-0.48805 2:0.00561797 
100 1:-0.482172 2:0.00313622 
100 1:-0.484786 2:0.0112609 
100 1:-0.491379 2:0.0167137 
100 1:-0.488652 2:0.0221774 
100 1:-0.484419 2:0.00479392 
100 1:-0.481048 2:0.00302792 
100 1:-0.488528 2:0.00839282 
100 1:-0.481921 2:0.0194296 
100 1:-0.487847 2:0.0224486 
100 1:-0.484841 2:0.0249545 
100 1:-0.482082 2:0.00207411 
100 1:-0.483571 2:0.00412802 
100 1:0.389158 2:-0.0242295 
100 1:-0.452032 2:-0.0112356 
100 1:-0.451409 2:-0.00294876 
100 1:-0.448041 2:-0.0175422 
100 1:-0.445883 2:-0.0133918 
100 1:-0.4479 2:-0.0112323 
100 1:-0.448784 2:-0.0171605 
100 1:-0.463415 2:0.0155826 
100 1:-0.46829 2:0.0195869 
100 1:-0.466463 2:0.0213256 
100 1:-0.460731 2:0.00370238 
100 1:-0.457154 2:-0.00220634 
100 1:-0.448842 2:-0.00905362 
100 1:-0.46206 2:0.0146345 
100 1:-0.445281 2:-0.0147271 
100 1:-0.453949 2:-0.00637748 
100 1:-0.448378 2:-0.0159908 
100 1:-0.451265 2:-0.0197399 
100 1:-0.452316 2:-0.014163 
100 1:-0.450753 2:-0.00526747 
100 1:-0.468788 2:-0.0108715 
100 1:-0.47409 2:0.00880918 
100 1:-0.483962 2:0.0402116 
100 1:-0.457495 2:0.00129477 
100 1:-0.477452 2:-0.010785 
100 1:-0.468984 2:-0.0187735 
100 1:-0.465615 2:0.00183593 
100 1:-0.448631 2:-0.0150805 
100 1:-0.453757 2:-0.00870973 
100 1:-0.460961 2:-0.0225566 
100 1:-0.45236 2:-0.000565301 
100 1:-0.468984 2:0.0185221 
100 1:-0.465282 2:0.018983 
100 1:-0.470685 2:0.0163857 
100 1:-0.469908 2:0.0216293 
100 1:-0.488353 2:0.035303 
100 1:-0.462063 2:0.0155345 
100 1:-0.463569 2:0.00968819 
100 1:-0.466862 2:0.0157537 
100 1:-0.449067 2:-0.01012 
100 1:-0.455783 2:-0.00782919 
100 1:-0.466999 2:0.0110446 
100 1:-0.468496 2:-0.0108806 
100 1:-0.490165 2:-0.00374566 
100 1:-0.449158 2:-0.0310415 
100 1:-0.478725 2:-0.0251926 
100 1:-0.485177 2:-0.000829796 
100 1:-0.462559 2:0.00385067 
100 1:-0.477697 2:-0.000929852 
100 1:-0.464047 2:-0.00727009 
100 1:-0.468708 2:-0.000507539 
100 1:-0.451104 2:-0.0119825 
100 1:-0.461961 2:-0.0173094 
100 1:-0.457662 2:-0.0159378 
100 1:-0.46798 2:-0.0142834 
100 1:-0.487458 2:-0.0179214 
100 1:-0.475546 2:0.0185244 
100 1:-0.490906 2:0.0461965 
100 1:-0.486633 2:0.0428083 
100 1:-0.477918 2:0.00153602 
100 1:-0.478954 2:0.0304727 
100 1:-0.479263 2:0.0211639 
100 1:-0.475159 2:0.0126576 
100 1:-0.455616 2:-0.00364003 
100 1:-0.466302 2:0.00672334 
100 1:-0.46314 2:0.00337136 
100 1:-0.468104 2:0.000103448 
100 1:-0.453864 2:-0.00345028 
100 1:-0.449927 2:-0.023275 
100 1:-0.462746 2:-0.0112798 
100 1:-0.456954 2:-0.0011952 
100 1:-0.461512 2:0.00421658 
100 1:-0.477087 2:0.00492881 
100 1:-0.46755 2:0.021194 
100 1:-0.473763 2:0.0239841 
100 1:-0.48144 2:0.0131373 
100 1:-0.471072 2:0.0179537 
100 1:-0.470584 2:0.0278518 
100 1:-0.473607 2:0.0218389 
100 1:-0.488857 2:0.0246748 
100 1:-0.482586 2:0.0153819 
100 1:-0.492733 2:0.0137948 
100 1:-0.474164 2:0.00511384 
100 1:-0.488063 2:0.00081173 
100 1:-0.484665 2:0.00340307 
100 1:-0.482338 2:-0.0235263 
100 1:-0.483667 2:0.00890131 
100 1:-0.481932 2:-0.00240182 
100 1:-0.495172 2:-0.0100515 
100 1:-0.503476 2:-0.043292 
100 1:-0.505209 2:-0.0271705 
100 1:-0.501198 2:-0.0318411 
100 1:-0.47197 2:-0.0228846 
100 1:-0.503515 2:-0.0250636 
100 1:-0.501614 2:-0.0112379 
100 1:-0.4739 2:-0.0225389 
100 1:-0.496309 2:-0.0180262 
100 1:-0.505623 2:-0.00114955 
100 1:-0.486152 2:-0.00770457 
100 1:-0.479612 2:0.00494154 
100 1:-0.484086 2:0.00472955 
100 1:-0.485045 2:0.0232463 
100 1:-0.486973 2:0.0350783 
100 1:-0.477067 2:0.0374026 
100 1:-0.474125 2:0.0275167 
100 1:-0.481708 2:0.0277869 
100 1:-0.468789 2:0.0110958 
100 1:-0.474381 2:0.0169069 
100 1:-0.464064 2:0.00280257 
100 1:-0.475219 2:-0.00323264 
100 1:-0.466797 2:-0.00496429 
100 1:-0.48656 2:-0.0108494 
100 1:-0.465614 2:-0.0079436 
100 1:-0.461779 2:-0.00307949 
100 1:-0.480669 2:-0.000789134 
100 1:-0.468137 2:-0.0169366 
100 1:-0.485681 2:-0.00981375 
100 1:-0.461359 2:0.00229818 
100 1:-0.478666 2:-0.000158523 
100 1:-0.483733 2:0.0144463 
100 1:-0.47322 2:0.0283347 
100 1:-0.479054 2:0.0195006 
100 1:-0.478041 2:0.0246672 
100 1:-0.470862 2:0.0165556 
100 1:-0.491195 2:0.0163974 
100 1:-0.493117 2:0.00923561 
100 1:-0.496544 2:0.0130309 
100 1:-0.496103 2:0.00815806 
100 1:-0.494405 2:0.0100015 
100 1:-0.496307 2:0.0194972 
100 1:-0.490143 2:0.0136443 
100 1:-0.49584 2:0.0148191 
100 1:-0.502311 2:0.0143288 
100 1:-0.511263 2:-0.0190248 
100 1:-0.489361 2:-0.0344636 
100 1:-0.504282 2:-0.0325135 
100 1:-0.514797 2:-0.0124784 
100 1:-0.462095 2:0.00294614 
100 1:-0.460067 2:0.0118826 
100 1:-0.469019 2:0.0070406 
100 1:-0.470487 2:0.0173782 
100 1:-0.46886 2:0.0236449 
100 1:-0.46429 2:0.0151595 
100 1:-0.472514 2:0.0202026 
100 1:-0.477935 2:0.0342064 
100 1:-0.475573 2:-0.00390696 
100 1:-0.477507 2:0.00062189 
100 1:-0.476033 2:-0.0181772 
100 1:-0.490564 2:-0.00919464 
100 1:-0.493108 2:-0.00272388 
100 1:-0.486313 2:-0.0100946 
100 1:-0.488893 2:-0.012069 
100 1:-0.478021 2:-0.00895451 
100 1:-0.48183 2:-0.0234539 
100 1:-0.482526 2:-0.0029436 
100 1:-0.473126 2:-0.0201241 
100 1:-0.487876 2:-0.010206 
100 1:-0.471841 2:0.0165612 
100 1:-0.464822 2:-0.00771124 
100 1:-0.483898 2:0.00606533 
100 1:-0.495702 2:0.00720335 
100 1:-0.484379 2:0.00756199 
100 1:-0.462635 2:-0.00882605 
100 1:-0.496081 2:0.0165334 
100 1:-0.487987 2:0.0203227 
100 1:-0.505593 2:0.0172105 
100 1:-0.480974 2:0.0162755 
100 1:-0.490096 2:-0.00234924 
100 1:-0.471255 2:0.00192449 
100 1:-0.453981 2:-0.00668123 
100 1:-0.489716 2:-0.0187999 
100 1:-0.478075 2:-0.000843892 
100 1:-0.486384 2:-0.0320563 
100 1:-0.464119 2:-0.0115789 
100 1:-0.468871 2:0.00515243 
100 1:-0.474815 2:0.0294589 
100 1:-0.482301 2:0.00422414 
100 1:-0.474577 2:0.0144741 
100 1:-0.484711 2:0.00762257 
100 1:-0.474874 2:0.0341584 
100 1:-0.471663 2:0.0277474 
100 1:-0.483065 2:0.0145711 
100 1:-0.473684 2:-0.027505 
100 1:-0.487233 2:-0.00319685 
100 1:-0.483286 2:-0.0118673 
100 1:-0.485312 2:-0.0260052 
100 1:-0.475564 2:-0.00233062 
100 1:-0.476224 2:-0.0122117 
100 1:-0.484134 2:-0.014403 
100 1:-0.486468 2:-0.00775835 
100 1:-0.484551 2:-0.0085604 
100 1:-0.484108 2:-0.0153384 
100 1:-0.488163 2:-0.010637 
100 1:-0.482437 2:-0.0172658 
100 1:-0.488968 2:-0.0141676 
100 1:-0.479653 2:-0.00492128 
100 1:-0.487136 2:-0.00735237 
100 1:-0.462442 2:-0.0128093 
100 1:-0.466172 2:-0.0140672 
100 1:-0.46046 2:-0.00776074 
100 1:-0.461496 2:0.00475436 
100 1:-0.4611 2:-0.001072 
100 1:-0.45452 2:-0.00774386 
100 1:-0.460424 2:0.0120406 
100 1:-0.465416 2:0.0135226 
100 1:-0.463429 2:0.0142943 
100 1:-0.465634 2:0.00831431 
100 1:-0.46667 2:0.00718349 
100 1:-0.467913 2:0.00476995 
100 1:-0.462029 2:0.00337258 
100 1:-0.476714 2:0.0101399 
100 1:-0.471322 2:0.0141405 
100 1:-0.46837 2:0.0122219 
100 1:-0.466453 2:0.0045635 
100 1:-0.461236 2:0.00230833 
100 1:-0.471819 2:0.00465044 
100 1:-0.465473 2:-0.000519966 
100 1:-0.477368 2:0.00155592 
100 1:-0.48454 2:0.000668845 
100 1:-0.486301 2:-0.00601484 
100 1:-0.474548 2:-0.00477356 
100 1:-0.475676 2:-0.00634518 
100 1:-0.475889 2:-0.0112908 
100 1:-0.490703 2:-0.00923251 
100 1:-0.470393 2:-0.011953 
100 1:-0.473023 2:0.00466742 
100 1:-0.472589 2:0.00269995 
100 1:-0.481869 2:-0.00931286 
100 1:-0.473164 2:-0.00335392 
100 1:-0.481475 2:-0.00738126 
100 1:-0.465835 2:-0.00307068 
100 1:-0.460216 2:0.00265239 
100 1:-0.454955 2:0.00240573 
100 1:-0.447434 2:-0.00864004 
100 1:-0.463769 2:0.0113998 
100 1:-0.465283 2:0.00121004 
100 1:-0.4663 2:-0.00164745 
100 1:-0.471832 2:0.00789593 
100 1:-0.461048 2:0.0142655 
100 1:-0.459318 2:0.00472537 
100 1:-0.469941 2:-0.0124103 
100 1:-0.471817 2:-0.0190857 
100 1:-0.489152 2:-0.00938398 
100 1:-0.470844 2:-0.0090973 
100 1:-0.470547 2:-0.00543081 
100 1:-0.471538 2:-0.00469507 
100 1:-0.46914 2:-0.00715069 
100 1:-0.468401 2:-0.00665712 
100 1:-0.467424 2:-0.00204418 
100 1:-0.452375 2:-0.00520026 
100 1:-0.449018 2:-0.00853172 
100 1:-0.450772 2:-0.00369854 
100 1:-0.455455 2:0.00554154 
100 1:-0.453647 2:-0.0019195 
100 1:-0.46376 2:0.00464351 
100 1:-0.463574 2:0.0143487 
100 1:-0.476477 2:-0.00265931 
100 1:-0.475709 2:-0.00383865 
100 1:-0.472851 2:-0.00738736 
100 1:-0.467452 2:-0.00856432 
100 1:-0.469182 2:-0.00522625 
100 1:-0.464787 2:-0.00579347 
100 1:-0.463876 2:-0.00452021 
100 1:-0.468927 2:0.00114649 
100 1:-0.457333 2:-0.010926 
100 1:-0.47934 2:-0.00183481 
100 1:-0.478587 2:0.00122712 
100 1:-0.472795 2:-0.000499705 
100 1:-0.463035 2:-0.0102869 
100 1:-0.456282 2:-0.00658841 
100 1:-0.459107 2:-0.00927389 
100 1:-0.481245 2:-0.00105981 
100 1:-0.460822 2:-0.00321702 
100 1:0.403507 2:-0.0134239 
100 1:-0.450243 2:-0.0237336 
100 1:-0.452331 2:-0.0296182 
100 1:-0.455527 2:-0.0254267 
100 1:-0.453736 2:-0.0260245 
100 1:-0.450233 2:-0.023731 
100 1:-0.455095 2:-0.0284614 
100 1:-0.455446 2:-0.0288496 
100 1:-0.459402 2:-0.0240121 
100 1:-0.4433 2:-0.0292037 
100 1:-0.456003 2:-0.0214222 
100 1:-0.461148 2:-0.0207583 
100 1:-0.456875 2:-0.0246564 
100 1:-0.450246 2:-0.0232573 
100 1:-0.452702 2:-0.0215652 
100 1:-0.462974 2:-0.0245924 
100 1:-0.455733 2:-0.0249184 
100 1:-0.44946 2:-0.0262069 
100 1:-0.459462 2:-0.0257722 
100 1:-0.456098 2:-0.0230115 
100 1:-0.458298 2:-0.0145833 
100 1:-0.450999 2:-0.00569652 
100 1:-0.464657 2:0.0160942 
100 1:-0.45779 2:-0.00350427 
100 1:-0.470319 2:-0.00995956 
100 1:-0.465714 2:-0.000909484 
100 1:-0.466193 2:0.00418382 
100 1:-0.46957 2:0.0127238 
100 1:-0.465713 2:0.0178905 
100 1:-0.471344 2:0.00289466 
100 1:-0.490592 2:0.0300977 
100 1:-0.475321 2:0.0264738 
100 1:-0.493697 2:0.0249756 
100 1:-0.487181 2:0.0357633 
100 1:-0.482276 2:0.0174631 
100 1:-0.476119 2:0.0199743 
100 1:-0.476923 2:0.0144977 
100 1:-0.486529 2:0.0150085 
100 1:-0.486509 2:0.0150089 
100 1:-0.4865 2:0.0152599 
100 1:-0.484664 2:0.0119405 
100 1:-0.489656 2:0.0323211 
100 1:-0.473516 2:0.0220614 
100 1:-0.485158 2:0.03418 
100 1:-0.476137 2:0.026707 
100 1:-0.48212 2:0.0319489 
100 1:-0.47926 2:0.0410821 
100 1:-0.446082 2:-0.0368489 
100 1:-0.446224 2:-0.0287527 
100 1:-0.44927 2:-0.029194 
100 1:-0.457371 2:-0.027266 
100 1:-0.443065 2:-0.0348858 
100 1:-0.455095 2:-0.0284625 
100 1:-0.447037 2:-0.0323178 
100 1:-0.456881 2:-0.0210647 
100 1:-0.457599 2:-0.018975 
100 1:-0.447998 2:-0.0311894 
100 1:-0.458584 2:-0.0284573 
100 1:-0.457237 2:-0.0260347 
100 1:-0.460997 2:-0.0308799 
100 1:-0.471472 2:-0.0419203 
100 1:-0.457465 2:-0.0216154 
100 1:-0.465847 2:-0.016573 
100 1:-0.46863 2:0.0125819 
100 1:-0.464348 2:0.00755363 
100 1:-0.482049 2:0.0119219 
100 1:-0.475836 2:0.0173808 
100 1:-0.468674 2:0.00749919 
100 1:-0.477702 2:0.0111459 
100 1:-0.47518 2:0.0222139 
100 1:-0.482741 2:0.0154731 
100 1:-0.459149 2:0.0035864 
100 1:-0.470643 2:0.0110275 
100 1:-0.466895 2:0.0160262 
100 1:-0.476848 2:-0.00940831 
100 1:-0.471533 2:-0.0058089 
100 1:-0.478101 2:-0.00224417 
100 1:-0.465989 2:0.00306152 
100 1:-0.470694 2:0.0110119 
100 1:-0.463252 2:0.00831408 
100 1:-0.481396 2:0.0149448 
100 1:-0.47087 2:0.0217395 
100 1:-0.480182 2:0.0285444 
100 1:-0.481649 2:0.017496 
100 1:-0.47929 2:0.0129791 
100 1:-0.476713 2:0.0202557 
100 1:-0.482999 2:0.0168656 
100 1:-0.486518 2:0.0150092 
100 1:-0.480891 2:0.0153975 
100 1:-0.485444 2:0.0281755 
100 1:-0.48964 2:0.0323257 
100 1:-0.485156 2:0.034182 
100 1:-0.476389 2:0.0361655 
100 1:-0.479264 2:0.0410838 
100 1:-0.481671 2:0.0305742 
100 1:-0.448432 2:-0.0272564 
100 1:-0.44578 2:-0.0321231 
100 1:-0.45177 2:-0.0299392 
100 1:-0.448631 2:-0.0367484 
100 1:-0.459897 2:-0.0517467 
100 1:-0.447406 2:-0.0393397 
100 1:-0.449266 2:-0.05705 
100 1:-0.46519 2:-0.0702422 
100 1:-0.457561 2:-0.048068 
100 1:-0.455043 2:-0.0631691 
100 1:-0.46832 2:-0.0597442 
100 1:-0.46377 2:-0.0268588 
100 1:-0.477428 2:-0.0610682 
100 1:-0.460834 2:-0.0410334 
100 1:-0.444028 2:-0.034253 
100 1:-0.473245 2:-0.0251119 
100 1:-0.459226 2:-0.024969 
100 1:-0.474112 2:-0.020862 
100 1:-0.471265 2:0.00692267 
100 1:-0.476028 2:0.0317153 
100 1:-0.474443 2:0.00720785 
100 1:-0.482904 2:0.0181515 
100 1:-0.46676 2:0.0143162 
100 1:-0.485125 2:-0.00296475 
100 1:-0.471731 2:-0.0111498 
100 1:-0.449325 2:-0.00973485 
100 1:-0.471925 2:0.00235775 
100 1:-0.449099 2:-0.0137943 
100 1:-0.47769 2:0.00367429 
100 1:-0.478462 2:0.00650803 
100 1:-0.46942 2:0.00288314 
100 1:-0.459262 2:-0.0113049 
100 1:-0.468109 2:-0.00224253 
100 1:-0.484871 2:0.00541519 
100 1:-0.466908 2:0.0208287 
100 1:-0.477063 2:0.0218579 
100 1:-0.481302 2:0.0161755 
100 1:-0.482404 2:0.0299531 
100 1:-0.486161 2:0.0110338 
100 1:-0.481742 2:0.00911737 
100 1:-0.489035 2:0.0324999 
100 1:-0.489652 2:0.0323271 
100 1:-0.489623 2:0.0350654 
100 1:-0.47441 2:0.0213495 
100 1:-0.488677 2:0.0331641 
100 1:-0.483271 2:0.0389072 
100 1:-0.483267 2:0.0389024 
100 1:-0.472815 2:-0.0645885 
100 1:-0.455841 2:-0.0489744 
100 1:-0.461045 2:-0.0700751 
100 1:-0.47233 2:-0.0751281 
100 1:-0.463608 2:-0.0631325 
100 1:-0.452534 2:-0.0585353 
100 1:-0.445393 2:-0.0405166 
100 1:-0.459782 2:-0.0482087 
100 1:-0.446185 2:-0.052492 
100 1:-0.461778 2:-0.0312472 
100 1:-0.471493 2:-0.0439486 
100 1:-0.43737 2:-0.0330384 
100 1:-0.465591 2:-0.0395854 
100 1:-0.474137 2:-0.0371679 
100 1:-0.451223 2:-0.0309725 
100 1:-0.442488 2:-0.0266116 
100 1:-0.468243 2:-0.0239539 
100 1:-0.450443 2:-0.00311403 
100 1:-0.468854 2:0.00952412 
100 1:-0.47376 2:0.0221207 
100 1:-0.473359 2:0.0322938 
100 1:-0.470255 2:0.00175037 
100 1:-0.451858 2:-0.0113255 
100 1:-0.450543 2:-0.0186969 
100 1:-0.454714 2:-0.0114374 
100 1:-0.437844 2:-0.026693 
100 1:-0.471212 2:0.0050113 
100 1:-0.480654 2:0.000507999 
100 1:-0.454639 2:-0.00304985 
100 1:-0.473281 2:0.0140724 
100 1:-0.481748 2:0.0118896 
100 1:-0.469738 2:-0.0677548 
100 1:-0.474439 2:-0.0543571 
100 1:-0.476541 2:-0.0530267 
100 1:-0.465487 2:-0.0610446 
100 1:-0.474744 2:-0.0528696 
100 1:-0.473423 2:-0.0397207 
100 1:-0.473158 2:-0.04029 
100 1:-0.478526 2:-0.0396369 
100 1:-0.475424 2:-0.0427313 
100 1:-0.476359 2:-0.0316776 
100 1:-0.473876 2:-0.0452813 
100 1:-0.480211 2:-0.0221504 
100 1:-0.474929 2:-0.024645 
100 1:-0.465814 2:0.00571081 
100 1:-0.475948 2:-0.0065454 
100 1:-0.471912 2:0.0110845 
100 1:-0.472753 2:0.0262615 
100 1:-0.439057 2:-0.0388427 
100 1:-0.435802 2:-0.036964 
100 1:-0.459758 2:-0.0283608 
100 1:-0.467409 2:-0.0145568 
100 1:-0.473379 2:0.000704199 
100 1:-0.464314 2:-0.00441721 
100 1:-0.46067 2:0.00523569 
100 1:-0.46147 2:-0.00959853 
100 1:-0.479571 2:-0.0137563 
100 1:-0.470044 2:-0.0204674 
100 1:-0.476347 2:-0.027857 
100 1:-0.473514 2:-0.0115936 
100 1:-0.474796 2:-0.0146582 
100 1:-0.474153 2:-0.0592348 
100 1:-0.472451 2:-0.0548411 
100 1:-0.479944 2:-0.0513814 
100 1:-0.47637 2:-0.0334729 
100 1:-0.489879 2:-0.0342719 
100 1:-0.48159 2:-0.0251807 
100 1:-0.467026 2:-0.0111925 
100 1:-0.487434 2:0.0191124 
100 1:-0.467071 2:0.0124908 
100 1:-0.483322 2:0.0218011 
100 1:-0.45725 2:-0.016704 
100 1:-0.462502 2:-0.0154974 
100 1:-0.458866 2:-0.0317185 
100 1:-0.473885 2:-0.0458802 
100 1:-0.474478 2:-0.0358857 
100 1:-0.467322 2:-0.0133365 
100 1:-0.48472 2:-0.0416001 
100 1:-0.466957 2:0.00228668 
100 1:-0.472376 2:-0.00974731 
100 1:-0.478832 2:-0.0110858 
100 1:-0.477829 2:-0.0122887 
100 1:-0.486304 2:-0.0137815 
100 1:-0.483869 2:-0.0212366 
100 1:-0.460733 2:-0.0529475 
100 1:-0.461162 2:-0.04618 
100 1:-0.465306 2:-0.0304781 
100 1:-0.46403 2:-0.0326357 
100 1:-0.462258 2:-0.0364627 
100 1:-0.46514 2:-0.0264111 
100 1:-0.482571 2:-0.0136644 
100 1:-0.47672 2:-0.0130354 
100 1:-0.488169 2:-0.00186847 
100 1:-0.485683 2:0.0292864 
100 1:-0.487228 2:0.0532852 
100 1:-0.491128 2:0.0504172 
100 1:-0.478798 2:0.0406577 
100 1:-0.488531 2:0.0363021 
100 1:-0.50029 2:0.0228459 
100 1:-0.464816 2:-0.0116539 
100 1:-0.496416 2:0.00492721 
100 1:-0.468655 2:-0.0314786 
100 1:-0.49202 2:-0.0260106 
100 1:-0.475494 2:-0.0279158 
100 1:-0.47476 2:-0.0541543 
100 1:-0.473401 2:-0.0421119 
100 1:-0.478472 2:-0.0461356 
100 1:-0.473465 2:-0.0436544 
100 1:-0.483635 2:-0.0302688 
100 1:-0.496975 2:-0.048413 
100 1:-0.485826 2:-0.0226295 
100 1:-0.489891 2:-0.0231927 
100 1:-0.488962 2:-0.0169165 
100 1:-0.497093 2:-0.0267653 
100 1:-0.497906 2:-0.0212863 
100 1:-0.493718 2:-0.0277482 
100 1:-0.497618 2:-0.0226646 
100 1:-0.496698 2:-0.0239893 
100 1:-0.479106 2:-0.0213631 
100 1:-0.495031 2:-0.026279 
100 1:-0.497442 2:-0.0265874 
100 1:-0.455786 2:-0.00480923 
100 1:-0.476454 2:-0.00682703 
100 1:-0.463508 2:-0.001691 
100 1:-0.4876 2:-0.00614629 
100 1:-0.464559 2:0.000511471 
100 1:-0.485356 2:0.0192472 
100 1:-0.482597 2:0.0391961 
100 1:-0.479659 2:0.031311 
100 1:-0.48613 2:0.0411712 
100 1:-0.494994 2:0.0350882 
100 1:-0.505765 2:0.0196962 
100 1:-0.51738 2:0.0151152 
100 1:-0.516972 2:0.00137673 
100 1:-0.518771 2:-0.0246061 
100 1:-0.522863 2:-0.0499926 
100 1:-0.517096 2:-0.0456903 
100 1:-0.475257 2:-0.0403143 
100 1:-0.508471 2:-0.0473132 
100 1:-0.508497 2:-0.0368039 
100 1:-0.500682 2:-0.039855 
100 1:-0.494711 2:-0.0275509 
100 1:-0.49616 2:-0.0231218 
100 1:-0.461669 2:-0.0165601 
100 1:-0.471206 2:-0.00700248 
100 1:-0.467076 2:-0.00038755 
100 1:-0.466921 2:-0.00229166 
100 1:-0.480638 2:0.0245385 
100 1:-0.472977 2:0.0132111 
100 1:-0.493152 2:0.0310376 
100 1:-0.500719 2:0.0166472 
100 1:-0.514369 2:0.0196566 
100 1:-0.521299 2:0.0106069 
100 1:-0.524733 2:-0.00401352 
100 1:-0.528639 2:-0.013374 
100 1:-0.52286 2:-0.049992 
100 1:-0.518416 2:-0.0377561 
100 1:-0.509841 2:-0.0387604 
100 1:-0.515561 2:-0.0356007 
100 1:-0.502871 2:-0.042504 
100 1:-0.500781 2:-0.0414568 
100 1:-0.493633 2:-0.0201602 
100 1:-0.491473 2:-0.0219005 
100 1:-0.504861 2:0.0101711 
100 1:-0.51361 2:0.00627556 
100 1:-0.538702 2:-0.0243496 
100 1:-0.521653 2:-0.0385082 
100 1:-0.487761 2:-0.0165572 
100 1:-0.509562 2:-0.0388797 
100 1:-0.490203 2:-0.00307222 
100 1:-0.515069 2:0.00491594 
100 1:-0.52526 2:-0.0368221 
100 1:-0.523877 2:-0.0367007 
100 1:-0.510587 2:-0.0380271 
100 1:0.389953 2:-0.0209563 
100 1:-0.479953 2:-0.0142186 
100 1:-0.481862 2:-0.0158176 
100 1:-0.499723 2:-0.0156169 
100 1:-0.498913 2:-0.0116324 
100 1:-0.479249 2:-0.0178082 
100 1:-0.480197 2:-0.0147288 
100 1:-0.485469 2:-0.0112332 
100 1:-0.47452 2:-0.0239283 
100 1:-0.480088 2:-0.0149897 
100 1:-0.465337 2:-0.0171322 
100 1:-0.460835 2:-0.0215673 
100 1:-0.478235 2:-0.0161412 
100 1:-0.445292 2:-0.0279779 
100 1:-0.450004 2:-0.0266984 
100 1:-0.460834 2:-0.0215685 
100 1:-0.452109 2:-0.0228575 
100 1:-0.464122 2:-0.0254327 
100 1:-0.438984 2:-0.0275826 
100 1:-0.473807 2:-0.02942 
100 1:-0.446995 2:-0.0229446 
100 1:-0.453069 2:-0.0249059 
100 1:-0.442314 2:-0.0177609 
100 1:-0.451895 2:-0.0131918 
100 1:-0.45408 2:-0.00364676 
100 1:-0.470147 2:0.00328348 
100 1:-0.447711 2:-0.0197057 
100 1:-0.445009 2:-0.0135819 
100 1:-0.455817 2:-0.0163017 
100 1:-0.461684 2:-0.0151628 
100 1:-0.45109 2:-0.0117955 
100 1:-0.459636 2:-0.01045 
100 1:-0.465563 2:0.00261268 
100 1:-0.471026 2:-0.00637792 
100 1:-0.465553 2:0.00260736 
100 1:-0.467667 2:0.00683462 
100 1:-0.465539 2:0.00261293 
100 1:-0.493012 2:-0.023673 
100 1:-0.506919 2:-0.00967986 
100 1:-0.504111 2:-0.00885553 
100 1:-0.502525 2:-0.0130271 
100 1:-0.496814 2:-0.0205165 
100 1:-0.519557 2:-0.0141227 
100 1:-0.466852 2:-0.0203279 
100 1:-0.482815 2:-0.013256 
100 1:-0.511996 2:-0.0167607 
100 1:-0.526159 2:-0.0213428 
100 1:-0.466145 2:-0.0227657 
100 1:-0.500148 2:-0.0258774 
100 1:-0.533508 2:-0.0296068 
100 1:-0.532057 2:-0.0176847 
100 1:-0.455662 2:-0.0307214 
100 1:-0.471515 2:-0.0342974 
100 1:-0.516812 2:-0.0257318 
100 1:-0.527368 2:-0.00670744 
100 1:-0.472158 2:-0.0253221 
100 1:-0.512572 2:-0.0177804 
100 1:-0.453853 2:-0.0194565 
100 1:-0.452701 2:-0.0287297 
100 1:-0.470354 2:-0.0138917 
100 1:-0.45508 2:-0.0241967 
100 1:-0.480019 2:-0.0217161 
100 1:-0.485709 2:-0.0088593 
100 1:-0.467928 2:0.00384614 
100 1:-0.457413 2:-0.0155454 
100 1:-0.47317 2:-0.0103672 
100 1:-0.461201 2:0.00715143 
100 1:-0.480069 2:0.0208362 
100 1:-0.474272 2:0.0338086 
100 1:-0.481529 2:0.0423567 
100 1:-0.495476 2:0.0547318 
100 1:-0.468835 2:0.00603779 
100 1:-0.45466 2:-0.0117696 
100 1:-0.467717 2:-0.0142683 
100 1:-0.467258 2:-0.012318 
100 1:-0.472681 2:-0.00165094 
100 1:-0.46177 2:-0.0120642 
100 1:-0.459255 2:-0.0213828 
100 1:-0.475036 2:-0.0247127 
100 1:-0.462922 2:-0.0126681 
100 1:-0.470992 2:-0.0132898 
100 1:-0.466379 2:-0.0026884 
100 1:-0.470074 2:-0.011709 
100 1:-0.470008 2:0.00453566 
100 1:-0.469692 2:0.0100533 
100 1:-0.474486 2:0.00550634 
100 1:-0.474235 2:0.00432323 
100 1:-0.507447 2:-0.00958576 
100 1:-0.511276 2:-6.91535e-05 
100 1:-0.505802 2:-0.0124571 
100 1:-0.50657 2:-0.0141682 
100 1:-0.503966 2:-0.0185203 
100 1:-0.514722 2:-0.0143852 
100 1:-0.520829 2:-0.00980992 
100 1:-0.496815 2:-0.0205181 
100 1:-0.521672 2:-0.0223844 
100 1:-0.516838 2:-0.0259596 
100 1:-0.533854 2:-0.0232979 
100 1:-0.528433 2:-0.0152625 
100 1:-0.514572 2:-0.00998359 
100 1:-0.501953 2:-0.014642 
100 1:-0.493485 2:-0.0076676 
100 1:-0.50177 2:0.00729756 
100 1:-0.483895 2:-0.0170096 
100 1:-0.476316 2:0.0179853 
100 1:-0.4766 2:0.0115307 
100 1:-0.492163 2:0.0352486 
100 1:-0.497115 2:0.0580474 
100 1:-0.503275 2:0.0745029 
100 1:-0.478445 2:0.0319915 
100 1:-0.49699 2:0.0602848 
100 1:-0.485857 2:0.0359281 
100 1:-0.477023 2:0.00748173 
100 1:-0.480728 2:0.0205065 
100 1:-0.470478 2:-0.0178164 
100 1:-0.468273 2:-0.00272107 
100 1:-0.473838 2:-0.014144 
100 1:-0.464804 2:-0.0126901 
100 1:-0.460648 2:-0.0163749 
100 1:-0.475087 2:-0.00816463 
100 1:-0.479498 2:-0.0249598 
100 1:-0.445393 2:-0.0160553 
100 1:-0.476024 2:-0.0220928 
100 1:-0.483738 2:-0.0245737 
100 1:-0.481254 2:-0.0304389 
100 1:-0.477899 2:-0.012914 
100 1:-0.475883 2:0.00234457 
100 1:-0.480701 2:-0.00311112 
100 1:-0.477942 2:0.000782988 
100 1:-0.477417 2:-0.0147981 
100 1:-0.47122 2:0.00830907 
100 1:-0.478674 2:0.00361009 
100 1:-0.478016 2:0.0145518 
100 1:-0.477118 2:0.0101313 
100 1:-0.476985 2:0.00400238 
100 1:-0.475461 2:-0.000774857 
100 1:-0.479547 2:0.0174895 
100 1:-0.472614 2:0.0143889 
100 1:-0.512755 2:-0.0153903 
100 1:-0.503426 2:-0.0124354 
100 1:-0.512113 2:-0.0164767 
100 1:-0.514838 2:-0.0214569 
100 1:-0.507488 2:-0.0171049 
100 1:-0.513218 2:-0.0200982 
100 1:-0.516077 2:-0.0259149 
100 1:-0.502312 2:-0.00810098 
100 1:-0.473848 2:0.0228108 
100 1:-0.494108 2:-0.00228973 
100 1:-0.484098 2:0.0177794 
100 1:-0.48031 2:0.0169871 
100 1:-0.509419 2:0.00280097 
100 1:-0.482733 2:0.000851143 
100 1:-0.470255 2:0.00218791 
100 1:-0.504377 2:-0.0081235 
100 1:-0.473516 2:-0.00221783 
100 1:-0.466849 2:0.0178796 
100 1:-0.497431 2:0.00669306 
100 1:-0.48553 2:0.014283 
100 1:-0.482491 2:0.00752377 
100 1:-0.47361 2:0.0139592 
100 1:-0.477782 2:0.0208947 
100 1:-0.472459 2:0.0189446 
100 1:-0.491761 2:0.0133457 
100 1:-0.479006 2:0.0100241 
100 1:-0.46423 2:-0.0159398 
100 1:-0.487259 2:-0.0107542 
100 1:-0.464102 2:-0.0266386 
100 1:-0.474695 2:-0.036308 
100 1:-0.485799 2:-0.0404494 
100 1:-0.485548 2:-0.0277229 
100 1:-0.483531 2:-0.0271742 
100 1:-0.470752 2:-0.0261193 
100 1:-0.476017 2:-0.00226735 
100 1:-0.478489 2:0.00672764 
100 1:-0.483198 2:0.00196204 
100 1:-0.498814 2:-0.0127231 
100 1:-0.509066 2:-0.00368625 
100 1:-0.506145 2:-0.0104355 
100 1:-0.50853 2:0.0061741 
100 1:-0.489722 2:0.00393522 
100 1:-0.50273 2:-0.00207713 
100 1:-0.510044 2:0.0180242 
100 1:-0.494094 2:-0.00910288 
100 1:-0.500702 2:0.0441208 
100 1:-0.494213 2:0.0252987 
100 1:-0.482642 2:-0.00414056 
100 1:-0.465127 2:0.0119006 
100 1:-0.482449 2:0.0374407 
100 1:-0.47065 2:0.0242352 
100 1:-0.479593 2:0.0377341 
100 1:-0.449118 2:-0.00990627 
100 1:-0.478844 2:-0.0134871 
100 1:-0.447876 2:-0.0171195 
100 1:-0.484654 2:-0.0126539 
100 1:-0.457046 2:-0.0242002 
100 1:-0.48445 2:-0.0229839 
100 1:-0.485899 2:-0.0212157 
100 1:-0.469828 2:-0.0273685 
100 1:-0.477961 2:-0.0200871 
100 1:-0.486686 2:-0.0287951 
100 1:-0.468746 2:-0.0178086 
100 1:-0.464272 2:-0.0205961 
100 1:-0.475787 2:-0.013043 
100 1:-0.455696 2:-0.0210808 
100 1:-0.479939 2:-0.00268026 
100 1:-0.469862 2:-0.0354694 
100 1:-0.480558 2:-0.00782085 
100 1:-0.487761 2:-0.0192534 
100 1:-0.488021 2:-0.000717646 
100 1:-0.474398 2:-0.0142043 
100 1:-0.465907 2:0.00844389 
100 1:-0.498752 2:0.0587534 
100 1:-0.499287 2:0.0627483 
100 1:-0.499108 2:0.0486419 
100 1:-0.478936 2:0.0130097 
100 1:-0.478581 2:0.036895 
100 1:-0.472544 2:-0.00349951 
100 1:-0.479608 2:-0.0142478 
100 1:-0.445487 2:-0.0277659 
100 1:-0.478917 2:-0.0230123 
100 1:-0.443876 2:-0.0252588 
100 1:-0.45443 2:-0.0163925 
100 1:-0.460822 2:-0.0235142 
100 1:-0.458867 2:-0.034491 
100 1:-0.472559 2:-0.0366544 
100 1:-0.471368 2:-0.0194396 
100 1:-0.498373 2:-0.0495761 
100 1:-0.484741 2:-0.00868518 
100 1:-0.492881 2:-0.0420834 
100 1:-0.496979 2:-0.0263162 
100 1:-0.496192 2:-0.0359806 
100 1:-0.501744 2:-0.0437658 
100 1:-0.488534 2:-0.0430474 
100 1:-0.494604 2:-0.0344049 
100 1:-0.491954 2:-0.0504984 
100 1:-0.492576 2:-0.0364249 
100 1:-0.451924 2:-0.00321424 
100 1:-0.475563 2:-0.00618559 
100 1:-0.483085 2:-0.0167057 
100 1:-0.489708 2:-0.0152031 
100 1:-0.495874 2:-0.0228619 
100 1:-0.456651 2:-0.0192746 
100 1:-0.479758 2:-0.0297321 
100 1:-0.448229 2:-0.0323055 
100 1:-0.477065 2:-0.0330336 
100 1:-0.468265 2:-0.0259534 
100 1:-0.480445 2:-0.0499338 
100 1:-0.4894 2:-0.0477088 
100 1:-0.497016 2:-0.0432441 
100 1:-0.485541 2:-0.0281237 
100 1:-0.497159 2:-0.0318503 
100 1:-0.491214 2:-0.0220245 
100 1:-0.486248 2:-0.0247895 
100 1:-0.493326 2:-0.0209669 
100 1:-0.496495 2:-0.0280038 
100 1:-0.493635 2:-0.0219412 
100 1:-0.493439 2:-0.0292076 
100 1:-0.49303 2:-0.0283558 
100 1:-0.474244 2:0.0113517 
100 1:-0.476891 2:-0.00109003 
100 1:-0.486056 2:-0.0162166 
100 1:-0.493308 2:-0.01043 
100 1:-0.495016 2:-0.0213617 
100 1:-0.5029 2:-0.0301096 
100 1:-0.503168 2:-0.0368395 
100 1:-0.481558 2:-0.0517644 
100 1:-0.505453 2:-0.0623771 
100 1:-0.491284 2:-0.0579188 
100 1:-0.514171 2:-0.0620276 
100 1:-0.498715 2:-0.0430035 
100 1:-0.503192 2:-0.0391312 
100 1:-0.499848 2:-0.0346915 
100 1:-0.490785 2:-0.031951 
100 1:-0.486441 2:-0.0235461 
100 1:-0.493196 2:-0.0265738 
100 1:-0.468849 2:0.00388746 
100 1:-0.470467 2:0.00599689 
100 1:-0.476235 2:-0.00395038 
100 1:-0.476429 2:-0.0140294 
100 1:-0.485676 2:-0.0031491 
100 1:-0.496818 2:-0.0224556 
100 1:-0.50371 2:-0.0389475 
100 1:-0.504111 2:-0.0460075 
100 1:-0.512293 2:-0.0577322 
100 1:-0.512046 2:-0.0611069 
100 1:-0.504205 2:-0.048414 
100 1:-0.507518 2:-0.0394066 
100 1:-0.498505 2:-0.0349268 
100 1:-0.488415 2:-0.0229689 
100 1:-0.494233 2:-0.0307362 
100 1:-0.489584 2:-0.0254259 
100 1:-0.48991 2:-0.0234319 
100 1:-0.476352 2:-0.0109797 
100 1:-0.503548 2:-0.0329729 
100 1:-0.509217 2:-0.0461601 
100 1:-0.508796 2:-0.048584 
100 1:-0.511965 2:-0.0451542 
100 1:-0.500988 2:-0.0343082 
100 1:-0.459338 2:-0.011 
100 1:-0.473014 2:-0.0150538 
100 1:-0.489268 2:-0.0229351 
100 1:-0.500289 2:-0.0478468 
100 1:-0.503179 2:-0.0353144 
100 1:0.38786 2:-0.0251892 
100 1:-0.479937 2:-0.0195331 
100 1:-0.485614 2:-0.026412 
100 1:-0.480028 2:-0.017096 
100 1:-0.477154 2:-0.0243119 
100 1:-0.47564 2:-0.0174389 
100 1:-0.473248 2:-0.0204616 
100 1:-0.472728 2:-0.0210131 
100 1:-0.465959 2:-0.0351377 
100 1:-0.468906 2:-0.028858 
100 1:-0.453221 2:-0.0244517 
100 1:-0.451018 2:-0.036066 
100 1:-0.44938 2:-0.0335485 
100 1:-0.463531 2:-0.0400101 
100 1:-0.469528 2:-0.0407655 
100 1:-0.444858 2:-0.0197507 
100 1:-0.460034 2:-0.0319501 
100 1:-0.470865 2:-0.0418598 
100 1:-0.454801 2:-0.0207816 
100 1:-0.451576 2:-0.0111265 
100 1:-0.451349 2:-0.00535247 
100 1:-0.486412 2:-0.0288983 
100 1:-0.494062 2:-0.0231653 
100 1:-0.486421 2:-0.0289054 
100 1:-0.47817 2:-0.0188806 
100 1:-0.481047 2:-0.0183935 
100 1:-0.507297 2:-0.0175631 
100 1:-0.481523 2:-0.0219536 
100 1:-0.492734 2:-0.0200897 
100 1:-0.509901 2:-0.0168422 
100 1:-0.479883 2:-0.0269375 
100 1:-0.50026 2:-0.0273542 
100 1:-0.470745 2:-0.0494294 
100 1:-0.488132 2:-0.0287126 
100 1:-0.490648 2:-0.0386671 
100 1:-0.469203 2:-0.0430466 
100 1:-0.463214 2:-0.0159653 
100 1:-0.473935 2:-0.0211779 
100 1:-0.477236 2:-0.00583429 
100 1:-0.485161 2:0.00370648 
100 1:-0.459414 2:-0.0035811 
100 1:-0.474969 2:-0.00419031 
100 1:-0.454311 2:0.00231949 
100 1:-0.472501 2:0.0279261 
100 1:-0.464787 2:0.0177444 
100 1:-0.444114 2:-0.0165661 
100 1:-0.464064 2:-0.0068501 
100 1:-0.459579 2:0.00657279 
100 1:-0.463404 2:0.00627529 
100 1:-0.459019 2:0.00781661 
100 1:-0.494317 2:-0.0211324 
100 1:-0.506372 2:-0.0111968 
100 1:-0.494322 2:-0.0211336 
100 1:-0.5102 2:-0.0137929 
100 1:-0.506066 2:-0.0190959 
100 1:-0.49669 2:-0.0223626 
100 1:-0.511198 2:-0.0188086 
100 1:-0.50865 2:-0.0197152 
100 1:-0.513514 2:-0.016895 
100 1:-0.518597 2:-0.0173319 
100 1:-0.50161 2:-0.0215831 
100 1:-0.499426 2:-0.0318613 
100 1:-0.524533 2:-0.0176638 
100 1:-0.481134 2:-0.0524029 
100 1:-0.499846 2:-0.0524369 
100 1:-0.507836 2:-0.0457368 
100 1:-0.475254 2:-0.0250518 
100 1:-0.490915 2:-0.0431344 
100 1:-0.486985 2:-0.0273215 
100 1:-0.490709 2:-0.00838657 
100 1:-0.485807 2:0.00766009 
100 1:-0.476179 2:0.00748145 
100 1:-0.481677 2:0.0196405 
100 1:-0.470169 2:0.0172976 
100 1:-0.465882 2:0.00844793 
100 1:-0.484909 2:0.0360319 
100 1:-0.454553 2:-0.00723833 
100 1:-0.458237 2:0.00908705 
100 1:-0.46853 2:0.0206564 
100 1:-0.474324 2:-0.00283846 
100 1:-0.468085 2:0.00113009 
100 1:-0.447986 2:-0.0107741 
100 1:-0.460999 2:-0.00786981 
100 1:-0.479182 2:-0.0371305 
100 1:-0.445784 2:-0.0350448 
100 1:-0.454387 2:0.000414692 
100 1:-0.476278 2:-0.0234033 
100 1:-0.463614 2:0.000693616 
100 1:-0.472573 2:0.00181274 
100 1:-0.482406 2:-0.0116217 
100 1:-0.477712 2:0.00163722 
100 1:-0.479455 2:-0.0101224 
100 1:-0.462861 2:0.00832415 
100 1:-0.470399 2:-1.36705e-05 
100 1:-0.479673 2:0.00361887 
100 1:-0.492641 2:-0.0248672 
100 1:-0.486572 2:-0.0287228 
100 1:-0.506032 2:-0.00864463 
100 1:-0.486917 2:-0.022757 
100 1:-0.488084 2:-0.0201311 
100 1:-0.506879 2:-0.0180784 
100 1:-0.509119 2:-0.0212929 
100 1:-0.485389 2:-0.0164103 
100 1:-0.519439 2:-0.0204859 
100 1:-0.503677 2:-0.017731 
100 1:-0.476915 2:-0.00346619 
100 1:-0.502681 2:-0.00703292 
100 1:-0.493157 2:-0.0169905 
100 1:-0.504438 2:-0.0136366 
100 1:-0.482372 2:0.00428604 
100 1:-0.496962 2:-0.0489029 
100 1:-0.485059 2:-0.0106837 
100 1:-0.467827 2:0.0149088 
100 1:-0.482875 2:0.00894282 
100 1:-0.473887 2:0.0145095 
100 1:-0.479951 2:0.0180043 
100 1:-0.465387 2:0.01462 
100 1:-0.478771 2:0.0396732 
100 1:-0.482381 2:0.023112 
100 1:-0.480713 2:0.0342634 
100 1:-0.487396 2:0.0349036 
100 1:-0.486225 2:0.0326344 
100 1:-0.489745 2:0.0283483 
100 1:-0.493124 2:0.0171586 
100 1:-0.488225 2:0.0113103 
100 1:-0.499878 2:-0.0148875 
100 1:-0.492737 2:-0.0242616 
100 1:-0.488408 2:-0.0120329 
100 1:-0.507088 2:-0.0303373 
100 1:-0.452542 2:-0.019952 
100 1:-0.486889 2:-0.00949947 
100 1:-0.49628 2:-0.0304893 
100 1:-0.524347 2:-0.0144263 
100 1:-0.50121 2:-0.0280117 
100 1:-0.520319 2:-0.0247274 
100 1:-0.468059 2:-0.0293238 
100 1:-0.473211 2:-0.0387793 
100 1:-0.515962 2:-0.0215027 
100 1:-0.482773 2:-0.031147 
100 1:-0.490131 2:-0.0162337 
100 1:-0.480207 2:-0.000637621 
100 1:-0.498541 2:-0.0177905 
100 1:-0.481085 2:0.00864468 
100 1:-0.486849 2:-0.00896487 
100 1:-0.484196 2:-0.00378871 
100 1:-0.478307 2:-0.00962451 
100 1:-0.487203 2:-0.0163568 
100 1:-0.480749 2:-0.00768592 
100 1:-0.486786 2:-0.0186039 
100 1:-0.489213 2:-0.0181377 
100 1:-0.487662 2:-0.0105571 
100 1:-0.485973 2:-0.00610714 
100 1:-0.465146 2:-0.000954978 
100 1:-0.464795 2:-0.000406262 
100 1:-0.456983 2:-0.00374371 
100 1:-0.458561 2:0.00807912 
100 1:-0.470873 2:0.0232258 
100 1:-0.486476 2:0.0178234 
100 1:-0.466212 2:-0.00240351 
100 1:-0.499875 2:0.0187839 
100 1:-0.490443 2:0.0199077 
100 1:-0.500675 2:-0.0342935 
100 1:-0.492164 2:-0.0300364 
100 1:-0.50329 2:-0.0400984 
100 1:-0.482246 2:-0.0482792 
100 1:-0.515045 2:-0.0178962 
100 1:-0.475632 2:-0.0317115 
100 1:-0.512851 2:-0.0296169 
100 1:-0.487957 2:-0.013759 
100 1:-0.509214 2:-0.0151398 
100 1:-0.50065 2:-0.0105792 
100 1:-0.486257 2:-0.0292105 
100 1:-0.500729 2:-0.0272924 
100 1:-0.491067 2:-0.0225678 
100 1:-0.498354 2:-0.0283421 
100 1:-0.488281 2:-0.00624917 
100 1:-0.491081 2:-0.0209821 
100 1:-0.488571 2:-0.0130138 
100 1:-0.484592 2:-0.0264374 
100 1:-0.47003 2:-0.00228656 
100 1:-0.469692 2:-0.00715256 
100 1:-0.486906 2:-0.0170426 
100 1:-0.470314 2:-0.00362161 
100 1:-0.476298 2:-0.00228922 
100 1:-0.466408 2:0.00184926 
100 1:-0.459141 2:-0.00606653 
100 1:-0.455948 2:0.00223227 
100 1:-0.46641 2:0.000697861 
100 1:-0.472653 2:0.023433 
100 1:-0.472797 2:0.0280949 
100 1:-0.477264 2:0.0243217 
100 1:-0.448086 2:-0.00769577 
100 1:-0.453497 2:-0.0224439 
100 1:-0.467733 2:-0.00885831 
100 1:-0.480164 2:0.0186727 
100 1:-0.469618 2:-0.00557358 
100 1:-0.483148 2:0.0100712 
100 1:-0.477133 2:-0.00509275 
100 1:-0.485492 2:-0.00751067 
100 1:-0.480743 2:-0.042259 
100 1:-0.480876 2:-0.0231431 
100 1:-0.470385 2:-0.0331857 
100 1:-0.474796 2:-0.0139972 
100 1:-0.46249 2:-0.0205983 
100 1:-0.492747 2:-0.0104787 
100 1:-0.498259 2:-0.0231039 
100 1:-0.487888 2:-0.0166247 
100 1:-0.484192 2:-0.0121305 
100 1:-0.485763 2:-0.0217228 
100 1:-0.486939 2:-0.0189397 
100 1:-0.488761 2:-0.0197462 
100 1:-0.479599 2:-0.0073119 
100 1:-0.468644 2:-0.00711161 
100 1:-0.470905 2:-0.00784956 
100 1:-0.46682 2:-0.00981346 
100 1:-0.46435 2:-0.0102244 
100 1:-0.469777 2:-0.0099932 
100 1:-0.464991 2:-0.00023977 
100 1:-0.465296 2:-0.00152703 
100 1:-0.464621 2:0.00249016 
100 1:-0.464937 2:0.00444557 
100 1:-0.480231 2:0.0213568 
100 1:-0.475253 2:0.0259131 
100 1:-0.479154 2:0.0234537 
100 1:-0.468955 2:0.00503392 
100 1:-0.475799 2:0.0117479 
100 1:-0.474032 2:-0.00563385 
100 1:-0.476851 2:0.00237489 
100 1:-0.466684 2:-0.0121352 
100 1:-0.464841 2:-0.0159982 
100 1:-0.468616 2:-0.00135622 
100 1:-0.467407 2:-0.00843146 
100 1:-0.463652 2:-0.00684505 
100 1:-0.463179 2:-0.00951451 
100 1:-0.460253 2:-0.0106695 
100 1:-0.464765 2:-0.0139748 
100 1:-0.464606 2:-0.0176921 
100 1:-0.468479 2:-0.0196871 
100 1:-0.471552 2:-0.030435 
100 1:-0.466969 2:-0.0214373 
100 1:-0.465594 2:-0.0187662 
100 1:-0.464142 2:-0.0190343 
100 1:-0.462489 2:-0.0206016 
100 1:-0.46704 2:-0.0201301 
100 1:-0.467229 2:-0.0208759 
100 1:-0.463159 2:-0.0164536 
100 1:-0.463984 2:-0.0186189 
100 1:-0.477773 2:-0.0252046 
100 1:-0.46905 2:-0.0161453 
100 1:-0.470202 2:-0.0184248 
100 1:-0.48579 2:-0.0243511 
100 1:-0.473963 2:-0.0118035 
100 1:-0.458624 2:0.0045743 
100 1:-0.459989 2:0.00965574 
100 1:-0.467733 2:0.0169847 
100 1:-0.466795 2:0.00920505 
100 1:-0.467629 2:0.0132765 
100 1:-0.478713 2:0.0187226 
100 1:-0.479068 2:0.00813925 
100 1:-0.478162 2:0.00147917 
100 1:-0.47346 2:0.00443175 
100 1:-0.46454 2:0.000147961 
100 1:-0.469743 2:0.000848788 
100 1:-0.464374 2:-0.00861758 
100 1:-0.458435 2:-0.0100731 
100 1:-0.458769 2:-0.017603 
100 1:-0.461445 2:-0.0156203 
100 1:-0.461526 2:-0.0167963 
100 1:-0.459551 2:-0.0117588 
100 1:-0.4547 2:-0.0143934 
100 1:-0.460361 2:-0.0177951 
100 1:-0.459234 2:-0.00433328 
100 1:-0.455878 2:0.00181658 
100 1:-0.470524 2:0.0097409 
100 1:-0.467372 2:0.0160343 
100 1:-0.475639 2:0.00925854 
100 1:-0.478581 2:0.0049406 
100 1:-0.475257 2:0.00337857 
100 1:-0.47008 2:0.00612739 
100 1:-0.468214 2:0.00621186 
100 1:-0.45696 2:-0.00233401 
100 1:-0.461908 2:-0.00844743 
100 1:-0.453459 2:-0.011181 
100 1:-0.455375 2:-0.0109066 
100 1:-0.45507 2:-0.0153994 
100 1:-0.453721 2:-0.0108385 
100 1:-0.451344 2:-0.0127164 
100 1:-0.452378 2:-0.011975 
100 1:-0.468147 2:-0.0076539 
100 1:-0.469777 2:-0.00164413 
100 1:0.394665 2:-0.0123997 
100 1:-0.453303 2:0.000390273 
100 1:-0.461603 2:0.00658573 
100 1:-0.463047 2:0.00959241 
100 1:-0.476633 2:0.0113365 
100 1:-0.47485 2:0.0104143 
100 1:-0.446576 2:-0.0100057 
100 1:-0.449625 2:-0.01537 
100 1:-0.475308 2:0.023225 
100 1:-0.475285 2:0.0232185 
100 1:-0.470907 2:0.0277377 
100 1:-0.474537 2:0.0305591 
100 1:-0.478988 2:0.0273235 
100 1:-0.479177 2:0.0224464 
100 1:-0.463056 2:0.00959239 
100 1:-0.480899 2:0.0183176 
100 1:-0.461598 2:0.0065835 
100 1:-0.479942 2:0.0109738 
100 1:-0.479918 2:0.0122241 
100 1:-0.467581 2:0.00141472 
100 1:-0.479234 2:0.0124295 
100 1:-0.456862 2:-0.000188606 
100 1:-0.463832 2:0.0120819 
100 1:-0.483473 2:0.00942951 
100 1:-0.453908 2:-0.0134196 
100 1:-0.462933 2:-0.00331157 
100 1:-0.463152 2:-0.0242312 
100 1:-0.497366 2:0.00206319 
100 1:-0.465658 2:-0.00395576 
100 1:-0.489582 2:-0.00281305 
100 1:-0.454977 2:0.00148074 
100 1:-0.501114 2:-0.00353728 
100 1:-0.451987 2:-0.0185641 
100 1:-0.483233 2:-0.0117391 
100 1:-0.44025 2:-0.0272901 
100 1:-0.470733 2:-0.0242915 
100 1:-0.468895 2:0.00187477 
100 1:-0.450666 2:-0.0254745 
100 1:-0.472771 2:0.0134447 
100 1:-0.488 2:0.0117917 
100 1:-0.480598 2:0.012958 
