svm_type c_svc
kernel_type rbf
gamma 0.10000000000000001
nr_class 2
total_sv 3029
rho 197.76100405978849
label 1 0
nr_sv 1515 1514
SV
100 1:0.00208531 2:-0.00388834 
100 1:0.00447079 2:0.00256892 
100 1:0.00627782 2:0.00135933 
100 1:0.00537555 2:-0.00789946 
100 1:-0.00203607 2:-0.00324759 
100 1:-0.0032234 2:-0.00789303 
100 1:-0.00153108 2:-0.00295833 
100 1:0.00123295 2:0.00140061 
100 1:-0.00169531 2:-0.0123383 
100 1:0.00338748 2:-0.00335749 
100 1:0.00301896 2:0.00400335 
100 1:0.00781137 2:0.00264527 
100 1:0.00676483 2:0.00261042 
100 1:-0.00401423 2:-0.00839055 
100 1:-0.00237701 2:-0.0129119 
100 1:-0.0047591 2:-0.00609696 
100 1:0.00339989 2:0.00348394 
100 1:-9.7832e-05 2:-0.00739927 
100 1:0.00435931 2:0.00736667 
100 1:-0.000166229 2:-9.82859e-05 
100 1:-0.00265785 2:-0.00455138 
100 1:0.00131963 2:0.00322968 
100 1:0.0011316 2:0.00290791 
100 1:-0.00361202 2:-0.0049433 
100 1:0.00307401 2:0.0031003 
100 1:-0.00239775 2:-0.00573685 
100 1:-0.0051517 2:-0.00644539 
100 1:0.00380767 2:0.00412126 
100 1:-0.00384803 2:-0.0103349 
100 1:-0.000520579 2:-0.00605436 
100 1:0.000611467 2:0.00108889 
100 1:-0.00140637 2:-0.00199466 
100 1:0.00948688 2:0.00268051 
100 1:-0.000888412 2:-1.51089e-05 
100 1:-0.00151305 2:-0.00070449 
100 1:0.0050964 2:0.000547398 
100 1:-0.00648266 2:-0.00849023 
100 1:0.00546364 2:0.00392344 
100 1:-0.00103567 2:-0.00510654 
100 1:-0.00211378 2:-0.00490621 
100 1:0.00108589 2:0.000739095 
100 1:-0.00578989 2:-0.0148042 
100 1:0.00170633 2:0.00431609 
100 1:-0.00489043 2:-0.00629739 
100 1:0.00205116 2:-0.00174806 
100 1:-0.000908218 2:-0.0141207 
100 1:0.00264805 2:0.00566705 
100 1:0.00725946 2:0.00462564 
100 1:0.00236945 2:-0.00190578 
100 1:0.0100093 2:0.00706056 
100 1:0.00423477 2:-0.00164312 
100 1:-0.0049455 2:-0.00715817 
100 1:0.00741887 2:0.00677183 
100 1:-0.00192715 2:-0.0191695 
100 1:0.00118165 2:0.00292859 
100 1:0.00883582 2:0.00487891 
100 1:0.00163163 2:0.00263699 
100 1:-0.00260605 2:-0.00466376 
100 1:0.00538323 2:-0.000211639 
100 1:0.00717174 2:0.00908685 
100 1:0.00569255 2:0.000113702 
100 1:0.0105351 2:-0.000342727 
100 1:0.00068448 2:-0.000835746 
100 1:0.00705088 2:0.000809186 
100 1:0.00281963 2:0.00394367 
100 1:0.00253954 2:-0.00303564 
100 1:0.00915772 2:0.0101994 
100 1:-0.00201426 2:-0.0186521 
100 1:0.00403885 2:0.00177171 
100 1:0.00246061 2:-2.85497e-05 
100 1:0.000958292 2:0.00222183 
100 1:0.00196396 2:0.00109792 
100 1:-0.000761949 2:-0.00228636 
100 1:0.00797693 2:0.000912939 
100 1:-0.00124318 2:-0.00991022 
100 1:0.00494627 2:0.00147226 
100 1:-0.00543432 2:-0.00704539 
100 1:0.000337387 2:0.0023038 
100 1:-0.00413937 2:-0.00570716 
100 1:0.00880186 2:0.00490498 
100 1:0.00204372 2:0.00275624 
100 1:0.00563315 2:0.0014357 
100 1:0.00996483 2:0.0106808 
100 1:-0.000282397 2:-0.00014125 
100 1:-0.00310851 2:-0.00465913 
100 1:-0.000101559 2:0.00114019 
100 1:0.0018029 2:0.00366776 
100 1:-0.000138648 2:0.000290714 
100 1:0.00541073 2:0.00362566 
100 1:-0.000228764 2:0.00100884 
100 1:0.00663141 2:0.00287812 
100 1:0.00143677 2:-0.00145073 
100 1:-0.0042458 2:-0.00824214 
100 1:0.00393295 2:0.000958395 
100 1:0.00264627 2:-0.00480623 
100 1:-0.00280201 2:-0.00457327 
100 1:-0.00512577 2:-0.00805765 
100 1:-0.00455337 2:-0.00629016 
100 1:0.00472289 2:0.00453643 
100 1:-0.000232555 2:-0.00118535 
100 1:-0.0020749 2:-0.00392706 
100 1:-0.00124674 2:-0.00581319 
100 1:0.00242153 2:0.00358544 
100 1:-0.00647366 2:-0.00985176 
100 1:-0.000236866 2:-0.0101739 
100 1:0.00381625 2:-0.0050416 
100 1:0.0128241 2:-0.00306574 
100 1:0.000948505 2:-0.00115643 
100 1:0.00493637 2:0.00964408 
100 1:-0.000683781 2:-0.00251829 
100 1:0.00427097 2:0.0027102 
100 1:0.000127612 2:-0.00504256 
100 1:0.00122588 2:0.00123752 
100 1:0.000592313 2:0.00279309 
100 1:0.00214059 2:-0.000493748 
100 1:0.00127532 2:-0.000307327 
100 1:-0.00115035 2:-0.00156661 
100 1:0.00387353 2:0.00539326 
100 1:-0.00537168 2:-0.0100953 
100 1:0.000792536 2:-0.00324768 
100 1:0.00152726 2:-0.000375799 
100 1:0.00582287 2:0.00779488 
100 1:-0.00103392 2:-0.00372076 
100 1:0.00555769 2:-0.000121867 
100 1:0.0026917 2:0.00505932 
100 1:0.00070958 2:0.00149745 
100 1:0.000174502 2:-0.00696845 
100 1:0.00628266 2:-0.00323947 
100 1:0.00474702 2:0.00283185 
100 1:0.00591991 2:0.00156374 
100 1:0.00683399 2:-0.000832443 
100 1:-0.000846648 2:-0.00296556 
100 1:-0.00420495 2:-0.00593707 
100 1:0.00367457 2:0.00466786 
100 1:0.00300953 2:0.00327356 
100 1:0.00368002 2:0.00409785 
100 1:0.0054679 2:0.00953505 
100 1:0.00210678 2:0.00329904 
100 1:0.0026017 2:0.00406087 
100 1:0.000975841 2:-0.00292339 
100 1:-1.40111e-05 2:-0.00217298 
100 1:-0.00236795 2:-0.00173838 
100 1:0.00380505 2:-0.00751383 
100 1:0.00321111 2:-0.00294737 
100 1:0.00592109 2:-0.00210427 
100 1:0.0113696 2:0.00298925 
100 1:0.00436532 2:-0.00293955 
100 1:0.00118945 2:-0.00569132 
100 1:0.00135792 2:-0.00286585 
100 1:-0.00147209 2:-0.00133112 
100 1:0.00930695 2:0.00438806 
100 1:-0.00480222 2:-0.00787452 
100 1:0.00872564 2:0.00301066 
100 1:-0.0052979 2:-0.00690948 
100 1:-0.00400974 2:-0.00858734 
100 1:-0.00306912 2:-0.00382808 
100 1:-0.00653905 2:-0.0105036 
100 1:0.00676196 2:-0.010805 
100 1:0.000861835 2:0.00184651 
100 1:0.00527699 2:0.00433288 
100 1:0.00816257 2:0.00655467 
100 1:-0.00289886 2:-0.00335484 
100 1:-0.00592443 2:-0.018412 
100 1:0.00200209 2:0.00109421 
100 1:-0.00349775 2:-0.00732428 
100 1:0.00758129 2:0.00452943 
100 1:0.00143771 2:-8.53966e-05 
100 1:0.000418249 2:0.00212053 
100 1:0.00286755 2:-0.00102287 
100 1:-0.00510361 2:-0.0068532 
100 1:-0.00117407 2:-0.00844627 
100 1:-0.00142387 2:-0.00384958 
100 1:0.00225074 2:0.00501596 
100 1:-0.00262595 2:-0.0096211 
100 1:0.00266203 2:0.000715771 
100 1:0.00261874 2:0.000463629 
100 1:0.00314542 2:0.00290027 
100 1:0.00612202 2:0.00491945 
100 1:-0.000112028 2:3.18923e-05 
100 1:-0.00551168 2:-0.006782 
100 1:3.12837e-05 2:0.0020166 
100 1:0.00781567 2:-0.00764909 
100 1:-0.000453846 2:-0.00110379 
100 1:0.000894464 2:0.0034256 
100 1:0.0067431 2:0.00157008 
100 1:-0.000723427 2:-0.00107807 
100 1:0.00647513 2:-0.00168126 
100 1:0.00245347 2:0.00105511 
100 1:-0.00158861 2:-0.00733371 
100 1:0.00219218 2:0.00495642 
100 1:0.00905901 2:0.0139816 
100 1:-0.00153418 2:-0.00942128 
100 1:0.0062376 2:-0.00769508 
100 1:0.00736853 2:-0.00203914 
100 1:-0.00586624 2:-0.00773867 
100 1:0.000783526 2:0.00314871 
100 1:0.00346888 2:0.00231258 
100 1:0.00985669 2:0.0106912 
100 1:0.000452128 2:0.00241239 
100 1:-0.000261666 2:0.0015086 
100 1:-0.000932936 2:-0.000840705 
100 1:0.00706031 2:0.0045843 
100 1:0.000274563 2:9.97591e-05 
100 1:-0.000454696 2:-0.000651697 
100 1:0.000729787 2:-0.00228037 
100 1:0.00587905 2:0.00685384 
100 1:0.00101577 2:-0.00152357 
100 1:-0.000656492 2:0.000408011 
100 1:0.0113668 2:0.00982935 
100 1:0.00688297 2:0.000364965 
100 1:0.00454864 2:0.00615617 
100 1:-0.00416122 2:-0.00776414 
100 1:0.00556477 2:0.00459605 
100 1:-0.0087402 2:-0.0132418 
100 1:0.00105772 2:-0.00394836 
100 1:0.00226708 2:0.00544182 
100 1:0.000625318 2:-0.00586549 
100 1:0.000235437 2:-0.0031012 
100 1:0.00308234 2:-0.00428405 
100 1:0.00087396 2:0.000518997 
100 1:0.00783288 2:0.0024055 
100 1:0.000135391 2:0.000816012 
100 1:0.00244996 2:0.00530776 
100 1:0.00154184 2:-0.00263683 
100 1:0.000256088 2:-0.00264923 
100 1:0.0027215 2:-7.9863e-05 
100 1:0.0043606 2:0.00462239 
100 1:0.0063561 2:0.00540378 
100 1:0.00552667 2:-0.00397043 
100 1:-9.32938e-05 2:-0.00333171 
100 1:0.00345663 2:0.00232306 
100 1:-0.0028523 2:-0.00842408 
100 1:-0.00090961 2:-0.00207503 
100 1:0.00318139 2:-0.000192228 
100 1:0.0023905 2:0.000390089 
100 1:0.00283591 2:0.00425093 
100 1:-0.00189773 2:-0.00154936 
100 1:-0.000472304 2:0.00102995 
100 1:0.000366863 2:-0.00176683 
100 1:0.00516305 2:0.00411022 
100 1:-0.00131873 2:-0.0026175 
100 1:0.00190389 2:0.00472851 
100 1:0.00115555 2:0.00367682 
100 1:0.00586437 2:-0.00315769 
100 1:0.00994619 2:0.00414201 
100 1:-0.00264374 2:-0.00231411 
100 1:0.00893055 2:0.00806527 
100 1:0.00613893 2:0.00160658 
100 1:0.00591152 2:0.001888 
100 1:0.00696603 2:-0.00196974 
100 1:0.0038679 2:-0.00789225 
100 1:0.0118568 2:0.00336198 
100 1:-0.00199814 2:-0.00619265 
100 1:0.00744145 2:0.0127757 
100 1:-0.000307728 2:-0.0017103 
100 1:0.000301509 2:-0.00173021 
100 1:0.0130215 2:-0.00597854 
100 1:0.00798977 2:0.00119046 
100 1:0.00727083 2:0.00171489 
100 1:0.00961204 2:0.00242471 
100 1:-0.00118389 2:-0.00557077 
100 1:-0.0065826 2:-0.0139698 
100 1:0.000623649 2:-0.00614154 
100 1:0.00272124 2:0.00404716 
100 1:0.00638276 2:0.00374314 
100 1:-0.00132068 2:-0.000344531 
100 1:-0.00281005 2:-0.00782362 
100 1:-0.0112504 2:-0.0161955 
100 1:0.000909272 2:6.69063e-05 
100 1:0.000126521 2:0.00207656 
100 1:0.00775636 2:-0.00359778 
100 1:0.00131949 2:-0.00318653 
100 1:0.000813679 2:-0.00296769 
100 1:-0.000779829 2:0.000649825 
100 1:-0.000145191 2:-0.0040472 
100 1:0.000378427 2:0.00100217 
100 1:0.0002534 2:-0.00298685 
100 1:0.00333789 2:0.0054489 
100 1:0.00592349 2:-0.00254831 
100 1:0.00456636 2:0.00281935 
100 1:-0.00584212 2:-0.00960809 
100 1:0.00131425 2:-0.00249341 
100 1:0.00364966 2:-0.0132817 
100 1:0.0108888 2:0.000678515 
100 1:-0.000843331 2:-0.00087531 
100 1:-0.00288994 2:-0.00441551 
100 1:0.00226402 2:0.00252141 
100 1:0.00566005 2:-0.00257872 
100 1:-0.00356113 2:-0.00432578 
100 1:0.00326966 2:0.00130128 
100 1:0.000360777 2:-0.00260865 
100 1:-0.00331795 2:-0.00338389 
100 1:0.00768718 2:0.00845539 
100 1:-0.00258024 2:-0.00601251 
100 1:-0.00478074 2:-0.00847798 
100 1:0.00350053 2:-0.00368112 
100 1:0.0108161 2:-0.000408612 
100 1:0.00204714 2:0.00195221 
100 1:-0.00151295 2:-0.00344144 
100 1:0.00730395 2:0.00116888 
100 1:0.00121538 2:0.00194561 
100 1:0.000733847 2:-0.002946 
100 1:-0.0031326 2:-0.0050702 
100 1:0.0048823 2:0.00483981 
100 1:-0.00104335 2:-0.000343582 
100 1:-0.00385428 2:-0.00432635 
100 1:-0.00585271 2:-0.00770124 
100 1:-0.000497282 2:-0.00196112 
100 1:0.00118159 2:0.00120005 
100 1:0.00590904 2:0.00732891 
100 1:0.00520377 2:-0.00605921 
100 1:-0.00525663 2:-0.00690045 
100 1:-0.000918894 2:-0.00505898 
100 1:0.00110308 2:0.00322858 
100 1:-0.00617253 2:-0.00804458 
100 1:-0.000825867 2:-0.00449094 
100 1:0.0109041 2:-0.000197 
100 1:0.00191433 2:0.000177607 
100 1:0.00303436 2:-0.00256552 
100 1:-0.00574361 2:-0.0110027 
100 1:0.00587878 2:0.00517959 
100 1:-0.00118054 2:-0.00187879 
100 1:0.00190269 2:-3.02723e-05 
100 1:0.00445026 2:0.00308991 
100 1:0.00751333 2:-0.0045155 
100 1:-0.00441701 2:-0.00531109 
100 1:-9.58793e-05 2:0.0018502 
100 1:0.00149615 2:0.00388317 
100 1:0.012498 2:0.00695028 
100 1:-0.00741312 2:-0.0122274 
100 1:-0.000665024 2:0.000408278 
100 1:-0.00218378 2:-0.00170971 
100 1:-0.00214684 2:-0.00627452 
100 1:-0.00292956 2:-0.00339905 
100 1:0.00222879 2:-0.000627228 
100 1:-0.00413204 2:-0.00583872 
100 1:0.00876748 2:0.00215411 
100 1:0.000561231 2:-0.00225093 
100 1:0.00351296 2:0.00597172 
100 1:0.00736983 2:0.0035585 
100 1:0.00616415 2:-0.00659471 
100 1:0.00628828 2:-0.00323969 
100 1:0.00173365 2:0.0040588 
100 1:0.00113257 2:0.000475162 
100 1:-0.00332404 2:-0.00476343 
100 1:0.0024088 2:-0.0073158 
100 1:-0.00102745 2:-0.00224228 
100 1:-0.000721725 2:0.000732534 
100 1:-0.00104865 2:-0.00323031 
100 1:-0.00333184 2:-0.00468368 
100 1:-0.00194838 2:-0.00806035 
100 1:0.00483825 2:0.00735806 
100 1:-0.00090715 2:-0.00115702 
100 1:-0.00473762 2:-0.00689146 
100 1:0.00106904 2:0.00261553 
100 1:0.00373718 2:-0.0042984 
100 1:0.00477216 2:0.00319498 
100 1:0.0011226 2:0.00240605 
100 1:0.000357034 2:0.000766134 
100 1:0.00347057 2:0.000886109 
100 1:0.00106344 2:-0.00235487 
100 1:0.00736699 2:0.00823222 
100 1:-0.000429003 2:-0.000319791 
100 1:-0.00161482 2:-0.00145896 
100 1:-0.00485115 2:-0.00568915 
100 1:0.00893541 2:0.0137042 
100 1:0.000398327 2:-0.00052995 
100 1:0.00656953 2:0.00666388 
100 1:0.00779594 2:0.000125129 
100 1:0.0100324 2:0.00589163 
100 1:0.00442893 2:-0.00113783 
100 1:-0.00401321 2:-0.00510169 
100 1:0.0064168 2:0.00567765 
100 1:0.00279427 2:0.00280152 
100 1:-0.00660506 2:-0.00852909 
100 1:0.00338466 2:-0.00288144 
100 1:0.00362338 2:0.00439242 
100 1:0.0030731 2:-0.00512307 
100 1:2.59303e-05 2:-0.00451535 
100 1:0.000909351 2:6.66024e-05 
100 1:0.00585867 2:0.00215718 
100 1:0.00541197 2:0.00322471 
100 1:0.000189906 2:-0.00355402 
100 1:0.0143039 2:0.00692644 
100 1:0.00533708 2:0.00117427 
100 1:0.0042335 2:0.00762383 
100 1:0.00343293 2:0.00496896 
100 1:0.00171386 2:-0.00480345 
100 1:-0.00393224 2:-0.00769045 
100 1:-0.00361168 2:-0.00848275 
100 1:0.00345844 2:0.00525489 
100 1:-0.000469891 2:-0.00432904 
100 1:0.00494774 2:0.0072273 
100 1:0.0015535 2:0.0029557 
100 1:-0.00216406 2:-0.00245573 
100 1:-0.00387594 2:-0.00716935 
100 1:-0.00610259 2:-0.0116861 
100 1:-0.00414652 2:-0.00567727 
100 1:0.00839592 2:-0.00839906 
100 1:0.00550796 2:0.0047367 
100 1:0.0063813 2:-0.000650477 
100 1:0.00460422 2:0.00393105 
100 1:0.00784363 2:0.00221711 
100 1:0.00289978 2:0.000954024 
100 1:0.0094873 2:0.00814155 
100 1:0.0010842 2:0.00137628 
100 1:-0.000838284 2:0.000472062 
100 1:-0.00140796 2:-0.00455668 
100 1:-0.000928058 2:-0.00105382 
100 1:0.00387857 2:0.00663626 
100 1:0.000470431 2:0.000705718 
100 1:-0.0104638 2:-0.0204312 
100 1:0.00237563 2:0.00300161 
100 1:-0.00600758 2:-0.00991079 
100 1:-0.00180297 2:-0.00189477 
100 1:0.00469249 2:0.0060455 
100 1:0.00361944 2:0.00540388 
100 1:0.00266578 2:0.00252891 
100 1:0.00905649 2:0.00543595 
100 1:-0.00574962 2:-0.0072573 
100 1:0.00257992 2:0.00477747 
100 1:0.00515873 2:-0.00409831 
100 1:-0.00228528 2:-0.0178169 
100 1:-0.00530204 2:-0.00690983 
100 1:0.00414333 2:-0.00245114 
100 1:0.000401218 2:0.000530637 
100 1:0.00368313 2:-0.00128321 
100 1:0.000997713 2:-0.000204092 
100 1:-0.00260055 2:-0.00848267 
100 1:-0.00246656 2:-0.00290131 
100 1:-0.00573938 2:-0.0110025 
100 1:0.00492054 2:0.00658174 
100 1:-0.00286925 2:-0.00359882 
100 1:0.00320224 2:0.00185561 
100 1:0.00560607 2:0.000522653 
100 1:-0.00042883 2:0.000750435 
100 1:-0.00339809 2:-0.00338512 
100 1:-0.00136482 2:-0.00586842 
100 1:-0.00801492 2:-0.0117633 
100 1:-0.00288936 2:-0.00819014 
100 1:-0.00249385 2:-0.00452235 
100 1:0.00486211 2:0.0028478 
100 1:-0.000378798 2:0.0010412 
100 1:0.000249105 2:-0.00298947 
100 1:0.00241174 2:0.00446695 
100 1:-0.000777251 2:0.000649287 
100 1:0.0119089 2:0.0110898 
100 1:0.00170614 2:0.00472229 
100 1:0.0185972 2:0.00504887 
100 1:-0.00117988 2:-0.00317085 
100 1:-0.00274606 2:-0.00533359 
100 1:0.00175193 2:0.000327796 
100 1:0.00766886 2:0.00118362 
100 1:0.00563836 2:-0.00235488 
100 1:-0.000783051 2:-0.00156654 
100 1:-0.000230241 2:-0.00245835 
100 1:0.00746526 2:0.00397682 
100 1:0.000551305 2:-0.000517193 
100 1:0.00666173 2:-0.00592402 
100 1:-0.00132538 2:-0.000344353 
100 1:0.00747242 2:0.0111482 
100 1:-3.86855e-05 2:0.00165875 
100 1:-0.00236212 2:-0.00193972 
100 1:-0.00745531 2:-0.0115384 
100 1:0.00402448 2:-0.00146352 
100 1:0.00427597 2:0.000924529 
100 1:0.000470468 2:-0.00377398 
100 1:0.00134494 2:-0.00233096 
100 1:0.00468811 2:0.00459816 
100 1:-0.000681276 2:-0.00155421 
100 1:-0.00214228 2:-0.00795995 
100 1:-0.00150978 2:-0.00185605 
100 1:0.00308933 2:0.00264907 
100 1:4.58475e-05 2:-0.00815421 
100 1:0.00282119 2:0.00633095 
100 1:0.00319523 2:0.000311768 
100 1:0.00159012 2:-0.000692994 
100 1:-0.000217128 2:0.0014204 
100 1:0.00883065 2:0.0099421 
100 1:0.00577813 2:0.0042044 
100 1:-0.000770779 2:-0.000509014 
100 1:0.0004304 2:0.000132048 
100 1:-0.00338926 2:-0.00650075 
100 1:-0.00173642 2:-0.00373934 
100 1:-0.00747498 2:-0.0108224 
100 1:-0.00196394 2:-0.0013706 
100 1:-0.00327877 2:-0.00556116 
100 1:0.00477171 2:0.000737048 
100 1:0.00371804 2:0.00653354 
100 1:0.00160623 2:0.000612361 
100 1:-0.00254868 2:-0.00233498 
100 1:0.00766855 2:-0.000445954 
100 1:0.000264413 2:-0.00237777 
100 1:-0.00083237 2:-0.00198977 
100 1:0.00809015 2:0.00225811 
100 1:0.0138532 2:0.00341291 
100 1:0.00583074 2:-0.00705644 
100 1:0.000818557 2:-0.00221267 
100 1:0.000202348 2:0.0020854 
100 1:0.00626969 2:-0.00188538 
100 1:0.00041764 2:0.00259858 
100 1:0.00437467 2:0.0030143 
100 1:0.00348906 2:0.00352678 
100 1:0.0021241 2:-0.00324076 
100 1:0.00246546 2:-0.00355481 
100 1:-8.08482e-05 2:0.00164021 
100 1:-0.0018919 2:-0.00451987 
100 1:-0.000110389 2:0.00119315 
100 1:0.004084 2:0.00382818 
100 1:0.00110182 2:0.00352949 
100 1:0.00584841 2:0.00925581 
100 1:0.00528618 2:0.00415473 
100 1:0.0062475 2:0.0111233 
100 1:0.0137807 2:0.00693568 
100 1:0.00490888 2:0.0039139 
100 1:0.00338314 2:0.00723908 
100 1:-0.00227285 2:-0.00193569 
100 1:-0.00156981 2:-0.00399291 
100 1:-0.00329484 2:-0.00338655 
100 1:0.00104098 2:0.00239115 
100 1:0.00440643 2:0.00272552 
100 1:0.00502424 2:0.00971584 
100 1:0.00260483 2:-0.00569623 
100 1:0.00396112 2:0.00107536 
100 1:0.00453867 2:0.00789796 
100 1:0.00502962 2:0.00952683 
100 1:0.00066998 2:-0.000603967 
100 1:0.00479242 2:0.00516173 
100 1:-0.000985234 2:-0.0023232 
100 1:0.00972285 2:0.00122864 
100 1:-0.00190538 2:-0.00146687 
100 1:0.0091071 2:0.0030604 
100 1:0.00487265 2:0.00654271 
100 1:0.0038331 2:0.00281912 
100 1:-0.0045743 2:-0.00710226 
100 1:-0.000279805 2:-0.0164518 
100 1:-0.00280719 2:-0.00431728 
100 1:0.00201427 2:0.00407257 
100 1:-0.00541486 2:-0.00854998 
100 1:-0.00324715 2:-0.00639884 
100 1:0.00451311 2:0.00465179 
100 1:-0.00431836 2:-0.00925545 
100 1:0.000547648 2:-0.00417146 
100 1:-0.0044348 2:-0.00529632 
100 1:0.00125556 2:0.00115979 
100 1:-0.00187133 2:-0.00291868 
100 1:0.00190537 2:0.000192702 
100 1:0.000363179 2:-0.00260878 
100 1:7.89477e-05 2:0.00115354 
100 1:0.00265741 2:0.0019666 
100 1:-0.000528823 2:-0.00680858 
100 1:0.0035971 2:0.00258837 
18.280413920716654 1:-0.00163153 2:-0.000569585 
100 1:0.00228998 2:0.00155155 
100 1:-0.00271934 2:-0.00625858 
100 1:0.000673578 2:-0.00307389 
100 1:-0.000623353 2:0.000228243 
100 1:-0.000322428 2:-0.00674382 
100 1:0.00430709 2:-0.000873178 
100 1:0.00486597 2:-0.00141055 
100 1:-0.000567192 2:-0.000565958 
100 1:0.00940346 2:0.0106607 
100 1:0.00480505 2:0.00319565 
100 1:0.00384068 2:0.000252704 
100 1:0.000690709 2:-0.00347429 
100 1:-0.00372936 2:-0.0113662 
100 1:0.000763978 2:-0.00093201 
100 1:0.00466597 2:-0.00271392 
100 1:0.00297083 2:-0.00371444 
100 1:-0.000757481 2:-0.00216614 
100 1:0.00844356 2:0.00348801 
100 1:0.00287325 2:0.000509015 
100 1:-0.00331505 2:-0.00826352 
100 1:-0.00163302 2:-0.00703363 
100 1:-0.00360455 2:-0.00694282 
100 1:0.000598681 2:0.00187876 
100 1:-0.000242446 2:-0.00519479 
100 1:0.0123849 2:0.00449617 
100 1:0.000564962 2:-0.00164204 
100 1:-0.000258301 2:0.000368586 
100 1:-0.00230077 2:-0.00204275 
100 1:0.00203775 2:-0.00158226 
100 1:0.000851807 2:0.002778 
100 1:0.000176748 2:-0.00328757 
100 1:0.00175299 2:0.00211772 
100 1:0.00285792 2:-0.00616476 
100 1:0.00161466 2:-0.00242769 
100 1:0.0074535 2:0.0129877 
100 1:-0.000801107 2:0.000363945 
100 1:-0.000433556 2:0.00119734 
100 1:0.00148573 2:-0.00163151 
100 1:0.00196991 2:-0.00453313 
100 1:0.001327 2:0.00343038 
100 1:0.0110516 2:0.00254534 
100 1:0.00721408 2:0.00184227 
100 1:0.00273533 2:0.000179632 
100 1:0.00369384 2:0.00666861 
100 1:0.00105919 2:0.00182824 
100 1:-0.00398581 2:-0.00958994 
100 1:-8.71319e-05 2:-0.00449627 
100 1:0.00293691 2:0.000673745 
100 1:-0.00594708 2:-0.00937675 
100 1:0.00164803 2:0.0022441 
100 1:0.0128371 2:0.00388928 
100 1:0.000430275 2:-0.00243648 
100 1:0.00254386 2:-0.0011039 
100 1:-0.00337071 2:-0.004178 
100 1:0.00527531 2:-0.00372722 
100 1:0.00020427 2:-0.00451935 
100 1:0.00107955 2:-0.00292725 
100 1:-0.00282064 2:-0.00851129 
100 1:0.00591202 2:0.00222166 
100 1:-0.00247676 2:-0.00323231 
100 1:0.000726104 2:-0.00842143 
100 1:0.0146354 2:-0.00309482 
100 1:-0.00500649 2:-0.00696934 
100 1:0.00385544 2:0.00321792 
100 1:0.00159755 2:-0.00183547 
100 1:0.000758246 2:-0.00163045 
100 1:-0.00225918 2:-0.0024332 
100 1:-0.00233427 2:-0.006647 
100 1:0.00700176 2:0.00970509 
100 1:-0.00602625 2:-0.0162806 
100 1:0.0050619 2:0.00159378 
100 1:-0.00225856 2:-0.00313446 
100 1:0.00182358 2:0.00165197 
100 1:-0.00390008 2:-0.00465604 
100 1:0.00756551 2:0.0109768 
100 1:0.00864792 2:0.00292364 
100 1:0.000354511 2:0.000901878 
100 1:-0.00574069 2:-0.00919971 
100 1:0.00942069 2:-0.00937023 
100 1:0.00414926 2:0.00563701 
100 1:0.00185132 2:0.000662343 
100 1:0.00471776 2:-0.000539564 
100 1:0.00807213 2:-0.0038308 
100 1:0.00189685 2:-0.00307214 
100 1:0.00133972 2:0.00294531 
100 1:0.00130023 2:-0.00678753 
100 1:-0.00228879 2:-0.00440805 
100 1:0.00459573 2:0.000663197 
100 1:0.00199023 2:-0.0041149 
100 1:-0.000476376 2:-0.000500243 
100 1:-0.000812698 2:-0.00106661 
100 1:-0.00582331 2:-0.00730414 
100 1:0.00128715 2:0.00336204 
100 1:0.00182638 2:0.000722087 
100 1:0.00191239 2:-0.00166181 
100 1:-0.00161329 2:-0.00512618 
100 1:0.000783956 2:0.000584742 
100 1:0.00459465 2:0.00168009 
100 1:0.000246274 2:-0.00454231 
100 1:0.00372408 2:0.00589381 
100 1:0.00548154 2:-0.00171383 
100 1:-0.0049212 2:-0.0071001 
100 1:0.00375919 2:0.00641364 
100 1:0.00144131 2:-0.00469867 
100 1:0.000348696 2:0.00169695 
100 1:-0.000598564 2:0.000142586 
100 1:-0.00183048 2:-0.00511887 
100 1:0.00376279 2:0.00302126 
100 1:-0.000609638 2:-0.00179319 
100 1:0.00670327 2:-0.00119137 
100 1:-0.00122708 2:-0.00616607 
100 1:-0.000888822 2:-0.00503334 
100 1:0.00857775 2:-0.00409064 
100 1:0.00351571 2:0.00433698 
100 1:0.00375641 2:0.00162563 
100 1:0.00491069 2:0.00434701 
100 1:0.00205861 2:0.004732 
100 1:-0.00395629 2:-0.0068893 
100 1:0.0145526 2:-0.00317644 
100 1:0.00126418 2:0.00160578 
100 1:0.00619572 2:0.000705234 
100 1:-0.00436385 2:-0.00682218 
100 1:0.00394432 2:-0.00146264 
100 1:0.00730808 2:0.00235195 
100 1:0.00158513 2:0.000834386 
100 1:0.00567805 2:0.0104532 
100 1:-0.00279745 2:-0.00469669 
100 1:-0.00399609 2:-0.00848718 
100 1:0.00177853 2:-0.00123206 
100 1:-0.00403644 2:-0.00472248 
100 1:0.00325008 2:-0.00737463 
100 1:0.000187309 2:-0.00381382 
100 1:0.00304277 2:0.00512418 
100 1:0.00132309 2:-0.00497605 
100 1:-0.00120613 2:-0.0098324 
100 1:0.00368919 2:-0.0021596 
100 1:-0.00566103 2:-0.00703368 
100 1:-0.00516264 2:-0.00682406 
100 1:-0.00292018 2:-0.00592535 
100 1:0.0050105 2:-0.00295962 
100 1:-0.00224717 2:-0.00339119 
100 1:-0.00380117 2:-0.0069718 
100 1:0.000256072 2:0.00228225 
100 1:0.00516189 2:0.00637917 
100 1:0.00544764 2:0.00674444 
100 1:-0.00399775 2:-0.00441173 
100 1:0.00211677 2:-0.00512429 
100 1:-0.000174188 2:0.000422601 
100 1:0.00299161 2:-0.000409721 
100 1:-7.3677e-05 2:-0.00881233 
100 1:0.000765192 2:-0.0019634 
100 1:-0.00196582 2:-0.00388773 
100 1:0.00279054 2:-0.00576955 
100 1:0.0048867 2:0.00546539 
100 1:0.00428203 2:-0.00684093 
100 1:0.00677761 2:-0.00913227 
100 1:0.00403827 2:-0.00233586 
100 1:0.00528675 2:0.00345152 
100 1:0.00154038 2:0.00136523 
100 1:0.0167211 2:0.00910207 
100 1:-0.013146 2:-0.0217417 
100 1:0.000904059 2:-0.000349754 
100 1:-0.0026235 2:-0.00562814 
100 1:-0.0017875 2:-0.00123418 
100 1:-0.000444199 2:-0.00731251 
100 1:0.00114744 2:0.000801217 
100 1:0.00613512 2:0.00117863 
100 1:-0.0060052 2:-0.0115872 
100 1:0.00212686 2:0.00138078 
100 1:0.00267962 2:0.00280364 
100 1:-0.00299414 2:-0.00471624 
100 1:-0.0042854 2:-0.00631354 
100 1:-0.0028508 2:-0.00871989 
100 1:-0.00351226 2:-0.0100167 
100 1:-0.0044371 2:-0.00681677 
100 1:0.00233123 2:-0.00394726 
100 1:-0.00232103 2:-0.00482791 
100 1:0.000292269 2:-0.00361883 
100 1:0.00926806 2:0.0014448 
100 1:-0.00135312 2:-0.0023234 
100 1:0.00400401 2:-0.00284599 
100 1:0.00379624 2:-0.00324608 
100 1:0.00343294 2:0.00141566 
100 1:0.00417493 2:0.00131156 
100 1:-0.00389161 2:-0.00510245 
100 1:0.000769593 2:-0.00324752 
100 1:-6.1855e-06 2:-0.00509372 
100 1:0.00126622 2:-0.0054861 
100 1:0.00208218 2:-0.00432886 
100 1:-0.00337428 2:-0.00566951 
100 1:-0.00402904 2:-0.00759542 
100 1:0.000935586 2:0.000165752 
100 1:-0.0001186 2:0.000681132 
100 1:-0.00745023 2:-0.0146707 
100 1:-0.00381837 2:-0.00429593 
100 1:-3.23824e-05 2:-0.00184062 
100 1:-0.00139677 2:-0.00106312 
100 1:0.00152343 2:0.00357952 
100 1:-0.00162222 2:-0.00482521 
100 1:0.00325757 2:-0.000832482 
100 1:0.00516305 2:0.00411023 
100 1:-0.000932102 2:-0.00481618 
100 1:-0.00241732 2:-0.00445435 
100 1:0.00424827 2:-0.000657672 
100 1:-0.00235785 2:-0.00230657 
100 1:0.00251659 2:0.0049566 
100 1:0.00816102 2:0.00557265 
100 1:0.00434362 2:0.00274371 
100 1:0.000981909 2:-0.00386302 
100 1:-0.00453406 2:-0.00728935 
100 1:-0.00141458 2:-0.00225831 
100 1:0.00201639 2:-0.00431138 
100 1:0.00251243 2:-0.000447105 
100 1:-0.00340394 2:-0.00366649 
100 1:-0.000260296 2:0.00129671 
100 1:-5.24681e-05 2:-0.00337472 
100 1:0.00558658 2:0.00263991 
100 1:0.000778114 2:0.00234527 
100 1:0.00345005 2:0.00160064 
100 1:0.00614271 2:0.0112231 
100 1:0.00252446 2:0.0009438 
100 1:0.00472253 2:-0.000694254 
100 1:0.00278045 2:-0.0031106 
100 1:0.0102281 2:0.00134688 
100 1:0.00547101 2:0.00779599 
100 1:0.0142737 2:0.00592939 
100 1:2.37873e-05 2:0.00150277 
100 1:0.0036056 2:0.00758271 
100 1:0.00473073 2:0.00558752 
100 1:-0.010629 2:-0.0150525 
100 1:-0.00310544 2:-0.00638977 
100 1:0.00251404 2:0.00330942 
100 1:0.000475337 2:-0.0028566 
100 1:0.00135794 2:-0.0031796 
100 1:-0.00329782 2:-0.00903085 
100 1:0.000647906 2:-0.00265448 
100 1:0.00511993 2:0.00118868 
100 1:0.00859383 2:0.00479302 
100 1:-0.00667147 2:-0.00885593 
100 1:0.00962556 2:-0.00266427 
100 1:0.00440657 2:-0.00173122 
100 1:0.000565286 2:-0.00503064 
100 1:0.00648826 2:0.0037196 
100 1:0.00560895 2:0.00430013 
100 1:0.00135397 2:-0.00137719 
100 1:-0.00155848 2:-0.00317311 
100 1:0.00263017 2:0.00440002 
100 1:0.000337127 2:-0.00985744 
100 1:0.00272326 2:0.0056501 
100 1:0.00479936 2:0.0063859 
100 1:-0.00875549 2:-0.0142852 
100 1:-0.00292354 2:-0.00655546 
100 1:0.00501501 2:0.00585455 
100 1:0.00648691 2:-0.00182336 
100 1:-0.00123138 2:-0.00785114 
100 1:0.00208402 2:0.00471404 
100 1:0.00357513 2:0.00522692 
100 1:-0.000653601 2:-0.00281862 
100 1:0.00617686 2:-0.00159966 
100 1:0.00030618 2:-0.00150546 
100 1:0.00610644 2:-0.00954856 
100 1:-0.00176857 2:-0.00230586 
100 1:0.00020345 2:-0.00200328 
100 1:0.000896243 2:-0.00171316 
100 1:0.00207259 2:-0.00156972 
100 1:-0.00435012 2:-0.00875858 
100 1:0.00432911 2:0.00655472 
100 1:-0.00250647 2:-0.00477267 
100 1:0.00272088 2:-0.00136286 
100 1:0.00243347 2:-0.0106563 
100 1:-0.000384066 2:-0.00320165 
100 1:0.00140817 2:0.00101856 
100 1:-0.00166077 2:-0.0081873 
100 1:0.00139663 2:0.00116305 
100 1:-0.00277119 2:-0.00400808 
100 1:0.00069502 2:-0.00724956 
100 1:-0.00124884 2:-0.00511951 
85.664706178604732 1:-0.0068523 2:-0.0087314 
100 1:0.00242134 2:-0.0028942 
100 1:0.00215438 2:0.00179531 
100 1:-0.00414901 2:-0.00547875 
100 1:0.00684621 2:-0.000702391 
100 1:0.00475164 2:0.00342683 
100 1:0.00341831 2:0.000568643 
100 1:0.00138108 2:0.000503867 
100 1:-0.00170451 2:-0.00276433 
100 1:-0.00567145 2:-0.00717572 
100 1:0.00672333 2:-0.00398107 
100 1:0.00372747 2:0.00289035 
100 1:0.00224162 2:0.00434021 
100 1:-0.00182345 2:-0.00202701 
100 1:-0.00480128 2:-0.00731405 
100 1:-0.00358711 2:-0.00805804 
100 1:-0.00392892 2:-0.00640307 
100 1:0.010628 2:0.0033471 
100 1:-0.00548997 2:-0.0187661 
100 1:0.00147266 2:0.000318599 
100 1:-0.00351267 2:-0.00436338 
100 1:0.00233191 2:0.00491268 
100 1:-0.00199134 2:-0.00291475 
100 1:0.00969033 2:0.00140596 
100 1:-0.0038577 2:-0.00975493 
100 1:0.00390706 2:-0.00785423 
100 1:0.00588706 2:0.00139545 
100 1:0.00763187 2:0.00212011 
100 1:-0.00664717 2:-0.00851798 
100 1:0.00748668 2:0.00227803 
100 1:-0.00107375 2:-0.0121941 
100 1:-0.00509999 2:-0.0102119 
100 1:-0.000110827 2:-0.000656883 
100 1:-0.00067696 2:-0.00668125 
100 1:-0.00176375 2:-0.00230817 
100 1:0.00313384 2:0.00565345 
100 1:0.00040358 2:-0.00180072 
100 1:0.00922301 2:0.00545401 
100 1:-0.000828152 2:-0.00496235 
100 1:0.00236028 2:-0.00743621 
100 1:-0.00800862 2:-0.0113741 
100 1:-0.00350462 2:-0.0072705 
100 1:0.00409581 2:0.00319177 
100 1:0.00315388 2:0.00448213 
100 1:0.00540814 2:0.00269536 
100 1:-0.000810361 2:-0.000411082 
100 1:-0.0120944 2:-0.017997 
100 1:0.00730244 2:0.00583373 
100 1:0.0014401 2:-0.00355727 
100 1:-0.00420453 2:-0.00548374 
100 1:0.00537953 2:0.00408532 
100 1:-0.00174776 2:-0.000818959 
100 1:-0.00569788 2:-0.00768515 
100 1:0.00382705 2:0.00313021 
100 1:0.00681183 2:-0.00742585 
100 1:-0.00443286 2:-0.00515391 
100 1:0.00653269 2:0.00116834 
100 1:-0.00299885 2:-0.00586403 
100 1:-0.0034804 2:-0.00362885 
100 1:-0.00222846 2:-0.00446373 
100 1:-0.00367019 2:-0.00484801 
100 1:-0.00146698 2:-0.00301 
100 1:0.00877184 2:0.00498865 
100 1:-0.00389643 2:-0.00590624 
100 1:0.000532849 2:0.000627728 
100 1:-0.00401716 2:-0.0114112 
100 1:0.00261785 2:0.00190387 
100 1:0.00758346 2:0.00899912 
100 1:0.000401763 2:0.00253249 
100 1:0.00243369 2:0.00523046 
100 1:0.000167543 2:-0.000333319 
100 1:-0.00318778 2:-0.00627394 
100 1:-0.00529615 2:-0.0072201 
100 1:0.00178606 2:-0.00473757 
100 1:0.00349099 2:-0.0004501 
100 1:-0.0032378 2:-0.00599439 
100 1:0.00141703 2:-0.00404718 
100 1:0.0101493 2:0.00400187 
100 1:-0.000526485 2:2.19469e-05 
100 1:0.0021084 2:0.00168557 
100 1:0.0011919 2:0.00316514 
100 1:0.0034668 2:-0.00147082 
100 1:0.0132175 2:-0.00487702 
100 1:-0.00566881 2:-0.00848528 
100 1:0.00229361 2:0.000919031 
100 1:0.0123121 2:0.00315708 
100 1:0.00230143 2:0.00246589 
100 1:0.00114198 2:-0.0052872 
100 1:0.0040808 2:0.00332457 
100 1:0.00368892 2:-0.00215961 
100 1:0.00431631 2:-0.000570985 
100 1:-0.00177547 2:-0.00218821 
100 1:0.002099 2:-0.00181685 
20.551991550491717 1:-0.00614703 2:-0.00764004 
100 1:-0.00461625 2:-0.0134161 
100 1:0.00195218 2:0.00489405 
100 1:0.00249047 2:0.00273288 
100 1:0.00539519 2:0.0038477 
100 1:-0.00380108 2:-0.00697129 
100 1:0.00366573 2:0.00193827 
100 1:-0.00539699 2:-0.0133011 
100 1:0.00415101 2:-0.011993 
100 1:0.00732069 2:0.00463077 
100 1:0.00863264 2:0.00952846 
100 1:0.00675196 2:0.00567544 
100 1:-0.00708549 2:-0.0113199 
100 1:0.00390524 2:0.000684419 
100 1:-0.00180016 2:-0.00104315 
100 1:0.00327543 2:0.0063699 
100 1:-0.00598879 2:-0.0110497 
100 1:0.0020156 2:0.000318428 
100 1:0.00425519 2:-0.00642425 
100 1:-0.00428362 2:-0.00482719 
100 1:0.0060173 2:0.00990098 
100 1:-0.00515663 2:-0.00826865 
100 1:-0.000163975 2:-0.0086226 
100 1:0.00984051 2:0.00236494 
100 1:0.00161108 2:0.00369319 
100 1:-0.00126648 2:-0.0026475 
100 1:-2.33217e-05 2:0.000820909 
100 1:0.0138516 2:0.00476256 
100 1:-0.000984449 2:-0.000744374 
100 1:-0.00259349 2:-0.00424771 
100 1:-0.00133534 2:-0.00260329 
100 1:-0.00134491 2:-0.00212911 
100 1:-0.00167069 2:-0.00288072 
100 1:0.00888609 2:0.00474558 
100 1:0.00367169 2:-0.00796513 
100 1:0.00796906 2:0.00912404 
100 1:0.0122689 2:0.0107259 
100 1:0.00556284 2:-0.00600397 
100 1:0.00216395 2:-0.00680572 
100 1:0.000405893 2:0.00135792 
100 1:-0.00140489 2:-0.00259977 
100 1:0.000353148 2:0.000734213 
100 1:0.00190113 2:0.00369706 
100 1:0.00455925 2:-0.000928062 
100 1:0.00436588 2:-0.00483048 
100 1:-0.000651051 2:-0.000859041 
100 1:-0.00125942 2:-0.0055786 
100 1:0.000578092 2:0.00258617 
100 1:0.0018346 2:0.00407833 
100 1:-1.21786e-05 2:0.000237246 
100 1:0.00413915 2:0.00611323 
100 1:-0.00303142 2:-0.0047679 
100 1:-0.00308054 2:-0.00841045 
100 1:-0.000462362 2:-0.0106584 
100 1:0.00740764 2:0.00854822 
100 1:0.00101024 2:-0.00156937 
100 1:-0.00117691 2:-0.00174241 
100 1:0.00746224 2:0.00261187 
100 1:0.000582448 2:0.00294298 
100 1:0.00524354 2:0.00221787 
100 1:-0.000586272 2:-0.00267023 
100 1:0.00799615 2:0.00436968 
100 1:-9.6312e-05 2:-0.00251348 
100 1:0.00178843 2:0.00397899 
100 1:0.000720856 2:0.00180747 
100 1:-0.00185591 2:-0.00294069 
100 1:-0.00675154 2:-0.0118186 
100 1:0.00133065 2:0.0018983 
100 1:0.0132287 2:-0.000261789 
100 1:0.00259523 2:0.000259492 
100 1:-0.00283097 2:-0.00563034 
100 1:0.00464541 2:-0.0039281 
100 1:0.00280126 2:0.00379962 
100 1:0.00361314 2:-0.00328846 
100 1:0.00370663 2:-0.00119282 
100 1:0.00523862 2:-0.00215561 
100 1:0.00804483 2:0.00455144 
100 1:0.00426132 2:0.00615531 
100 1:0.00205298 2:-0.00107561 
100 1:-0.000308668 2:-0.00392473 
100 1:-0.000562292 2:0.000946448 
100 1:-0.00326177 2:-0.008485 
100 1:-0.00109286 2:-0.000163407 
100 1:-0.000250811 2:0.000366371 
100 1:0.0087325 2:0.0056238 
100 1:-0.000232498 2:0.000443168 
100 1:0.00428248 2:0.00187211 
100 1:0.0047538 2:0.00304 
100 1:0.000921021 2:0.000400477 
100 1:-0.00535196 2:-0.00988389 
100 1:0.0174991 2:0.0160071 
100 1:0.0011002 2:-0.00585853 
100 1:-0.000825985 2:-0.00488826 
100 1:0.00771235 2:0.0057364 
100 1:0.000866291 2:-0.00492828 
100 1:0.00573863 2:-0.00411052 
100 1:-0.00677465 2:-0.0159027 
100 1:-0.0044272 2:-0.00680384 
100 1:0.00757678 2:0.00230181 
100 1:-0.00261315 2:-0.00509469 
100 1:0.00859411 2:0.00370116 
100 1:-0.00153874 2:-0.00156746 
100 1:0.00698438 2:0.00583019 
100 1:0.00663752 2:0.00943058 
100 1:0.00253581 2:-0.00603826 
100 1:-0.00403655 2:-0.00858353 
100 1:-0.00221003 2:-0.00325688 
100 1:0.00574945 2:0.00783818 
100 1:0.00185739 2:0.00335874 
100 1:0.0109604 2:0.00276081 
100 1:-0.000784097 2:-0.00102386 
100 1:-0.00747414 2:-0.0126499 
100 1:0.00435725 2:-2.84542e-05 
100 1:0.000534757 2:0.000466692 
100 1:0.00570903 2:0.0029003 
100 1:0.00639612 2:0.0027911 
100 1:0.00753242 2:0.00444384 
100 1:-0.00698374 2:-0.0103578 
100 1:-0.00504507 2:-0.00619879 
100 1:0.0189911 2:0.00244928 
100 1:0.00210289 2:0.0012326 
100 1:-0.00318381 2:-0.00809393 
100 1:0.00564309 2:-0.0106686 
100 1:0.00166638 2:0.00451008 
100 1:-0.00392329 2:-0.00642766 
100 1:-0.00564768 2:-0.00732802 
100 1:0.000431705 2:0.00143599 
100 1:0.00678009 2:-0.00310915 
100 1:7.59138e-05 2:-6.85091e-05 
100 1:0.00461191 2:-0.00447331 
100 1:0.00145508 2:0.0034118 
100 1:0.00100101 2:0.00190618 
100 1:-0.000225861 2:-0.00328509 
100 1:-0.00209599 2:-0.00292643 
100 1:-0.00557639 2:-0.00958281 
100 1:0.0207999 2:0.00317103 
100 1:-0.00540912 2:-0.0116171 
100 1:0.00459765 2:0.00636924 
100 1:0.00718701 2:0.00774203 
100 1:0.00136381 2:0.00349453 
100 1:-0.00245943 2:-0.00554505 
100 1:0.000198183 2:0.00153941 
100 1:0.0020798 2:-0.00337877 
100 1:0.00916674 2:0.011921 
100 1:-0.00430341 2:-0.0163905 
100 1:0.00743361 2:0.0057384 
100 1:-0.00169772 2:-0.00132638 
100 1:0.0226623 2:0.0036892 
100 1:-0.00109808 2:-0.000868384 
100 1:0.00903373 2:0.00463084 
100 1:0.00872498 2:-0.00642539 
100 1:0.0066386 2:0.000488119 
100 1:-0.00549009 2:-0.0117025 
100 1:-0.00206034 2:-0.00232066 
100 1:0.00974749 2:-0.000761268 
100 1:-0.000620811 2:-0.00123657 
100 1:-0.000314338 2:-0.000613554 
100 1:0.00506025 2:0.00188835 
100 1:-0.00149134 2:-0.00231498 
100 1:-0.00440268 2:-0.0108439 
100 1:0.00422084 2:0.00580552 
100 1:-0.00398918 2:-0.00560739 
100 1:-0.003035 2:-0.00729224 
100 1:-0.00304382 2:-0.00492612 
100 1:-0.00755124 2:-0.00984254 
100 1:-0.00211454 2:-0.00219905 
100 1:0.00809659 2:-0.00177944 
100 1:-6.01382e-07 2:-0.000807419 
100 1:0.00453642 2:-0.000472341 
100 1:0.00445608 2:-0.00115884 
100 1:-0.00337271 2:-0.00977462 
100 1:0.000968626 2:-0.00117002 
100 1:-0.00201454 2:-0.00287222 
100 1:-0.00405016 2:-0.00567774 
100 1:0.00358083 2:0.00215133 
100 1:0.0122837 2:0.00823976 
100 1:0.00403843 2:0.00226325 
100 1:0.000475973 2:-0.000623305 
100 1:-0.000456043 2:-0.0028255 
100 1:-0.00164347 2:-0.00262892 
100 1:0.00309056 2:0.00363746 
100 1:0.00703166 2:0.00246249 
100 1:-0.00326769 2:-0.00699142 
100 1:0.00525706 2:0.00659457 
100 1:0.00156673 2:0.00269626 
100 1:0.00467475 2:0.00934004 
100 1:-0.00663344 2:-0.0178377 
100 1:-7.38417e-05 2:-0.0035092 
100 1:-0.00443496 2:-0.00533489 
100 1:0.013781 2:0.00827925 
100 1:0.0050594 2:0.00597803 
100 1:-0.00646097 2:-0.00869115 
100 1:0.00566193 2:0.00584136 
100 1:-0.00131081 2:-0.00424963 
100 1:0.00287993 2:0.00212492 
100 1:-0.00124827 2:-0.0014971 
100 1:0.00747211 2:-0.00101023 
100 1:0.00249743 2:0.000187433 
100 1:-0.00418096 2:-0.00992757 
100 1:0.00220634 2:0.0036419 
100 1:0.0137112 2:0.0032314 
100 1:0.00368719 2:0.00413444 
100 1:-0.00247624 2:-0.00449627 
100 1:-0.0016427 2:-0.00416366 
100 1:0.000907252 2:0.00113081 
100 1:-0.00385469 2:-0.00564935 
100 1:-0.00322176 2:-0.00503959 
100 1:0.00102525 2:-5.93793e-05 
100 1:0.00514389 2:-0.00278677 
100 1:0.00135223 2:-0.0011377 
100 1:-0.000971984 2:-0.0103723 
100 1:0.00012163 2:-7.71117e-05 
100 1:-0.00311843 2:-0.00338733 
100 1:0.00187133 2:-0.00160578 
100 1:0.00599847 2:0.00687122 
100 1:-0.0026551 2:-0.00316415 
100 1:0.0019517 2:0.00365149 
100 1:-0.00145249 2:-0.00117945 
100 1:0.00462813 2:-0.00953053 
100 1:-8.32563e-05 2:0.000319505 
100 1:0.00350189 2:0.000796632 
100 1:0.0034982 2:-0.00747388 
100 1:0.00373754 2:0.00235115 
100 1:-0.000717107 2:-0.00016247 
100 1:0.000255841 2:-0.0075395 
100 1:0.00600965 2:-0.00270866 
100 1:0.00266455 2:0.00118213 
100 1:-0.00160886 2:-0.00628806 
100 1:7.77846e-05 2:-0.00291021 
100 1:-0.00178256 2:-0.00663773 
100 1:0.00543927 2:0.00751056 
100 1:0.0046751 2:-0.00516247 
100 1:0.0022058 2:-0.00266927 
100 1:0.00339088 2:-0.00492385 
100 1:0.00282615 2:0.00191554 
100 1:0.00035648 2:-0.000221682 
100 1:-0.00238573 2:-0.00893641 
100 1:-0.00228331 2:-0.00450796 
100 1:0.00374703 2:0.00712574 
100 1:0.00188763 2:-0.00549151 
100 1:0.00940695 2:-0.00151587 
100 1:0.00130663 2:0.00228877 
100 1:-0.00526618 2:-0.00899564 
100 1:-0.00468108 2:-0.00910998 
100 1:-0.00395269 2:-0.00658281 
100 1:0.00181048 2:-0.00331948 
100 1:0.00939561 2:-0.00817365 
100 1:0.00325588 2:0.00250733 
100 1:-0.000140133 2:0.000988614 
100 1:0.00170451 2:-0.00103887 
100 1:-0.00181007 2:-0.00868057 
100 1:0.00560431 2:0.000730028 
100 1:0.00569959 2:0.00334096 
100 1:0.00131023 2:-0.000552724 
100 1:-0.00108788 2:-0.0016251 
100 1:-0.0143522 2:-0.0237753 
100 1:-0.00123029 2:-0.0061662 
100 1:0.00324106 2:-0.000602133 
100 1:0.00265299 2:0.00262916 
100 1:-0.00201261 2:-0.00663159 
100 1:0.00264714 2:0.00211601 
100 1:-0.000279747 2:-0.00242442 
100 1:0.000351052 2:-0.00946438 
100 1:-0.000377063 2:0.00037436 
100 1:-0.00545349 2:-0.00703837 
100 1:0.00567401 2:0.00636472 
100 1:-0.00299046 2:-0.00532075 
100 1:-0.00279637 2:-0.00711457 
100 1:-0.00539358 2:-0.00799424 
100 1:-0.0025273 2:-0.0111985 
100 1:0.00661335 2:0.00725606 
100 1:0.0050303 2:0.00837151 
100 1:-0.00466235 2:-0.00583879 
100 1:0.00279617 2:0.00316623 
100 1:0.00355252 2:0.00213483 
100 1:0.005031 2:-0.00181789 
100 1:0.00759014 2:0.000623389 
100 1:0.00301383 2:0.00490241 
100 1:0.000235602 2:-0.00507865 
100 1:0.00230046 2:-0.00266955 
100 1:0.00671492 2:0.0108341 
100 1:0.00785812 2:0.00958594 
100 1:0.00688159 2:0.00307771 
100 1:0.00186684 2:0.00100143 
100 1:0.00270618 2:-0.00108556 
100 1:-0.00048744 2:-0.00878248 
100 1:0.00209124 2:0.00529364 
100 1:-0.00315849 2:-0.00332894 
100 1:0.0051576 2:0.00845193 
100 1:0.00236416 2:-0.00170291 
100 1:0.00683066 2:-0.00246948 
100 1:-0.000595337 2:-0.000714445 
100 1:0.00492125 2:-0.00204012 
100 1:0.00697943 2:0.00558737 
100 1:-0.00138043 2:-0.00153659 
100 1:-0.000308459 2:-0.00104011 
100 1:0.00853719 2:0.00844572 
100 1:0.00537666 2:0.00220426 
100 1:-0.00486579 2:-0.00571117 
100 1:-0.00103869 2:-0.00232274 
100 1:0.0027482 2:-0.00431067 
100 1:-0.0014244 2:-0.00223714 
100 1:0.00176778 2:0.00140452 
100 1:0.0152853 2:0.00617734 
100 1:0.00289234 2:0.00168568 
100 1:-0.00401317 2:-0.0064118 
100 1:0.00166442 2:0.00314846 
100 1:-0.0104689 2:-0.0246585 
100 1:0.00264998 2:0.0021158 
100 1:0.00665436 2:-0.0041723 
100 1:-0.00139401 2:-0.00565561 
100 1:-0.00404605 2:-0.00439363 
100 1:-0.00293739 2:-0.005537 
100 1:0.00120054 2:-0.00768419 
100 1:0.00307557 2:0.000345625 
100 1:-0.00128763 2:-0.00199866 
100 1:0.00527906 2:-0.00350793 
100 1:0.00123419 2:0.00123832 
100 1:-1.81656e-06 2:-0.00131145 
100 1:0.0012364 2:0.00183212 
100 1:-0.00722727 2:-0.0101965 
100 1:0.00473659 2:0.00651455 
100 1:0.00356367 2:0.00313536 
100 1:0.00769493 2:0.010731 
100 1:0.00445348 2:0.00313273 
100 1:-0.00137515 2:-0.00433772 
100 1:0.00103988 2:0.000498864 
100 1:0.00161226 2:-2.40945e-05 
100 1:0.00895287 2:-0.00104028 
100 1:0.00965305 2:0.00866838 
100 1:0.000678601 2:-0.00307608 
100 1:-0.00133128 2:-0.00323617 
100 1:0.0079553 2:1.49808e-05 
100 1:-0.0088941 2:-0.0136958 
100 1:0.0110892 2:0.00212313 
100 1:0.000174127 2:-0.00110253 
100 1:-0.00183847 2:-0.00208795 
100 1:0.00101941 2:0.000992853 
100 1:0.00462717 2:2.79658e-05 
100 1:-0.00110237 2:-0.00126895 
100 1:0.00403628 2:-0.00613504 
100 1:-0.00159089 2:-0.00566201 
100 1:-0.00114345 2:-0.00875082 
100 1:0.0122022 2:-0.00177223 
100 1:0.000449473 2:0.00258598 
100 1:-0.000844472 2:-0.00131408 
100 1:-0.00183032 2:-0.00192785 
100 1:-0.00173998 2:-0.000802192 
100 1:0.00218721 2:-0.000529315 
100 1:0.00727145 2:0.00545439 
100 1:1.17616e-05 2:0.00146704 
100 1:0.00217985 2:-0.00297878 
100 1:0.00805644 2:0.00568002 
100 1:0.0053514 2:-0.00138936 
100 1:0.00230906 2:-0.00180857 
100 1:-0.000356673 2:-0.00465106 
100 1:0.00588265 2:-0.00244877 
100 1:0.00339057 2:0.00493102 
100 1:-0.00372852 2:-0.00486604 
100 1:0.00283043 2:-0.00186758 
100 1:-0.00222422 2:-0.00751881 
100 1:0.00445467 2:0.00733353 
100 1:0.00928517 2:0.00752622 
100 1:0.00108809 2:0.001568 
100 1:-0.00281975 2:-0.00800025 
100 1:0.00180864 2:0.00408116 
100 1:0.00319368 2:0.00405505 
100 1:0.00016282 2:-0.000438349 
100 1:0.0129624 2:0.00466933 
100 1:-0.00130903 2:-0.0013376 
100 1:-0.00192516 2:-0.00138527 
100 1:0.00300224 2:4.24016e-05 
100 1:-0.00221001 2:-0.00405938 
100 1:0.00775964 2:0.000415568 
100 1:0.00289396 2:0.00568462 
100 1:0.0013259 2:-0.000871142 
100 1:0.00821846 2:0.0060571 
100 1:0.0100471 2:0.00509823 
100 1:0.000888496 2:-0.0046495 
100 1:0.0062151 2:0.00614914 
100 1:-0.00339526 2:-0.00961551 
100 1:0.00503458 2:-0.00789663 
100 1:0.0023607 2:0.00316609 
100 1:-0.00584968 2:-0.0180172 
100 1:0.007652 2:0.00250913 
100 1:0.000258926 2:0.00180167 
100 1:0.000920857 2:-0.00266585 
100 1:-0.000654751 2:-0.00187462 
100 1:-0.00351256 2:-0.00436338 
100 1:0.00464216 2:-0.00155911 
100 1:0.0032132 2:0.00462163 
100 1:-0.00223063 2:-0.00254833 
100 1:0.00229447 2:-0.00164959 
100 1:-0.000144587 2:0.00159707 
100 1:-0.00446442 2:-0.0150592 
100 1:-9.75046e-05 2:-0.00778247 
100 1:-0.00189033 2:-0.00210953 
100 1:-0.00486187 2:-0.0114789 
100 1:0.000733905 2:0.00253526 
100 1:-0.00198856 2:-0.00297554 
100 1:-0.00068232 2:6.62614e-05 
100 1:-0.00350117 2:-0.00438782 
100 1:-0.00679449 2:-0.00905703 
100 1:0.00316883 2:0.00685377 
100 1:0.00525447 2:0.00639181 
100 1:-0.00548879 2:-0.0090308 
100 1:-0.00148854 2:-0.00353469 
100 1:-0.000755109 2:-0.00214582 
100 1:0.00403945 2:0.0040628 
100 1:0.000945604 2:-0.00111964 
100 1:0.00537357 2:0.00917563 
100 1:0.0110381 2:0.00774434 
100 1:-0.00229905 2:-0.0016833 
100 1:0.00345458 2:-0.000117273 
100 1:0.00625079 2:-0.000985517 
100 1:0.00148136 2:0.00419667 
100 1:0.00933696 2:0.00208188 
100 1:-6.40114e-05 2:3.93497e-05 
100 1:0.00413921 2:0.00611296 
100 1:0.0109435 2:0.00771805 
100 1:0.00127915 2:0.0024757 
100 1:0.00199257 2:0.00234293 
100 1:0.00581723 2:-0.0150954 
100 1:0.012063 2:0.000242989 
100 1:0.00492205 2:0.0052302 
100 1:0.00373611 2:0.00437559 
100 1:0.00790396 2:-5.41091e-05 
100 1:-0.00314091 2:-0.00416912 
100 1:0.00195361 2:-0.0040665 
100 1:0.00319046 2:0.00443719 
100 1:-0.00290864 2:-0.00442927 
100 1:0.00186786 2:0.00414711 
100 1:0.00178224 2:0.00243634 
100 1:0.00456044 2:0.00149094 
100 1:0.00589751 2:0.00846837 
100 1:0.00228521 2:0.00460448 
100 1:-0.0011864 2:-0.000813036 
100 1:-0.000939804 2:-0.000661765 
100 1:0.0161084 2:0.000547346 
100 1:0.00472758 2:0.00438877 
100 1:0.00462882 2:0.00840738 
100 1:-0.00205291 2:-0.00338657 
100 1:0.0137045 2:-0.00325412 
100 1:-0.00236773 2:-0.00231058 
100 1:0.00638393 2:0.00313952 
100 1:0.000858366 2:-0.000474332 
100 1:0.00284501 2:0.000879425 
100 1:-0.00313428 2:-0.00778005 
100 1:-0.003047 2:-0.00417989 
100 1:0.00153319 2:0.000659408 
100 1:0.00887499 2:-0.00165528 
100 1:-0.00084856 2:-0.00588574 
100 1:-0.00137546 2:-0.000646373 
100 1:-0.00628698 2:-0.00899137 
100 1:0.0164742 2:0.00746628 
100 1:-0.003692 2:-0.0079276 
100 1:-6.03607e-05 2:-0.00111196 
100 1:0.0179905 2:4.27978e-05 
100 1:0.00820277 2:-0.000745806 
100 1:0.00220116 2:-0.00776925 
100 1:0.000994553 2:-0.00706244 
100 1:0.00080034 2:0.0030074 
100 1:0.000735876 2:-0.00356295 
100 1:-0.00543609 2:-0.00723526 
100 1:0.00194055 2:0.0036748 
100 1:-0.00109422 2:-0.00559198 
100 1:-2.84046e-05 2:0.00133247 
100 1:0.00121685 2:-0.00180332 
100 1:0.00624266 2:0.00446998 
100 1:0.0045775 2:-0.00490395 
100 1:0.00574658 2:0.0107213 
100 1:0.00354455 2:0.00437094 
100 1:0.00676442 2:0.000593017 
100 1:0.00832648 2:0.00376177 
100 1:-0.00754676 2:-0.00984225 
100 1:0.00314236 2:0.00564508 
100 1:-0.00045634 2:-0.00479941 
100 1:0.0022271 2:0.0046402 
100 1:4.24633e-05 2:-0.00135349 
100 1:-0.0043652 2:-0.00647201 
100 1:0.00325271 2:0.00178493 
100 1:0.0140608 2:0.00462315 
100 1:0.00107824 2:-0.0012028 
100 1:0.0029863 2:-0.00508747 
100 1:0.0114628 2:0.00987119 
100 1:0.0104963 2:0.0105715 
100 1:0.00631823 2:-0.00222154 
100 1:0.000333441 2:0.00228288 
100 1:0.0022911 2:0.00232445 
100 1:0.00565225 2:0.00154196 
100 1:-0.000384714 2:-0.00374232 
100 1:0.00144366 2:0.00108773 
100 1:-0.00310065 2:-0.00290406 
100 1:-0.00484604 2:-0.00707911 
100 1:0.00850534 2:0.013866 
100 1:-0.002144 2:-0.00478306 
100 1:0.00441103 2:0.00484512 
100 1:-0.00279954 2:-0.00527163 
100 1:0.00268855 2:0.000999419 
100 1:-0.0019615 2:-0.00314594 
100 1:-2.03046e-05 2:-0.00184083 
100 1:-0.0049061 2:-0.00863208 
100 1:0.00252909 2:0.00449874 
100 1:0.0113466 2:0.00612494 
100 1:0.00998469 2:0.000527948 
100 1:-0.00136359 2:-0.00079005 
100 1:-0.000292826 2:-0.00194155 
100 1:0.00155536 2:0.000394658 
100 1:0.00304516 2:0.00140513 
100 1:0.00695283 2:0.00398454 
100 1:-0.00230641 2:-0.00321402 
100 1:-0.00694825 2:-0.0121401 
100 1:0.00193055 2:0.00432003 
100 1:-0.00989091 2:-0.0146477 
100 1:-0.00399991 2:-0.00973864 
100 1:-0.000153182 2:-0.000850048 
100 1:0.00465303 2:0.00591963 
100 1:-0.00377784 2:-0.00834237 
100 1:0.00925438 2:0.0083226 
100 1:0.00504696 2:0.00353839 
100 1:0.00125942 2:-0.00700503 
100 1:-0.00597835 2:-0.00833828 
100 1:0.0034842 2:-0.00105802 
100 1:-0.00231577 2:-0.00384256 
100 1:0.00131449 2:-0.00301443 
100 1:0.00660779 2:0.00456801 
100 1:-0.00191016 2:-0.00162413 
100 1:0.0017425 2:0.000327724 
100 1:0.00688654 2:0.00169219 
100 1:0.00213342 2:0.00343885 
100 1:0.000750761 2:-0.00216152 
100 1:0.00787469 2:0.00510754 
100 1:-0.0021971 2:-0.00548684 
100 1:0.00782753 2:-0.00055096 
100 1:0.00666382 2:-0.000695909 
100 1:0.00302176 2:0.00059576 
100 1:0.00574381 2:0.0108541 
100 1:0.00181285 2:0.00374105 
100 1:-0.00432732 2:-0.00505086 
100 1:0.00519846 2:-0.000741077 
100 1:0.00311102 2:0.00200448 
100 1:-0.00277799 2:-0.00400813 
100 1:0.000805274 2:0.00286493 
100 1:0.00716338 2:0.00225393 
100 1:0.00375049 2:0.0040786 
100 1:-0.00161699 2:-0.00406952 
100 1:0.00238244 2:0.00209666 
100 1:-0.00237018 2:-0.00198896 
100 1:-0.00328441 2:-0.00366466 
100 1:-0.000581615 2:-0.00265023 
100 1:0.0117144 2:0.00304441 
100 1:0.0118679 2:0.0117907 
100 1:-0.000722167 2:-0.00143323 
100 1:0.00180452 2:0.00282694 
100 1:0.0166079 2:-0.00387905 
100 1:0.00329464 2:0.000858053 
100 1:0.000346443 2:-0.0013811 
100 1:0.000348656 2:0.000902351 
100 1:-0.00705203 2:-0.0113622 
100 1:0.00691676 2:0.000160213 
100 1:-8.93733e-05 2:0.000714431 
100 1:0.00766177 2:-0.00127648 
100 1:-0.0031002 2:-0.00948853 
100 1:0.00277668 2:-0.00474455 
100 1:0.0111847 2:0.0063899 
100 1:0.00107449 2:0.00090414 
100 1:0.00029976 2:-0.00020181 
100 1:-0.00104464 2:-0.00389652 
100 1:1.1722e-05 2:0.00146733 
100 1:0.00621134 2:0.00481683 
100 1:-0.00365095 2:-0.00378592 
100 1:0.00474318 2:0.00339047 
100 1:0.0024251 2:0.00386711 
100 1:-0.00164934 2:-0.0035567 
100 1:0.00442818 2:0.00308377 
100 1:0.00451836 2:-0.000929974 
100 1:0.000728308 2:-0.00573551 
100 1:0.00117505 2:-0.00323944 
100 1:-0.000585719 2:-0.00058984 
100 1:-0.002559 2:-0.00445321 
100 1:-3.41487e-05 2:-0.0014084 
100 1:-0.00044157 2:-0.00127405 
100 1:-0.000766895 2:-0.00551988 
100 1:-0.00188514 2:-0.00184431 
100 1:0.00262231 2:-0.00258773 
100 1:0.00646917 2:-0.0223422 
100 1:-0.00677853 2:-0.0159036 
100 1:-0.000300257 2:-0.000675261 
100 1:0.00987825 2:0.00546706 
100 1:-0.00504017 2:-0.00724437 
100 1:0.0023937 2:0.00351225 
100 1:0.000415345 2:0.00136495 
-100 1:-0.00086468 2:-0.00956045 
-100 1:0.00656935 2:-0.00879815 
-100 1:0.00603339 2:-0.022501 
-100 1:0.00293758 2:-0.0154395 
-100 1:-0.00147663 2:-0.0229377 
-100 1:0.0102906 2:-0.0105829 
-100 1:0.0107257 2:-0.0178507 
-100 1:0.00991559 2:-0.00343973 
-100 1:-0.00486409 2:-0.0256518 
-100 1:-0.0162112 2:0.271688 
-100 1:0.00610584 2:-0.0136221 
-100 1:0.00183774 2:-0.0229622 
-100 1:0.00685082 2:-0.025189 
-100 1:0.00403102 2:-0.0145808 
-100 1:0.00124847 2:-0.0135117 
-100 1:0.00927855 2:-0.0101767 
-100 1:0.00791625 2:-0.0197587 
-100 1:0.016073 2:-0.00636933 
-100 1:-0.020959 2:0.0621192 
-100 1:0.0148829 2:-0.011188 
-100 1:0.0113706 2:-0.0158493 
-100 1:0.00930951 2:-0.0191294 
-100 1:0.00822455 2:-0.0160927 
-100 1:0.00406806 2:-0.0156841 
-100 1:0.0159807 2:-0.00807868 
-100 1:0.00821968 2:-0.0207162 
-100 1:-0.0516266 2:0.998322 
-100 1:-0.30735 2:0.502471 
-100 1:0.00790117 2:-0.0156034 
-100 1:0.0114255 2:-0.0184234 
-100 1:0.00456254 2:-0.00908639 
-100 1:0.0032347 2:-0.0270258 
-100 1:0.00862718 2:-0.00771537 
-100 1:0.00620136 2:-0.0112245 
-100 1:0.0136975 2:-0.00941721 
-100 1:0.00728491 2:-0.0232677 
-100 1:0.00674319 2:-0.0249491 
-100 1:0.0361683 2:0.0393115 
-100 1:0.00655771 2:-0.0254229 
-100 1:0.0127331 2:-0.0126376 
-100 1:0.00884857 2:-0.0179293 
-100 1:0.0126078 2:-0.0122251 
-100 1:0.0123237 2:-0.0168806 
-100 1:0.00784313 2:-0.017483 
-100 1:0.0160447 2:-0.0103434 
-100 1:0.00553514 2:-0.0182496 
-100 1:0.00839452 2:-0.0210295 
-100 1:-0.00628767 2:-0.00206473 
-100 1:-0.354115 2:0.876341 
-100 1:0.00714268 2:-0.0114292 
-100 1:0.0124605 2:-0.0168079 
-100 1:0.0137202 2:-0.0123229 
-100 1:0.012429 2:-0.0171373 
-100 1:0.00745713 2:-0.0182121 
-100 1:0.00777338 2:-0.0151896 
-100 1:0.00661083 2:-0.0200699 
-100 1:0.00234593 2:-0.0307197 
-100 1:0.0115267 2:-0.0137131 
-100 1:0.0139556 2:-0.0141766 
-100 1:0.00996414 2:-0.0169361 
-100 1:0.0097346 2:-0.0135896 
-100 1:0.00612867 2:-0.0222263 
-100 1:0.0111029 2:-0.0160249 
-100 1:-0.0437728 2:0.86136 
-100 1:0.00739755 2:-0.0222741 
-100 1:0.00473488 2:-0.0204701 
-100 1:0.00495574 2:-0.0077921 
-100 1:0.00471968 2:-0.0163274 
-100 1:0.00664349 2:-0.025441 
-100 1:0.0147561 2:-0.0124993 
-100 1:0.0135282 2:-0.0109674 
-100 1:0.0200081 2:-0.0028186 
-100 1:0.00747442 2:-0.0241744 
-100 1:0.00301044 2:-0.024173 
-100 1:0.00601386 2:-0.0175878 
-100 1:0.00758895 2:-0.0113153 
-100 1:0.00141047 2:-0.022975 
-100 1:0.00134889 2:-0.00665115 
-100 1:0.0120966 2:-0.00310484 
-100 1:0.0125611 2:-0.0123875 
-100 1:0.0124427 2:-0.0161022 
-100 1:0.0125908 2:-0.0158477 
-100 1:0.0158467 2:-0.00822982 
-100 1:0.00804947 2:-0.013756 
-100 1:0.00597993 2:-0.0197626 
-100 1:0.00847343 2:-0.0227612 
-100 1:0.0123416 2:-0.00307856 
-100 1:-0.000328802 2:-0.0256088 
-100 1:0.0112966 2:-0.0157662 
-100 1:0.0146098 2:-0.013365 
-100 1:0.00733732 2:-0.0178096 
-100 1:0.0139354 2:-0.00806 
-100 1:0.0040584 2:-0.0223093 
-100 1:0.0117362 2:-0.0162265 
-100 1:0.0152845 2:-0.00791352 
-100 1:0.00863279 2:-0.0138976 
-100 1:0.0125796 2:-0.00930617 
-100 1:0.000334693 2:-0.0102396 
-100 1:0.00980919 2:-0.0193965 
-100 1:0.0164261 2:-0.0060039 
-100 1:0.0165924 2:-0.00931617 
-100 1:0.00579059 2:-0.0177897 
-100 1:0.0033904 2:-0.0123815 
-100 1:-0.0885437 2:0.99482 
-100 1:0.00672568 2:-0.0239939 
-100 1:0.0107597 2:-0.0153166 
-100 1:-0.000296108 2:-0.0201365 
-100 1:0.00239378 2:-0.0175632 
-100 1:0.00343761 2:-0.0176171 
-100 1:0.00765735 2:-0.02003 
-100 1:0.00775655 2:-0.0214248 
-100 1:0.0108668 2:-0.0184872 
-100 1:0.00702877 2:-0.0213977 
-100 1:0.0762415 2:0.327143 
-100 1:0.0114782 2:-0.0182771 
-100 1:0.00524945 2:-0.0267529 
-100 1:5.83773e-05 2:-0.00474581 
-100 1:0.00319422 2:-0.0177618 
-100 1:0.0133302 2:-0.01363 
-100 1:0.0125474 2:-0.015683 
-100 1:0.00726038 2:-0.0146022 
-100 1:0.00726226 2:-0.011945 
-100 1:0.00647302 2:-0.0221388 
-100 1:0.0105683 2:-0.0164924 
-100 1:0.00464429 2:-0.0188758 
-100 1:0.0045806 2:0.00203077 
-100 1:0.00983323 2:-0.0207825 
-100 1:0.00266397 2:-0.0276691 
-100 1:0.00491541 2:-0.022973 
-100 1:0.0112209 2:-0.0122968 
-100 1:0.00948693 2:-0.0208182 
-100 1:0.00863373 2:-0.019142 
-100 1:0.00945225 2:-0.0167725 
-100 1:0.00049968 2:-0.0244381 
-100 1:0.0073669 2:-0.0222612 
-100 1:0.00359984 2:-0.00814061 
-100 1:0.0133216 2:-0.0148979 
-100 1:-0.0111668 2:0.3688 
-100 1:0.00866232 2:-0.0212586 
-100 1:0.00617852 2:-0.0145668 
-100 1:0.00233673 2:-0.022354 
-100 1:0.00431282 2:-0.0148605 
-100 1:0.012829 2:-0.0161033 
-100 1:0.000947775 2:-0.00909927 
-100 1:0.0128726 2:-0.0155099 
-100 1:0.00759607 2:-0.0185443 
-100 1:0.0141694 2:-0.0118747 
-100 1:0.0118021 2:-0.0147836 
-100 1:0.00649037 2:-0.014292 
-100 1:0.0081985 2:-0.0186585 
-100 1:0.00944373 2:-0.00128527 
-100 1:0.0126303 2:-0.015319 
-100 1:0.0138685 2:-0.0138604 
-100 1:0.00667925 2:-0.022504 
-100 1:0.00508241 2:-0.0228616 
-100 1:0.00500177 2:-0.0254866 
-100 1:0.00809636 2:-0.0213401 
-100 1:0.00957879 2:-0.0131562 
-100 1:0.00896404 2:-0.00626178 
-100 1:0.00879576 2:-0.0127228 
-100 1:0.00505629 2:-0.0135603 
-100 1:0.00926003 2:-0.0180351 
-100 1:0.010419 2:-0.018229 
-100 1:0.0104625 2:-0.0156537 
-100 1:0.00794287 2:-0.0124665 
-100 1:0.00113552 2:-0.0191393 
-100 1:0.00735726 2:-0.0195552 
-100 1:0.00715019 2:-0.014572 
-100 1:0.0144483 2:-0.00597578 
-100 1:0.0103872 2:-0.0198927 
-100 1:0.00711181 2:-0.0239201 
-100 1:0.00353819 2:-0.000532759 
-100 1:0.00788864 2:-0.0210887 
-100 1:0.0107087 2:-0.0191171 
-100 1:0.00881979 2:-0.0159182 
-100 1:0.00823902 2:-0.0225505 
-100 1:0.0100832 2:-0.0162338 
-100 1:0.0127397 2:-0.014384 
-100 1:0.011459 2:-0.0122914 
-100 1:0.0114505 2:-0.0169079 
-100 1:0.00521438 2:-0.0141448 
-100 1:0.00831713 2:-0.0174542 
-100 1:0.00936133 2:-0.0162361 
-100 1:0.0132116 2:-0.0125572 
-100 1:0.00726161 2:-0.0197377 
-100 1:0.0118906 2:-0.0175944 
-100 1:0.0101067 2:-0.0183778 
-100 1:0.0114291 2:-0.0184342 
-100 1:0.0125398 2:-0.0158852 
-100 1:0.00834646 2:-0.0193994 
-100 1:0.0107199 2:-0.0126818 
-100 1:0.00944217 2:-0.0174915 
-100 1:0.0115204 2:-0.0157737 
-100 1:0.013879 2:-0.0126383 
-100 1:0.0115963 2:-0.0137754 
-100 1:0.00595641 2:-0.0188203 
-100 1:0.009632 2:-0.0209605 
-100 1:0.00640805 2:-0.0154457 
-100 1:0.0138716 2:-0.00518027 
-100 1:0.00917263 2:-0.0144518 
-100 1:0.00686858 2:-0.0101301 
-100 1:0.00160739 2:-0.0270763 
-100 1:0.0096168 2:-0.0182095 
-100 1:0.0113633 2:-0.0147633 
-100 1:0.00602232 2:-0.0211911 
-100 1:0.00612106 2:-0.0189898 
-100 1:0.0106689 2:-0.016754 
-100 1:0.0113149 2:-0.0164355 
-100 1:0.00651386 2:-0.0251214 
-100 1:0.00915847 2:-0.0213523 
-100 1:0.0094895 2:-0.0214758 
-100 1:-0.10619 2:0.991983 
-100 1:0.00843704 2:-0.0144197 
-100 1:0.0117372 2:-0.0145123 
-100 1:0.0133954 2:-0.0129431 
-100 1:0.00960966 2:-0.0133745 
-100 1:0.0122662 2:-0.0119472 
-100 1:0.00473679 2:-0.0254744 
-100 1:0.0125156 2:-0.0151383 
-100 1:0.000459096 2:-0.0133783 
-100 1:0.0143369 2:-0.0103184 
-100 1:0.00560599 2:-0.0108643 
-100 1:0.00623893 2:-0.0221508 
-100 1:0.0076385 2:-0.0157488 
-100 1:0.0108208 2:-0.0154501 
-100 1:0.00644545 2:-0.0229591 
-100 1:0.00688539 2:-0.0159615 
-100 1:0.00960609 2:-0.0208324 
-100 1:0.00801322 2:-0.0172855 
-100 1:0.00861036 2:-0.0207517 
-100 1:0.0115649 2:-0.0110125 
-100 1:-0.0477326 2:0.319764 
-100 1:0.00878009 2:-0.0154266 
-100 1:0.00478382 2:-0.0158692 
-100 1:0.0116393 2:-0.00963123 
-100 1:0.00763311 2:-0.0227029 
-100 1:0.0079801 2:-0.0216412 
-100 1:0.00643473 2:-0.0209728 
-100 1:0.0125568 2:-0.0145614 
-100 1:0.015852 2:-0.0088474 
-100 1:0.0135476 2:-0.0125899 
-100 1:0.00856015 2:-0.0227395 
-100 1:0.00640793 2:-0.0249824 
-100 1:0.00851057 2:-0.0176473 
-100 1:0.00870886 2:-0.00729345 
-100 1:0.0126458 2:-0.016402 
-100 1:0.00569934 2:-0.0164573 
-100 1:0.0060531 2:-0.0174438 
-100 1:-0.00433924 2:-0.0271909 
-100 1:0.00410903 2:-0.0211207 
-100 1:0.00900194 2:-0.0143151 
-100 1:0.00684659 2:-0.0244403 
-100 1:0.0123976 2:-0.00697048 
-100 1:-0.0945004 2:0.979816 
-100 1:0.00427905 2:-0.0121557 
-100 1:0.00361564 2:-0.0075377 
-100 1:0.0126956 2:-0.0122957 
-100 1:-0.0068092 2:-0.0315429 
-100 1:0.0163867 2:-0.00770297 
-100 1:0.00765676 2:-0.0206398 
-100 1:0.00795237 2:-0.0205263 
-100 1:0.00247187 2:-0.0229571 
-100 1:0.0122509 2:-0.0162693 
-100 1:0.00889017 2:-0.0139415 
-100 1:0.00116765 2:-0.024878 
-100 1:0.00207213 2:-0.0171773 
-100 1:0.005796 2:-0.0226251 
-100 1:0.00546229 2:-0.0171646 
-100 1:0.00707155 2:-0.0219357 
-100 1:0.00713857 2:-0.0160898 
-100 1:0.0115399 2:-0.0178073 
-100 1:0.00733657 2:-0.0174867 
-100 1:0.00584351 2:-0.018801 
-100 1:0.00744705 2:-0.0165346 
-100 1:0.0103845 2:-0.0168748 
-100 1:0.00912504 2:-0.0210887 
-100 1:0.000137174 2:-0.0101816 
-100 1:0.00846906 2:-0.0229136 
-100 1:-0.00235336 2:-0.0360752 
-100 1:0.0108008 2:-0.0195227 
-100 1:0.00265483 2:-0.00921466 
-100 1:0.00810473 2:-0.0222195 
-100 1:0.00322064 2:-0.0111353 
-100 1:0.00841793 2:-0.0208234 
-100 1:0.0119873 2:-0.0151898 
-100 1:0.0119969 2:-0.0104298 
-100 1:0.00774331 2:-0.0177812 
-100 1:0.00635205 2:-0.0201764 
-100 1:0.00021361 2:-0.0159332 
-100 1:0.00347569 2:-0.0240037 
-100 1:0.00937097 2:-0.0200066 
-100 1:0.00891543 2:-0.0195552 
-100 1:0.010382 2:-0.0181041 
-100 1:0.00759867 2:-0.0208936 
-100 1:0.0152913 2:-0.0116046 
-100 1:0.00970021 2:-0.019575 
-100 1:0.0130431 2:-0.0137605 
-100 1:-0.000750967 2:-0.0158845 
-100 1:0.0106793 2:-0.0168305 
-100 1:0.00864486 2:-0.0143824 
-100 1:0.00701802 2:-0.00944297 
-100 1:0.00755625 2:-0.0189428 
-100 1:0.00479838 2:-0.0272202 
-100 1:-0.00177948 2:-0.0200612 
-100 1:0.013517 2:-0.0147638 
-100 1:0.0168468 2:-0.00714893 
-100 1:0.00254402 2:-0.0220376 
-100 1:0.00642558 2:-0.0179182 
-100 1:0.0133839 2:-0.00386748 
-100 1:0.0055004 2:-0.0105115 
-100 1:0.0125088 2:-0.0153248 
-100 1:0.00231006 2:-0.0161907 
-100 1:0.00804002 2:-0.0227911 
-100 1:0.00557912 2:-0.0207147 
-100 1:0.0138688 2:-0.00624479 
-100 1:0.00564806 2:-0.0226245 
-100 1:0.00961063 2:-0.0205218 
-100 1:0.0092095 2:-0.0199498 
-100 1:0.0100697 2:-0.0150755 
-57.538140966665729 1:0.0200211 2:-0.00537865 
-100 1:0.0144092 2:-0.0105198 
-100 1:0.00897823 2:-0.0165296 
-100 1:0.0164481 2:-0.0094253 
-100 1:0.0100356 2:-0.0157024 
-100 1:0.0107437 2:-0.016767 
-100 1:0.00483721 2:-0.0236046 
-100 1:0.0102382 2:-0.0168659 
-100 1:0.0104026 2:-0.0197536 
-100 1:-0.000213932 2:-0.0140422 
-100 1:0.0120311 2:-0.0102126 
-100 1:0.0101344 2:-0.0173537 
-100 1:0.012317 2:-0.0141816 
-100 1:0.00870008 2:-0.00518669 
-100 1:0.00974799 2:-0.0096 
-100 1:0.00602714 2:-0.0236535 
-100 1:0.00867088 2:-0.0165279 
-100 1:0.00354346 2:-0.0158662 
-100 1:0.00507945 2:-0.0122566 
-100 1:0.007587 2:-0.0078148 
-100 1:0.00273795 2:-0.00691664 
-100 1:0.0079879 2:-0.00928805 
-100 1:0.00748153 2:-0.0118889 
-100 1:0.00515144 2:-0.0156241 
-100 1:0.00811307 2:-0.0140453 
-100 1:0.00489195 2:-0.0235773 
-100 1:0.0107257 2:-0.0166585 
-100 1:0.00042923 2:-0.0111813 
-100 1:0.00891726 2:-0.0200703 
-100 1:0.00875375 2:-0.00821313 
-100 1:0.0118269 2:-0.017439 
-100 1:0.0152582 2:-0.012636 
-100 1:0.00666796 2:-0.0227593 
-100 1:0.00345092 2:-0.0234412 
-100 1:0.00868937 2:-0.00608678 
-100 1:0.0107402 2:-0.0185812 
-100 1:0.00400882 2:-0.0145829 
-100 1:0.00999354 2:-0.0170421 
-100 1:0.00048027 2:-0.0189553 
-100 1:0.00764855 2:-0.0216325 
-100 1:0.012407 2:-0.0132986 
-100 1:0.0101198 2:-0.00928332 
-100 1:0.00999376 2:-0.0180527 
-100 1:0.000930684 2:-0.0186992 
-100 1:0.00642115 2:-0.0184003 
-100 1:0.0111018 2:-0.0157608 
-100 1:0.0158853 2:-0.00240903 
-100 1:0.00853737 2:-0.018804 
-100 1:0.0116468 2:-0.0164922 
-100 1:0.0135962 2:-0.0100735 
-100 1:0.00912696 2:-0.0172006 
-100 1:0.00583451 2:-0.0119493 
-100 1:0.00868125 2:-0.0211714 
-100 1:0.00541073 2:-0.0140952 
-100 1:-0.168474 2:0.83392 
-100 1:0.00712201 2:-0.0212272 
-100 1:0.0130496 2:-0.0139193 
-100 1:0.011451 2:-0.0186391 
-100 1:0.010794 2:-0.00358222 
-100 1:0.00997365 2:-0.0108155 
-100 1:0.00610977 2:-0.0213403 
-100 1:0.012072 2:-0.0161853 
-100 1:0.00173301 2:-0.0214271 
-100 1:0.00865208 2:-0.0193977 
-100 1:0.00748529 2:-0.0149436 
-100 1:0.0036265 2:-0.0224504 
-100 1:0.00530168 2:-0.0150933 
-100 1:0.00610927 2:-0.0122088 
-100 1:0.0134441 2:-0.0105375 
-100 1:0.00609924 2:-0.0220141 
-100 1:-0.00205227 2:-0.028326 
-100 1:0.0123558 2:-0.0165895 
-100 1:0.00559983 2:-0.0200784 
-100 1:0.0057459 2:-0.0254766 
-100 1:0.00667461 2:-0.0225021 
-100 1:0.00830081 2:-0.0212854 
-100 1:-0.0111722 2:0.954219 
-100 1:0.0161688 2:-0.00800079 
-100 1:0.0144617 2:-0.0134331 
-100 1:0.00431052 2:-0.0248438 
-100 1:0.0119473 2:-0.0163028 
-100 1:0.00218551 2:-0.014639 
-100 1:0.00333847 2:-0.0277492 
-100 1:0.0120414 2:-0.0142502 
-100 1:0.00979077 2:-0.0160385 
-100 1:0.0101609 2:-0.0176436 
-100 1:0.0163327 2:-0.009698 
-100 1:0.00581765 2:-0.0155286 
-100 1:0.00612422 2:-0.0180332 
-100 1:0.00879717 2:-0.0204261 
-100 1:0.007755 2:-0.010635 
-100 1:0.00603023 2:-0.0214065 
-100 1:0.00529626 2:-0.0204721 
-100 1:0.0133531 2:-0.0157809 
-100 1:0.00974988 2:-0.0163049 
-100 1:0.00111907 2:-0.0223562 
-100 1:0.0116962 2:-0.0173973 
-100 1:0.00278802 2:-0.024495 
-100 1:0.00741491 2:-0.00732634 
-100 1:0.00957748 2:-0.0167894 
-100 1:0.0116602 2:-0.0158048 
-100 1:0.00703279 2:-0.0237756 
-100 1:0.00973661 2:-0.0188007 
-100 1:0.00680556 2:-0.0161709 
-100 1:0.0105835 2:-0.0192457 
-100 1:0.00330576 2:-0.0140878 
-100 1:0.00956435 2:-0.0165339 
-100 1:0.00248359 2:-0.0213745 
-100 1:0.0128717 2:-0.00446438 
-100 1:0.00707262 2:-0.0190403 
-100 1:0.0134464 2:-0.00241492 
-100 1:0.00532923 2:-0.0129384 
-100 1:0.0152241 2:-0.0073245 
-100 1:0.0133932 2:-0.0101358 
-100 1:0.00979309 2:-0.0109959 
-100 1:-0.00415346 2:-0.00986146 
-100 1:-0.0362595 2:0.147825 
-100 1:0.00984386 2:-0.00809637 
-100 1:0.0144228 2:-0.00996437 
-100 1:0.00564739 2:-0.0180537 
-100 1:0.010377 2:-0.0170785 
-100 1:0.00945672 2:-0.0162519 
-100 1:-0.0942473 2:0.995076 
-100 1:0.0122875 2:-0.014026 
-100 1:0.0153686 2:-0.0123497 
-100 1:0.0111998 2:-0.0160946 
-100 1:0.00253334 2:-0.0233333 
-100 1:0.00417679 2:-0.0163457 
-100 1:0.00845393 2:-0.0211943 
-100 1:0.00963092 2:-0.020619 
-100 1:0.00280267 2:-0.00696605 
-100 1:7.7912e-05 2:-0.0255964 
-100 1:0.0117599 2:-0.00986279 
-100 1:0.00449656 2:-0.0188158 
-100 1:0.016533 2:-7.5066e-05 
-100 1:0.000517829 2:-0.00986707 
-100 1:0.00861248 2:-0.0127867 
-100 1:0.00840748 2:-0.0197562 
-100 1:0.00929238 2:-0.0148955 
-100 1:0.0076044 2:-0.0241068 
-100 1:0.00588793 2:-0.0206616 
-100 1:-0.000885179 2:-0.0194817 
-100 1:0.00717541 2:-0.0137315 
-100 1:0.00403653 2:-0.0226742 
-100 1:0.00734212 2:-0.0215637 
-100 1:0.0114689 2:-0.014194 
-100 1:-0.00892052 2:-0.0328922 
-100 1:0.0105342 2:-0.0178252 
-100 1:0.00462208 2:-0.0223367 
-100 1:0.00677525 2:-0.00299917 
-100 1:0.0110954 2:-0.0172837 
-100 1:0.00449911 2:-0.0132672 
-100 1:0.0142114 2:-0.0093087 
-100 1:0.00696432 2:-0.0155576 
-100 1:0.00141577 2:-0.0252907 
-100 1:0.0154945 2:-0.00463964 
-100 1:0.0104976 2:-0.0172042 
-100 1:0.0146447 2:-0.0132259 
-100 1:-0.0485041 2:0.992079 
-100 1:0.00493932 2:-0.0185278 
-100 1:0.007691 2:-0.0204577 
-100 1:0.0077316 2:-0.0226653 
-100 1:0.00540686 2:-0.0129627 
-100 1:0.011407 2:-0.0171073 
-100 1:0.00533401 2:-0.0149521 
-100 1:0.015207 2:-0.0125343 
-100 1:0.00900975 2:-0.0121248 
-100 1:0.00912569 2:-0.014215 
-100 1:0.011209 2:-0.0181936 
-100 1:0.00752911 2:-0.0156777 
-100 1:0.0104981 2:-0.010921 
-100 1:0.00540285 2:-0.0115611 
-100 1:0.0105912 2:-0.0079225 
-100 1:0.0139374 2:-0.0116787 
-100 1:0.0152175 2:-0.0109008 
-100 1:0.000759029 2:-0.014444 
-100 1:0.014669 2:-0.0128765 
-100 1:0.00557414 2:-0.019115 
-100 1:0.00610878 2:-0.0222953 
-100 1:0.00183433 2:-0.0294416 
-100 1:0.0165271 2:-0.00775509 
-100 1:0.00995756 2:-0.0164283 
-100 1:0.0066544 2:-0.0243005 
-100 1:0.0109271 2:-0.0189011 
-100 1:0.0137991 2:-0.00762848 
-100 1:-0.00566593 2:-0.00309303 
-100 1:0.00697852 2:-0.0238106 
-100 1:0.0104614 2:-0.0149565 
-100 1:0.00967453 2:-0.0193375 
-100 1:0.0155064 2:-0.0122072 
-100 1:0.00604299 2:-0.0201923 
-100 1:0.0100665 2:-0.0197965 
-100 1:0.00558501 2:-0.0191722 
-100 1:0.00303497 2:-0.0115575 
-100 1:0.00402617 2:-0.0281122 
-100 1:0.0146543 2:-0.0128243 
-100 1:0.00858225 2:-0.0207195 
-100 1:0.00944209 2:-0.00546193 
-100 1:0.00518856 2:-0.0224926 
-100 1:0.00994243 2:-0.0191025 
-100 1:0.00842517 2:-0.0171811 
-100 1:0.0161201 2:-0.00721157 
-100 1:0.00405913 2:-0.024264 
-100 1:0.005453 2:-0.0182431 
-100 1:0.00839183 2:-0.0228289 
-100 1:0.014323 2:-0.00850864 
-100 1:0.00694065 2:-0.0224293 
-100 1:0.00257207 2:-0.0148089 
-100 1:0.00948106 2:-0.01706 
-100 1:0.0127671 2:-0.0117779 
-100 1:0.0104017 2:-0.0201985 
-100 1:0.0068878 2:-0.0217856 
-100 1:0.00956479 2:-0.00958721 
-100 1:0.0128642 2:-0.0135799 
-100 1:0.00996618 2:-0.019137 
-100 1:0.00563179 2:-0.0105284 
-100 1:0.0113354 2:-0.0123518 
-100 1:0.00711949 2:-0.0179705 
-100 1:0.0146039 2:-0.0133748 
-100 1:0.0103692 2:-0.0202749 
-100 1:0.0123945 2:-0.00741754 
-100 1:0.00230568 2:-0.0183948 
-100 1:-0.000362942 2:-0.0161867 
-100 1:0.00493893 2:-0.019406 
-100 1:0.0102435 2:-0.0183355 
-100 1:0.00795027 2:-0.015157 
-100 1:0.00715983 2:-0.00198785 
-100 1:0.0135795 2:-0.0147224 
-100 1:0.00659353 2:-0.0160585 
-100 1:0.00487143 2:-0.0224347 
-100 1:0.00340607 2:-0.0272433 
-100 1:0.0111296 2:-0.0163138 
-100 1:0.00355838 2:-0.0169693 
-100 1:0.00241692 2:-0.0287331 
-100 1:0.00347921 2:-0.0286331 
-100 1:0.00629413 2:-0.00721275 
-100 1:0.00857562 2:-0.0214996 
-100 1:0.0071542 2:-0.0207423 
-100 1:0.0127626 2:-0.0118176 
-100 1:0.0052671 2:-0.0161444 
-100 1:0.00906806 2:-0.0197882 
-100 1:0.00859511 2:-0.0158259 
-100 1:0.0112183 2:-0.0148516 
-100 1:0.0041193 2:-0.00239396 
-100 1:0.0100862 2:-0.0171249 
-100 1:0.00936492 2:-0.0159627 
-100 1:0.00983283 2:-0.0119197 
-100 1:0.00834816 2:-0.0170422 
-100 1:0.00467418 2:-0.0161296 
-100 1:0.0110683 2:-0.00926531 
-100 1:0.0103908 2:-0.0195298 
-100 1:0.00898499 2:-0.00818103 
-100 1:0.00229589 2:-0.0203939 
-100 1:0.00586065 2:-0.0201942 
-100 1:0.0104044 2:-0.00875622 
-100 1:0.00364563 2:-0.00843818 
-100 1:0.00629491 2:-0.0261409 
-100 1:0.00813779 2:-0.00608238 
-100 1:0.0016367 2:-0.0220119 
-100 1:0.000115658 2:-0.0166912 
-100 1:0.00847595 2:-0.0194236 
-100 1:-0.0065692 2:-0.0275209 
-100 1:0.013412 2:-0.0112664 
-100 1:0.0646099 2:0.463612 
-100 1:0.00513808 2:-0.0201827 
-100 1:0.00765186 2:-0.0237836 
-100 1:0.0108462 2:-0.0137892 
-100 1:0.00458982 2:-0.0262461 
-100 1:0.0041021 2:-0.0149171 
-100 1:0.00307252 2:-0.0275371 
-100 1:0.0098037 2:-0.0142291 
-100 1:0.0134341 2:-0.0141229 
-100 1:0.00939511 2:-0.0193185 
-100 1:0.00807547 2:-0.0237986 
-100 1:0.000624875 2:-0.0238569 
-100 1:0.0121122 2:-0.0066331 
-100 1:0.00127359 2:-0.0305319 
-100 1:0.00219559 2:-0.0243726 
-100 1:0.0051727 2:-0.0111054 
-100 1:0.0104981 2:-0.0186839 
-100 1:-0.000692004 2:-0.031415 
-100 1:0.0128978 2:-0.0154046 
-100 1:0.0124155 2:-0.0120104 
-100 1:0.00100763 2:-0.0284494 
-100 1:0.000607738 2:-0.0165952 
-100 1:0.00520644 2:-0.0202486 
-100 1:0.00789017 2:-0.0159526 
-100 1:0.00242092 2:-0.0242258 
-100 1:0.0146475 2:-0.011621 
-100 1:0.00803305 2:-0.0197701 
-100 1:0.00162925 2:-0.0108808 
-100 1:0.0107008 2:-0.0192825 
-100 1:0.0094349 2:-0.0202745 
-100 1:0.00964644 2:-0.0154213 
-100 1:0.0109449 2:-0.0158281 
-100 1:0.0140927 2:-0.0137673 
-100 1:0.0101082 2:-0.0189102 
-100 1:0.0579264 2:0.122509 
-100 1:0.00540145 2:-0.0270122 
-100 1:0.00889555 2:-0.0107056 
-100 1:0.00931163 2:-0.020848 
-100 1:0.0120624 2:-0.0136474 
-100 1:0.00963295 2:-0.0167635 
-100 1:0.00397737 2:-0.026879 
-100 1:0.00631537 2:-0.0227828 
-100 1:0.00641139 2:-0.0130258 
-100 1:0.00667166 2:-0.023142 
-100 1:0.00805084 2:-0.0231843 
-100 1:0.00983982 2:-0.0185541 
-100 1:0.0093952 2:-0.0207731 
-100 1:0.00461292 2:-0.0268221 
-100 1:0.0129443 2:-0.0137119 
-100 1:0.0051241 2:-0.0228642 
-100 1:0.00553634 2:-0.0117621 
-100 1:0.00833976 2:-0.0218253 
-100 1:0.0079524 2:-0.0205262 
-100 1:0.0073073 2:-0.0221143 
-100 1:0.00544482 2:-0.0129397 
-100 1:0.0301557 2:0.0696489 
-100 1:0.0121938 2:-0.0130462 
-100 1:0.00894919 2:-0.0187239 
-100 1:0.0148983 2:-0.0118773 
-100 1:0.011756 2:-0.0149969 
-100 1:0.00313999 2:-0.0176897 
-100 1:-0.0079481 2:-0.024636 
-100 1:0.0109287 2:-0.0167212 
-100 1:0.00638947 2:-0.0160603 
-100 1:-0.168738 2:0.833822 
-100 1:0.00531187 2:-0.0155818 
-100 1:0.0118898 2:-0.012566 
-100 1:0.0139601 2:-0.00984864 
-100 1:0.00598931 2:-0.0146929 
-100 1:-0.00422993 2:-0.0162102 
-100 1:0.00565911 2:-0.0185418 
-100 1:0.00315956 2:-0.0152523 
-100 1:0.00394974 2:-0.0171456 
-100 1:0.0129494 2:-0.0159252 
-100 1:0.00771879 2:-0.0207443 
-100 1:0.00456167 2:-0.0141831 
-100 1:0.00388619 2:-0.0174932 
-100 1:0.00786405 2:-0.0227484 
-100 1:0.0102209 2:-0.0196834 
-100 1:0.01047 2:-0.0109215 
-100 1:0.0120286 2:-0.0112695 
-100 1:0.00141612 2:-0.0193758 
-100 1:0.00598946 2:-0.0158654 
-100 1:0.0102516 2:-0.0191586 
-100 1:0.0112516 2:-0.0178435 
-100 1:0.00239256 2:-0.0304084 
-100 1:0.00716467 2:-0.0163312 
-100 1:0.00220056 2:-0.0189538 
-100 1:0.00213716 2:-0.0180676 
-100 1:-0.000918347 2:-0.0179982 
-100 1:0.00420368 2:-0.0198907 
-100 1:0.00135729 2:-0.0322538 
-100 1:0.00858864 2:-0.023051 
-100 1:0.00997489 2:-0.0162021 
-100 1:0.00198703 2:-0.030964 
-100 1:0.00767013 2:-0.023165 
-100 1:-0.00195126 2:-0.0273836 
-100 1:0.010823 2:-0.0183433 
-100 1:0.0111822 2:-0.0182426 
-100 1:0.00974964 2:-0.0183642 
-100 1:0.0126366 2:-0.0159914 
-100 1:0.00770406 2:-0.0188397 
-100 1:0.0077011 2:-0.0194847 
-100 1:0.00733446 2:-0.0151895 
-100 1:0.00942389 2:-0.0174515 
-100 1:0.00322053 2:-0.0237667 
-100 1:0.00261321 2:-0.0247607 
-100 1:0.0117465 2:-0.0162917 
-100 1:0.010554 2:-0.0117935 
-100 1:0.00674601 2:-0.0234595 
-100 1:0.0107322 2:-0.0143308 
-100 1:0.0082878 2:-0.0226317 
-100 1:0.00760226 2:-0.0244142 
-100 1:0.00626808 2:-0.0153535 
-100 1:0.0106314 2:-0.0193336 
-100 1:0.0144338 2:-0.00789631 
-100 1:8.87421e-06 2:-0.0266943 
-100 1:0.011186 2:-0.01898 
-100 1:0.0082478 2:-0.0232442 
-100 1:0.00956384 2:-0.0185139 
-100 1:0.00711827 2:-0.0216299 
-100 1:0.00550515 2:-0.023849 
-100 1:0.00294043 2:-0.0088117 
-100 1:0.00481686 2:-0.0249803 
-100 1:0.00346168 2:-0.0199666 
-100 1:0.0104569 2:-0.0179838 
-100 1:0.0112919 2:-0.012438 
-100 1:0.00379527 2:-0.0161806 
-100 1:0.0112791 2:-0.0174004 
-100 1:0.00986945 2:-0.0121637 
-100 1:0.00584036 2:-0.0188011 
-100 1:0.011477 2:-0.0159678 
-100 1:0.0129 2:-0.0157777 
-100 1:0.00324073 2:-0.0256481 
-100 1:0.00299716 2:0.00387025 
-100 1:0.00513819 2:-0.0113322 
-100 1:0.0114734 2:-0.0156578 
-100 1:0.0116309 2:-0.0182214 
-100 1:0.00565843 2:-0.0159775 
-100 1:0.00694275 2:-0.0208677 
-100 1:0.00479173 2:-0.0260332 
-100 1:0.0117893 2:-0.017331 
-100 1:0.0124275 2:-0.0170102 
-100 1:0.013056 2:-0.00690199 
-100 1:0.00955646 2:-0.00202076 
-100 1:0.0119861 2:-0.0155959 
-100 1:0.00748521 2:-0.0164189 
-100 1:0.00857698 2:-0.0106151 
-100 1:0.00384054 2:-0.0256614 
-100 1:0.0142697 2:-0.0138779 
-100 1:0.0133444 2:-0.0156703 
-100 1:0.00236924 2:-0.01677 
-100 1:0.00808445 2:-0.0102655 
-100 1:0.00610067 2:-0.01739 
-100 1:0.0090933 2:-0.0181785 
-100 1:0.00498604 2:-0.0247815 
-100 1:-0.000380822 2:-0.0217742 
-100 1:0.012319 2:-0.0163277 
-100 1:0.0140062 2:-0.0138935 
-100 1:0.00633853 2:-0.0251386 
-100 1:0.0127955 2:-0.015021 
-100 1:0.00849287 2:-0.0185977 
-100 1:0.0168605 2:-0.00896042 
-100 1:0.0104294 2:-0.0131026 
-100 1:0.00707757 2:-0.0218755 
-100 1:0.00363396 2:-0.0182839 
-100 1:0.00207708 2:-0.0105014 
-100 1:0.00424763 2:-0.0288793 
-100 1:0.0081209 2:-0.0219389 
-100 1:0.00956362 2:-0.0210925 
-100 1:-0.00116197 2:-0.00805062 
-100 1:0.00915687 2:-0.0168202 
-100 1:-0.0875534 2:0.794543 
-100 1:0.00910527 2:-0.0196123 
-100 1:0.0141091 2:-0.013637 
-100 1:6.08445e-05 2:-0.0242557 
-100 1:0.00884537 2:-0.0218179 
-100 1:0.00781922 2:-0.0142653 
-100 1:0.00818485 2:-0.0219679 
-100 1:-0.000834484 2:-0.0196449 
-100 1:0.0121437 2:-0.0133062 
-100 1:0.0109067 2:-0.0127731 
-100 1:0.00884854 2:-0.0179289 
-100 1:0.00378403 2:-0.0214898 
-100 1:0.00772012 2:-0.020489 
-100 1:0.000927796 2:-0.00857958 
-100 1:-0.00176242 2:-0.014126 
-100 1:0.0159668 2:-0.00943039 
-100 1:0.0056429 2:-0.02674 
-100 1:0.000338161 2:-0.0155208 
-100 1:0.00346251 2:-0.0222827 
-100 1:0.0153095 2:-0.0118224 
-100 1:0.0149418 2:-0.0131 
-100 1:0.00847956 2:-0.01944 
-100 1:0.0126806 2:-0.0038869 
-100 1:0.00627552 2:-0.0187344 
-100 1:0.0107694 2:-0.0161656 
-100 1:-0.171157 2:0.830219 
-100 1:0.0011406 2:-0.0179208 
-100 1:0.00726009 2:-0.020025 
-100 1:0.004873 2:-0.0285773 
-100 1:0.00963052 2:-0.0162381 
-100 1:0.00496146 2:-0.0229011 
-100 1:0.00711987 2:-0.020905 
-100 1:0.00832221 2:-0.0201965 
-100 1:0.00154668 2:-0.0236328 
-100 1:0.0105462 2:-0.0188943 
-100 1:0.00152028 2:-0.0210939 
-100 1:0.0136088 2:-0.010859 
-100 1:0.00215643 2:-0.0100504 
-100 1:0.00981728 2:-0.0142164 
-100 1:0.0133862 2:-0.0114887 
-100 1:0.00139926 2:-0.0127409 
-100 1:0.0019173 2:-0.0146413 
-100 1:0.00150455 2:-0.0221351 
-100 1:0.0104565 2:-0.018801 
-100 1:0.00715985 2:-0.0182009 
-100 1:0.00520217 2:-0.018929 
-100 1:-0.000821847 2:-0.018758 
-100 1:0.00630155 2:-0.0184683 
-100 1:0.00189606 2:-0.019042 
-100 1:0.00467342 2:-0.015434 
-100 1:0.0120821 2:-0.0110201 
-100 1:0.0114323 2:-0.0110587 
-100 1:0.00488802 2:-0.016894 
-100 1:0.0042083 2:-0.020265 
-100 1:0.00883749 2:-0.0161742 
-100 1:0.0102216 2:-0.0145176 
-100 1:0.0079385 2:-0.0238568 
-100 1:0.00419574 2:-0.0189897 
-100 1:0.00490875 2:-0.0233062 
-100 1:0.00599718 2:-0.0224863 
-100 1:0.00587962 2:-0.0196557 
-100 1:0.0144132 2:-0.0140524 
-100 1:0.0119849 2:-0.0106292 
-100 1:0.00882592 2:-0.0203549 
-100 1:0.0103277 2:-0.00920171 
-100 1:0.00321433 2:-0.0230303 
-100 1:0.0098248 2:-0.0187487 
-100 1:0.00446685 2:-0.0142031 
-100 1:0.000169723 2:-0.0301593 
-100 1:0.00493718 2:-0.0220817 
-100 1:0.00676972 2:-0.0132063 
-100 1:0.00774721 2:-0.0207443 
-100 1:0.00801925 2:-0.0239484 
-100 1:0.0126665 2:-0.0146443 
-100 1:0.0143491 2:-0.0106793 
-100 1:0.00962972 2:-0.0189558 
-100 1:0.00770637 2:-0.0228644 
-100 1:0.00565128 2:-0.0239464 
-100 1:0.00870768 2:-0.0201003 
-100 1:0.0100985 2:-0.0101423 
-100 1:0.00720472 2:-0.0160719 
-100 1:0.00650411 2:-0.0161683 
-100 1:0.00864897 2:-0.019379 
-100 1:0.0132429 2:-0.0153819 
-100 1:0.0151378 2:-0.0105156 
-100 1:0.0108438 2:-0.0181025 
-100 1:0.00719737 2:-0.0162246 
-100 1:0.00191344 2:-0.0165819 
-100 1:0.0158317 2:-0.0114853 
-100 1:0.00507817 2:-0.0250002 
-100 1:0.00515087 2:-0.0180443 
-100 1:0.0111752 2:-0.0156168 
-100 1:0.000859654 2:-0.023845 
-100 1:0.000717474 2:-0.0234613 
-100 1:0.00926658 2:-0.0138212 
-100 1:0.00750704 2:-0.0228263 
-100 1:0.00863602 2:-0.0183777 
-100 1:0.0134153 2:-0.0152645 
-100 1:0.0125154 2:-0.0164368 
-100 1:0.00451044 2:-0.0187469 
-100 1:0.00736112 2:-0.0173693 
-100 1:0.00679204 2:-0.0230709 
-100 1:0.0109349 2:-0.0184135 
-100 1:0.00429868 2:-0.026949 
-100 1:0.0130338 2:-0.0113761 
-100 1:0.0112362 2:-0.0148136 
-100 1:0.00244763 2:-0.0172045 
-100 1:-0.00366101 2:-0.0189718 
-100 1:0.00385482 2:-0.0252108 
-100 1:0.00545243 2:-0.0137967 
-100 1:0.00806666 2:-0.0179327 
-100 1:0.00379178 2:-0.0209416 
-100 1:0.00205917 2:-0.0212693 
-100 1:0.00856261 2:-0.0167495 
-100 1:0.00881412 2:-0.0128601 
-100 1:0.0151056 2:-0.0101593 
-100 1:0.0115347 2:-0.0127752 
-100 1:0.00375004 2:-0.0213417 
-100 1:0.00990778 2:-0.00895631 
-100 1:0.0072176 2:-0.0243967 
-100 1:0.00600725 2:-0.0166314 
-100 1:0.00921319 2:-0.0162978 
-100 1:0.00508556 2:-0.0233888 
-100 1:0.00149433 2:-0.0123413 
-100 1:0.0127262 2:-0.0117833 
-100 1:0.00799759 2:-0.018453 
-100 1:0.0150879 2:-0.00428793 
-100 1:0.00606481 2:-0.0191434 
-100 1:0.00202665 2:-0.0205443 
-100 1:0.0107642 2:-0.0162483 
-100 1:0.00814713 2:-0.0201247 
-100 1:0.0118141 2:-0.0125071 
-100 1:0.00687999 2:-0.0238693 
-100 1:0.01475 2:-0.0126086 
-100 1:0.00607775 2:-0.0191744 
-100 1:0.00778001 2:-0.0227608 
-100 1:0.00806003 2:-0.0206764 
-100 1:0.0118871 2:-0.0109008 
-100 1:0.00953298 2:-0.0196997 
-100 1:0.00244307 2:-0.00778758 
-100 1:0.0133617 2:-0.0134366 
-100 1:0.0086954 2:-0.0200559 
-100 1:0.00743086 2:-0.016201 
-100 1:6.42727e-05 2:-0.0203961 
-100 1:0.0113694 2:-0.00968853 
-100 1:0.0091633 2:-0.0141345 
-100 1:-0.00423453 2:-0.00979219 
-100 1:-0.00161122 2:-0.0238315 
-100 1:0.0076586 2:-0.0147734 
-100 1:0.0128016 2:-0.0134922 
-100 1:0.00713205 2:-0.0235074 
-100 1:0.00406905 2:-0.0228811 
-100 1:0.00245898 2:-0.0217345 
-100 1:0.00958676 2:-0.0213933 
-100 1:0.00973914 2:-0.0207631 
-100 1:0.0154443 2:-0.0115484 
-100 1:0.00805628 2:-0.0196989 
-100 1:0.00662561 2:-0.0233769 
-100 1:0.00938391 2:-0.0212621 
-100 1:0.00713902 2:-0.0232356 
-100 1:0.00826826 2:-0.0163624 
-100 1:0.010599 2:-0.0141667 
-100 1:0.0102791 2:-0.0155275 
-100 1:0.0120784 2:-0.0167998 
-100 1:0.00392338 2:-0.0181484 
-100 1:0.00981087 2:-0.0144524 
-100 1:0.00792314 2:-0.0184558 
-100 1:0.00517823 2:-0.0130318 
-100 1:0.0115508 2:-0.0134427 
-100 1:0.00871418 2:-0.0212286 
-100 1:0.00141396 2:-0.0125263 
-100 1:0.00361789 2:-0.0196528 
-100 1:0.00593674 2:-0.0169899 
-100 1:0.00496512 2:-0.0250891 
-100 1:0.0120468 2:-0.0139491 
-100 1:0.00916345 2:-0.0221216 
-100 1:0.00467154 2:-0.020473 
-100 1:0.00589516 2:-0.0165207 
-100 1:0.00237979 2:-0.00255463 
-100 1:0.0142636 2:-0.0132607 
-100 1:0.00970251 2:-0.0108644 
-100 1:0.00441207 2:-0.0282878 
-100 1:0.0103956 2:-0.0197494 
-100 1:0.00590792 2:-0.0184308 
-100 1:0.00771799 2:-0.00826325 
-100 1:0.0070972 2:-0.0170115 
-100 1:0.0110569 2:-0.00884826 
-100 1:0.0109946 2:-0.0187661 
-100 1:0.00430948 2:-0.0216227 
-100 1:0.000640188 2:0.00214187 
-100 1:0.00409604 2:-0.0203495 
-100 1:0.0131833 2:-0.00869965 
-100 1:0.0132349 2:-0.0151069 
-100 1:0.00589998 2:-0.0184575 
-100 1:0.0104299 2:-0.0169134 
-100 1:0.0116374 2:-0.0117761 
-100 1:0.00831225 2:-0.0129767 
-100 1:0.0077133 2:-0.0214012 
-100 1:0.0108917 2:-0.00140944 
-100 1:0.00756399 2:-0.0243799 
-100 1:0.00847225 2:-0.0188278 
-100 1:0.00928547 2:-0.0204157 
-100 1:0.0088812 2:-0.019746 
-100 1:0.0116902 2:-0.0125529 
-100 1:0.00387217 2:-0.0160367 
-100 1:0.000714152 2:-0.0129703 
-100 1:0.00928046 2:-0.0193542 
-100 1:-0.00265118 2:-0.0214038 
-100 1:0.0103227 2:-0.0168331 
-100 1:0.00482624 2:-0.0072609 
-100 1:0.0108442 2:-0.0116587 
-100 1:0.00829085 2:-0.0216306 
-100 1:0.0119043 2:-0.0152971 
-100 1:0.0120435 2:-0.0122364 
-100 1:0.0106301 2:-0.00746034 
-100 1:-0.0034348 2:-0.0176268 
-100 1:0.0128154 2:-0.00168566 
-100 1:0.0103814 2:-0.00494687 
-100 1:0.0170055 2:-0.00929157 
-100 1:0.00984909 2:-0.0113531 
-100 1:0.00233535 2:-0.0188287 
-100 1:-0.41243 2:0.853644 
-100 1:0.0143805 2:-0.00771596 
-100 1:0.0127833 2:-0.0151888 
-100 1:0.00611833 2:-0.0193641 
-100 1:0.0104025 2:-0.0144253 
-100 1:0.00847293 2:-0.015425 
-100 1:0.00103051 2:-0.02262 
-100 1:0.0138127 2:-0.0124328 
-100 1:0.0119146 2:-0.0168685 
-100 1:0.015084 2:-0.0112911 
-100 1:0.0103572 2:-0.0194728 
-100 1:0.00537393 2:-0.0138036 
-100 1:0.0118776 2:-0.0116857 
-100 1:0.0139603 2:-0.0125098 
-100 1:0.0138725 2:-0.0149928 
-100 1:0.00507326 2:-0.0249999 
-100 1:0.0077445 2:-0.0241053 
-100 1:0.00759081 2:-0.00615378 
-100 1:0.012427 2:-0.0159516 
-100 1:0.00797855 2:-0.0176049 
-100 1:0.00473248 2:-0.0269646 
-100 1:0.00767642 2:-0.0145881 
-100 1:0.0062095 2:-0.014151 
-100 1:0.00346099 2:-0.0275939 
-100 1:-0.000690665 2:-0.0244463 
-100 1:0.0105619 2:-0.019392 
-100 1:0.0108249 2:-0.00397754 
-100 1:0.00756103 2:-0.0150395 
-100 1:0.0129086 2:-0.0149528 
-100 1:0.00830732 2:-0.0185119 
-100 1:0.0080341 2:-0.0199521 
-100 1:-0.00242996 2:-0.0188241 
-100 1:0.0113218 2:-0.0164669 
-100 1:0.00173612 2:-0.0127818 
-100 1:0.0076439 2:-0.0243686 
-100 1:0.00645062 2:-0.019145 
-100 1:0.0110924 2:-0.0143745 
-100 1:0.00493373 2:-0.0262957 
-100 1:0.012349 2:-0.0131512 
-100 1:0.00146275 2:-0.0226799 
-100 1:0.0112688 2:-0.0110351 
-100 1:0.0112903 2:-0.0114991 
-100 1:0.0170671 2:-0.00511408 
-100 1:0.0133104 2:-0.0143045 
-100 1:0.00524683 2:-0.0159043 
-100 1:-0.00224252 2:-0.016041 
-100 1:0.00517826 2:-0.0143627 
-100 1:0.0158019 2:-0.00793002 
-100 1:0.00610766 2:-0.0184403 
-100 1:0.00789071 2:-0.0169483 
-100 1:0.00582865 2:-0.0217077 
-100 1:0.00733337 2:-0.0131107 
-100 1:0.0076352 2:-0.0234866 
-100 1:0.00932149 2:-0.00980438 
-100 1:0.000278157 2:-0.0233466 
-100 1:0.00843323 2:-0.0120001 
-100 1:-0.00505243 2:-0.00574133 
-100 1:0.00029938 2:-0.0104409 
-100 1:0.0162203 2:-0.00352049 
-100 1:0.0112075 2:-0.0179294 
-100 1:0.0129185 2:-0.00959507 
-100 1:0.00178067 2:-0.0161941 
-100 1:0.00919721 2:-0.0179715 
-100 1:0.0149666 2:-0.00709775 
-100 1:0.00921433 2:-0.00979112 
-100 1:0.00778369 2:-0.0209871 
-100 1:0.00651951 2:-0.0177669 
-100 1:0.00794831 2:-0.0178403 
-100 1:0.00606744 2:-0.00421797 
-100 1:0.0126925 2:-0.0127018 
-100 1:0.00738546 2:-0.0133729 
-100 1:0.00620588 2:-0.0187223 
-100 1:0.013816 2:-0.0138653 
-100 1:0.00862708 2:-0.0209255 
-100 1:0.013092 2:-0.0146341 
-100 1:0.0122689 2:-0.0138597 
-100 1:0.0053408 2:-0.0237511 
-100 1:0.00797944 2:0.0251784 
-100 1:0.0077525 2:-0.0228213 
-100 1:0.0138433 2:-0.00783052 
-100 1:0.00144083 2:-0.0129533 
-100 1:0.00895688 2:-0.016357 
-100 1:0.00496433 2:-0.022951 
-100 1:0.0130123 2:-0.0146451 
-100 1:0.00966615 2:-0.0168983 
-100 1:0.00349948 2:-0.0253669 
-100 1:0.00498388 2:-0.0219083 
-100 1:0.00845891 2:-0.0134502 
-100 1:0.0141716 2:-0.0133366 
-100 1:0.00739946 2:-0.0116246 
-100 1:0.0115027 2:-0.0175324 
-100 1:0.0103341 2:-0.0169501 
-100 1:0.00641006 2:-0.0147805 
-100 1:0.00812845 2:-0.0205247 
-100 1:0.00738333 2:-0.0241871 
-100 1:0.00941835 2:-0.0214039 
-100 1:0.0053108 2:-0.0204916 
-100 1:0.0146466 2:-0.0133137 
-100 1:0.00439252 2:-0.0221477 
-100 1:-0.0452263 2:0.250112 
-100 1:0.00992399 2:-0.0198774 
-100 1:0.0110389 2:-0.0179875 
-100 1:0.0055651 2:-0.00827928 
-100 1:0.00311465 2:-0.0293133 
-100 1:0.0103033 2:-0.0162359 
-100 1:0.00387028 2:-0.0146686 
-100 1:0.00398821 2:-0.014251 
-100 1:0.00468407 2:-0.0208612 
-100 1:0.00633864 2:-0.024863 
-100 1:0.000295125 2:-0.00912967 
-100 1:0.00443598 2:-0.0198921 
-100 1:0.0092808 2:-0.0158462 
-100 1:0.0114561 2:-0.017142 
-100 1:0.00636271 2:-0.0204212 
-100 1:0.0118983 2:-0.012656 
-100 1:0.0103749 2:-0.0191368 
-100 1:0.00792558 2:-0.0198202 
-100 1:0.0105069 2:-0.0136376 
-100 1:0.0107373 2:-0.0155832 
-100 1:0.00975116 2:-0.0198765 
-100 1:0.00792445 2:-0.0234753 
-100 1:0.0107706 2:-0.0169541 
-100 1:0.00581425 2:-0.0207837 
-100 1:0.00720165 2:-0.0245957 
-100 1:0.0106178 2:-0.0102541 
-100 1:0.00461687 2:-0.0215646 
-100 1:0.00473603 2:-0.0037807 
-100 1:0.00515894 2:-0.0209165 
-100 1:0.00734243 2:-0.02326 
-100 1:0.00109255 2:-0.0200341 
-100 1:0.0117226 2:-6.56682e-05 
-100 1:-0.890625 2:0.308343 
-100 1:0.0119306 2:-0.0174654 
-100 1:0.00886537 2:-0.0215531 
-100 1:0.0039759 2:-0.0240342 
-100 1:0.0119344 2:-0.0167656 
-100 1:0.00995139 2:-0.0184782 
-100 1:0.0083052 2:-0.0213358 
-100 1:0.00869437 2:-0.0206056 
-100 1:0.00885376 2:-0.0186898 
-100 1:0.00668294 2:-0.013212 
-100 1:0.00653459 2:-0.0197844 
-100 1:-0.0318113 2:0.203785 
-100 1:0.00263635 2:-0.0217321 
-100 1:0.00377159 2:-0.0156357 
-100 1:0.0086185 2:-0.0179957 
-100 1:0.00776968 2:-0.0041547 
-100 1:0.00444849 2:-0.0194061 
-100 1:0.00492508 2:-0.0109293 
-100 1:0.0116442 2:-0.0131498 
-100 1:0.0115188 2:-0.00902333 
-100 1:0.00385607 2:-0.0183 
-100 1:0.00899258 2:-0.0183829 
-100 1:0.00521618 2:-0.0236257 
-100 1:0.0148509 2:-0.012916 
-100 1:0.0127414 2:-0.0109819 
-100 1:0.00952002 2:-0.0126315 
-100 1:0.00528374 2:-0.0180815 
-100 1:0.00543853 2:-0.0183911 
-100 1:0.00405476 2:-0.0165911 
-100 1:0.00816518 2:-0.0103925 
-100 1:0.00879263 2:-0.0163994 
-100 1:0.00604029 2:-0.0205082 
-100 1:-0.00327551 2:-0.0179957 
-100 1:0.00555218 2:-0.0247084 
-100 1:0.00498712 2:-0.0190374 
-100 1:0.00636074 2:-0.0178934 
-100 1:0.0115586 2:-0.0148734 
-100 1:0.00240687 2:-0.0209632 
-100 1:0.0056199 2:-0.0218098 
-100 1:0.00594328 2:-0.0191723 
-100 1:0.0106191 2:-0.0150949 
-100 1:0.00444584 2:-0.0238692 
-100 1:0.00192256 2:-0.0174321 
-100 1:0.00955788 2:-0.0210108 
-100 1:0.00885105 2:-0.00807449 
-100 1:-0.00303215 2:-0.016626 
-100 1:0.0105934 2:-0.0144559 
-100 1:0.0054209 2:-0.0146422 
-100 1:0.00353641 2:-0.0218893 
-100 1:0.00444232 2:-0.0228411 
-100 1:0.010873 2:-0.00786725 
-100 1:0.0101605 2:-0.0199228 
-100 1:0.00241011 2:-0.0135476 
-100 1:-0.135483 2:0.753041 
-100 1:0.000577236 2:-0.0148028 
-100 1:0.00632144 2:-0.0106872 
-100 1:0.0124291 2:-0.0117488 
-100 1:0.00336614 2:-0.0289684 
-100 1:0.00165202 2:-0.0268392 
-100 1:0.0131977 2:-0.00937244 
-100 1:0.0119657 2:-0.0169958 
-100 1:0.00991845 2:-0.0208454 
-100 1:-0.00298837 2:-0.0129535 
-100 1:0.007382 2:-0.0234611 
-100 1:0.0097006 2:-0.0194922 
-100 1:0.114146 2:0.275059 
-100 1:0.00918042 2:-0.0215356 
-100 1:0.00577744 2:-0.0235942 
-100 1:0.00990749 2:-0.0132146 
-100 1:0.00811985 2:-0.0220943 
-100 1:0.00394408 2:-0.0198509 
-100 1:0.00359945 2:-0.0273126 
-100 1:0.0077988 2:-0.0236563 
-100 1:0.00755751 2:-0.0227475 
-100 1:0.00733946 2:-0.0202376 
-100 1:0.0065431 2:-0.021191 
-100 1:0.00817939 2:-0.0229757 
-100 1:0.00495583 2:-0.0124472 
-100 1:0.00885371 2:-0.0177138 
-100 1:0.0146981 2:-0.0125348 
-100 1:0.00799705 2:-0.0159783 
-100 1:0.00865018 2:-0.0229337 
-100 1:0.0134948 2:-0.0117944 
-100 1:0.00299578 2:-0.0105418 
-100 1:0.0183464 2:0.00537253 
-100 1:0.00554506 2:-0.0167268 
-100 1:0.00239441 2:-0.0168072 
-100 1:-0.000525815 2:-0.0336378 
-100 1:0.00823668 2:-0.0204749 
-100 1:0.0100259 2:-0.0182363 
-100 1:-0.000348174 2:-0.0159688 
-100 1:0.0143095 2:-0.0124607 
-100 1:0.00934496 2:-0.0162353 
-100 1:0.0016386 2:-0.0193512 
-100 1:0.00920848 2:-0.0211395 
-100 1:0.0120211 2:-0.00991871 
-100 1:0.0108605 2:-0.00899734 
-100 1:0.00676522 2:-0.0169196 
-100 1:0.00854044 2:-0.0136724 
-100 1:0.0099899 2:-0.0161139 
-100 1:0.0088447 2:-0.0141966 
-100 1:0.00824386 2:-0.0197097 
-100 1:0.0125761 2:-0.0160398 
-100 1:0.00485195 2:-0.025284 
-100 1:0.0051362 2:-0.0241089 
-100 1:0.00975866 2:-0.0208618 
-100 1:0.0125436 2:-0.00617646 
-100 1:0.00969398 2:-0.0182568 
-100 1:0.0030042 2:-0.0263953 
-100 1:0.0112649 2:-0.0186545 
-100 1:0.0135776 2:-0.0117386 
-100 1:0.0156942 2:-0.00937553 
-100 1:0.0137434 2:-0.0073129 
-100 1:0.0133474 2:-0.00536373 
-100 1:0.00873747 2:-0.010296 
-100 1:0.00472199 2:-0.0167312 
-100 1:0.0113073 2:-0.0154092 
-100 1:0.0115909 2:-0.0126862 
-100 1:0.00559668 2:-0.0148906 
-100 1:0.0048153 2:-0.0218962 
-100 1:0.00913632 2:-0.0189483 
-100 1:0.00473949 2:-0.0165326 
-100 1:0.00897794 2:-0.0217282 
-100 1:0.0107717 2:-0.0142572 
-100 1:0.0103562 2:-0.0170211 
-100 1:0.00125717 2:-0.0198153 
-100 1:0.0100304 2:-0.0196312 
-100 1:0.0524728 2:0.707962 
-100 1:-0.00406067 2:-0.0197207 
-100 1:0.0111718 2:-0.0146942 
-100 1:0.0110003 2:-0.0164512 
-100 1:0.00306016 2:-0.028071 
-100 1:0.0139652 2:-0.0109095 
-100 1:0.00186551 2:-0.0235291 
-100 1:0.00451092 2:-0.0285077 
-100 1:0.00467165 2:-0.0172025 
-100 1:0.0104753 2:-0.0145764 
-100 1:0.00718015 2:-0.0168135 
-100 1:0.00887127 2:-0.0161025 
-100 1:-0.953493 2:-0.263296 
-100 1:0.0103514 2:-0.0203454 
-100 1:0.0175937 2:-0.008922 
-100 1:0.0117055 2:-0.0159999 
-100 1:-0.00685702 2:-0.0227584 
-100 1:0.0129315 2:-0.0083293 
-100 1:-0.000726844 2:-0.0169309 
-100 1:0.0114109 2:-0.0179427 
-100 1:0.0121902 2:-0.0154669 
-100 1:0.0109354 2:-0.00371965 
-100 1:0.00597419 2:-0.0239238 
-100 1:0.00254108 2:-0.0270789 
-100 1:0.00668054 2:-0.0203102 
-100 1:0.00664583 2:-0.0174442 
-100 1:0.00959279 2:-0.0123059 
-100 1:0.011922 2:-0.0155758 
-100 1:0.00736928 2:-0.0205551 
-100 1:0.0120463 2:-0.00908146 
-100 1:0.0115117 2:-0.018225 
-100 1:0.00729279 2:-0.0178951 
-100 1:0.0124803 2:-0.0048071 
-100 1:0.000295489 2:-0.0170967 
-100 1:0.00658162 2:-0.013914 
-100 1:0.00388586 2:-0.0235866 
-100 1:0.00659878 2:-0.0181204 
-100 1:0.00723132 2:-0.0224172 
-100 1:0.00697037 2:-0.0202181 
-100 1:0.00707462 2:-0.0213476 
-100 1:0.0112829 2:-0.0165847 
-100 1:0.0110256 2:-0.0130405 
-100 1:0.00583963 2:-0.017158 
-100 1:0.00274152 2:-0.0254454 
-100 1:0.00679876 2:-0.0213802 
-100 1:0.00234274 2:-0.0191659 
-100 1:0.000544316 2:-0.0228546 
-100 1:0.0112282 2:-0.0129965 
-100 1:0.0131937 2:-0.00490054 
-100 1:0.0119879 2:-0.0169098 
-100 1:0.0145996 2:-0.0125207 
-100 1:0.00914831 2:-0.0184316 
-100 1:0.0107821 2:-0.0143278 
-100 1:0.00473938 2:-0.01719 
-100 1:0.00375725 2:-0.0220117 
-100 1:0.0239127 2:0.00155358 
-100 1:0.00371009 2:-0.0215432 
-100 1:0.00886385 2:-0.0208345 
-100 1:0.0028832 2:-0.0188484 
-100 1:0.00717312 2:-0.0120385 
-100 1:0.00990619 2:-0.0187545 
-100 1:0.0125533 2:-0.0170356 
-100 1:0.0117998 2:-0.0123014 
-100 1:0.0106941 2:-0.0162283 
-100 1:0.00730884 2:-0.0128935 
-100 1:0.00933604 2:-0.0197007 
-100 1:0.00158557 2:-0.0241044 
-100 1:0.00650303 2:-0.0157758 
-100 1:-0.00271656 2:-0.0225209 
-100 1:0.00747308 2:-0.0190931 
-100 1:0.00737235 2:-0.0192903 
-100 1:0.0106936 2:-0.0148278 
-100 1:0.00845569 2:-0.0221906 
-100 1:0.00873683 2:-0.0197489 
-100 1:0.00664188 2:-0.0144789 
-100 1:0.00746732 2:-0.0186157 
-100 1:0.005245 2:-0.0080991 
-100 1:0.0070061 2:-0.0250835 
-100 1:0.0104296 2:-0.0195107 
-100 1:0.00870765 2:-0.0201931 
-100 1:0.00600227 2:-0.0129001 
-100 1:0.0128892 2:-0.0162139 
-100 1:0.00316649 2:-0.0196924 
-100 1:0.0098683 2:-0.0209352 
-100 1:0.00853203 2:-0.0192992 
-100 1:0.00960805 2:-0.0161166 
-100 1:0.006015 2:-0.0126473 
-100 1:0.00463776 2:-0.0178669 
-100 1:0.00953398 2:-0.0187307 
-100 1:0.00506544 2:-0.0220512 
-100 1:0.00554906 2:-0.02471 
-100 1:0.00786729 2:-0.0141664 
-100 1:0.00915705 2:-0.0163031 
-100 1:0.00924897 2:-0.0161387 
-100 1:0.00230912 2:-0.0206358 
-100 1:0.000248654 2:-0.0116573 
-100 1:0.00474896 2:-0.00997835 
-100 1:0.00105859 2:-0.0108478 
-100 1:0.00756008 2:-0.0170881 
-100 1:0.00186012 2:-0.0176718 
-100 1:0.00688409 2:-0.0249881 
-100 1:0.00283129 2:-0.0210965 
-100 1:-0.0418699 2:0.416664 
-100 1:0.0150794 2:-0.0126615 
-100 1:0.0133149 2:-0.0157701 
-100 1:0.00958148 2:-0.0141214 
-100 1:0.0140371 2:-0.00984409 
-100 1:0.0100332 2:-0.0160841 
-100 1:-0.00284235 2:-0.0205811 
-100 1:0.00588577 2:-0.0253099 
-100 1:0.00291419 2:-0.0239961 
-100 1:0.0111186 2:-0.0151296 
-100 1:0.0100447 2:-0.0195938 
-100 1:0.00168573 2:-0.0270195 
-100 1:-0.05748 2:0.972352 
-100 1:0.000652866 2:-0.0143286 
-100 1:0.0121015 2:-0.0147002 
-100 1:0.000115917 2:-0.0195569 
-100 1:0.00968572 2:-0.0208519 
-100 1:0.00887782 2:-0.0197222 
-100 1:0.00767858 2:-0.0146622 
-100 1:0.00906835 2:-0.0208393 
-66.958970683147456 1:0.0105064 2:-0.0201851 
-100 1:0.0123521 2:-0.0170044 
-100 1:0.00573922 2:-0.020843 
-100 1:0.00801031 2:-0.0145443 
-100 1:-0.4516 2:0.832331 
-100 1:0.00551948 2:-0.0155005 
-100 1:0.00722709 2:-0.0224158 
-100 1:0.0130829 2:-0.0141378 
-100 1:0.00751173 2:-0.0187465 
-100 1:0.0135432 2:-0.00509845 
-100 1:0.00611048 2:-0.025983 
-100 1:0.00981377 2:-0.0203234 
-100 1:0.00338016 2:-0.0153591 
-100 1:0.00490722 2:-0.0184078 
-100 1:0.000395873 2:-0.0281438 
-100 1:0.0113823 2:-0.0152883 
-100 1:0.00530666 2:-0.0219106 
-100 1:0.00897016 2:-0.0212335 
-100 1:0.00980443 2:-0.0096995 
-100 1:-0.296624 2:0.754968 
-100 1:0.01026 2:-0.0115741 
-100 1:0.00643642 2:-0.00645665 
-100 1:0.0106333 2:-0.0172172 
-100 1:0.0112304 2:-0.0190563 
-100 1:0.00323493 2:-0.0177594 
-100 1:0.00286099 2:-0.0145448 
-100 1:0.000597502 2:-0.0060567 
-100 1:0.0168092 2:-0.00627027 
-100 1:0.0118365 2:-0.0152814 
-100 1:0.0145953 2:-0.0095719 
-100 1:0.00639301 2:-0.00742793 
-100 1:0.00947408 2:-0.0192613 
-100 1:0.00493128 2:-0.0148272 
-100 1:0.0111099 2:-0.0136138 
-100 1:0.0146453 2:-0.0133378 
-100 1:0.0100069 2:-0.0193589 
-100 1:0.00866642 2:-0.0224278 
-100 1:0.00463188 2:-0.0222623 
-100 1:0.000478563 2:-0.0222125 
-100 1:0.00840986 2:-0.0222066 
-100 1:0.00162309 2:-0.0133276 
-100 1:0.00836309 2:-0.017901 
-100 1:0.0108287 2:-0.0173206 
-100 1:0.00226536 2:-0.0171522 
-100 1:-0.00116104 2:-0.027413 
-100 1:0.0123735 2:-0.00746184 
-100 1:3.60582e-05 2:-0.0143486 
-100 1:0.0125516 2:-0.0145616 
-100 1:0.0120507 2:-0.0175783 
-100 1:0.00955166 2:-0.0104629 
-100 1:0.0105013 2:-0.0182548 
-100 1:0.0104702 2:-0.01853 
-100 1:0.00972916 2:-0.017572 
-100 1:0.0155455 2:-0.00918343 
-100 1:0.00212602 2:-0.0231713 
-100 1:0.0108851 2:-0.0156953 
-100 1:0.0174249 2:-0.0079785 
-100 1:0.0104559 2:-0.0142629 
-100 1:0.010345 2:-0.010419 
-100 1:0.00819098 2:-0.0170932 
-100 1:0.00851673 2:-0.0208904 
-100 1:0.00886455 2:-0.0130773 
-100 1:0.00743132 2:-0.023115 
-100 1:0.0124856 2:-0.00913971 
-100 1:0.0106827 2:-0.0175275 
-100 1:0.0124218 2:-0.0161528 
-100 1:0.00610062 2:-0.0172137 
-100 1:0.0075349 2:-0.0194346 
-100 1:0.00967579 2:-0.0160863 
-100 1:0.00987734 2:-0.0159112 
-100 1:0.00402817 2:-0.010965 
-100 1:0.00959277 2:-0.0199478 
-100 1:0.0121398 2:-0.0161837 
-100 1:0.0152125 2:-0.0051591 
-100 1:0.00416364 2:-0.0175981 
-100 1:0.00523484 2:-0.0254561 
-100 1:0.0120318 2:-0.0122999 
-100 1:0.00795636 2:-0.0167872 
-100 1:0.00560448 2:-0.0148925 
-100 1:-0.818428 2:0.458036 
-100 1:0.0186245 2:-0.00686361 
-100 1:0.0114605 2:-0.013791 
-100 1:0.00760599 2:-0.0235903 
-100 1:0.0136867 2:-0.00666269 
-100 1:0.00483762 2:-0.0187819 
-100 1:0.0117154 2:-0.017684 
-100 1:0.00484738 2:-0.0209021 
-100 1:0.0106401 2:-0.0178863 
-100 1:0.0137383 2:-0.0149899 
-100 1:0.00678173 2:-0.0254022 
-100 1:0.0134764 2:-0.0118196 
-100 1:0.00339285 2:-0.0103153 
-100 1:0.0980751 2:0.386614 
-100 1:0.00197194 2:-0.0221595 
-100 1:0.0123492 2:-0.0165471 
-100 1:0.00753162 2:-0.017007 
-100 1:0.00971616 2:-0.0131536 
-100 1:0.0131517 2:-0.0143474 
-100 1:0.0102673 2:-0.00522553 
-100 1:0.0115357 2:-0.0119465 
-100 1:0.00930184 2:-0.0125678 
-100 1:0.00799376 2:-0.0207172 
-100 1:0.0143869 2:-0.00835279 
-100 1:0.00278342 2:-0.0316142 
-100 1:0.00414492 2:-0.0210395 
-100 1:0.0144611 2:-0.0123114 
-100 1:0.0107195 2:-0.0167138 
-100 1:0.00463551 2:-0.0129384 
-100 1:0.0132623 2:-0.0107358 
-100 1:0.000384561 2:-0.0252943 
-100 1:0.00773594 2:-0.0155163 
-100 1:0.00916582 2:-0.0187221 
-100 1:0.0132824 2:-0.0143712 
-100 1:0.0120046 2:-0.0158511 
-100 1:0.0103506 2:-0.0201742 
-100 1:0.0118473 2:-0.00548405 
-100 1:0.00085078 2:0.224056 
-100 1:0.00451463 2:-0.0183421 
-100 1:0.00564598 2:-0.0215774 
-100 1:0.00994961 2:-0.0193521 
-100 1:0.00784989 2:-0.0220002 
-100 1:0.00859479 2:-0.01875 
-100 1:0.00198742 2:-0.0213517 
-100 1:0.00281832 2:-0.0200943 
-100 1:0.00571485 2:-0.0159211 
-100 1:-0.000187751 2:-0.0133982 
-100 1:0.00864707 2:-0.0112683 
-100 1:0.0087526 2:-0.0109625 
-100 1:-0.000256549 2:-0.0116032 
-100 1:0.00938428 2:-0.0197614 
-100 1:0.00778427 2:-0.0216449 
-100 1:0.0104976 2:-0.0155937 
-100 1:0.00220023 2:-0.0325044 
-100 1:0.00271903 2:-0.0162025 
-100 1:-0.00186497 2:-0.018078 
-100 1:0.010343 2:-0.0173351 
-100 1:0.00412992 2:-0.0114551 
-100 1:0.0116446 2:-0.0178645 
-100 1:0.0126613 2:-0.0134865 
-100 1:0.00467973 2:-0.0203277 
-100 1:0.000430396 2:-0.00637359 
-100 1:0.00508181 2:-0.0205185 
-100 1:0.0108881 2:-0.0145048 
-100 1:0.00487327 2:-0.0150239 
-100 1:0.00732006 2:-0.0199204 
-100 1:0.00661738 2:-0.0226314 
-100 1:0.00568148 2:-0.0199171 
-100 1:0.0137239 2:-0.01105 
-100 1:0.00896908 2:-0.0171474 
-100 1:0.00555149 2:-0.0235763 
-100 1:0.0122339 2:-0.0173143 
-100 1:0.00789175 2:-0.0102821 
-100 1:0.00960468 2:-0.0161137 
-100 1:0.00164569 2:-0.0263306 
-100 1:0.0125563 2:-0.0150287 
-100 1:0.00793373 2:-0.0174048 
-100 1:0.0140099 2:-0.0143069 
-100 1:0.00727761 2:-0.0247204 
-100 1:0.00172075 2:-0.0204962 
